{"learner":{"attributes":{"best_iteration":"19","best_score":"13.976102658535572","scikit_learn":"{\"_estimator_type\": \"regressor\"}"},"feature_names":["aux_CP014_TM8_28_MED_t0","aux_CP014_TM8_28_MED_t1","aux_CP014_TM8_28_MED_t3","aux_CP014_TM8_28_MED_t6","aux_CP014_TM8_30_MED_t0","aux_CP014_TM8_30_MED_t1","aux_CP014_TM8_30_MED_t3","aux_CP014_TM8_30_MED_t6","aux_CP014_TM8_31_MED_t0","aux_CP014_TM8_31_MED_t1","aux_CP014_TM8_31_MED_t3","aux_CP014_TM8_31_MED_t6","aux_CP014_TM8_84_MED_t0","aux_CP014_TM8_84_MED_t1","aux_CP014_TM8_84_MED_t3","aux_CP014_TM8_84_MED_t6","aux_CP014_TM8_85_MED_t0","aux_CP014_TM8_85_MED_t1","aux_CP014_TM8_85_MED_t3","aux_CP014_TM8_85_MED_t6","aux_CP014_TM8_92_MED_t0","aux_CP014_TM8_92_MED_t1","aux_CP014_TM8_92_MED_t3","aux_CP014_TM8_92_MED_t6","aux_CP014_TM8_93_MED_t0","aux_CP014_TM8_93_MED_t1","aux_CP014_TM8_93_MED_t3","aux_CP014_TM8_93_MED_t6","hora_sin","hora_cos","dia_sem_sin","dia_sem_cos"],"feature_types":["float","float","float","float","float","float","float","float","float","float","float","float","float","float","float","float","float","float","float","float","float","float","float","float","float","float","float","float","float","float","float","float"],"gradient_booster":{"model":{"gbtree_model_param":{"num_parallel_tree":"1","num_trees":"50"},"iteration_indptr":[0,1,2,3,4,5,6,7,8,9,10,11,12,13,14,15,16,17,18,19,20,21,22,23,24,25,26,27,28,29,30,31,32,33,34,35,36,37,38,39,40,41,42,43,44,45,46,47,48,49,50],"tree_info":[0,0,0,0,0,0,0,0,0,0,0,0,0,0,0,0,0,0,0,0,0,0,0,0,0,0,0,0,0,0,0,0,0,0,0,0,0,0,0,0,0,0,0,0,0,0,0,0,0,0],"trees":[{"base_weights":[-2.7705988E-1,-4.20465E1,2.1628145E1,-5.4561024E1,-1.7874819E1,9.124464E1,1.7468918E1,-3.6040874E1,-6.325504E1,2.4907696E0,-2.2276052E1,1.4901837E2,7.7069564E0,8.242554E0,3.4374474E1,-3.9252598E1,4.7802687E-1,-6.037335E1,-5.5584216E0,-3.563495E1,-6.6091743E0,1.1482904E0,9.137577E0,1.5135044E-1,5.759732E-1,-1.6846338E1,1.3041971E1,8.9745384E1,2.9578423E1,-2.5209074E0,-2.301912E1,-6.921461E1,-4.740082E1,-2.9339182E1,-3.8012707E0,-9.77717E0,8.474628E-1,-4.3555584E1,-8.618666E0,2.3213095E1,9.752484E0,1.4087558E2,4.1053435E-1,2.6761831E1,6.1606383E0,-1.456968E0,1.493681E-1,-3.5223587E0,-2.010043E0,2.6967326E-1,-2.8463235E0,-1.9471982E0,-1.1325918E0,-6.1255497E-1,-1.2667087E-1,-2.6310937E0,-1.3949531E0,-6.2474924E-1,1.1430483E-1,7.996771E-1,3.8597152E0,1.1148032E-1,7.14838E-1,4.0281796E0,8.8845825E0,1.2373089E0,4.5576515E0],"categories":[],"categories_nodes":[],"categories_segments":[],"categories_sizes":[],"default_left":[0,0,0,0,0,0,0,0,0,0,0,0,0,0,0,0,0,0,0,0,0,0,0,0,0,0,0,0,0,0,0,0,0,0,0,0,0,0,0,0,0,0,0,0,0,0,0,0,0,0,0,0,0,0,0,0,0,0,0,0,0,0,0,0,0,0,0],"id":0,"left_children":[1,3,5,7,9,11,13,15,17,-1,19,21,23,25,27,29,-1,31,-1,33,35,-1,-1,-1,-1,37,39,41,43,-1,45,47,49,51,-1,53,-1,55,57,59,61,63,-1,65,-1,-1,-1,-1,-1,-1,-1,-1,-1,-1,-1,-1,-1,-1,-1,-1,-1,-1,-1,-1,-1,-1,-1],"loss_changes":[9.707777E5,1.09428875E5,1.9992256E5,3.6353812E4,3.8644914E4,1.8706094E5,1.0234514E5,1.1948523E4,1.56388125E4,0E0,2.4666031E4,9.358184E4,2.669956E2,5.1635285E4,5.8943844E4,1.2244992E4,0E0,1.4485E4,0E0,1.403343E4,4.3444473E3,0E0,0E0,0E0,0E0,1.478248E4,1.1781652E4,7.386836E4,5.33895E4,0E0,5.1829746E3,3.7540625E2,3.350358E4,2.7728242E3,0E0,8.635112E2,0E0,7.949922E2,2.3121836E3,3.2661727E4,9.29926E3,1.0083641E4,0E0,2.4988703E4,0E0,0E0,0E0,0E0,0E0,0E0,0E0,0E0,0E0,0E0,0E0,0E0,0E0,0E0,0E0,0E0,0E0,0E0,0E0,0E0,0E0,0E0,0E0],"parents":[2147483647,0,0,1,1,2,2,3,3,4,4,5,5,6,6,7,7,8,8,10,10,11,11,12,12,13,13,14,14,15,15,17,17,19,19,20,20,25,25,26,26,27,27,28,28,30,30,31,31,32,32,33,33,35,35,37,37,38,38,39,39,40,40,41,41,43,43],"right_children":[2,4,6,8,10,12,14,16,18,-1,20,22,24,26,28,30,-1,32,-1,34,36,-1,-1,-1,-1,38,40,42,44,-1,46,48,50,52,-1,54,-1,56,58,60,62,64,-1,66,-1,-1,-1,-1,-1,-1,-1,-1,-1,-1,-1,-1,-1,-1,-1,-1,-1,-1,-1,-1,-1,-1,-1],"split_conditions":[1.1671306E2,1.1140931E2,1.0933E1,5E-1,1.0933E1,1.4808536E-1,2.548516E2,5.5888666E2,5.873121E2,2.4907696E0,2.510471E2,3.6482626E2,4.1374036E2,2.1928941E2,2.795551E2,1.5183133E2,4.7802687E-1,1.2910265E2,-5.5584216E0,5.812817E2,2.3698428E2,1.1482904E0,9.137577E0,1.5135044E-1,5.759732E-1,2.1823578E2,-4.3388373E-1,1.3659288E-1,2.8506363E2,-2.5209074E0,2.0234178E2,1.281918E2,1.9897548E2,1.7553503E2,-3.8012707E0,2.1631927E2,8.474628E-1,1.393062E2,2.65106E2,2.66175E2,2.7890424E2,4.3213263E2,4.1053435E-1,2.8506363E2,6.1606383E0,-1.456968E0,1.493681E-1,-3.5223587E0,-2.010043E0,2.6967326E-1,-2.8463235E0,-1.9471982E0,-1.1325918E0,-6.1255497E-1,-1.2667087E-1,-2.6310937E0,-1.3949531E0,-6.2474924E-1,1.1430483E-1,7.996771E-1,3.8597152E0,1.1148032E-1,7.14838E-1,4.0281796E0,8.8845825E0,1.2373089E0,4.5576515E0],"split_indices":[12,12,20,29,20,8,20,4,7,0,24,3,1,20,24,20,0,20,0,7,20,0,0,0,0,24,30,11,23,0,26,17,22,20,0,20,0,20,24,22,24,1,0,20,0,0,0,0,0,0,0,0,0,0,0,0,0,0,0,0,0,0,0,0,0,0,0],"split_type":[0,0,0,0,0,0,0,0,0,0,0,0,0,0,0,0,0,0,0,0,0,0,0,0,0,0,0,0,0,0,0,0,0,0,0,0,0,0,0,0,0,0,0,0,0,0,0,0,0,0,0,0,0,0,0,0,0,0,0,0,0,0,0,0,0,0,0],"sum_hessian":[1.059E3,3.64E2,6.95E2,2.39E2,1.25E2,3.8E1,6.57E2,7.8E1,1.61E2,7E0,1.18E2,2.2E1,1.6E1,4.26E2,2.31E2,7.3E1,5E0,1.54E2,7E0,6.3E1,5.5E1,5E0,1.7E1,8E0,8E0,6.8E1,3.58E2,1.7E1,2.14E2,4.2E1,3.1E1,8.9E1,6.5E1,5.6E1,7E0,4.9E1,6E0,1.5E1,5.3E1,8.6E1,2.72E2,1E1,7E0,2.09E2,5E0,2.5E1,6E0,8.4E1,5E0,1E1,5.5E1,2.1E1,3.5E1,3.6E1,1.3E1,8E0,7E0,3.9E1,1.4E1,7.7E1,9E0,1.03E2,1.69E2,5E0,5E0,2.04E2,5E0],"tree_param":{"num_deleted":"0","num_feature":"32","num_nodes":"67","size_leaf_vector":"1"}},{"base_weights":[1.317473E0,-4.633046E1,1.8546272E1,-2.4693754E1,-5.5301826E1,9.270999E1,1.4440089E1,9.772142E0,-3.4390034E1,-6.079489E1,-2.1758942E1,1.3514821E2,4.235585E0,6.153636E0,3.2205574E1,3.6879241E0,-2.5426052E1,-4.9312107E1,-2.099692E1,-5.841919E1,-5.336839E0,2.114736E1,-2.8974135E0,8.111815E0,6.6418666E-1,-1.973023E-1,4.615248E-1,-2.959277E1,9.518563E0,1.7775732E1,5.0929913E1,-5.134535E-1,-1.6801518E0,-1.6530055E0,-2.6857324E0,-1.3763616E0,-1.4391309E1,-6.453733E1,-4.612227E1,-1.6794878E0,3.3205707E0,-5.976172E0,-4.202751E1,2.741366E-1,1.5348832E1,-6.9437675E0,1.9859655E1,7.824974E1,1.7155548E1,-3.7481543E-1,-8.401858E-1,-3.4206827E0,-2.6281378E0,-2.3739676E0,-1.3328589E0,-6.8029386E-1,-6.3106775E-2,-2.9017477E0,-1.4125026E0,-2.2127524E-1,1.5211456E0,7.0402426E-1,1.7031069E0,-1.0392355E0,4.018901E-1,7.405395E-1,1.157936E0,1.0911943E0,5.1457973E0,3.0603263E-1,9.488334E-1],"categories":[],"categories_nodes":[],"categories_segments":[],"categories_sizes":[],"default_left":[0,0,0,0,0,0,0,0,0,0,0,0,0,0,0,0,0,0,0,0,0,0,0,0,0,0,0,0,0,0,0,0,0,0,0,0,0,0,0,0,0,0,0,0,0,0,0,0,0,0,0,0,0,0,0,0,0,0,0,0,0,0,0,0,0,0,0,0,0,0,0],"id":1,"left_children":[1,3,5,7,9,11,13,15,17,19,21,23,25,27,29,-1,31,33,35,37,-1,39,-1,-1,-1,-1,-1,41,43,45,47,-1,-1,-1,-1,-1,49,51,53,-1,-1,55,57,59,61,63,65,67,69,-1,-1,-1,-1,-1,-1,-1,-1,-1,-1,-1,-1,-1,-1,-1,-1,-1,-1,-1,-1,-1,-1],"loss_changes":[8.562516E5,5.2395125E4,2.3192038E5,2.8076379E4,3.4598312E4,1.4960147E5,1.0682172E5,4.4672086E4,1.1948016E4,1.19750625E4,4.625889E4,8.69565E4,6.0908374E2,6.0060844E4,6.150153E4,0E0,1.2617402E3,3.6201562E2,1.1525762E3,9.1250625E3,0E0,3.6920758E4,0E0,0E0,0E0,0E0,0E0,1.2371684E4,2.451759E4,6.9389805E3,9.0919016E4,0E0,0E0,0E0,0E0,0E0,2.042749E2,1.2656875E3,2.3261719E2,0E0,0E0,5.568081E2,4.5270547E3,2.521609E4,6.137625E3,2.4492876E3,1.6852969E3,7.4291125E4,8.0575E2,0E0,0E0,0E0,0E0,0E0,0E0,0E0,0E0,0E0,0E0,0E0,0E0,0E0,0E0,0E0,0E0,0E0,0E0,0E0,0E0,0E0,0E0],"parents":[2147483647,0,0,1,1,2,2,3,3,4,4,5,5,6,6,7,7,8,8,9,9,10,10,11,11,12,12,13,13,14,14,16,16,17,17,18,18,19,19,21,21,27,27,28,28,29,29,30,30,36,36,37,37,38,38,41,41,42,42,43,43,44,44,45,45,46,46,47,47,48,48],"right_children":[2,4,6,8,10,12,14,16,18,20,22,24,26,28,30,-1,32,34,36,38,-1,40,-1,-1,-1,-1,-1,42,44,46,48,-1,-1,-1,-1,-1,50,52,54,-1,-1,56,58,60,62,64,66,68,70,-1,-1,-1,-1,-1,-1,-1,-1,-1,-1,-1,-1,-1,-1,-1,-1,-1,-1,-1,-1,-1,-1],"split_conditions":[1.1389153E2,2.0425456E2,1.0933E1,1.3698623E-1,1E0,1.4808536E-1,2.5496394E2,2.0782378E2,2.2780533E2,5.862633E2,1.08333334E-1,2.8038934E2,2.759178E2,2.3969733E2,6.234898E-1,3.6879241E0,1.1380195E2,2.5881904E-1,2.4247267E2,2.1302066E2,-5.336839E0,3.4423233E2,-2.8974135E0,8.111815E0,6.6418666E-1,-1.973023E-1,4.615248E-1,2.5881904E-1,1.3921625E2,2.7890424E2,1.3659288E-1,-5.134535E-1,-1.6801518E0,-1.6530055E0,-2.6857324E0,-1.3763616E0,0E0,1.22411804E2,2.0148158E2,-1.6794878E0,3.3205707E0,1.7992145E2,1.6455075E2,1E0,2.6831638E2,2.6554016E2,2.8874066E2,1.301354E-1,2.8094E2,-3.7481543E-1,-8.401858E-1,-3.4206827E0,-2.6281378E0,-2.3739676E0,-1.3328589E0,-6.8029386E-1,-6.3106775E-2,-2.9017477E0,-1.4125026E0,-2.2127524E-1,1.5211456E0,7.0402426E-1,1.7031069E0,-1.0392355E0,4.018901E-1,7.405395E-1,1.157936E0,1.0911943E0,5.1457973E0,3.0603263E-1,9.488334E-1],"split_indices":[12,23,21,8,31,8,21,24,24,7,5,24,24,24,31,0,15,29,24,24,0,0,0,0,0,0,0,29,16,24,10,0,0,0,0,0,30,15,21,0,0,21,21,31,22,22,24,10,24,0,0,0,0,0,0,0,0,0,0,0,0,0,0,0,0,0,0,0,0,0,0],"split_type":[0,0,0,0,0,0,0,0,0,0,0,0,0,0,0,0,0,0,0,0,0,0,0,0,0,0,0,0,0,0,0,0,0,0,0,0,0,0,0,0,0,0,0,0,0,0,0,0,0,0,0,0,0,0,0,0,0,0,0,0,0,0,0,0,0,0,0,0,0,0,0],"sum_hessian":[1.041E3,2.76E2,7.65E2,8.2E1,1.94E2,3.9E1,7.26E2,1.8E1,6.4E1,1.66E2,2.8E1,2.6E1,1.3E1,4.96E2,2.3E2,6E0,1.2E1,2.9E1,3.5E1,1.6E2,6E0,1.3E1,1.5E1,2.1E1,5E0,5E0,8E0,4.2E1,4.54E2,1.31E2,9.9E1,5E0,7E0,8E0,2.1E1,1.6E1,1.9E1,1.04E2,5.6E1,6E0,7E0,1.5E1,2.7E1,1.76E2,2.78E2,1E1,1.21E2,5.4E1,4.5E1,6E0,1.3E1,7.5E1,2.9E1,5.1E1,5E0,5E0,1E1,1.1E1,1.6E1,1.53E2,2.3E1,2.62E2,1.6E1,5E0,5E0,5E1,7.1E1,1.7E1,3.7E1,7E0,3.8E1],"tree_param":{"num_deleted":"0","num_feature":"32","num_nodes":"71","size_leaf_vector":"1"}},{"base_weights":[6.3859767E-1,-4.2291767E1,1.7798546E1,-1.5936293E1,-4.9980667E1,8.844562E1,1.3997579E1,-2.0794466E1,1.1847044E0,-5.656247E1,-2.788868E1,1.4316882E2,4.2469125E0,1.3963158E0,2.677309E1,-2.481709E1,1.0434769E0,-6.442293E1,-4.5994774E1,-4.0788322E1,2.7408833E1,2.1320999E0,8.43592E0,-1.588593E-1,7.919429E0,-2.7244106E1,5.904626E0,1.6347412E1,3.924627E1,-1.8161097E0,-1.7613731E1,-3.0931582E0,-4.688605E0,-2.6859257E1,-5.716021E1,-5.1640533E1,-2.163553E1,-1.8109337E0,4.324243E0,2.11863E-1,5.132513E-1,-3.3279514E1,1.0769784E0,-2.368706E0,9.837337E0,1.0693349E0,1.8195217E1,6.2239235E1,1.7164368E1,-1.0074247E0,-4.890853E-1,-1.9449685E0,1.4887223E0,-4.4159374E0,-2.4930954E0,-2.7467902E0,-1.5192628E0,1.4989834E-1,-1.5674129E0,-2.6095974E0,-1.0847026E0,1.3430247E0,-2.0859495E-1,1.8302948E0,4.504715E-1,4.998026E-1,-9.736533E-1,7.612495E-1,1.0579903E0,4.2500095E0,8.047231E-1,6.4730686E-1,1.0686407E0],"categories":[],"categories_nodes":[],"categories_segments":[],"categories_sizes":[],"default_left":[0,0,0,0,0,0,0,0,0,0,0,0,0,0,0,0,0,0,0,0,0,0,0,0,0,0,0,0,0,0,0,0,0,0,0,0,0,0,0,0,0,0,0,0,0,0,0,0,0,0,0,0,0,0,0,0,0,0,0,0,0,0,0,0,0,0,0,0,0,0,0,0,0],"id":2,"left_children":[1,3,5,7,9,11,13,15,-1,17,19,21,23,25,27,29,-1,31,33,35,37,-1,-1,-1,39,41,43,45,47,-1,49,-1,-1,51,53,55,57,-1,-1,-1,-1,59,-1,61,63,65,67,69,71,-1,-1,-1,-1,-1,-1,-1,-1,-1,-1,-1,-1,-1,-1,-1,-1,-1,-1,-1,-1,-1,-1,-1,-1],"loss_changes":[7.713205E5,5.9787688E4,1.9961005E5,1.3777074E4,3.2002688E4,1.7446694E5,1.1442197E5,1.0909432E4,0E0,1.1728625E4,4.0351805E4,5.185797E4,4.6187772E2,4.6512777E4,4.5257453E4,4.0787305E3,0E0,1.621E3,1.5335172E4,8.228664E3,4.4484863E4,0E0,0E0,0E0,5.0059937E1,1.5145039E4,1.01429375E4,5.45541E3,8.016031E4,0E0,5.3445605E2,0E0,0E0,2.2297281E4,6.72525E3,2.8339062E2,4.4034688E3,0E0,0E0,0E0,0E0,8.501168E3,0E0,5.4330845E3,4.341791E3,4.2279824E3,1.1975586E3,8.054516E4,1.1933047E3,0E0,0E0,0E0,0E0,0E0,0E0,0E0,0E0,0E0,0E0,0E0,0E0,0E0,0E0,0E0,0E0,0E0,0E0,0E0,0E0,0E0,0E0,0E0,0E0],"parents":[2147483647,0,0,1,1,2,2,3,3,4,4,5,5,6,6,7,7,9,9,10,10,11,11,12,12,13,13,14,14,15,15,17,17,18,18,19,19,20,20,24,24,25,25,26,26,27,27,28,28,30,30,33,33,34,34,35,35,36,36,41,41,43,43,44,44,45,45,46,46,47,47,48,48],"right_children":[2,4,6,8,10,12,14,16,-1,18,20,22,24,26,28,30,-1,32,34,36,38,-1,-1,-1,40,42,44,46,48,-1,50,-1,-1,52,54,56,58,-1,-1,-1,-1,60,-1,62,64,66,68,70,72,-1,-1,-1,-1,-1,-1,-1,-1,-1,-1,-1,-1,-1,-1,-1,-1,-1,-1,-1,-1,-1,-1,-1,-1],"split_conditions":[1.1484956E2,2.5881904E-1,1.0933E1,2.1476253E2,1.2361756E2,1.4808536E-1,2.4553606E2,5.2968665E2,1.1847044E0,1.2910265E2,1E0,3.724489E2,1.1934661E2,1.9803947E2,6.234898E-1,1.0836462E2,1.0434769E0,4.597906E2,1.3927084E2,1.1250583E2,4.011905E2,2.1320999E0,8.43592E0,-1.588593E-1,4.126509E2,1E0,2.2765527E2,2.7890155E2,1.3659288E-1,-1.8161097E0,2.50748E2,-3.0931582E0,-4.688605E0,1E0,2.0414044E2,1.15537636E2,3.910091E2,-1.8109337E0,4.324243E0,2.11863E-1,5.132513E-1,2.3102577E2,1.0769784E0,2.0430367E2,2.4012067E2,2.8306888E2,2.9094156E2,4.666501E2,2.8965268E2,-1.0074247E0,-4.890853E-1,-1.9449685E0,1.4887223E0,-4.4159374E0,-2.4930954E0,-2.7467902E0,-1.5192628E0,1.4989834E-1,-1.5674129E0,-2.6095974E0,-1.0847026E0,1.3430247E0,-2.0859495E-1,1.8302948E0,4.504715E-1,4.998026E-1,-9.736533E-1,7.612495E-1,1.0579903E0,4.2500095E0,8.047231E-1,6.4730686E-1,1.0686407E0],"split_indices":[12,29,20,20,15,8,20,5,0,20,31,3,12,20,31,12,0,1,19,12,3,0,0,0,1,31,20,25,10,0,24,0,0,31,24,13,2,0,0,0,0,24,0,20,25,27,24,3,24,0,0,0,0,0,0,0,0,0,0,0,0,0,0,0,0,0,0,0,0,0,0,0,0],"split_type":[0,0,0,0,0,0,0,0,0,0,0,0,0,0,0,0,0,0,0,0,0,0,0,0,0,0,0,0,0,0,0,0,0,0,0,0,0,0,0,0,0,0,0,0,0,0,0,0,0,0,0,0,0,0,0,0,0,0,0,0,0,0,0,0,0,0,0,0,0,0,0,0,0],"sum_hessian":[1.045E3,2.98E2,7.47E2,6.8E1,2.3E2,3.7E1,7.1E2,6.1E1,7E0,1.76E2,5.4E1,2.2E1,1.5E1,3.58E2,3.52E2,5.6E1,5E0,9.8E1,7.8E1,4.4E1,1E1,5E0,1.7E1,5E0,1E1,4.8E1,3.1E2,1.93E2,1.59E2,2E1,3.6E1,9.3E1,5E0,3E1,4.8E1,2.7E1,1.7E1,5E0,5E0,5E0,5E0,4.3E1,5E0,1E2,2.1E2,2.1E1,1.72E2,7.7E1,8.2E1,2.6E1,1E1,2.5E1,5E0,7E0,4.1E1,2.2E1,5E0,5E0,1.2E1,1.5E1,2.8E1,5E0,9.5E1,5E0,2.05E2,1.5E1,6E0,8.9E1,8.3E1,5.1E1,2.6E1,4.3E1,3.9E1],"tree_param":{"num_deleted":"0","num_feature":"32","num_nodes":"73","size_leaf_vector":"1"}},{"base_weights":[2.4268052E-1,-4.002496E1,1.625505E1,-1.0017952E1,-5.011453E1,7.435013E1,1.3040547E1,2.634619E1,-2.6669537E1,-5.584831E1,-3.1061941E1,1.285791E2,9.2143285E-1,-1.247322E1,2.0307373E1,4.930391E0,-7.2282076E0,-3.831342E1,-1.3602936E1,-5.3556923E1,-5.1424475E0,-4.0282467E1,7.224333E-1,8.166919E0,7.580187E1,-6.984607E-1,7.7308517E0,-3.149227E1,-3.1951945E0,1.9277483E1,5.6686206E0,-2.1992891E1,1.297499E0,-1.4616994E0,-2.3987415E0,-3.1672904E-1,-1.4962354E1,-2.9690766E0,-4.2639343E1,-1.9708336E1,-4.6182667E1,6.1179495E0,8.297224E-1,2.2343408E-1,4.9371648E-1,-2.3705336E1,-4.4261184E0,-4.954285E0,1.4052382E0,2.672926E1,9.802644E0,-6.810334E-1,-1.2755225E0,-8.489134E-1,-4.101393E-1,-2.4617076E0,-1.7064738E-1,-1.3632168E0,-3.7958074E-1,-3.4892852E0,-1.9959652E0,-1.4474218E0,-5.701804E-1,-5.9676087E-1,2.3933364E-2,2.081581E0,8.124754E-1,2.5111744E-1,7.000459E-1],"categories":[],"categories_nodes":[],"categories_segments":[],"categories_sizes":[],"default_left":[0,0,0,0,0,0,0,0,0,0,0,0,0,0,0,0,0,0,0,0,0,0,0,0,0,0,0,0,0,0,0,0,0,0,0,0,0,0,0,0,0,0,0,0,0,0,0,0,0,0,0,0,0,0,0,0,0,0,0,0,0,0,0,0,0,0,0,0,0],"id":3,"left_children":[1,3,5,7,9,11,13,15,17,19,21,23,25,27,29,-1,31,33,35,37,-1,39,-1,-1,41,-1,43,45,47,49,-1,51,-1,-1,-1,-1,53,-1,55,57,59,-1,-1,-1,-1,61,-1,63,-1,65,67,-1,-1,-1,-1,-1,-1,-1,-1,-1,-1,-1,-1,-1,-1,-1,-1,-1,-1],"loss_changes":[6.91208E5,9.183303E4,1.4225648E5,4.7933277E4,2.3164062E4,1.5914706E5,1.3522825E5,6.1375402E4,7.6895156E3,1.321525E4,2.3664355E4,2.9788188E4,1.9325098E3,2.8482307E4,5.214625E4,0E0,9.387897E3,1.0459414E3,1.6987012E2,8.1410312E3,0E0,4.667242E3,0E0,0E0,2.827743E4,0E0,4.534149E1,2.142707E4,6.193466E3,3.9413984E4,0E0,3.1464355E1,0E0,0E0,0E0,0E0,1.5800049E2,0E0,1.5865508E4,8.8818164E2,2.3774297E3,0E0,0E0,0E0,0E0,2.7618105E3,0E0,3.989202E3,0E0,4.8356062E4,4.924959E3,0E0,0E0,0E0,0E0,0E0,0E0,0E0,0E0,0E0,0E0,0E0,0E0,0E0,0E0,0E0,0E0,0E0,0E0],"parents":[2147483647,0,0,1,1,2,2,3,3,4,4,5,5,6,6,7,7,8,8,9,9,10,10,11,11,12,12,13,13,14,14,16,16,17,17,18,18,19,19,21,21,24,24,26,26,27,27,28,28,29,29,31,31,36,36,38,38,39,39,40,40,45,45,47,47,49,49,50,50],"right_children":[2,4,6,8,10,12,14,16,18,20,22,24,26,28,30,-1,32,34,36,38,-1,40,-1,-1,42,-1,44,46,48,50,-1,52,-1,-1,-1,-1,54,-1,56,58,60,-1,-1,-1,-1,62,-1,64,-1,66,68,-1,-1,-1,-1,-1,-1,-1,-1,-1,-1,-1,-1,-1,-1,-1,-1,-1,-1],"split_conditions":[1.3128653E2,1.8446387E2,1.0933E1,1.3698623E-1,1.4807072E2,1.4808536E-1,2.2816624E2,1.5259544E2,2.36106E2,5.873121E2,1E0,9.749279E-1,1.3961778E2,2.4999333E2,2.8506363E2,4.930391E0,1.5201334E2,2.5881904E-1,-4.3388373E-1,1.2910265E2,-5.1424475E0,9.659258E-1,7.224333E-1,8.166919E0,3.815317E2,-6.984607E-1,4.2584274E2,5.838526E2,2.615091E2,4.3388373E-1,5.6686206E0,2.3537244E2,1.297499E0,-1.4616994E0,-2.3987415E0,-3.1672904E-1,2.551311E2,-2.9690766E0,1E0,1.4512189E2,2.1136623E2,6.1179495E0,8.297224E-1,2.2343408E-1,4.9371648E-1,1.8595164E2,-4.4261184E0,2.633442E2,1.4052382E0,1.3698623E-1,1.419136E2,-6.810334E-1,-1.2755225E0,-8.489134E-1,-4.101393E-1,-2.4617076E0,-1.7064738E-1,-1.3632168E0,-3.7958074E-1,-3.4892852E0,-1.9959652E0,-1.4474218E0,-5.701804E-1,-5.9676087E-1,2.3933364E-2,2.081581E0,8.124754E-1,2.5111744E-1,7.000459E-1],"split_indices":[16,23,20,8,20,8,20,23,24,7,31,30,16,24,23,0,21,29,30,20,0,29,0,0,0,0,0,7,23,30,0,27,0,0,0,0,24,0,31,21,24,0,0,0,0,20,0,24,0,8,16,0,0,0,0,0,0,0,0,0,0,0,0,0,0,0,0,0,0],"split_type":[0,0,0,0,0,0,0,0,0,0,0,0,0,0,0,0,0,0,0,0,0,0,0,0,0,0,0,0,0,0,0,0,0,0,0,0,0,0,0,0,0,0,0,0,0,0,0,0,0,0,0,0,0,0,0,0,0,0,0,0,0,0,0,0,0,0,0,0,0],"sum_hessian":[1.07E3,3.04E2,7.66E2,7.7E1,2.27E2,3.9E1,7.27E2,2.4E1,5.3E1,1.73E2,5.4E1,2.2E1,1.7E1,1.61E2,5.66E2,7E0,1.7E1,2.7E1,2.6E1,1.67E2,6E0,4.5E1,9E0,1.2E1,1E1,5E0,1.2E1,5.2E1,1.09E2,5.61E2,5E0,1.2E1,5E0,1.6E1,1.1E1,5E0,2.1E1,1.06E2,6.1E1,1.1E1,3.4E1,5E0,5E0,6E0,6E0,4.7E1,5E0,1.04E2,5E0,3.13E2,2.48E2,5E0,7E0,1.5E1,6E0,5.2E1,9E0,6E0,5E0,5E0,2.9E1,3.2E1,1.5E1,4.5E1,5.9E1,1.28E2,1.85E2,1.17E2,1.31E2],"tree_param":{"num_deleted":"0","num_feature":"32","num_nodes":"69","size_leaf_vector":"1"}},{"base_weights":[-8.4146667E-1,-3.9769886E1,1.600204E1,-1.380603E1,-4.800769E1,8.0322105E1,1.22823515E1,2.9002035E0,-1.9520477E1,-5.225767E1,-2.7789404E1,1.2067028E2,5.0237856E0,4.356657E0,2.9756779E1,-2.473693E1,1.0155871E0,-5.0314198E1,-4.6056705E0,1.4020674E0,-3.5668766E1,1.741036E-1,7.420083E0,-1.6301708E-1,4.7509417E-1,-1.3594587E1,9.793737E0,2.7172228E1,5.8050723E0,-1.8841343E1,-2.3431127E0,-2.851662E0,-4.2302803E1,-4.2007713E1,-1.1962397E0,-1.7437904E1,2.3266008E0,5.165112E0,1.3511669E1,7.770768E1,2.292939E1,-1.405096E0,-7.3969537E-1,3.092731E-1,-2.320916E0,-2.8734474E0,-1.7454512E0,-1.6226767E0,-3.732843E-1,3.1780443E-1,-1.3818464E0,1.0520639E-1,7.33567E-1,1.1176437E0,8.311176E0,1.054286E0,2.7643712E0],"categories":[],"categories_nodes":[],"categories_segments":[],"categories_sizes":[],"default_left":[0,0,0,0,0,0,0,0,0,0,0,0,0,0,0,0,0,0,0,0,0,0,0,0,0,0,0,0,0,0,0,0,0,0,0,0,0,0,0,0,0,0,0,0,0,0,0,0,0,0,0,0,0,0,0,0,0],"id":4,"left_children":[1,3,5,7,9,11,13,-1,15,17,19,21,23,25,27,29,-1,31,-1,-1,33,-1,-1,-1,-1,35,37,39,-1,41,-1,-1,43,45,-1,47,-1,49,51,53,55,-1,-1,-1,-1,-1,-1,-1,-1,-1,-1,-1,-1,-1,-1,-1,-1],"loss_changes":[6.904259E5,6.734647E4,1.7485345E5,3.313611E4,1.9248312E4,1.2090719E5,9.6260836E4,0E0,1.5671047E4,1.06879375E4,2.0357031E4,8.3962625E4,5.880605E2,4.6981895E4,4.5257156E4,7.5891953E3,0E0,7.85875E3,0E0,0E0,1.8917148E3,0E0,0E0,0E0,0E0,2.6690105E4,6.2784336E3,4.3663875E4,0E0,1.566498E3,0E0,0E0,1.8450578E4,6.186875E2,0E0,1.5626068E4,0E0,6.6585645E3,2.666168E3,7.466201E4,1.0579109E4,0E0,0E0,0E0,0E0,0E0,0E0,0E0,0E0,0E0,0E0,0E0,0E0,0E0,0E0,0E0,0E0],"parents":[2147483647,0,0,1,1,2,2,3,3,4,4,5,5,6,6,8,8,9,9,10,10,11,11,12,12,13,13,14,14,15,15,17,17,20,20,25,25,26,26,27,27,29,29,32,32,33,33,35,35,37,37,38,38,39,39,40,40],"right_children":[2,4,6,8,10,12,14,-1,16,18,20,22,24,26,28,30,-1,32,-1,-1,34,-1,-1,-1,-1,36,38,40,-1,42,-1,-1,44,46,-1,48,-1,50,52,54,56,-1,-1,-1,-1,-1,-1,-1,-1,-1,-1,-1,-1,-1,-1,-1,-1],"split_conditions":[1.1484956E2,1.8180809E2,1.0933E1,1.3055792E-1,1.1498403E2,1.4473337E-1,2.5521204E2,2.9002035E0,2.1476253E2,5.873121E2,1.2693514E2,3.5738016E2,1.2163639E2,2.1928941E2,2.8506363E2,2.5881904E-1,1.0155871E0,1.2910265E2,-4.6056705E0,1.4020674E0,1.9752043E2,1.741036E-1,7.420083E0,-1.6301708E-1,4.7509417E-1,2.624797E2,1.4123305E2,2.795551E2,5.8050723E0,1.08016525E2,-2.3431127E0,-2.851662E0,1.3071465E2,2.859429E2,-1.1962397E0,2.510471E2,2.3266008E0,1.4113638E2,2.7467447E2,2.5276514E2,1.2798765E2,-1.405096E0,-7.3969537E-1,3.092731E-1,-2.320916E0,-2.8734474E0,-1.7454512E0,-1.6226767E0,-3.732843E-1,3.1780443E-1,-1.3818464E0,1.0520639E-1,7.33567E-1,1.1176437E0,8.311176E0,1.054286E0,2.7643712E0],"split_indices":[12,23,20,9,13,9,20,0,20,7,16,3,12,20,21,29,0,20,0,0,21,0,0,0,0,23,16,24,0,12,0,0,20,27,0,24,0,16,24,23,15,0,0,0,0,0,0,0,0,0,0,0,0,0,0,0,0],"split_type":[0,0,0,0,0,0,0,0,0,0,0,0,0,0,0,0,0,0,0,0,0,0,0,0,0,0,0,0,0,0,0,0,0,0,0,0,0,0,0,0,0,0,0,0,0,0,0,0,0,0,0,0,0,0,0,0,0],"sum_hessian":[1.051E3,3.17E2,7.34E2,7.7E1,2.4E2,3.9E1,6.95E2,5E0,7.2E1,1.97E2,4.3E1,2.5E1,1.4E1,4.79E2,2.16E2,6.4E1,8E0,1.9E2,7E0,5E0,3.8E1,5E0,2E1,5E0,9E0,1.11E2,3.68E2,2.11E2,5E0,5.2E1,1.2E1,1E2,9E1,2.3E1,1.5E1,1.05E2,6E0,1.65E2,2.03E2,1.5E1,1.96E2,1.4E1,3.8E1,7E0,8.3E1,5E0,1.8E1,4.1E1,6.4E1,1.6E2,5E0,1.9E1,1.84E2,1E1,5E0,1.87E2,9E0],"tree_param":{"num_deleted":"0","num_feature":"32","num_nodes":"57","size_leaf_vector":"1"}},{"base_weights":[4.64437E-1,-3.4391502E1,1.5448319E1,-4.248505E0,-4.235016E1,7.037108E1,1.2604305E1,6.632521E1,-2.0271482E1,-5.0473198E1,-2.6715485E1,2.6429613E1,7.4726524E0,4.6572866E0,2.9089321E1,3.18459E-1,6.7597857E0,-3.3326828E1,-1.0456783E1,-4.825891E1,-4.72467E0,1.2786422E0,-3.0093302E1,4.846311E0,3.9541492E0,-1.0882141E1,9.167286E0,8.580469E1,2.4812449E1,-1.2196273E0,-2.1692789E0,-1.3113305E1,-8.047065E-2,-5.1555023E1,-2.4935698E1,-2.6353838E1,-2.7746952E0,-2.7443525E-1,8.40028E0,-1.4600447E1,2.799261E0,3.5244987E0,1.3521443E1,6.68082E0,2.6150757E-1,2.03705E1,7.327696E1,-7.565106E-1,-4.1816163E-1,-2.693145E0,-1.9635801E0,-2.2737963E0,1.2780676E0,-1.4356321E0,4.9237322E-2,5.437022E-1,2.1793981E-1,-1.4598721E0,-3.441707E-1,1.3134569E0,1.3271801E-1,6.310092E-1,2.124742E0,8.2352775E-1,2.4302328E0,8.4666747E-1,6.3863993E0],"categories":[],"categories_nodes":[],"categories_segments":[],"categories_sizes":[],"default_left":[0,0,0,0,0,0,0,0,0,0,0,0,0,0,0,0,0,0,0,0,0,0,0,0,0,0,0,0,0,0,0,0,0,0,0,0,0,0,0,0,0,0,0,0,0,0,0,0,0,0,0,0,0,0,0,0,0,0,0,0,0,0,0,0,0,0,0],"id":5,"left_children":[1,3,5,7,9,11,13,15,17,19,21,23,-1,25,27,-1,-1,29,31,33,-1,-1,35,-1,37,39,41,43,45,-1,-1,47,-1,49,51,53,-1,-1,55,57,-1,59,61,-1,-1,63,65,-1,-1,-1,-1,-1,-1,-1,-1,-1,-1,-1,-1,-1,-1,-1,-1,-1,-1,-1,-1],"loss_changes":[5.6458894E5,7.778219E4,1.17192766E5,7.936518E4,3.1283125E4,1.24606625E5,9.418599E4,5.280438E4,6.950783E3,1.1801125E4,1.6665863E4,3.921775E4,0E0,3.4229918E4,5.4619984E4,0E0,0E0,1.0917637E3,7.765327E2,1.11606875E4,0E0,0E0,6.6030312E3,0E0,8.8608105E2,2.8162928E4,9.237941E3,6.092578E4,4.564358E4,0E0,0E0,1.2020508E2,0E0,1.8725312E3,2.3983277E4,4.932008E3,0E0,0E0,9.104645E1,1.1623189E4,0E0,3.2126838E3,5.02016E3,0E0,0E0,2.1435508E4,5.3046094E4,0E0,0E0,0E0,0E0,0E0,0E0,0E0,0E0,0E0,0E0,0E0,0E0,0E0,0E0,0E0,0E0,0E0,0E0,0E0,0E0],"parents":[2147483647,0,0,1,1,2,2,3,3,4,4,5,5,6,6,7,7,8,8,9,9,10,10,11,11,13,13,14,14,17,17,18,18,19,19,22,22,24,24,25,25,26,26,27,27,28,28,31,31,33,33,34,34,35,35,38,38,39,39,41,41,42,42,45,45,46,46],"right_children":[2,4,6,8,10,12,14,16,18,20,22,24,-1,26,28,-1,-1,30,32,34,-1,-1,36,-1,38,40,42,44,46,-1,-1,48,-1,50,52,54,-1,-1,56,58,-1,60,62,-1,-1,64,66,-1,-1,-1,-1,-1,-1,-1,-1,-1,-1,-1,-1,-1,-1,-1,-1,-1,-1,-1,-1],"split_conditions":[1.1484956E2,1.7038304E2,1.0933E1,1.3695201E-1,1.4807072E2,4.454466E2,2.5521204E2,1.0126292E2,1.08939926E2,5.8798834E2,2.0782378E2,1.3055792E-1,7.4726524E0,2.1928941E2,2.795551E2,3.18459E-1,6.7597857E0,1.3259985E2,4.14425E2,1.2373556E2,-4.72467E0,1.2786422E0,5.7508167E2,4.846311E0,1.2097722E2,2.632204E2,1.4120583E2,1.3659288E-1,1.2801987E2,-1.2196273E0,-2.1692789E0,2.50748E2,-8.047065E-2,1.377716E2,3.739781E2,2.6791196E2,-2.7746952E0,-2.7443525E-1,3.5159464E2,2.510471E2,2.799261E0,2.5838776E2,2.653152E2,6.68082E0,2.6150757E-1,2.7394827E2,1.3055792E-1,-7.565106E-1,-4.1816163E-1,-2.693145E0,-1.9635801E0,-2.2737963E0,1.2780676E0,-1.4356321E0,4.9237322E-2,5.437022E-1,2.1793981E-1,-1.4598721E0,-3.441707E-1,1.3134569E0,1.3271801E-1,6.310092E-1,2.124742E0,8.2352775E-1,2.4302328E0,8.4666747E-1,6.3863993E0],"split_indices":[12,23,20,9,20,3,20,14,12,7,24,9,0,20,24,0,0,19,5,15,0,0,4,0,13,23,17,11,14,0,0,24,0,20,2,23,0,0,3,24,0,24,21,0,0,20,9,0,0,0,0,0,0,0,0,0,0,0,0,0,0,0,0,0,0,0,0],"split_type":[0,0,0,0,0,0,0,0,0,0,0,0,0,0,0,0,0,0,0,0,0,0,0,0,0,0,0,0,0,0,0,0,0,0,0,0,0,0,0,0,0,0,0,0,0,0,0,0,0,0,0,0,0,0,0,0,0,0,0,0,0,0,0,0,0,0,0],"sum_hessian":[1.079E3,3.24E2,7.55E2,6.8E1,2.56E2,3.6E1,7.19E2,1.2E1,5.6E1,1.67E2,8.9E1,2.4E1,1.2E1,4.86E2,2.33E2,7E0,5E0,2.3E1,3.3E1,1.61E2,6E0,5E0,8.4E1,5E0,1.9E1,1.09E2,3.77E2,1.5E1,2.18E2,1.4E1,9E0,2.5E1,8E0,1.4E2,2.1E1,7.5E1,9E0,6E0,1.3E1,1.04E2,5E0,1.65E2,2.12E2,9E0,6E0,2.01E2,1.7E1,1.6E1,9E0,1.15E2,2.5E1,1.5E1,6E0,6.9E1,6E0,7E0,6E0,3.5E1,6.9E1,5E0,1.6E2,2.07E2,5E0,1.78E2,2.3E1,9E0,8E0],"tree_param":{"num_deleted":"0","num_feature":"32","num_nodes":"67","size_leaf_vector":"1"}},{"base_weights":[-6.913063E-1,-3.6931366E1,1.24834E1,6.841617E0,-4.3187447E1,6.6696944E0,1.1522403E1,5.371334E0,-2.573007E1,-4.915713E1,-2.7160038E1,5.318557E0,2.6470268E1,-2.7841395E-1,-3.351137E1,-8.549912E1,-4.625078E1,-3.687596E1,2.7412638E1,3.983042E1,2.9394708E0,8.890372E1,2.1905945E1,-1.2229799E0,-2.0922904E0,-2.66154E0,-5.443949E0,-3.5443825E1,-5.167518E1,-4.0346806E1,-2.6572162E-1,-1.5923527E0,4.1060114E0,6.1548424E0,6.26909E0,-1.1017563E1,8.302775E0,7.216124E0,2.4681008E-1,1.6497341E1,5.398461E1,-2.0286043E0,4.216778E-1,-2.4607623E0,-4.2842436E0,-2.121551E0,-8.4659815E-1,-6.692754E-2,1.5933826E0,-6.8366283E-1,2.1069214E0,3.3776493E0,3.6515194E-1,7.204077E-1,3.7681065E0,7.810971E-1,4.5649576E0],"categories":[],"categories_nodes":[],"categories_segments":[],"categories_sizes":[],"default_left":[0,0,0,0,0,0,0,0,0,0,0,0,0,0,0,0,0,0,0,0,0,0,0,0,0,0,0,0,0,0,0,0,0,0,0,0,0,0,0,0,0,0,0,0,0,0,0,0,0,0,0,0,0,0,0,0,0],"id":6,"left_children":[1,3,5,7,9,-1,11,-1,13,15,17,19,21,-1,23,25,27,29,31,33,35,37,39,-1,-1,-1,-1,41,43,45,-1,-1,-1,-1,47,49,51,-1,-1,53,55,-1,-1,-1,-1,-1,-1,-1,-1,-1,-1,-1,-1,-1,-1,-1,-1],"loss_changes":[5.0322066E5,7.725016E4,8.826701E4,1.20716375E5,2.2194188E4,0E0,7.1075945E4,0E0,4.2022695E3,1.4833281E4,3.759727E4,4.4544684E4,6.215883E4,0E0,4.7866797E2,3.2412188E3,7.9494688E3,6.244172E3,3.8281816E4,9.7024E4,3.826767E4,6.907331E4,3.5711023E4,0E0,0E0,0E0,0E0,1.362125E4,4.888625E3,1.8621094E3,0E0,0E0,0E0,0E0,5.1090703E3,2.0618902E4,2.1356736E4,0E0,0E0,2.1287477E4,4.1507594E4,0E0,0E0,0E0,0E0,0E0,0E0,0E0,0E0,0E0,0E0,0E0,0E0,0E0,0E0,0E0,0E0],"parents":[2147483647,0,0,1,1,2,2,3,3,4,4,6,6,8,8,9,9,10,10,11,11,12,12,14,14,15,15,16,16,17,17,18,18,19,19,20,20,21,21,22,22,27,27,28,28,29,29,34,34,35,35,36,36,39,39,40,40],"right_children":[2,4,6,8,10,-1,12,-1,14,16,18,20,22,-1,24,26,28,30,32,34,36,38,40,-1,-1,-1,-1,42,44,46,-1,-1,-1,-1,48,50,52,-1,-1,54,56,-1,-1,-1,-1,-1,-1,-1,-1,-1,-1,-1,-1,-1,-1,-1,-1],"split_conditions":[2.36106E2,1.7038304E2,1.2210756E-1,1.3698623E-1,1.2361756E2,6.6696944E0,2.5521204E2,5.371334E0,1.9729555E2,1.6925517E2,1E0,1.0933E1,2.795551E2,-2.7841395E-1,1.3259985E2,1.1266667E0,2.6565067E2,1.8595164E2,4.0477808E2,1.3698623E-1,2.1768716E2,1.3659288E-1,2.7349075E2,-1.2229799E0,-2.0922904E0,-2.66154E0,-5.443949E0,1.1953079E2,5.840983E2,2.7872653E2,-2.6572162E-1,-1.5923527E0,4.1060114E0,6.1548424E0,4.402946E2,2.6554016E2,2.4903606E2,7.216124E0,2.4681008E-1,2.8329095E2,3.6948074E2,-2.0286043E0,4.216778E-1,-2.4607623E0,-4.2842436E0,-2.121551E0,-8.4659815E-1,-6.692754E-2,1.5933826E0,-6.8366283E-1,2.1069214E0,3.3776493E0,3.6515194E-1,7.204077E-1,3.7681065E0,7.810971E-1,4.5649576E0],"split_indices":[24,23,11,8,15,0,20,0,27,24,31,20,24,0,19,7,27,20,3,8,20,11,20,0,0,0,0,17,4,26,0,0,0,0,2,23,24,0,0,23,3,0,0,0,0,0,0,0,0,0,0,0,0,0,0,0,0],"split_type":[0,0,0,0,0,0,0,0,0,0,0,0,0,0,0,0,0,0,0,0,0,0,0,0,0,0,0,0,0,0,0,0,0,0,0,0,0,0,0,0,0,0,0,0,0,0,0,0,0,0,0,0,0,0,0,0,0],"sum_hessian":[1.052E3,2.8E2,7.72E2,3.5E1,2.45E2,5E0,7.67E2,8E0,2.7E1,1.77E2,6.8E1,5.43E2,2.24E2,8E0,1.9E1,1.1E1,1.66E2,5.8E1,1E1,3.4E1,5.09E2,1.4E1,2.1E2,1.1E1,8E0,6E0,5E0,5.8E1,1.08E2,5.2E1,6E0,5E0,5E0,9E0,2.5E1,1.41E2,3.68E2,8E0,6E0,1.81E2,2.9E1,5.2E1,6E0,1.03E2,5E0,4.7E1,5E0,2E1,5E0,1.35E2,6E0,5E0,3.63E2,1.76E2,5E0,1.5E1,1.4E1],"tree_param":{"num_deleted":"0","num_feature":"32","num_nodes":"57","size_leaf_vector":"1"}},{"base_weights":[4.4885274E-2,-3.3699265E1,1.4003383E1,-6.628474E0,-4.0743355E1,5.950705E1,1.1412634E1,4.7817715E1,-1.9860022E1,-5.7703804E1,-3.631744E1,1.0009036E2,4.339093E0,-8.721324E0,1.7259848E1,-7.960648E-1,5.236995E0,-1.3139529E1,-2.0859203E0,-6.2318142E1,-1.0550445E0,-3.452245E1,-3.7198136E0,6.70985E0,5.067431E1,-1.0980306E-1,7.029234E0,-6.8742332E0,-2.7483804E0,1.6217012E1,4.7837076E0,-1.090814E0,-7.507398E0,-5.1815453E0,-2.7076247E0,-2.3538787E0,-2.9320997E1,4.515467E0,1.288445E-1,1.7827459E-1,4.3679434E-1,-1.538001E0,-4.8353195E0,1.5263339E1,4.352317E0,-5.104491E-1,-4.793942E-2,1.2982485E0,-1.5806311E0,-3.0395243E-1,1.2383479E0,1.0825304E0,3.4498474E-1],"categories":[],"categories_nodes":[],"categories_segments":[],"categories_sizes":[],"default_left":[0,0,0,0,0,0,0,0,0,0,0,0,0,0,0,0,0,0,0,0,0,0,0,0,0,0,0,0,0,0,0,0,0,0,0,0,0,0,0,0,0,0,0,0,0,0,0,0,0,0,0,0,0],"id":7,"left_children":[1,3,5,7,9,11,13,15,17,19,21,23,25,27,29,-1,-1,31,-1,33,-1,35,-1,-1,37,-1,39,41,-1,43,-1,-1,45,-1,-1,-1,47,-1,-1,-1,-1,-1,49,51,-1,-1,-1,-1,-1,-1,-1,-1,-1],"loss_changes":[4.9739356E5,5.8648125E4,8.737653E4,4.777334E4,1.6285969E4,8.911119E4,8.3502516E4,4.8842617E4,7.232006E3,6.952703E3,1.0885953E4,3.1945719E4,3.3236865E2,1.3283326E4,4.333078E4,0E0,0E0,1.8857656E3,0E0,8.878219E3,0E0,1.1019922E4,0E0,0E0,2.0727762E4,0E0,4.4470398E1,7.39637E3,0E0,3.533972E4,0E0,0E0,4.6676855E2,0E0,0E0,0E0,1.8178578E4,0E0,0E0,0E0,0E0,0E0,5.4503696E3,2.853475E4,0E0,0E0,0E0,0E0,0E0,0E0,0E0,0E0,0E0],"parents":[2147483647,0,0,1,1,2,2,3,3,4,4,5,5,6,6,7,7,8,8,9,9,10,10,11,11,12,12,13,13,14,14,17,17,19,19,21,21,24,24,26,26,27,27,29,29,32,32,36,36,42,42,43,43],"right_children":[2,4,6,8,10,12,14,16,18,20,22,24,26,28,30,-1,-1,32,-1,34,-1,36,-1,-1,38,-1,40,42,-1,44,-1,-1,46,-1,-1,-1,48,-1,-1,-1,-1,-1,50,52,-1,-1,-1,-1,-1,-1,-1,-1,-1],"split_conditions":[1.1484956E2,1.7038304E2,1.0933E1,1.3695201E-1,1.9262486E2,1.4473337E-1,2.2972914E2,1.13088196E2,2.5881904E-1,1.2236975E2,5.8798834E2,9.749279E-1,1.1934661E2,5.1048688E2,2.8506363E2,-7.960648E-1,5.236995E0,1.1003555E2,-2.0859203E0,1.6925517E2,-1.0550445E0,1.2910265E2,-3.7198136E0,6.70985E0,3.9630627E2,-1.0980306E-1,4.126509E2,2.1972377E2,-2.7483804E0,2.8506363E2,4.7837076E0,-1.090814E0,4.3484E2,-5.1815453E0,-2.7076247E0,-2.3538787E0,1.9729555E2,4.515467E0,1.288445E-1,1.7827459E-1,4.3679434E-1,-1.538001E0,2.653748E2,4.3388373E-1,4.352317E0,-5.104491E-1,-4.793942E-2,1.2982485E0,-1.5806311E0,-3.0395243E-1,1.2383479E0,1.0825304E0,3.4498474E-1],"split_indices":[12,23,20,9,24,9,20,18,29,15,7,30,12,1,22,0,0,12,0,24,0,20,0,0,1,0,1,24,0,23,0,0,6,0,0,0,24,0,0,0,0,0,23,30,0,0,0,0,0,0,0,0,0],"split_type":[0,0,0,0,0,0,0,0,0,0,0,0,0,0,0,0,0,0,0,0,0,0,0,0,0,0,0,0,0,0,0,0,0,0,0,0,0,0,0,0,0,0,0,0,0,0,0,0,0,0,0,0,0],"sum_hessian":[1.054E3,3.08E2,7.46E2,6.4E1,2.44E2,3.9E1,7.07E2,1.2E1,5.2E1,4.8E1,1.96E2,2.2E1,1.7E1,1.59E2,5.48E2,6E0,6E0,4.1E1,1.1E1,4.2E1,6E0,1.89E2,7E0,1.2E1,1E1,5E0,1.2E1,1.54E2,5E0,5.42E2,6E0,1.5E1,2.6E1,5E0,3.7E1,5.3E1,1.36E2,5E0,5E0,5E0,7E0,1.1E1,1.43E2,5.36E2,6E0,1.8E1,8E0,5E0,1.31E2,1.38E2,5E0,3.03E2,2.33E2],"tree_param":{"num_deleted":"0","num_feature":"32","num_nodes":"53","size_leaf_vector":"1"}},{"base_weights":[-1.0212187E0,-3.89424E1,1.1224822E1,-1.3568866E1,-4.4383507E1,6.076814E1,8.464738E0,-1.87016E1,6.8892086E-1,-4.2553513E1,-4.285835E0,1.1457328E2,1.5023705E0,-1.3898205E1,1.4376976E1,1.4044175E-1,-2.3352566E1,-4.503216E1,-2.290194E1,2.9019752E0,6.389045E0,-5.2205163E-1,6.982467E0,-1.6248077E1,2.435744E0,1.3448109E1,4.5564933E0,-1.4531521E0,-9.091303E-1,-4.213037E0,-4.3438393E1,8.469251E-1,-3.3713974E1,1.708461E-1,4.206774E-1,-2.757373E1,-8.103132E0,1.259331E1,4.1657887E0,-1.7271398E0,-2.273919E0,-1.8757454E0,-9.28799E-1,-1.143327E0,-3.1311393E0,-7.072269E-1,-2.292503E-1,4.848868E-1,1.3574642E0],"categories":[],"categories_nodes":[],"categories_segments":[],"categories_sizes":[],"default_left":[0,0,0,0,0,0,0,0,0,0,0,0,0,0,0,0,0,0,0,0,0,0,0,0,0,0,0,0,0,0,0,0,0,0,0,0,0,0,0,0,0,0,0,0,0,0,0,0,0],"id":8,"left_children":[1,3,5,7,9,11,13,15,-1,17,-1,19,21,23,25,-1,27,29,31,-1,-1,-1,33,35,-1,37,-1,-1,-1,-1,39,-1,41,-1,-1,43,45,47,-1,-1,-1,-1,-1,-1,-1,-1,-1,-1,-1],"loss_changes":[4.908298E5,3.501147E4,1.0873696E5,6.8553887E3,1.2375219E4,1.3374597E5,1.0041887E5,4.06942E3,0E0,8.947281E3,0E0,8.991969E3,1.4470293E3,2.418238E4,4.153997E4,0E0,4.4108984E2,7.6434375E3,1.13416455E4,0E0,0E0,0E0,4.660724E1,1.3979012E4,0E0,3.441653E4,0E0,0E0,0E0,0E0,1.6149062E3,0E0,4.482871E2,0E0,0E0,9.118367E3,1.8674272E3,2.4516008E4,0E0,0E0,0E0,0E0,0E0,0E0,0E0,0E0,0E0,0E0,0E0],"parents":[2147483647,0,0,1,1,2,2,3,3,4,4,5,5,6,6,7,7,9,9,11,11,12,12,13,13,14,14,16,16,17,17,18,18,22,22,23,23,25,25,30,30,32,32,35,35,36,36,37,37],"right_children":[2,4,6,8,10,12,14,16,-1,18,-1,20,22,24,26,-1,28,30,32,-1,-1,-1,34,36,-1,38,-1,-1,-1,-1,40,-1,42,-1,-1,44,46,48,-1,-1,-1,-1,-1,-1,-1,-1,-1,-1,-1],"split_conditions":[1.1164486E2,2.5881904E-1,1.0933E1,1.8851625E2,5.862633E2,1.4808536E-1,2.1768716E2,1.5014423E2,6.8892086E-1,1.241325E2,-4.285835E0,3.968487E2,1.1908319E2,2.6791196E2,2.8506363E2,1.4044175E-1,1.05855415E2,1.7882533E2,1.2459417E2,2.9019752E0,6.389045E0,-5.2205163E-1,4.126509E2,1.8851625E2,2.435744E0,2.8506363E2,4.5564933E0,-1.4531521E0,-9.091303E-1,-4.213037E0,5E-1,8.469251E-1,2.3197092E2,1.708461E-1,4.206774E-1,5.0036264E2,2.0656331E2,1E0,4.1657887E0,-1.7271398E0,-2.273919E0,-1.8757454E0,-9.28799E-1,-1.143327E0,-3.1311393E0,-7.072269E-1,-2.292503E-1,4.848868E-1,1.3574642E0],"split_indices":[12,29,20,20,7,8,20,23,0,15,0,3,12,23,21,0,12,25,15,0,0,0,1,20,0,23,0,0,0,0,29,0,22,0,0,1,20,31,0,0,0,0,0,0,0,0,0,0,0],"split_type":[0,0,0,0,0,0,0,0,0,0,0,0,0,0,0,0,0,0,0,0,0,0,0,0,0,0,0,0,0,0,0,0,0,0,0,0,0,0,0,0,0,0,0,0,0,0,0,0,0],"sum_hessian":[1.055E3,2.57E2,7.98E2,4.6E1,2.11E2,4.1E1,7.57E2,3.9E1,7E0,2.04E2,7E0,2.1E1,2E1,1.58E2,5.99E2,7E0,3.2E1,1.8E2,2.4E1,5E0,1.6E1,6E0,1.4E1,1.53E2,5E0,5.93E2,6E0,1.3E1,1.9E1,5E0,1.75E2,5E0,1.9E1,5E0,9E0,6.3E1,9E1,5.87E2,6E0,3.6E1,1.39E2,1.4E1,5E0,5.7E1,6E0,3.2E1,5.8E1,4.91E2,9.6E1],"tree_param":{"num_deleted":"0","num_feature":"32","num_nodes":"49","size_leaf_vector":"1"}},{"base_weights":[3.2522437E-1,-2.8260855E1,1.4803563E1,-4.022319E1,-1.4990437E1,7.140728E1,1.1865033E1,-3.841301E1,-4.024652E0,4.3805614E0,-2.2776175E1,1.03703995E2,3.5463006E0,2.2594218E0,2.0263239E1,-4.500495E1,-2.708626E1,-1.0445388E1,5.0972687E1,-2.6023027E1,1.6800053E0,2.3872302E0,6.259797E0,-8.2679294E-2,3.755509E-1,-2.0139395E1,5.2872486E0,1.0099502E1,3.311522E1,-3.464543E0,-4.320476E1,-3.557823E1,5.283921E0,-1.3975915E1,-5.740586E0,5.6122947E0,-4.407362E-1,-2.9920586E1,-2.2229753E0,2.5911682E0,-1.4282005E0,2.0555905E-1,-2.4968899E1,3.9691064E0,1.8200455E1,2.5123096E0,1.2645091E1,5.7463387E1,1.13003845E1,-2.2016733E0,-1.1018744E0,-1.3037523E0,-2.3624415E0,3.3466175E0,-1.6111765E0,-7.806129E-1,-3.6331743E-1,-3.5150683E-1,-1.3477789E-1,-1.3569807E0,-3.2388885E0,-4.5371515E-1,5.3458107E-1,-1.8137219E0,-8.4660655E-1,1.4136237E0,1.6774032E-1,2.4715815E-1,2.9670677E0,2.7361354E-1,-1.029139E0,6.488012E-1,1.3168366E-1,5.596255E-1,3.9948108E0,3.6275545E-1,7.7325886E-1],"categories":[],"categories_nodes":[],"categories_segments":[],"categories_sizes":[],"default_left":[0,0,0,0,0,0,0,0,0,0,0,0,0,0,0,0,0,0,0,0,0,0,0,0,0,0,0,0,0,0,0,0,0,0,0,0,0,0,0,0,0,0,0,0,0,0,0,0,0,0,0,0,0,0,0,0,0,0,0,0,0,0,0,0,0,0,0,0,0,0,0,0,0,0,0,0,0],"id":9,"left_children":[1,3,5,7,9,11,13,15,-1,17,19,21,23,25,27,29,31,33,35,37,39,-1,-1,-1,-1,41,43,45,47,-1,49,51,53,55,57,-1,-1,59,61,-1,-1,-1,63,65,67,69,71,73,75,-1,-1,-1,-1,-1,-1,-1,-1,-1,-1,-1,-1,-1,-1,-1,-1,-1,-1,-1,-1,-1,-1,-1,-1,-1,-1,-1,-1],"loss_changes":[4.3209275E5,5.5111062E4,1.1441231E5,1.0308969E4,2.5438953E4,7.413886E4,5.31941E4,1.20641875E4,0E0,3.4384332E4,9.574828E3,2.1666844E4,2.603988E2,2.1061295E4,4.564092E4,1.8478906E3,1.8883316E4,5.489951E2,4.4960156E4,9.763047E3,2.4230654E4,0E0,0E0,0E0,0E0,4.4381133E3,4.5723965E3,3.7908652E3,8.167222E4,0E0,8.8240625E2,4.749672E3,3.68444E4,1.1483008E2,5.075818E1,0E0,0E0,7.0540312E3,1.5125713E3,0E0,0E0,0E0,2.1971348E3,3.6194507E3,1.3335662E4,3.597513E3,4.5460352E2,7.486967E4,1.2838887E3,0E0,0E0,0E0,0E0,0E0,0E0,0E0,0E0,0E0,0E0,0E0,0E0,0E0,0E0,0E0,0E0,0E0,0E0,0E0,0E0,0E0,0E0,0E0,0E0,0E0,0E0,0E0,0E0],"parents":[2147483647,0,0,1,1,2,2,3,3,4,4,5,5,6,6,7,7,9,9,10,10,11,11,12,12,13,13,14,14,15,15,16,16,17,17,18,18,19,19,20,20,25,25,26,26,27,27,28,28,30,30,31,31,32,32,33,33,34,34,37,37,38,38,42,42,43,43,44,44,45,45,46,46,47,47,48,48],"right_children":[2,4,6,8,10,12,14,16,-1,18,20,22,24,26,28,30,32,34,36,38,40,-1,-1,-1,-1,42,44,46,48,-1,50,52,54,56,58,-1,-1,60,62,-1,-1,-1,64,66,68,70,72,74,76,-1,-1,-1,-1,-1,-1,-1,-1,-1,-1,-1,-1,-1,-1,-1,-1,-1,-1,-1,-1,-1,-1,-1,-1,-1,-1,-1,-1],"split_conditions":[1.16246666E2,1.07460556E2,1.0933E1,5.8798834E2,1.7038304E2,1.4808536E-1,2.4515399E2,1.2910265E2,-4.024652E0,1.0126292E2,1E0,6.234898E-1,4.126509E2,1.9803947E2,6.234898E-1,9.545875E1,1E0,1.1250583E2,1.3698623E-1,2.530731E2,2.1926134E2,2.3872302E0,6.259797E0,-8.2679294E-2,3.755509E-1,1.827847E2,2.615091E2,2.856489E2,1.3659288E-1,-3.464543E0,1.2638786E2,1.11000145E2,2.0782378E2,3.01405E2,4.0738403E2,5.6122947E0,-4.407362E-1,5.0036264E2,4.6610815E2,2.5911682E0,-1.4282005E0,2.0555905E-1,2.10518E2,1.3318417E2,4.211347E2,2.8529242E2,2.7922806E2,1.321635E-1,1.4342944E2,-2.2016733E0,-1.1018744E0,-1.3037523E0,-2.3624415E0,3.3466175E0,-1.6111765E0,-7.806129E-1,-3.6331743E-1,-3.5150683E-1,-1.3477789E-1,-1.3569807E0,-3.2388885E0,-4.5371515E-1,5.3458107E-1,-1.8137219E0,-8.4660655E-1,1.4136237E0,1.6774032E-1,2.4715815E-1,2.9670677E0,2.7361354E-1,-1.029139E0,6.488012E-1,1.3168366E-1,5.596255E-1,3.9948108E0,3.6275545E-1,7.7325886E-1],"split_indices":[12,12,20,7,23,8,20,20,0,14,31,31,1,20,31,14,31,12,8,24,24,0,0,0,0,23,23,24,10,0,8,14,24,4,0,0,0,1,1,0,0,0,24,16,1,24,23,10,16,0,0,0,0,0,0,0,0,0,0,0,0,0,0,0,0,0,0,0,0,0,0,0,0,0,0,0,0],"split_type":[0,0,0,0,0,0,0,0,0,0,0,0,0,0,0,0,0,0,0,0,0,0,0,0,0,0,0,0,0,0,0,0,0,0,0,0,0,0,0,0,0,0,0,0,0,0,0,0,0,0,0,0,0,0,0,0,0,0,0,0,0,0,0,0,0,0,0,0,0,0,0,0,0,0,0,0,0],"sum_hessian":[1.042E3,3.5E2,6.92E2,1.83E2,1.67E2,3.3E1,6.59E2,1.77E2,6E0,4.8E1,1.19E2,2.2E1,1.1E1,3.08E2,3.51E2,1.1E2,6.7E1,3.7E1,1.1E1,1.05E2,1.4E1,7E0,1.5E1,5E0,6E0,3.6E1,2.72E2,1.97E2,1.54E2,5E0,1.05E2,5.3E1,1.4E1,2E1,1.7E1,5E0,6E0,9E1,1.5E1,5E0,9E0,6E0,3E1,2.48E2,2.4E1,5E1,1.47E2,7.2E1,8.2E1,1E2,5E0,3.1E1,2.2E1,5E0,9E0,1.5E1,5E0,1.1E1,6E0,8.5E1,5E0,1E1,5E0,1.1E1,1.9E1,5E0,2.43E2,1.9E1,5E0,4.5E1,5E0,1.42E2,5E0,2.4E1,4.8E1,4.3E1,3.9E1],"tree_param":{"num_deleted":"0","num_feature":"32","num_nodes":"77","size_leaf_vector":"1"}},{"base_weights":[6.2881863E-1,-2.302969E1,1.2796263E1,2.29891E-1,-2.9173347E1,5.4110073E1,1.0401677E1,3.5563984E0,-7.992058E0,-3.7949013E1,-1.802509E1,8.743652E1,2.8151689E0,6.589004E0,2.923304E1,-1.4828363E1,2.5707756E1,-4.15023E1,-1.9965818E1,1.4207842E0,-2.0162134E1,2.9759395E-1,5.7919908E0,-9.1705374E-2,5.1043043E0,-2.3312872E1,8.477777E0,1.2901683E1,5.380575E1,-2.7808468E1,-9.219074E0,2.9506238E0,-3.248697E-1,-3.958122E1,-3.4932067E0,-1.964613E0,1.2594569E0,-1.7333824E1,-2.5047917E0,1.561524E-1,3.1090882E-1,-2.075945E0,-1.358769E1,1.3295474E1,2.5067165E0,9.11686E0,7.9118234E-1,6.3566036E0,8.068896E1,-1.0705416E0,-1.7976166E0,-6.5598696E-1,-3.155107E-1,-1.5512937E0,-2.0864959E0,-1.2572724E0,-3.8423508E-1,1.5272425E-1,-9.1928834E-1,1.1542672E0,4.24144E-1,-1.5713897E-1,3.4270015E-1,1.8305796E-1,4.9939367E-1,-2.1513574E-1,5.58244E-1,6.00823E0,4.3739945E-1],"categories":[],"categories_nodes":[],"categories_segments":[],"categories_sizes":[],"default_left":[0,0,0,0,0,0,0,0,0,0,0,0,0,0,0,0,0,0,0,0,0,0,0,0,0,0,0,0,0,0,0,0,0,0,0,0,0,0,0,0,0,0,0,0,0,0,0,0,0,0,0,0,0,0,0,0,0,0,0,0,0,0,0,0,0,0,0,0,0],"id":10,"left_children":[1,3,5,7,9,11,13,-1,15,17,19,21,23,25,27,29,31,33,35,-1,37,-1,-1,-1,39,41,43,45,47,49,51,-1,-1,53,-1,-1,-1,55,-1,-1,-1,-1,57,59,61,63,-1,65,67,-1,-1,-1,-1,-1,-1,-1,-1,-1,-1,-1,-1,-1,-1,-1,-1,-1,-1,-1,-1],"loss_changes":[3.0427762E5,5.1310312E4,6.848347E4,4.487672E4,2.7095047E4,6.4704945E4,4.726217E4,0E0,1.627649E4,9.261328E3,1.3176344E4,5.253028E4,1.7997406E2,3.1315443E4,4.384408E4,3.9628604E3,1.3259682E4,4.3613438E3,2.5426312E4,0E0,9.453645E3,0E0,0E0,0E0,3.921753E0,5.2732227E3,1.4895043E4,6.052627E2,5.560414E4,1.1021973E2,3.918213E2,0E0,0E0,9.95875E2,0E0,0E0,0E0,8.320891E3,0E0,0E0,0E0,0E0,1.894252E3,1.3322922E4,5.7443867E3,1.1413159E2,0E0,9.2002563E2,7.845355E4,0E0,0E0,0E0,0E0,0E0,0E0,0E0,0E0,0E0,0E0,0E0,0E0,0E0,0E0,0E0,0E0,0E0,0E0,0E0,0E0],"parents":[2147483647,0,0,1,1,2,2,3,3,4,4,5,5,6,6,8,8,9,9,10,10,11,11,12,12,13,13,14,14,15,15,16,16,17,17,18,18,20,20,24,24,25,25,26,26,27,27,28,28,29,29,30,30,33,33,37,37,42,42,43,43,44,44,45,45,47,47,48,48],"right_children":[2,4,6,8,10,12,14,-1,16,18,20,22,24,26,28,30,32,34,36,-1,38,-1,-1,-1,40,42,44,46,48,50,52,-1,-1,54,-1,-1,-1,56,-1,-1,-1,-1,58,60,62,64,-1,66,68,-1,-1,-1,-1,-1,-1,-1,-1,-1,-1,-1,-1,-1,-1,-1,-1,-1,-1,-1,-1],"split_conditions":[1.16246666E2,1.7038304E2,1.0933E1,1.3055792E-1,1.4807072E2,1.4473337E-1,2.6500574E2,3.5563984E0,4.481977E2,1E0,2.0935333E2,3.6482626E2,1.1934661E2,1.9705508E2,6.234898E-1,1.0836462E2,1.4473337E-1,5.807033E2,2.2965909E2,1.4207842E0,5.9258215E2,2.9759395E-1,5.7919908E0,-9.1705374E-2,5.1225165E2,1.9970111E2,4.3388373E-1,2.91512E2,4.196628E2,1.02867775E2,2.4903606E2,2.9506238E0,-3.248697E-1,5E-1,-3.4932067E0,-1.964613E0,1.2594569E0,2.3969733E2,-2.5047917E0,1.561524E-1,3.1090882E-1,-2.075945E0,1.3153365E2,1.3659288E-1,1.4125916E2,2.8308734E2,7.9118234E-1,1.4020027E2,1.3659288E-1,-1.0705416E0,-1.7976166E0,-6.5598696E-1,-3.155107E-1,-1.5512937E0,-2.0864959E0,-1.2572724E0,-3.8423508E-1,1.5272425E-1,-9.1928834E-1,1.1542672E0,4.24144E-1,-1.5713897E-1,3.4270015E-1,1.8305796E-1,4.9939367E-1,-2.1513574E-1,5.58244E-1,6.00823E0,4.3739945E-1],"split_indices":[12,23,20,9,20,9,20,0,0,31,24,3,12,20,31,12,9,7,23,0,7,0,0,0,4,24,30,24,2,14,24,0,0,29,0,0,0,24,0,0,0,0,22,11,17,24,0,16,10,0,0,0,0,0,0,0,0,0,0,0,0,0,0,0,0,0,0,0,0],"split_type":[0,0,0,0,0,0,0,0,0,0,0,0,0,0,0,0,0,0,0,0,0,0,0,0,0,0,0,0,0,0,0,0,0,0,0,0,0,0,0,0,0,0,0,0,0,0,0,0,0,0,0,0,0,0,0,0,0,0,0,0,0,0,0,0,0,0,0,0,0],"sum_hessian":[1.055E3,3.58E2,6.97E2,7.5E1,2.83E2,3.7E1,6.6E2,7E0,6.8E1,1.57E2,1.26E2,2.2E1,1.5E1,5.5E2,1.1E2,5.7E1,1.1E1,1.3E2,2.7E1,5E0,1.21E2,6E0,1.6E1,5E0,1E1,3.2E1,5.18E2,6.7E1,4.3E1,1.6E1,4.1E1,5E0,6E0,1.24E2,6E0,1.9E1,8E0,1.12E2,9E0,5E0,5E0,1E1,2.2E1,2.86E2,2.32E2,3.1E1,3.6E1,1.6E1,2.7E1,1.1E1,5E0,1.6E1,2.5E1,2.8E1,9.6E1,6.1E1,5.1E1,5E0,1.7E1,9.3E1,1.93E2,1.01E2,1.31E2,5E0,2.6E1,5E0,1.1E1,1.7E1,1E1],"tree_param":{"num_deleted":"0","num_feature":"32","num_nodes":"69","size_leaf_vector":"1"}},{"base_weights":[7.462793E-1,-2.7215015E1,1.1944867E1,-3.6084354E1,-1.4679705E1,5.321346E1,9.725413E0,-3.7108734E1,-3.0918694E-1,-1.1865861E0,-2.5807549E1,8.1404236E1,4.553982E0,4.3916345E0,2.0196463E1,-4.810347E1,-3.1810188E1,-7.6691194E0,2.0137694E0,-2.2535908E1,-2.8193562E0,5.6041856E0,4.1376125E1,3.7824297E-1,-6.0323894E-2,-1.9380129E1,6.3356795E0,8.334475E1,1.5915398E1,-3.6691613E0,-2.196963E0,-2.4629202E1,-2.0309172E0,1.3984693E0,-1.2153074E1,-2.6259659E1,-2.197871E0,4.0475116E0,7.65148E-2,-2.364364E0,-1.3350355E1,2.6077654E0,1.2253438E1,6.204156E0,7.700099E-2,1.2285632E1,3.536967E1,-1.5189565E0,2.1239482E-1,-7.618264E-1,-3.2522815E-1,-1.5278529E0,-8.364933E-1,-1.4266913E0,1.2243865E0,-9.5641977E-1,-1.9354415E-1,1.9714087E0,7.3872864E-2,5.1993984E-1,1.2772793E0,4.9147424E-1,1.6456015E0,4.8081384E0,1.1014365E0],"categories":[],"categories_nodes":[],"categories_segments":[],"categories_sizes":[],"default_left":[0,0,0,0,0,0,0,0,0,0,0,0,0,0,0,0,0,0,0,0,0,0,0,0,0,0,0,0,0,0,0,0,0,0,0,0,0,0,0,0,0,0,0,0,0,0,0,0,0,0,0,0,0,0,0,0,0,0,0,0,0,0,0,0,0],"id":11,"left_children":[1,3,5,7,9,11,13,15,-1,17,19,21,23,25,27,29,31,33,-1,35,-1,-1,37,-1,-1,39,41,43,45,-1,-1,47,-1,-1,49,51,53,-1,-1,-1,55,57,59,-1,-1,61,63,-1,-1,-1,-1,-1,-1,-1,-1,-1,-1,-1,-1,-1,-1,-1,-1,-1,-1],"loss_changes":[3.2848072E5,3.2819188E4,6.807989E4,5.126375E3,1.888549E4,5.1747133E4,3.9674227E4,8.307109E3,0E0,1.5894776E4,5.624504E3,2.4820062E4,2.6992325E2,2.1980414E4,6.354568E4,2.3431875E3,6.3934766E3,8.488206E3,0E0,4.7864004E3,0E0,0E0,1.8790234E4,0E0,0E0,5.420491E3,9.629234E3,4.978521E4,1.55195625E4,0E0,0E0,1.1256422E4,0E0,0E0,6.99897E2,1.6955352E3,8.429831E3,0E0,0E0,0E0,1.6216123E3,1.1174626E4,3.8969785E3,0E0,0E0,9.399219E3,2.625614E4,0E0,0E0,0E0,0E0,0E0,0E0,0E0,0E0,0E0,0E0,0E0,0E0,0E0,0E0,0E0,0E0,0E0,0E0],"parents":[2147483647,0,0,1,1,2,2,3,3,4,4,5,5,6,6,7,7,9,9,10,10,11,11,12,12,13,13,14,14,15,15,16,16,17,17,19,19,22,22,25,25,26,26,27,27,28,28,31,31,34,34,35,35,36,36,40,40,41,41,42,42,45,45,46,46],"right_children":[2,4,6,8,10,12,14,16,-1,18,20,22,24,26,28,30,32,34,-1,36,-1,-1,38,-1,-1,40,42,44,46,-1,-1,48,-1,-1,50,52,54,-1,-1,-1,56,58,60,-1,-1,62,64,-1,-1,-1,-1,-1,-1,-1,-1,-1,-1,-1,-1,-1,-1,-1,-1,-1,-1],"split_conditions":[1.1500625E2,1.08016525E2,1.0933E1,4.7473007E2,2.6645444E2,1.4808536E-1,2.5496394E2,9.848819E1,-3.0918694E-1,4.481977E2,5.8103E2,9.749279E-1,2.6645444E2,2.3969733E2,2.795551E2,1.2270612E-1,1.7175131E2,1.0933E1,2.0137694E0,1E0,-2.8193562E0,5.6041856E0,3.9686533E2,3.7824297E-1,-6.0323894E-2,1.9420467E2,1.4198007E2,1.3698623E-1,2.7403494E2,-3.6691613E0,-2.196963E0,1E0,-2.0309172E0,1.3984693E0,1.299275E2,1.9035394E2,1.3650679E2,4.0475116E0,7.65148E-2,-2.364364E0,1.403414E2,2.4547934E2,2.5950565E2,6.204156E0,7.700099E-2,2.971491E2,1.4125916E2,-1.5189565E0,2.1239482E-1,-7.618264E-1,-3.2522815E-1,-1.5278529E0,-8.364933E-1,-1.4266913E0,1.2243865E0,-9.5641977E-1,-1.9354415E-1,1.9714087E0,7.3872864E-2,5.1993984E-1,1.2772793E0,4.9147424E-1,1.6456015E0,4.8081384E0,1.1014365E0],"split_indices":[12,12,21,1,27,8,21,12,0,0,6,30,27,24,25,9,22,21,0,31,0,0,0,0,0,24,16,8,21,0,0,31,0,0,16,21,18,0,0,0,16,24,22,0,0,27,17,0,0,0,0,0,0,0,0,0,0,0,0,0,0,0,0,0,0],"split_type":[0,0,0,0,0,0,0,0,0,0,0,0,0,0,0,0,0,0,0,0,0,0,0,0,0,0,0,0,0,0,0,0,0,0,0,0,0,0,0,0,0,0,0,0,0,0,0,0,0,0,0,0,0,0,0,0,0,0,0,0,0,0,0,0,0],"sum_hessian":[1.047E3,2.99E2,7.48E2,1.74E2,1.25E2,3.7E1,7.11E2,1.68E2,6E0,5.7E1,6.8E1,2.3E1,1.4E1,4.72E2,2.39E2,5.2E1,1.16E2,5E1,7E0,6.3E1,5E0,1.2E1,1.1E1,9E0,5E0,3.5E1,4.37E2,1.4E1,2.25E2,5E0,4.7E1,6.6E1,5E1,5E0,4.5E1,5.3E1,1E1,5E0,6E0,5E0,3E1,2.69E2,1.68E2,9E0,5E0,1.91E2,3.4E1,5.5E1,1.1E1,2.8E1,1.7E1,3.5E1,1.8E1,5E0,5E0,1.8E1,1.2E1,7E0,2.62E2,1.49E2,1.9E1,1.72E2,1.9E1,5E0,2.9E1],"tree_param":{"num_deleted":"0","num_feature":"32","num_nodes":"65","size_leaf_vector":"1"}},{"base_weights":[-1.8788128E0,-2.7269985E1,8.966308E0,-1.0495529E1,-3.5100796E1,4.7898056E1,7.081236E0,1.9973648E1,-1.9125475E1,-4.239533E0,-3.326812E1,1.40956745E1,8.976802E1,-8.877529E0,1.1615801E1,3.2940464E0,-8.89563E0,-1.5610528E0,-1.2721656E1,-3.1659996E1,-3.4851086E0,2.0365555E0,2.4951217E0,2.3901649E0,5.298003E0,-7.011989E0,-2.3918695E0,1.0795685E1,3.689698E0,-6.2234133E-1,-7.388489E-2,-1.6196644E1,-8.038804E0,-1.9454411E0,-2.5242718E1,-3.384082E-1,3.9067906E-1,-2.6718992E1,-4.4776855E0,1.5821553E1,4.484023E0,-8.7119627E-1,-4.1834316E-1,-2.5831962E-1,-4.9597642E-1,-7.4395967E-1,-1.4136076E0,-6.284821E-1,-1.5779375E0,-2.848756E-1,1.1340755E0,1.2951316E0,4.7583127E-1,-1.6615039E-2,4.4432947E-1],"categories":[],"categories_nodes":[],"categories_segments":[],"categories_sizes":[],"default_left":[0,0,0,0,0,0,0,0,0,0,0,0,0,0,0,0,0,0,0,0,0,0,0,0,0,0,0,0,0,0,0,0,0,0,0,0,0,0,0,0,0,0,0,0,0,0,0,0,0,0,0,0,0,0,0],"id":12,"left_children":[1,3,5,7,9,11,13,15,17,-1,19,21,23,25,27,-1,29,-1,31,33,-1,-1,35,-1,-1,37,-1,39,-1,-1,-1,41,43,-1,45,-1,-1,47,49,51,53,-1,-1,-1,-1,-1,-1,-1,-1,-1,-1,-1,-1,-1,-1],"loss_changes":[2.90762E5,4.113608E4,5.3963285E4,2.7202547E4,1.6746438E4,4.6844633E4,5.1266184E4,3.1073883E4,5.7950547E3,0E0,1.0028469E4,6.0737637E3,5.111789E3,1.1070024E4,2.729218E4,0E0,3.753529E2,0E0,7.461094E2,8.408E3,0E0,0E0,7.9198425E2,0E0,0E0,7.4187153E3,0E0,1.7215285E4,0E0,0E0,0E0,1.3991748E2,8.2298584E1,0E0,3.0285312E3,0E0,0E0,7.6305566E2,4.6000146E3,1.9008773E4,5.1564243E3,0E0,0E0,0E0,0E0,0E0,0E0,0E0,0E0,0E0,0E0,0E0,0E0,0E0,0E0],"parents":[2147483647,0,0,1,1,2,2,3,3,4,4,5,5,6,6,7,7,8,8,10,10,11,11,12,12,13,13,14,14,16,16,18,18,19,19,22,22,25,25,27,27,31,31,32,32,34,34,37,37,38,38,39,39,40,40],"right_children":[2,4,6,8,10,12,14,16,18,-1,20,22,24,26,28,-1,30,-1,32,34,-1,-1,36,-1,-1,38,-1,40,-1,-1,-1,42,44,-1,46,-1,-1,48,50,52,54,-1,-1,-1,-1,-1,-1,-1,-1,-1,-1,-1,-1,-1,-1],"split_conditions":[1.1484956E2,2.0158885E2,1.0933E1,1.3659288E-1,1.6925517E2,4.1307724E2,2.2864365E2,2.08436E2,1.04845E2,-4.239533E0,5.873121E2,1.1868792E2,3.9630627E2,5.8475165E2,2.8506363E2,3.2940464E0,1.2634592E2,-1.5610528E0,1.8446387E2,1.2910265E2,-3.4851086E0,2.0365555E0,1.4303445E2,2.3901649E0,5.298003E0,1.647797E2,-2.3918695E0,4.3388373E-1,3.689698E0,-6.2234133E-1,-7.388489E-2,4.3873157E2,4.3388373E-1,-1.9454411E0,2.1748355E2,-3.384082E-1,3.9067906E-1,1.2337708E2,2.66175E2,1.3659288E-1,1.4195876E2,-8.7119627E-1,-4.1834316E-1,-2.5831962E-1,-4.9597642E-1,-7.4395967E-1,-1.4136076E0,-6.284821E-1,-1.5779375E0,-2.848756E-1,1.1340755E0,1.2951316E0,4.7583127E-1,-1.6615039E-2,4.4432947E-1],"split_indices":[12,23,21,11,25,3,20,25,12,0,7,13,1,7,23,0,22,0,20,20,0,0,16,0,0,20,0,30,0,0,0,3,30,0,25,0,0,14,23,11,16,0,0,0,0,0,0,0,0,0,0,0,0,0,0],"split_type":[0,0,0,0,0,0,0,0,0,0,0,0,0,0,0,0,0,0,0,0,0,0,0,0,0,0,0,0,0,0,0,0,0,0,0,0,0,0,0,0,0,0,0,0,0,0,0,0,0,0,0,0,0,0,0],"sum_hessian":[1.054E3,3.15E2,7.39E2,1.01E2,2.14E2,3.3E1,7.06E2,2.2E1,7.9E1,6E0,2.08E2,1.9E1,1.4E1,1.56E2,5.5E2,8E0,1.4E1,2.6E1,5.3E1,2.01E2,7E0,5E0,1.4E1,5E0,9E0,1.5E2,6E0,5.44E2,6E0,9E0,5E0,2.9E1,2.4E1,9.2E1,1.09E2,5E0,9E0,1.6E1,1.34E2,3.02E2,2.42E2,2.4E1,5E0,1.1E1,1.3E1,2.6E1,8.3E1,5E0,1.1E1,1.29E2,5E0,1.15E2,1.87E2,1.16E2,1.26E2],"tree_param":{"num_deleted":"0","num_feature":"32","num_nodes":"55","size_leaf_vector":"1"}},{"base_weights":[-2.0079182E-1,-2.5273258E1,9.781898E0,9.627757E0,-3.0051237E1,2.4249338E-1,1.7210606E1,4.3462157E0,-1.8318434E1,-2.8573946E1,-4.020187E0,-1.0100925E0,2.0343385E0,8.764173E0,2.5815931E1,-2.6290916E1,-5.4892125E0,-3.3624336E1,-1.7059202E1,4.75751E0,-1.04278E1,1.8119996E0,1.0382042E1,4.6908993E1,1.2207041E1,-8.782458E-1,-1.6042298E0,-3.9131692E-1,-9.155151E-2,-2.1118896E1,-3.7916283E1,-2.3703232E1,1.374808E1,-6.9746834E-1,1.5438534E1,-1.6457952E1,-4.9690638E0,4.3962E0,-9.767822E-1,8.54109E0,1.3220574E1,4.7007155E0,6.9913506E1,8.776612E0,3.536321E0,-1.4032788E0,-1.9792493E-1,-1.7996886E0,-3.35453E0,-1.34567E0,-3.3694243E-1,-1.3444016E0,3.9600124E0,-3.331302E-1,1.5234618E-1,3.6651504E0,4.327413E-1,-6.764165E-1,-1.9788312E0,-5.2878016E-1,-1.3221014E-1,2.6465008E-1,1.0763363E-1,-2.0314573E-1,6.1360776E-2,4.472537E-1,1.1550812E-1,7.090091E-1,4.7790933E-1,3.2187068E-1,-1.6511567E-1,4.717802E0,8.5694027E-1,2.8182837E-1,7.824717E-1],"categories":[],"categories_nodes":[],"categories_segments":[],"categories_sizes":[],"default_left":[0,0,0,0,0,0,0,0,0,0,0,0,0,0,0,0,0,0,0,0,0,0,0,0,0,0,0,0,0,0,0,0,0,0,0,0,0,0,0,0,0,0,0,0,0,0,0,0,0,0,0,0,0,0,0,0,0,0,0,0,0,0,0,0,0,0,0,0,0,0,0,0,0,0,0],"id":13,"left_children":[1,3,5,7,9,11,13,-1,15,17,-1,19,-1,21,23,25,27,29,31,33,35,37,39,41,43,-1,-1,-1,-1,45,47,49,51,53,55,57,59,61,63,65,67,69,71,73,-1,-1,-1,-1,-1,-1,-1,-1,-1,-1,-1,-1,-1,-1,-1,-1,-1,-1,-1,-1,-1,-1,-1,-1,-1,-1,-1,-1,-1,-1,-1],"loss_changes":[2.6455572E5,5.0485E4,5.356835E4,8.1524516E4,1.7403797E4,1.686416E4,3.0661102E4,0E0,2.7163662E3,1.44831875E4,0E0,1.759476E4,0E0,2.4094727E3,5.970264E4,2.9091895E2,8.729962E1,8.800766E3,1.6906314E4,1.1723457E4,3.9648691E3,3.073205E2,7.9938477E2,7.928434E4,2.5267617E4,0E0,0E0,0E0,0E0,5.607674E3,4.978453E3,3.4639883E3,4.20306E4,3.0136602E3,2.6049803E4,3.3875645E3,8.3098596E2,3.2125305E1,1.4810803E2,2.525835E2,9.755762E1,4.3853723E2,6.673891E4,2.564122E3,0E0,0E0,0E0,0E0,0E0,0E0,0E0,0E0,0E0,0E0,0E0,0E0,0E0,0E0,0E0,0E0,0E0,0E0,0E0,0E0,0E0,0E0,0E0,0E0,0E0,0E0,0E0,0E0,0E0,0E0,0E0],"parents":[2147483647,0,0,1,1,2,2,3,3,4,4,5,5,6,6,8,8,9,9,11,11,13,13,14,14,15,15,16,16,17,17,18,18,19,19,20,20,21,21,22,22,23,23,24,24,29,29,30,30,31,31,32,32,33,33,34,34,35,35,36,36,37,37,38,38,39,39,40,40,41,41,42,42,43,43],"right_children":[2,4,6,8,10,12,14,-1,16,18,-1,20,-1,22,24,26,28,30,32,34,36,38,40,42,44,-1,-1,-1,-1,46,48,50,52,54,56,58,60,62,64,66,68,70,72,74,-1,-1,-1,-1,-1,-1,-1,-1,-1,-1,-1,-1,-1,-1,-1,-1,-1,-1,-1,-1,-1,-1,-1,-1,-1,-1,-1,-1,-1,-1,-1],"split_conditions":[2.3969733E2,1.7038304E2,1.2234167E2,1.3698623E-1,5.0555615E2,2.6791196E2,6.234898E-1,4.3462157E0,1.774157E2,1.2361756E2,-4.020187E0,6.123234E-17,2.0343385E0,2.80328E2,1.395515E-1,1.14257645E2,1.4113638E2,5E-1,1E0,4.446404E2,2.551311E2,7.0710677E-1,2.9222488E2,4.2256876E2,1.283507E2,-8.782458E-1,-1.6042298E0,-3.9131692E-1,-9.155151E-2,1.4807072E2,2.653748E2,1.8007889E2,4.049747E2,1.3556068E2,2.4607556E2,5.8592413E2,1.2001459E2,2.863455E2,2.7818243E2,2.7524838E2,5.39875E2,-1.8369701E-16,4.666501E2,1.4500041E2,3.536321E0,-1.4032788E0,-1.9792493E-1,-1.7996886E0,-3.35453E0,-1.34567E0,-3.3694243E-1,-1.3444016E0,3.9600124E0,-3.331302E-1,1.5234618E-1,3.6651504E0,4.327413E-1,-6.764165E-1,-1.9788312E0,-5.2878016E-1,-1.3221014E-1,2.6465008E-1,1.0763363E-1,-2.0314573E-1,6.1360776E-2,4.472537E-1,1.1550812E-1,7.090091E-1,4.7790933E-1,3.2187068E-1,-1.6511567E-1,4.717802E0,8.5694027E-1,2.8182837E-1,7.824717E-1],"split_indices":[24,23,13,8,0,23,31,0,20,15,0,29,0,24,11,18,16,29,31,1,24,29,24,3,13,0,0,0,0,20,23,20,3,16,25,6,13,25,25,23,4,29,3,16,0,0,0,0,0,0,0,0,0,0,0,0,0,0,0,0,0,0,0,0,0,0,0,0,0,0,0,0,0,0,0],"split_type":[0,0,0,0,0,0,0,0,0,0,0,0,0,0,0,0,0,0,0,0,0,0,0,0,0,0,0,0,0,0,0,0,0,0,0,0,0,0,0,0,0,0,0,0,0,0,0,0,0,0,0,0,0,0,0,0,0,0,0,0,0,0,0,0,0,0,0,0,0,0,0,0,0,0,0],"sum_hessian":[1.055E3,3E2,7.55E2,3.6E1,2.64E2,3.31E2,4.24E2,9E0,2.7E1,2.58E2,6E0,3.22E2,9E0,2.15E2,2.09E2,1.6E1,1.1E1,1.78E2,8E1,2E2,1.22E2,4.1E1,1.74E2,8.1E1,1.28E2,8E0,8E0,6E0,5E0,4.7E1,1.31E2,6.6E1,1.4E1,1.33E2,6.7E1,5.7E1,6.5E1,2.1E1,2E1,1.08E2,6.6E1,2.9E1,5.2E1,1.22E2,6E0,3.3E1,1.4E1,1.25E2,6E0,5.5E1,1.1E1,9E0,5E0,5.1E1,8.2E1,6E0,6.1E1,5.2E1,5E0,1.8E1,4.7E1,1.4E1,7E0,8E0,1.2E1,1.01E2,7E0,5E1,1.6E1,2.4E1,5E0,3.5E1,1.7E1,8.5E1,3.7E1],"tree_param":{"num_deleted":"0","num_feature":"32","num_nodes":"75","size_leaf_vector":"1"}},{"base_weights":[3.766396E-1,-2.088751E1,1.0572212E1,-8.027687E-1,-2.6396093E1,3.8482928E0,1.8285566E1,4.484697E0,-8.661862E0,-3.6818542E1,-2.0856668E1,3.7576843E1,2.7377198E0,3.7091072E1,6.876496E0,-1.5065263E1,2.007319E1,-3.1973808E0,-3.449653E1,-2.4555964E1,2.4653182E0,3.7007577E0,4.8080053E-2,-3.0960396E1,4.257641E0,2.450899E0,5.480249E1,3.0343418E0,5.2355084E0,-1.0607439E1,-1.5444908E0,2.6568952E0,-3.6109948E-1,-1.7737973E0,-9.18042E-1,-2.9416325E1,-1.15490885E1,4.1693703E1,-3.1327963E1,-2.0417132E0,-1.0471325E0,-1.200346E0,8.536875E0,-2.3191497E0,1.6134695E0,6.649641E1,2.402802E0,7.622338E-2,9.251799E0,-8.0845994E-1,-3.54943E-1,-1.3298942E0,-3.3536854E0,-7.178484E-1,4.0711674E-1,4.7087893E0,-1.3233843E0,-2.0939596E0,-7.389852E-1,-8.5422707E-1,6.3022576E-2,-7.6203585E-2,4.8698613E-1,3.4911045E-1,-2.947E-1,1.9715052E0,5.3828754E0,3.881918E-1,-3.6537196E-2,1.0991933E-1,-3.241055E-1,6.686911E-1,3.7997884E-1],"categories":[],"categories_nodes":[],"categories_segments":[],"categories_sizes":[],"default_left":[0,0,0,0,0,0,0,0,0,0,0,0,0,0,0,0,0,0,0,0,0,0,0,0,0,0,0,0,0,0,0,0,0,0,0,0,0,0,0,0,0,0,0,0,0,0,0,0,0,0,0,0,0,0,0,0,0,0,0,0,0,0,0,0,0,0,0,0,0,0,0,0,0],"id":14,"left_children":[1,3,5,7,9,11,13,-1,15,17,19,21,23,25,27,29,31,-1,33,35,37,-1,-1,39,41,43,45,-1,47,49,-1,-1,-1,-1,-1,51,53,55,57,-1,-1,59,61,63,-1,65,67,69,71,-1,-1,-1,-1,-1,-1,-1,-1,-1,-1,-1,-1,-1,-1,-1,-1,-1,-1,-1,-1,-1,-1,-1,-1],"loss_changes":[2.26776E5,3.748253E4,3.6595242E4,5.3399246E4,1.4583656E4,1.4089686E4,7.0328586E4,0E0,1.2998049E4,3.5166328E3,1.5247133E4,1.5931699E4,1.8977545E4,7.593728E4,1.7865914E4,3.6891426E3,1.2120947E4,0E0,7.023594E2,9.26532E3,3.444861E4,0E0,0E0,7.212676E2,8.255648E3,6.1939653E3,5.0079438E4,0E0,4.163322E3,7.805288E2,0E0,0E0,0E0,0E0,0E0,9.881484E3,2.495041E3,4.5426414E4,1.819835E3,0E0,0E0,6.1208115E3,2.4118184E3,1.3045807E3,0E0,7.038366E4,2.751614E2,1.252511E3,6.6585254E2,0E0,0E0,0E0,0E0,0E0,0E0,0E0,0E0,0E0,0E0,0E0,0E0,0E0,0E0,0E0,0E0,0E0,0E0,0E0,0E0,0E0,0E0,0E0,0E0],"parents":[2147483647,0,0,1,1,2,2,3,3,4,4,5,5,6,6,8,8,9,9,10,10,11,11,12,12,13,13,14,14,15,15,16,16,18,18,19,19,20,20,23,23,24,24,25,25,26,26,28,28,29,29,35,35,36,36,37,37,38,38,41,41,42,42,43,43,45,45,46,46,47,47,48,48],"right_children":[2,4,6,8,10,12,14,-1,16,18,20,22,24,26,28,30,32,-1,34,36,38,-1,-1,40,42,44,46,-1,48,50,-1,-1,-1,-1,-1,52,54,56,58,-1,-1,60,62,64,-1,66,68,70,72,-1,-1,-1,-1,-1,-1,-1,-1,-1,-1,-1,-1,-1,-1,-1,-1,-1,-1,-1,-1,-1,-1,-1,-1],"split_conditions":[1.16246666E2,1.7038304E2,6.234898E-1,1.3072693E-1,1.2910265E2,9.9119225E1,1.3801233E-1,4.484697E0,4.481977E2,2.3373622E2,1E0,3.9686533E2,1.8595164E2,4.1414062E2,1.0778069E2,2.5881904E-1,1.4808536E-1,-3.1973808E0,1.25677414E2,1.827847E2,2.80372E2,3.7007577E0,4.8080053E-2,1.393062E2,1.419136E2,1.4515862E2,4.7113193E2,3.0343418E0,1.2252042E2,1.2758972E2,-1.5444908E0,2.6568952E0,-3.6109948E-1,-1.7737973E0,-9.18042E-1,5.8798834E2,2.416664E2,2.0507666E2,1.15537636E2,-2.0417132E0,-1.0471325E0,1.3055792E-1,2.3726517E2,-5E-1,1.6134695E0,4.3873157E2,1.3072693E-1,8.660254E-1,-4.3388373E-1,-8.0845994E-1,-3.54943E-1,-1.3298942E0,-3.3536854E0,-7.178484E-1,4.0711674E-1,4.7087893E0,-1.3233843E0,-2.0939596E0,-7.389852E-1,-8.5422707E-1,6.3022576E-2,-7.6203585E-2,4.8698613E-1,3.4911045E-1,-2.947E-1,1.9715052E0,5.3828754E0,3.881918E-1,-3.6537196E-2,1.0991933E-1,-3.241055E-1,6.686911E-1,3.7997884E-1],"split_indices":[12,23,31,8,20,20,8,0,0,27,31,0,20,2,19,29,8,0,9,20,27,0,0,20,16,19,1,0,12,16,0,0,0,0,0,7,20,4,13,0,0,9,20,29,0,1,8,29,30,0,0,0,0,0,0,0,0,0,0,0,0,0,0,0,0,0,0,0,0,0,0,0,0],"split_type":[0,0,0,0,0,0,0,0,0,0,0,0,0,0,0,0,0,0,0,0,0,0,0,0,0,0,0,0,0,0,0,0,0,0,0,0,0,0,0,0,0,0,0,0,0,0,0,0,0,0,0,0,0,0,0,0,0,0,0,0,0,0,0,0,0,0,0,0,0,0,0,0,0],"sum_hessian":[1.044E3,3.38E2,7.06E2,7.3E1,2.65E2,3.78E2,3.28E2,5E0,6.8E1,9E1,1.75E2,1.1E1,3.67E2,1.23E2,2.05E2,5.6E1,1.2E1,5E0,8.5E1,1.51E2,2.4E1,5E0,6E0,1.5E1,3.52E2,4.2E1,8.1E1,5E0,2E2,4.5E1,1.1E1,5E0,7E0,7.9E1,6E0,1.09E2,4.2E1,1.1E1,1.3E1,6E0,9E0,1.55E2,1.97E2,3.7E1,5E0,6.6E1,1.5E1,8.8E1,1.12E2,1.6E1,2.9E1,1.03E2,6E0,3.7E1,5E0,6E0,5E0,7E0,6E0,2E1,1.35E2,2.1E1,1.76E2,1E1,2.7E1,4.1E1,2.5E1,5E0,1E1,6.7E1,2.1E1,3E1,8.2E1],"tree_param":{"num_deleted":"0","num_feature":"32","num_nodes":"73","size_leaf_vector":"1"}},{"base_weights":[3.4215647E-1,-2.219572E1,9.987921E0,-3.1548021E1,-9.924429E0,4.5991016E1,7.981951E0,-2.9981455E1,-3.2983627E0,3.3995285E0,-1.7686035E1,7.353726E1,1.790953E0,3.3303726E0,2.5169924E1,-3.119425E1,1.6972257E-1,4.9573845E1,-8.772305E0,-2.1222986E1,4.3442974E0,4.8643055E0,3.661717E1,-1.0879791E-1,3.0211797E-1,-5.274972E0,7.0069423E0,9.454399E0,4.858397E1,-3.1429484E0,-2.9836689E1,-4.7844526E-1,5.0235476E0,-7.8293127E-1,-6.6885056E0,-1.476688E1,-2.6661808E1,-1.2228421E0,1.6269554E0,3.492605E0,-1.3519776E-1,-6.242513E0,1.0855566E0,-3.5533025E0,8.499764E0,8.7949984E-2,1.0073551E1,2.6890854E1,1.01867096E2,-1.2110523E0,-1.6353518E0,-4.294156E-1,-1.4756273E-1,-1.0806476E0,-5.895447E-1,-1.5074633E0,-7.358833E-1,-7.175719E-1,-1.02712035E-1,1.1306234E-1,-1.3233085E0,1.9500035E0,3.872864E-1,4.5802116E-1,7.95233E-1,2.7286155E0,1.8330275E-1,6.8741555E0,2.2300594E0],"categories":[],"categories_nodes":[],"categories_segments":[],"categories_sizes":[],"default_left":[0,0,0,0,0,0,0,0,0,0,0,0,0,0,0,0,0,0,0,0,0,0,0,0,0,0,0,0,0,0,0,0,0,0,0,0,0,0,0,0,0,0,0,0,0,0,0,0,0,0,0,0,0,0,0,0,0,0,0,0,0,0,0,0,0,0,0,0,0],"id":15,"left_children":[1,3,5,7,9,11,13,15,-1,17,19,21,23,25,27,29,-1,31,33,35,37,-1,39,-1,-1,41,43,45,47,-1,49,-1,-1,-1,51,53,55,-1,-1,-1,-1,57,-1,59,61,-1,63,65,67,-1,-1,-1,-1,-1,-1,-1,-1,-1,-1,-1,-1,-1,-1,-1,-1,-1,-1,-1,-1],"loss_changes":[2.3065925E5,3.617797E4,5.328779E4,7.718203E3,1.4436279E4,4.7345055E4,5.6278918E4,7.151875E3,0E0,2.9664312E4,6.950867E3,1.7467703E4,2.8337378E2,1.7627945E4,5.4729484E4,5.3370156E3,0E0,3.408263E4,4.9572046E2,2.2707773E3,1.1353166E4,0E0,1.4570774E4,0E0,0E0,4.4943823E3,6.178877E3,4.1467773E2,6.660042E4,0E0,1.8294844E3,0E0,0E0,0E0,2.1490161E2,4.956548E2,1.2179746E3,0E0,0E0,0E0,0E0,5.4707856E3,0E0,6.5904385E3,7.558674E3,0E0,2.990625E2,2.8081549E4,2.8522812E4,0E0,0E0,0E0,0E0,0E0,0E0,0E0,0E0,0E0,0E0,0E0,0E0,0E0,0E0,0E0,0E0,0E0,0E0,0E0,0E0],"parents":[2147483647,0,0,1,1,2,2,3,3,4,4,5,5,6,6,7,7,9,9,10,10,11,11,12,12,13,13,14,14,15,15,17,17,18,18,19,19,20,20,22,22,25,25,26,26,27,27,28,28,30,30,34,34,35,35,36,36,41,41,43,43,44,44,46,46,47,47,48,48],"right_children":[2,4,6,8,10,12,14,16,-1,18,20,22,24,26,28,30,-1,32,34,36,38,-1,40,-1,-1,42,44,46,48,-1,50,-1,-1,-1,52,54,56,-1,-1,-1,-1,58,-1,60,62,-1,64,66,68,-1,-1,-1,-1,-1,-1,-1,-1,-1,-1,-1,-1,-1,-1,-1,-1,-1,-1,-1,-1],"split_conditions":[1.1484956E2,1.07460556E2,1.0933E1,5.8798834E2,1.7038304E2,1.4473337E-1,2.6073593E2,4.7473007E2,-3.2983627E0,1.3695201E-1,1E0,9.749279E-1,4.0772653E2,2.2972914E2,6.234898E-1,1.2270612E-1,1.6972257E-1,1.0126292E2,1.1519336E2,2.4572528E2,2.5009074E2,4.8643055E0,3.9686533E2,-1.0879791E-1,3.0211797E-1,2.66175E2,1.3647316E-1,2.4253178E2,2.5950565E2,-3.1429484E0,2.1748355E2,-4.7844526E-1,5.0235476E0,-7.8293127E-1,4.6674667E2,1.6186552E2,1.21522865E2,-1.2228421E0,1.6269554E0,3.492605E0,-1.3519776E-1,2.0656331E2,1.0855566E0,9.749279E-1,1.3250514E2,8.7949984E-2,1.08333334E-1,2.7927E2,-4.3388373E-1,-1.2110523E0,-1.6353518E0,-4.294156E-1,-1.4756273E-1,-1.0806476E0,-5.895447E-1,-1.5074633E0,-7.358833E-1,-7.175719E-1,-1.02712035E-1,1.1306234E-1,-1.3233085E0,1.9500035E0,3.872864E-1,4.5802116E-1,7.95233E-1,2.7286155E0,1.8330275E-1,6.8741555E0,2.2300594E0],"split_indices":[12,12,20,7,23,9,20,1,0,9,31,30,1,20,31,9,0,14,23,23,23,0,0,0,0,23,9,26,22,0,26,0,0,0,4,20,14,0,0,0,0,20,0,30,17,0,4,26,30,0,0,0,0,0,0,0,0,0,0,0,0,0,0,0,0,0,0,0,0],"split_type":[0,0,0,0,0,0,0,0,0,0,0,0,0,0,0,0,0,0,0,0,0,0,0,0,0,0,0,0,0,0,0,0,0,0,0,0,0,0,0,0,0,0,0,0,0,0,0,0,0,0,0,0,0,0,0,0,0,0,0,0,0,0,0,0,0,0,0,0,0],"sum_hessian":[1.059E3,3.17E2,7.42E2,1.79E2,1.38E2,3.8E1,7.04E2,1.73E2,6E0,5.1E1,8.7E1,2.3E1,1.5E1,5.55E2,1.49E2,1.67E2,6E0,1E1,4.1E1,7.5E1,1.2E1,1.3E1,1E1,8E0,7E0,1.66E2,3.89E2,9E1,5.9E1,5E0,1.62E2,5E0,5E0,8E0,3.3E1,3.6E1,3.9E1,6E0,6E0,5E0,5E0,1.61E2,5E0,4.8E1,3.41E2,7E0,8.3E1,4.3E1,1.6E1,5.8E1,1.04E2,2.1E1,1.2E1,9E0,2.7E1,2.9E1,1E1,5.4E1,1.07E2,3.9E1,9E0,7E0,3.34E2,7.4E1,9E0,1.9E1,2.4E1,9E0,7E0],"tree_param":{"num_deleted":"0","num_feature":"32","num_nodes":"69","size_leaf_vector":"1"}},{"base_weights":[-6.4804703E-1,-2.2172977E1,7.916676E0,5.6459017E0,-2.601735E1,4.605407E0,7.112696E0,3.8579686E0,-1.6739172E1,-2.9374743E1,-4.1216483E0,-2.521354E0,1.1437165E1,-2.259202E1,-1.674779E-1,-3.716627E0,-2.7177252E1,-2.269527E1,3.4908535E1,1.4955333E0,-3.6688309E0,3.5579838E1,1.0282749E1,-1.3726906E0,-7.487425E-1,-2.5681437E1,-3.1609876E0,-1.644788E0,4.1098332E-1,5.478367E0,-1.7028687E0,5.292992E0,-8.307287E0,2.266248E0,4.356903E0,7.8958464E0,2.0974197E1,-1.5165871E0,-9.21501E-1,-4.891289E-3,1.0333358E0,-7.459366E-1,-2.728354E-1,3.444035E-1,-1.3131775E-1,3.3069488E-1,8.510129E-1,2.9182174E0,2.3076685E-1],"categories":[],"categories_nodes":[],"categories_segments":[],"categories_sizes":[],"default_left":[0,0,0,0,0,0,0,0,0,0,0,0,0,0,0,0,0,0,0,0,0,0,0,0,0,0,0,0,0,0,0,0,0,0,0,0,0,0,0,0,0,0,0,0,0,0,0,0,0],"id":16,"left_children":[1,3,5,7,9,-1,11,-1,13,15,17,19,21,23,-1,-1,25,27,29,-1,31,33,35,-1,-1,37,-1,-1,-1,-1,-1,39,41,43,-1,45,47,-1,-1,-1,-1,-1,-1,-1,-1,-1,-1,-1,-1],"loss_changes":[1.9301236E5,3.2018875E4,5.0033434E4,6.05285E4,1.9135828E4,0E0,3.0984707E4,0E0,2.1943867E3,2.0396016E4,2.6888584E4,8.703777E3,1.3927219E4,3.2530176E2,0E0,0E0,1.0120547E4,8.156545E3,6.5526074E4,0E0,9.355733E3,3.9298145E4,1.2361555E4,0E0,0E0,6.5513125E3,0E0,0E0,0E0,0E0,0E0,6.3856025E3,2.705829E3,3.5770776E2,0E0,4.5989707E3,5.4162086E4,0E0,0E0,0E0,0E0,0E0,0E0,0E0,0E0,0E0,0E0,0E0,0E0],"parents":[2147483647,0,0,1,1,2,2,3,3,4,4,6,6,8,8,9,9,10,10,11,11,12,12,13,13,16,16,17,17,18,18,20,20,21,21,22,22,25,25,31,31,32,32,33,33,35,35,36,36],"right_children":[2,4,6,8,10,-1,12,-1,14,16,18,20,22,24,-1,-1,26,28,30,-1,32,34,36,-1,-1,38,-1,-1,-1,-1,-1,40,42,44,-1,46,48,-1,-1,-1,-1,-1,-1,-1,-1,-1,-1,-1,-1],"split_conditions":[2.3969733E2,1.7038304E2,6.778E1,1.3698623E-1,1E0,4.605407E0,1.2075472E2,3.8579686E0,1.827847E2,1.6925517E2,4.0879837E2,2.4168933E2,1.0933E1,1E0,-1.674779E-1,-3.716627E0,5.8798834E2,1.4807072E2,2.0507666E2,1.4955333E0,-2.5881904E-1,1.2535878E2,1E0,-1.3726906E0,-7.487425E-1,1.4308919E2,-3.1609876E0,-1.644788E0,4.1098332E-1,5.478367E0,-1.7028687E0,4.597906E2,2.51562E2,3.3918463E2,4.356903E0,2.6875946E2,1.3695201E-1,-1.5165871E0,-9.21501E-1,-4.891289E-3,1.0333358E0,-7.459366E-1,-2.728354E-1,3.444035E-1,-1.3131775E-1,3.3069488E-1,8.510129E-1,2.9182174E0,2.3076685E-1],"split_indices":[24,23,15,8,31,0,12,0,20,24,3,24,20,28,0,0,7,20,4,0,29,14,31,0,0,20,0,0,0,0,0,1,24,3,0,22,9,0,0,0,0,0,0,0,0,0,0,0,0],"split_type":[0,0,0,0,0,0,0,0,0,0,0,0,0,0,0,0,0,0,0,0,0,0,0,0,0,0,0,0,0,0,0,0,0,0,0,0,0,0,0,0,0,0,0,0,0,0,0,0,0],"sum_hessian":[1.045E3,2.97E2,7.48E2,3.6E1,2.61E2,6E0,7.42E2,8E0,2.8E1,2.26E2,3.5E1,2.3E2,5.12E2,1.9E1,9E0,9E0,2.17E2,2.4E1,1.1E1,7E0,2.23E2,2.2E1,4.9E2,1E1,9E0,2.1E2,7E0,1.8E1,6E0,5E0,6E0,7.6E1,1.47E2,1.4E1,8E0,4.02E2,8.8E1,1.26E2,8.4E1,5.7E1,1.9E1,4.3E1,1.04E2,7E0,7E0,3.54E2,4.8E1,2.6E1,6.2E1],"tree_param":{"num_deleted":"0","num_feature":"32","num_nodes":"49","size_leaf_vector":"1"}},{"base_weights":[-7.890021E-2,-2.4050564E1,6.558935E0,-2.531797E1,9.873463E-1,3.7866856E1,4.6663213E0,-2.4110262E1,-2.9562888E0,1.2514049E1,4.5555954E0,-9.295907E0,9.016E0,-3.0356682E1,-1.917983E1,3.2578952E0,-1.5941391E0,-7.584024E0,-2.5986745E0,7.3144655E0,3.0194006E1,-3.2331413E1,1.9889773E-1,-2.397865E1,6.9679666E0,-6.0874104E-1,2.7128406E0,-2.1888334E1,-5.3484354E0,5.231745E0,1.6811674E1,6.2571823E1,5.3681397E0,-3.0994656E0,-1.4913453E0,-1.404188E0,-7.9995084E-1,3.0458424E0,-1.3379825E0,2.6653564E-1,-1.4480835E-1,-3.4380236E-1,-1.3252436E0,-3.83552E-1,1.8041767E-1,-8.201082E-2,4.0988895E-1,5.3429675E0,5.442019E-1,3.9516258E-1,6.1212716E0,1.1270907E-1,3.5836136E-1],"categories":[],"categories_nodes":[],"categories_segments":[],"categories_sizes":[],"default_left":[0,0,0,0,0,0,0,0,0,0,0,0,0,0,0,0,0,0,0,0,0,0,0,0,0,0,0,0,0,0,0,0,0,0,0,0,0,0,0,0,0,0,0,0,0,0,0,0,0,0,0,0,0],"id":17,"left_children":[1,3,5,7,-1,9,11,13,-1,15,-1,17,19,21,23,-1,25,27,-1,29,31,33,-1,35,37,-1,39,41,43,45,47,49,51,-1,-1,-1,-1,-1,-1,-1,-1,-1,-1,-1,-1,-1,-1,-1,-1,-1,-1,-1,-1],"loss_changes":[1.6803105E5,1.3212141E4,4.882194E4,7.671203E3,0E0,6.2295305E4,4.751485E4,6.095867E3,0E0,2.461964E4,0E0,1.3188856E4,2.1252312E4,6.5048125E3,1.5728125E4,0E0,1.2643856E3,5.6363486E3,0E0,1.0848197E4,3.502484E4,4.7526484E3,0E0,2.985793E3,3.802487E4,0E0,3.093554E2,1.4777285E3,3.294169E3,9.288128E3,5.1668375E4,6.1189523E4,1.2856097E2,0E0,0E0,0E0,0E0,0E0,0E0,0E0,0E0,0E0,0E0,0E0,0E0,0E0,0E0,0E0,0E0,0E0,0E0,0E0,0E0],"parents":[2147483647,0,0,1,1,2,2,3,3,5,5,6,6,7,7,9,9,11,11,12,12,13,13,14,14,16,16,17,17,19,19,20,20,21,21,23,23,24,24,26,26,27,27,28,28,29,29,30,30,31,31,32,32],"right_children":[2,4,6,8,-1,10,12,14,-1,16,-1,18,20,22,24,-1,26,28,-1,30,32,34,-1,36,38,-1,40,42,44,46,48,50,52,-1,-1,-1,-1,-1,-1,-1,-1,-1,-1,-1,-1,-1,-1,-1,-1,-1,-1,-1,-1],"split_conditions":[1.1086014E2,1.9058505E2,1.0933E1,5.8798834E2,9.873463E-1,4.454466E2,2.1830322E2,1.01036385E2,-2.9562888E0,1.3698623E-1,4.5555954E0,5.0796548E2,2.7249408E2,4.620428E2,1E0,3.2578952E0,1.3643E2,1.5234555E2,-2.5986745E0,1E0,4.5631152E2,2.4209564E2,1.9889773E-1,9.659258E-1,2.0782378E2,-6.0874104E-1,1.2232847E2,5E-1,1.2373736E2,2.7991867E2,2.596162E2,4.2555103E2,1.2190238E2,-3.0994656E0,-1.4913453E0,-1.404188E0,-7.9995084E-1,3.0458424E0,-1.3379825E0,2.6653564E-1,-1.4480835E-1,-3.4380236E-1,-1.3252436E0,-3.83552E-1,1.8041767E-1,-8.201082E-2,4.0988895E-1,5.3429675E0,5.442019E-1,3.9516258E-1,6.1212716E0,1.1270907E-1,3.5836136E-1],"split_indices":[12,20,20,7,0,3,20,12,0,8,0,1,21,2,31,0,17,20,0,31,1,3,0,28,24,0,14,29,14,25,24,2,14,0,0,0,0,0,0,0,0,0,0,0,0,0,0,0,0,0,0,0,0],"split_type":[0,0,0,0,0,0,0,0,0,0,0,0,0,0,0,0,0,0,0,0,0,0,0,0,0,0,0,0,0,0,0,0,0,0,0,0,0,0,0,0,0,0,0,0,0,0,0,0,0,0,0,0,0],"sum_hessian":[1.054E3,2.28E2,8.26E2,2.22E2,6E0,4.6E1,7.8E2,2.16E2,6E0,3.2E1,1.4E1,1.85E2,5.95E2,9.3E1,1.23E2,6E0,2.6E1,1.79E2,6E0,5.52E2,4.3E1,8.8E1,5E0,1.04E2,1.9E1,7E0,1.9E1,2.3E1,1.56E2,4.54E2,9.8E1,1.8E1,2.5E1,5E0,8.3E1,6.7E1,3.7E1,7E0,1.2E1,1.3E1,6E0,6E0,1.7E1,1.24E2,3.2E1,1.37E2,3.17E2,5E0,9.3E1,1E1,8E0,1E1,1.5E1],"tree_param":{"num_deleted":"0","num_feature":"32","num_nodes":"53","size_leaf_vector":"1"}},{"base_weights":[4.7178265E-1,-1.6931108E1,9.696278E0,-2.3277021E1,-6.6940503E0,4.6849144E1,7.840661E0,-1.4326805E1,-2.731541E1,1.2494652E0,-9.009271E0,7.493887E1,3.3674495E0,1.2165241E0,1.3467521E1,-1.6744003E1,7.719615E-1,-2.5618538E1,-3.2725408E0,-3.1452507E1,-6.543112E0,1.9782743E0,4.204282E0,3.3092377E-1,4.074134E-2,-1.2324584E1,2.837397E0,2.01815E1,3.255709E0,-1.9067982E1,5.2158946E-1,-2.6736958E1,2.9247138E-1,-2.0574775E0,-8.6239827E-1,-1.0602926E0,-1.2189353E1,9.302429E-2,-1.6219046E1,8.37177E0,4.4211024E-1,6.963072E1,1.4527599E1,-6.2318754E0,7.2244387E0,-1.1955988E0,-7.1150535E-1,-1.469911E0,-9.1985524E-1,1.6998247E0,-2.6743326E-1,-7.1047777E-1,4.1720334E-1,-9.5150644E-1,-1.8302058E-1,1.8947356E0,2.3580301E-1,-2.4304222E-1,1.4651501E-1,5.676765E0,1.178699E0,6.5325546E-1,2.932279E0,-1.9132255E0,-2.5783229E-5,4.247788E-1,1.5891032E-1],"categories":[],"categories_nodes":[],"categories_segments":[],"categories_sizes":[],"default_left":[0,0,0,0,0,0,0,0,0,0,0,0,0,0,0,0,0,0,0,0,0,0,0,0,0,0,0,0,0,0,0,0,0,0,0,0,0,0,0,0,0,0,0,0,0,0,0,0,0,0,0,0,0,0,0,0,0,0,0,0,0,0,0,0,0,0,0],"id":18,"left_children":[1,3,5,7,9,11,13,15,17,-1,19,21,23,25,27,29,-1,31,-1,33,35,-1,-1,-1,-1,37,39,41,43,45,-1,47,-1,-1,-1,49,51,-1,53,55,57,59,61,63,65,-1,-1,-1,-1,-1,-1,-1,-1,-1,-1,-1,-1,-1,-1,-1,-1,-1,-1,-1,-1,-1,-1],"loss_changes":[1.7145205E5,2.387768E4,4.774836E4,7.8454297E3,1.071315E4,4.004565E4,2.4806031E4,5.5110225E3,8.409047E3,0E0,7.2071133E3,3.1317812E3,1.10044754E2,6.7721846E3,2.461423E4,4.494385E3,0E0,5.472836E3,0E0,1.0750615E3,3.7625435E3,0E0,0E0,0E0,0E0,1.8546367E3,3.6409302E3,5.9649094E4,5.4672476E3,1.1322988E3,0E0,2.6947812E3,0E0,0E0,0E0,9.650174E3,2.6080527E3,0E0,8.4596045E2,8.774992E3,2.5606392E3,4.1796055E4,1.1872945E4,8.579249E3,4.964502E2,0E0,0E0,0E0,0E0,0E0,0E0,0E0,0E0,0E0,0E0,0E0,0E0,0E0,0E0,0E0,0E0,0E0,0E0,0E0,0E0,0E0,0E0],"parents":[2147483647,0,0,1,1,2,2,3,3,4,4,5,5,6,6,7,7,8,8,10,10,11,11,12,12,13,13,14,14,15,15,17,17,19,19,20,20,25,25,26,26,27,27,28,28,29,29,31,31,35,35,36,36,38,38,39,39,40,40,41,41,42,42,43,43,44,44],"right_children":[2,4,6,8,10,12,14,16,18,-1,20,22,24,26,28,30,-1,32,-1,34,36,-1,-1,-1,-1,38,40,42,44,46,-1,48,-1,-1,-1,50,52,-1,54,56,58,60,62,64,66,-1,-1,-1,-1,-1,-1,-1,-1,-1,-1,-1,-1,-1,-1,-1,-1,-1,-1,-1,-1,-1,-1],"split_conditions":[1.1671306E2,1.1086014E2,1.0933E1,1.3620569E2,1.0933E1,1.4808536E-1,2.4553606E2,5.5888666E2,4.7473007E2,1.2494652E0,1.5234555E2,3.8180936E2,2.9952805E2,1.9803947E2,4.3388373E-1,1.3484395E2,7.719615E-1,1.1532806E2,-3.2725408E0,2.8053E2,2.6547577E2,1.9782743E0,4.204282E0,3.3092377E-1,4.074134E-2,1.827847E2,-4.3388373E-1,2.795551E2,1.4134547E2,2.170129E2,5.2158946E-1,4.271274E2,2.9247138E-1,-2.0574775E0,-8.6239827E-1,2.4073845E2,5.939965E2,9.302429E-2,2.8275333E2,2.65106E2,1.2475084E2,2.8459912E2,3.046938E2,1.3055792E-1,2.5950565E2,-1.1955988E0,-7.1150535E-1,-1.469911E0,-9.1985524E-1,1.6998247E0,-2.6743326E-1,-7.1047777E-1,4.1720334E-1,-9.5150644E-1,-1.8302058E-1,1.8947356E0,2.3580301E-1,-2.4304222E-1,1.4651501E-1,5.676765E0,1.178699E0,6.5325546E-1,2.932279E0,-1.9132255E0,-2.5783229E-5,4.247788E-1,1.5891032E-1],"split_indices":[12,12,20,22,20,8,20,4,0,0,20,3,3,20,30,22,0,13,0,4,26,0,0,0,0,23,30,24,16,24,0,3,0,0,0,24,4,0,4,24,8,26,25,9,22,0,0,0,0,0,0,0,0,0,0,0,0,0,0,0,0,0,0,0,0,0,0],"split_type":[0,0,0,0,0,0,0,0,0,0,0,0,0,0,0,0,0,0,0,0,0,0,0,0,0,0,0,0,0,0,0,0,0,0,0,0,0,0,0,0,0,0,0,0,0,0,0,0,0,0,0,0,0,0,0,0,0,0,0,0,0,0,0,0,0,0,0],"sum_hessian":[1.066E3,3.69E2,6.97E2,2.27E2,1.42E2,3.2E1,6.65E2,7.2E1,1.55E2,9E0,1.33E2,1.9E1,1.3E1,3.06E2,3.59E2,6.7E1,5E0,1.5E2,5E0,1.2E1,1.21E2,5E0,1.4E1,5E0,8E0,3.2E1,2.74E2,2.16E2,1.43E2,6.2E1,5E0,1.45E2,5E0,6E0,6E0,6.2E1,5.9E1,7E0,2.5E1,8.2E1,1.92E2,2.1E1,1.95E2,4.2E1,1.01E2,2.9E1,3.3E1,1.08E2,3.7E1,6E0,5.6E1,5.4E1,5E0,2E1,5E0,8E0,7.4E1,6.1E1,1.31E2,1E1,1.1E1,1.9E2,5E0,6E0,3.6E1,7.6E1,2.5E1],"tree_param":{"num_deleted":"0","num_feature":"32","num_nodes":"67","size_leaf_vector":"1"}},{"base_weights":[-3.7840322E-1,-1.6810572E1,8.587163E0,-2.5153477E1,-8.553852E0,3.9597496E1,6.971603E0,-2.3849512E1,-3.0249074E0,-1.258892E1,9.166273E0,6.522162E1,2.7854965E0,3.1987176E0,2.0179949E1,-2.600077E1,-5.119288E0,-4.8155556E0,-1.8385548E1,4.480733E1,-1.5546551E1,1.8887116E0,4.0181847E0,2.3085046E-1,2.9664842E-2,1.1082843E-1,8.959299E0,7.633716E0,3.8549248E1,1.15837514E-1,-2.728692E1,1.2242125E0,-1.6626085E1,-6.606039E0,7.385224E-1,-1.5517572E1,-2.7728136E0,-2.4307214E-1,3.9235559E0,-6.0398693E0,-2.4495062E1,-1.2779106E1,2.1554015E0,2.4616055E0,6.53702E0,8.131649E0,3.4798585E-2,8.377935E-1,5.7864407E1,-2.771715E0,-1.2993555E0,-1.0356582E0,-5.224122E-1,-4.8862466E-1,-1.5094867E-1,-1.0167513E0,-3.0824953E-1,-4.2090818E-1,-1.5621038E-1,-7.1356916E-1,-1.5309782E0,-3.034372E-1,-2.8243368E0,4.573381E-2,1.0423883E0,3.6254102E-1,-6.5781675E-2,4.2963713E-2,4.2957115E-1,-2.0676474E-1,3.3658603E-1,4.647466E0,8.07131E-2],"categories":[],"categories_nodes":[],"categories_segments":[],"categories_sizes":[],"default_left":[0,0,0,0,0,0,0,0,0,0,0,0,0,0,0,0,0,0,0,0,0,0,0,0,0,0,0,0,0,0,0,0,0,0,0,0,0,0,0,0,0,0,0,0,0,0,0,0,0,0,0,0,0,0,0,0,0,0,0,0,0,0,0,0,0,0,0,0,0,0,0,0,0],"id":19,"left_children":[1,3,5,7,9,11,13,15,-1,17,19,21,23,25,27,29,31,33,35,37,39,-1,-1,-1,-1,41,43,45,47,-1,49,-1,51,53,-1,55,-1,-1,-1,57,59,61,63,-1,65,67,-1,69,71,-1,-1,-1,-1,-1,-1,-1,-1,-1,-1,-1,-1,-1,-1,-1,-1,-1,-1,-1,-1,-1,-1,-1,-1],"loss_changes":[1.5733958E5,2.5751125E4,3.4337727E4,7.167203E3,1.3772602E4,3.1882887E4,3.2723604E4,7.197211E3,0E0,6.9383945E3,3.240801E4,5.264711E3,5.6965332E1,9.123363E3,3.3349074E4,6.0022656E3,7.2191294E3,2.4814097E3,8.594646E3,2.5469428E4,1.7205542E3,0E0,0E0,0E0,0E0,8.855209E3,1.7134393E4,2.9745703E2,4.2921414E4,0E0,4.2587344E3,0E0,1.5920801E2,6.847898E2,0E0,3.6566582E3,0E0,0E0,0E0,5.5757294E1,2.472915E2,1.3142467E4,6.704461E3,0E0,9.630205E2,2.6585156E2,0E0,6.436287E2,7.680822E4,0E0,0E0,0E0,0E0,0E0,0E0,0E0,0E0,0E0,0E0,0E0,0E0,0E0,0E0,0E0,0E0,0E0,0E0,0E0,0E0,0E0,0E0,0E0,0E0],"parents":[2147483647,0,0,1,1,2,2,3,3,4,4,5,5,6,6,7,7,9,9,10,10,11,11,12,12,13,13,14,14,15,15,16,16,17,17,18,18,19,19,20,20,25,25,26,26,27,27,28,28,30,30,32,32,33,33,35,35,39,39,40,40,41,41,42,42,44,44,45,45,47,47,48,48],"right_children":[2,4,6,8,10,12,14,16,-1,18,20,22,24,26,28,30,32,34,36,38,40,-1,-1,-1,-1,42,44,46,48,-1,50,-1,52,54,-1,56,-1,-1,-1,58,60,62,64,-1,66,68,-1,70,72,-1,-1,-1,-1,-1,-1,-1,-1,-1,-1,-1,-1,-1,-1,-1,-1,-1,-1,-1,-1,-1,-1,-1,-1],"split_conditions":[1.1671306E2,1.0704208E2,1.0933E1,2.6761115E2,1E0,1.4808536E-1,2.6183337E2,1.4807072E2,-3.0249074E0,2.2965909E2,1.08333334E-1,6.234898E-1,-7.0710677E-1,1.4280875E2,6.234898E-1,2.5881904E-1,1.1800375E2,1.2369833E2,4.9477078E2,3.6601297E2,1.01036385E2,1.8887116E0,4.0181847E0,2.3085046E-1,2.9664842E-2,1.3072693E-1,1.4289223E2,1.283507E2,4.196628E2,1.15837514E-1,2.3373622E2,1.2242125E0,1.08333334E-1,1.3096263E2,7.385224E-1,2.0796245E2,-2.7728136E0,-2.4307214E-1,3.9235559E0,1.1164486E2,5.815356E2,4.5868353E2,2.6831638E2,2.4616055E0,1.2978708E2,2.3985222E2,3.4798585E-2,1.2579875E2,4.570401E2,-2.771715E0,-1.2993555E0,-1.0356582E0,-5.224122E-1,-4.8862466E-1,-1.5094867E-1,-1.0167513E0,-3.0824953E-1,-4.2090818E-1,-1.5621038E-1,-7.1356916E-1,-1.5309782E0,-3.034372E-1,-2.8243368E0,4.573381E-2,1.0423883E0,3.6254102E-1,-6.5781675E-2,4.2963713E-2,4.2957115E-1,-2.0676474E-1,3.3658603E-1,4.647466E0,8.07131E-2],"split_indices":[12,12,20,23,31,8,20,20,0,23,5,31,29,16,31,29,16,15,0,0,14,0,0,0,0,8,16,14,2,0,27,0,5,16,0,21,0,0,0,12,7,2,23,0,14,26,0,13,0,0,0,0,0,0,0,0,0,0,0,0,0,0,0,0,0,0,0,0,0,0,0,0,0],"split_type":[0,0,0,0,0,0,0,0,0,0,0,0,0,0,0,0,0,0,0,0,0,0,0,0,0,0,0,0,0,0,0,0,0,0,0,0,0,0,0,0,0,0,0,0,0,0,0,0,0,0,0,0,0,0,0,0,0,0,0,0,0,0,0,0,0,0,0,0,0,0,0,0,0],"sum_hessian":[1.066E3,3.76E2,6.9E2,1.86E2,1.9E2,3.3E1,6.57E2,1.81E2,5E0,1.55E2,3.5E1,1.9E1,1.4E1,5.12E2,1.45E2,1.62E2,1.9E1,6.7E1,8.8E1,1.4E1,2.1E1,8E0,1.1E1,7E0,7E0,3.34E2,1.78E2,8.7E1,5.8E1,7E0,1.55E2,5E0,1.4E1,6.2E1,5E0,8.3E1,5E0,6E0,8E0,1.1E1,1E1,4.5E1,2.89E2,9E0,1.69E2,8.1E1,6E0,2E1,3.8E1,5E0,1.5E2,7E0,7E0,3.2E1,3E1,5.4E1,2.9E1,5E0,6E0,5E0,5E0,4E1,5E0,2.72E2,1.7E1,1.55E2,1.4E1,5E0,7.6E1,1.1E1,9E0,2.3E1,1.5E1],"tree_param":{"num_deleted":"0","num_feature":"32","num_nodes":"73","size_leaf_vector":"1"}},{"base_weights":[1.9860123E-1,-1.3631797E1,9.568117E0,2.964772E0,-1.750983E1,3.860401E0,8.815551E0,3.8999825E1,-9.66437E0,-1.5745159E1,-2.8285177E0,8.20476E0,3.6087654E0,6.3735924E0,4.270366E0,-1.7211514E1,-6.011932E0,-1.9940727E1,-3.2174497E0,7.554766E0,3.2805307E0,-6.4234746E-1,1.7079403E0,-1.0566804E0,-5.5830294E-1,-7.5448084E0,-2.8515973E0,-2.2676992E1,-3.643811E0,1.4907002E0,-5.5963674E0,6.337144E0,2.2209694E1,-4.3803582E-1,-2.1742557E-1,-1.9566445E-1,-2.066147E-2,-1.4469126E0,-9.4682187E-1,1.5394567E0,-1.2508372E0,-4.1025224E-1,1.4478922E-1,2.7923763E-1,1.6345869E0,2.1921277E-1,2.8790154E0],"categories":[],"categories_nodes":[],"categories_segments":[],"categories_sizes":[],"default_left":[0,0,0,0,0,0,0,0,0,0,0,0,0,0,0,0,0,0,0,0,0,0,0,0,0,0,0,0,0,0,0,0,0,0,0,0,0,0,0,0,0,0,0,0,0,0,0],"id":20,"left_children":[1,3,5,7,9,-1,11,13,15,17,-1,19,-1,21,-1,23,25,27,29,31,-1,-1,-1,-1,-1,33,35,37,39,-1,41,43,45,-1,-1,-1,-1,-1,-1,-1,-1,-1,-1,-1,-1,-1,-1],"loss_changes":[1.408584E5,2.8308297E4,3.229623E4,3.8607555E4,2.3640781E4,0E0,2.4244918E4,3.2756707E4,1.6308281E3,1.7909344E4,0E0,2.3265652E4,0E0,7.9176226E3,0E0,2.3500781E2,1.9059924E2,1.1330469E4,7.0008115E3,1.111607E4,0E0,0E0,0E0,0E0,0E0,7.329883E1,3.937097E1,4.576328E3,2.8735121E4,0E0,1.8408604E3,1.1393713E4,3.0005197E4,0E0,0E0,0E0,0E0,0E0,0E0,0E0,0E0,0E0,0E0,0E0,0E0,0E0,0E0],"parents":[2147483647,0,0,1,1,2,2,3,3,4,4,6,6,7,7,8,8,9,9,11,11,13,13,15,15,16,16,17,17,18,18,19,19,25,25,26,26,27,27,28,28,30,30,31,31,32,32],"right_children":[2,4,6,8,10,-1,12,14,16,18,-1,20,-1,22,-1,24,26,28,30,32,-1,-1,-1,-1,-1,34,36,38,40,-1,42,44,46,-1,-1,-1,-1,-1,-1,-1,-1,-1,-1,-1,-1,-1,-1],"split_conditions":[2.6415222E2,1.7038304E2,6.778E1,1.3698623E-1,5.862633E2,3.860401E0,2.8506363E2,3.6753934E2,1.647797E2,2.0656331E2,-2.8285177E0,2.8506363E2,3.6087654E0,1.0126292E2,4.270366E0,3.01405E2,4.8291168E2,1E0,2.1553934E2,1.2727471E2,3.2805307E0,-6.4234746E-1,1.7079403E0,-1.0566804E0,-5.5830294E-1,2.50748E2,2.01032E2,1.9970111E2,1.3698623E-1,1.4907002E0,4.409154E2,2.74131E2,4.1404056E2,-4.3803582E-1,-2.1742557E-1,-1.9566445E-1,-2.066147E-2,-1.4469126E0,-9.4682187E-1,1.5394567E0,-1.2508372E0,-4.1025224E-1,1.4478922E-1,2.7923763E-1,1.6345869E0,2.1921277E-1,2.8790154E0],"split_indices":[24,23,15,8,7,0,23,1,20,21,0,21,0,14,0,4,4,31,24,15,0,0,0,0,0,24,26,24,8,0,1,23,0,0,0,0,0,0,0,0,0,0,0,0,0,0,0],"split_type":[0,0,0,0,0,0,0,0,0,0,0,0,0,0,0,0,0,0,0,0,0,0,0,0,0,0,0,0,0,0,0,0,0,0,0,0,0,0,0,0,0,0,0,0,0,0,0],"sum_hessian":[1.085E3,4.38E2,6.47E2,8.3E1,3.55E2,6E0,6.41E2,2.1E1,6.2E1,3.41E2,1.4E1,6.36E2,5E0,1.3E1,8E0,1.9E1,4.3E1,2.55E2,8.6E1,6.3E2,6E0,8E0,5E0,1E1,9E0,2.8E1,1.5E1,2.18E2,3.7E1,5E0,8.1E1,5.83E2,4.7E1,1.9E1,9E0,1E1,5E0,7.9E1,1.39E2,1.4E1,2.3E1,6.2E1,1.9E1,5.68E2,1.5E1,3.2E1,1.5E1],"tree_param":{"num_deleted":"0","num_feature":"32","num_nodes":"47","size_leaf_vector":"1"}},{"base_weights":[4.0669635E-1,-1.9941938E1,6.06686E0,-2.115902E1,6.277246E-1,5.5284753E0,3.9712963E0,-1.1905183E1,-2.5374817E1,3.1700895E1,4.1263556E0,-1.4043101E1,6.967886E-1,-2.367238E1,-3.1561224E0,6.0443977E1,7.4766904E-2,6.7716435E-2,1.3852372E1,-1.6304075E1,5.822069E-1,-2.2062777E1,-2.1834326E0,3.6226394E0,8.164172E-1,-4.889031E-1,3.7711549E0,-1.6244152E1,1.996439E0,6.883361E1,1.054006E1,-1.0120047E0,-5.8559626E-1,-5.649887E-1,-1.1994578E0,4.812103E-2,2.6750764E-1,-1.9560242E0,-6.205203E-1,2.0871482E0,7.54722E-2,-9.361908E-2,5.6635704E0,4.427004E-1,3.4591794E0],"categories":[],"categories_nodes":[],"categories_segments":[],"categories_sizes":[],"default_left":[0,0,0,0,0,0,0,0,0,0,0,0,0,0,0,0,0,0,0,0,0,0,0,0,0,0,0,0,0,0,0,0,0,0,0,0,0,0,0,0,0,0,0,0,0],"id":21,"left_children":[1,3,5,7,-1,9,-1,11,13,15,17,19,-1,21,-1,23,25,27,29,31,-1,33,-1,-1,-1,-1,35,37,39,41,43,-1,-1,-1,-1,-1,-1,-1,-1,-1,-1,-1,-1,-1,-1],"loss_changes":[1.2278269E5,9.442273E3,3.2491596E4,8.432945E3,0E0,3.0287303E4,0E0,4.173414E3,8.329289E3,3.816879E4,3.1103494E4,4.0815498E3,0E0,3.7935234E3,0E0,1.0463164E4,8.010913E2,1.755482E4,4.1517223E4,8.803906E2,0E0,2.6073672E3,0E0,0E0,0E0,0E0,6.517943E1,4.6837656E3,9.59149E3,4.106946E4,2.1132373E4,0E0,0E0,0E0,0E0,0E0,0E0,0E0,0E0,0E0,0E0,0E0,0E0,0E0,0E0],"parents":[2147483647,0,0,1,1,2,2,3,3,5,5,7,7,8,8,9,9,10,10,11,11,13,13,15,15,16,16,17,17,18,18,19,19,21,21,26,26,27,27,28,28,29,29,30,30],"right_children":[2,4,6,8,-1,10,-1,12,14,16,18,20,-1,22,-1,24,26,28,30,32,-1,34,-1,-1,-1,-1,36,38,40,42,44,-1,-1,-1,-1,-1,-1,-1,-1,-1,-1,-1,-1,-1,-1],"split_conditions":[1.1164486E2,1.2125902E2,2.8506363E2,1.3620569E2,6.277246E-1,1.0933E1,3.9712963E0,5.252367E2,4.8152682E2,1.4808536E-1,2.5496394E2,1.3484395E2,6.967886E-1,2.6761115E2,-3.1561224E0,2.7864972E2,2.6634067E2,2.3969733E2,2.795551E2,1.2091583E2,5.822069E-1,2.1748355E2,-2.1834326E0,3.6226394E0,8.164172E-1,-4.889031E-1,4.1374036E2,1.94949E2,2.4073845E2,-2.2252093E-1,2.8506363E2,-1.0120047E0,-5.8559626E-1,-5.649887E-1,-1.1994578E0,4.812103E-2,2.6750764E-1,-1.9560242E0,-6.205203E-1,2.0871482E0,7.54722E-2,-9.361908E-2,5.6635704E0,4.427004E-1,3.4591794E0],"split_indices":[12,14,22,22,0,21,0,4,0,8,21,22,0,23,0,24,24,24,25,16,0,26,0,0,0,0,1,24,24,31,23,0,0,0,0,0,0,0,0,0,0,0,0,0,0],"split_type":[0,0,0,0,0,0,0,0,0,0,0,0,0,0,0,0,0,0,0,0,0,0,0,0,0,0,0,0,0,0,0,0,0,0,0,0,0,0,0,0,0,0,0,0,0],"sum_hessian":[1.064E3,2.31E2,8.33E2,2.23E2,8E0,8.28E2,5E0,7.1E1,1.52E2,4.1E1,7.87E2,6.6E1,5E0,1.47E2,5E0,2.1E1,2E1,5.56E2,2.31E2,6.1E1,5E0,1.38E2,9E0,1.6E1,5E0,5E0,1.5E1,5.8E1,4.98E2,1.2E1,2.19E2,3.1E1,3E1,2.2E1,1.16E2,6E0,9E0,7E0,5.1E1,5E0,4.93E2,5E0,7E0,2.14E2,5E0],"tree_param":{"num_deleted":"0","num_feature":"32","num_nodes":"45","size_leaf_vector":"1"}},{"base_weights":[2.3825513E-1,-1.4484747E1,8.130795E0,-2.2530365E1,-7.1593475E0,7.4931173E0,3.9195726E0,-3.1023772E0,-2.0489595E1,1.8904573E0,-1.2025967E1,3.2333237E1,5.7067704E0,-1.9077677E1,-2.491031E0,1.928922E0,-4.358192E0,-1.0249399E1,-2.0247667E0,5.4310757E1,2.1407993E0,4.045497E0,1.9840296E1,-2.012316E1,3.3170116E-1,-1.1356891E1,2.3991453E1,-1.4063414E1,-5.232638E0,-1.5585637E-1,6.813726E1,2.1671724E-1,-3.886053E-2,-1.7200289E0,7.136879E0,6.0111034E1,1.06914015E1,-6.605227E-1,-1.2318522E0,-2.4422882E-1,-8.556019E-1,-7.738831E-1,3.3028424E0,-4.6517602E-1,-8.090753E-1,-1.5974383E-1,-4.352872E-1,3.711867E0,2.024875E0,-5.1282298E-2,4.688675E-2,-1.7941914E-1,7.541369E-1,3.114315E-1,1.0242729E0,-2.8245932E-1,5.395197E0,2.6293245E-1,2.7082887E0],"categories":[],"categories_nodes":[],"categories_segments":[],"categories_sizes":[],"default_left":[0,0,0,0,0,0,0,0,0,0,0,0,0,0,0,0,0,0,0,0,0,0,0,0,0,0,0,0,0,0,0,0,0,0,0,0,0,0,0,0,0,0,0,0,0,0,0,0,0,0,0,0,0,0,0,0,0,0,0],"id":22,"left_children":[1,3,5,7,9,11,-1,-1,13,15,17,19,21,23,-1,-1,25,27,-1,29,31,33,35,37,-1,39,41,43,45,-1,47,-1,49,51,53,55,57,-1,-1,-1,-1,-1,-1,-1,-1,-1,-1,-1,-1,-1,-1,-1,-1,-1,-1,-1,-1,-1,-1],"loss_changes":[1.2119949E5,2.128893E4,2.9825695E4,1.2672078E4,8.479803E3,2.9719133E4,0E0,0E0,5.917203E3,1.5760579E4,5.90209E3,2.9738059E4,1.4709527E4,4.435828E3,0E0,0E0,1.1977432E4,2.2014268E3,0E0,2.0863594E4,9.6221664E1,1.0083063E4,2.3666807E4,4.4760312E3,0E0,1.7021729E3,2.095087E4,5.223926E2,3.460963E2,0E0,5.2278906E2,0E0,1.1571168E1,6.2688887E3,4.3313027E3,3.833425E4,1.2699422E4,0E0,0E0,0E0,0E0,0E0,0E0,0E0,0E0,0E0,0E0,0E0,0E0,0E0,0E0,0E0,0E0,0E0,0E0,0E0,0E0,0E0,0E0],"parents":[2147483647,0,0,1,1,2,2,3,3,4,4,5,5,8,8,9,9,10,10,11,11,12,12,13,13,16,16,17,17,19,19,20,20,21,21,22,22,23,23,25,25,26,26,27,27,28,28,30,30,32,32,33,33,34,34,35,35,36,36],"right_children":[2,4,6,8,10,12,-1,-1,14,16,18,20,22,24,-1,-1,26,28,-1,30,32,34,36,38,-1,40,42,44,46,-1,48,-1,50,52,54,56,58,-1,-1,-1,-1,-1,-1,-1,-1,-1,-1,-1,-1,-1,-1,-1,-1,-1,-1,-1,-1,-1,-1],"split_conditions":[1.1671306E2,1.0704208E2,2.8506363E2,1.6925517E2,1.4172213E-1,1.0746629E2,3.9195726E0,-3.1023772E0,5.8798834E2,2.1000623E2,4.8238867E2,1.4808536E-1,2.6831638E2,1.2409291E2,-2.491031E0,1.928922E0,1E0,2.4547934E2,-2.0247667E0,3.6482626E2,4.0738403E2,2.7917E2,2.7634668E2,2.65106E2,3.3170116E-1,1.1722139E2,3.6601297E2,2.6980576E2,1.2097305E2,-1.5585637E-1,2.7864972E2,2.1671724E-1,2.759178E2,1E0,2.74131E2,4.3483887E2,1.4515862E2,-6.605227E-1,-1.2318522E0,-2.4422882E-1,-8.556019E-1,-7.738831E-1,3.3028424E0,-4.6517602E-1,-8.090753E-1,-1.5974383E-1,-4.352872E-1,3.711867E0,2.024875E0,-5.1282298E-2,4.688675E-2,-1.7941914E-1,7.541369E-1,3.114315E-1,1.0242729E0,-2.8245932E-1,5.395197E0,2.6293245E-1,2.7082887E0],"split_indices":[12,12,22,24,11,22,0,0,7,24,0,8,22,15,0,0,31,24,0,3,3,24,24,27,0,14,0,27,15,0,26,0,26,31,23,3,19,0,0,0,0,0,0,0,0,0,0,0,0,0,0,0,0,0,0,0,0,0,0],"split_type":[0,0,0,0,0,0,0,0,0,0,0,0,0,0,0,0,0,0,0,0,0,0,0,0,0,0,0,0,0,0,0,0,0,0,0,0,0,0,0,0,0,0,0,0,0,0,0,0,0,0,0,0,0,0,0,0,0,0,0],"sum_hessian":[1.041E3,3.63E2,6.78E2,1.72E2,1.91E2,6.73E2,5E0,7E0,1.65E2,6.7E1,1.24E2,4.4E1,6.29E2,1.59E2,6E0,9E0,5.8E1,1.18E2,6E0,2.5E1,1.9E1,5.64E2,6.5E1,1.53E2,6E0,4.7E1,1.1E1,6.6E1,5.2E1,5E0,2E1,9E0,1E1,1.97E2,3.67E2,1.1E1,5.4E1,6.2E1,9.1E1,2.3E1,2.4E1,6E0,5E0,2.2E1,4.4E1,3.4E1,1.8E1,1.5E1,5E0,5E0,5E0,1.78E2,1.9E1,3.45E2,2.2E1,5E0,6E0,4.9E1,5E0],"tree_param":{"num_deleted":"0","num_feature":"32","num_nodes":"59","size_leaf_vector":"1"}},{"base_weights":[8.6871576E-1,-9.414325E0,1.0542242E1,-1.9793493E1,-4.0781E0,9.856053E0,3.600612E0,-2.0703917E1,4.8696348E-1,-5.2594914E0,2.4475054E1,7.7945576E0,2.4947783E1,-3.1667994E1,-1.7892612E1,1.8124855E1,-6.6448007E0,-7.195523E-1,3.270565E0,2.696484E0,7.205106E0,2.3988538E0,4.6096806E1,-3.709276E1,-7.6809437E-3,-1.0118304E1,-2.1588356E1,2.5406275E0,-1.0258245E1,-1.6295532E1,-1.5793724E0,4.7037244E0,1.685891E1,5.5077434E0,-3.9961973E-1,2.001068E1,7.418678E1,-3.2065933E0,-1.4391642E0,-9.337041E-1,9.7854894E-1,-7.7256763E-1,-1.1978153E0,-2.088799E-1,-7.30626E-1,-6.743126E-1,-2.1374395E0,1.5069473E0,-1.4961177E-1,9.124888E-2,3.3711392E-1,2.977522E0,1.20114066E-1,1.3161881E-1,4.5901504E-1,2.4472134E-1,2.5965078E0,1.517609E0,5.2448397E0],"categories":[],"categories_nodes":[],"categories_segments":[],"categories_sizes":[],"default_left":[0,0,0,0,0,0,0,0,0,0,0,0,0,0,0,0,0,0,0,0,0,0,0,0,0,0,0,0,0,0,0,0,0,0,0,0,0,0,0,0,0,0,0,0,0,0,0,0,0,0,0,0,0,0,0,0,0,0,0],"id":23,"left_children":[1,3,5,7,9,11,-1,13,-1,15,17,19,21,23,25,27,29,-1,-1,-1,31,33,35,37,-1,39,41,-1,43,45,47,49,51,53,-1,55,57,-1,-1,-1,-1,-1,-1,-1,-1,-1,-1,-1,-1,-1,-1,-1,-1,-1,-1,-1,-1,-1,-1],"loss_changes":[1.07729445E5,2.899432E4,2.28185E4,4.988672E3,1.1865696E4,1.7006945E4,0E0,4.760867E3,0E0,1.0971465E4,2.3220893E4,1.2876201E4,3.1359172E4,5.8031484E3,3.8008477E3,1.8153086E4,1.5469051E4,0E0,0E0,0E0,1.1581951E4,1.1098447E3,2.3419844E4,4.6605312E3,0E0,1.2304082E4,9.919219E2,0E0,2.2832056E2,7.5181465E3,9.453519E3,2.246204E3,6.0951125E4,2.4921155E2,0E0,8.907703E3,1.8341203E4,0E0,0E0,0E0,0E0,0E0,0E0,0E0,0E0,0E0,0E0,0E0,0E0,0E0,0E0,0E0,0E0,0E0,0E0,0E0,0E0,0E0,0E0],"parents":[2147483647,0,0,1,1,2,2,3,3,4,4,5,5,7,7,9,9,10,10,11,11,12,12,13,13,14,14,15,15,16,16,20,20,21,21,22,22,23,23,25,25,26,26,28,28,29,29,30,30,31,31,32,32,33,33,35,35,36,36],"right_children":[2,4,6,8,10,12,-1,14,-1,16,18,20,22,24,26,28,30,-1,-1,-1,32,34,36,38,-1,40,42,-1,44,46,48,50,52,54,-1,56,58,-1,-1,-1,-1,-1,-1,-1,-1,-1,-1,-1,-1,-1,-1,-1,-1,-1,-1,-1,-1,-1,-1],"split_conditions":[1.3902501E2,1.2298417E2,2.8506363E2,4.7473007E2,2.6831638E2,1.270432E2,3.600612E0,1.8860066E2,4.8696348E-1,1.0933E1,4.122584E2,9.1958755E1,6.234898E-1,1.2236975E2,1.3659288E-1,1.08333334E-1,1.8595164E2,-7.195523E-1,3.270565E0,2.696484E0,1E0,7.0710677E-1,4.1404056E2,1.7882533E2,-7.6809437E-3,1E0,5E-1,2.5406275E0,2.8581616E2,5.838526E2,2.3102577E2,1.4275764E2,1.3659288E-1,1.2607247E2,-3.9961973E-1,2.9238135E2,6.123234E-17,-3.2065933E0,-1.4391642E0,-9.337041E-1,9.7854894E-1,-7.7256763E-1,-1.1978153E0,-2.088799E-1,-7.30626E-1,-6.743126E-1,-2.1374395E0,1.5069473E0,-1.4961177E-1,9.124888E-2,3.3711392E-1,2.977522E0,1.20114066E-1,1.3161881E-1,4.5901504E-1,2.4472134E-1,2.5965078E0,1.517609E0,5.2448397E0],"split_indices":[16,16,21,1,23,15,0,24,0,20,2,15,31,15,10,4,20,0,0,0,31,29,0,24,0,31,29,0,2,7,24,16,10,11,0,26,29,0,0,0,0,0,0,0,0,0,0,0,0,0,0,0,0,0,0,0,0,0,0],"split_type":[0,0,0,0,0,0,0,0,0,0,0,0,0,0,0,0,0,0,0,0,0,0,0,0,0,0,0,0,0,0,0,0,0,0,0,0,0,0,0,0,0,0,0,0,0,0,0,0,0,0,0,0,0,0,0,0,0,0,0],"sum_hessian":[1.081E3,5.24E2,5.57E2,1.77E2,3.47E2,5.52E2,5E0,1.72E2,5E0,3.34E2,1.3E1,4.87E2,6.5E1,3.3E1,1.39E2,1.8E1,3.16E2,7E0,6E0,5E0,4.82E2,3.2E1,3.3E1,2.8E1,5E0,4.6E1,9.3E1,8E0,1E1,1.08E2,2.08E2,3.84E2,9.8E1,2.5E1,7E0,1.8E1,1.5E1,5E0,2.3E1,3.6E1,1E1,2.8E1,6.5E1,5E0,5E0,9.9E1,9E0,8E0,2E2,1.6E2,2.24E2,2.4E1,7.4E1,1.5E1,1E1,1.3E1,5E0,7E0,8E0],"tree_param":{"num_deleted":"0","num_feature":"32","num_nodes":"59","size_leaf_vector":"1"}},{"base_weights":[4.3962428E-1,-1.2958265E1,7.0632463E0,1.0752372E0,-1.6545454E1,6.502554E0,3.6155698E0,3.4180336E0,-4.876055E0,-2.4544579E1,-1.3581128E1,3.2971501E0,5.903E0,-9.557785E0,1.776017E1,-2.2433168E1,-2.253514E0,-1.2239229E1,-1.9458408E0,1.1489772E1,2.652492E0,-1.7117582E1,-4.669638E0,-3.1937087E-1,2.1494498E0,-1.1760867E0,-3.4424317E-1,-1.45362E1,-3.8149874E0,5.3008042E-2,2.0766077E1,-1.6640539E0,3.1345031E0,-9.891066E-1,-4.9846768E-1,-3.7153026E-1,-1.2851793E-1,-9.077846E-1,-4.220376E-1,-3.100378E-1,6.155836E-1,2.3875415E0,-1.9424567E-1,8.308218E-1,4.9499793E0,-5.2074004E-2,3.031041E-1],"categories":[],"categories_nodes":[],"categories_segments":[],"categories_sizes":[],"default_left":[0,0,0,0,0,0,0,0,0,0,0,0,0,0,0,0,0,0,0,0,0,0,0,0,0,0,0,0,0,0,0,0,0,0,0,0,0,0,0,0,0,0,0,0,0,0,0],"id":24,"left_children":[1,3,5,7,9,11,-1,-1,13,15,17,-1,19,21,23,25,-1,27,-1,29,31,33,35,-1,-1,-1,-1,37,39,41,43,-1,45,-1,-1,-1,-1,-1,-1,-1,-1,-1,-1,-1,-1,-1,-1],"loss_changes":[9.495673E4,1.784E4,2.571614E4,2.9571451E4,6.349625E3,2.4942006E4,0E0,0E0,7.3753438E3,2.2325508E3,6.5901484E3,0E0,1.2770797E4,2.0242314E3,7.588831E3,1.01978516E3,0E0,3.7934102E3,0E0,2.7474367E4,7.8435166E3,2.1883984E2,1.8855804E2,0E0,0E0,0E0,0E0,3.2858281E3,1.7686077E3,2.2166037E4,4.476707E4,0E0,5.4104946E3,0E0,0E0,0E0,0E0,0E0,0E0,0E0,0E0,0E0,0E0,0E0,0E0,0E0,0E0],"parents":[2147483647,0,0,1,1,2,2,3,3,4,4,5,5,8,8,9,9,10,10,12,12,13,13,14,14,15,15,17,17,19,19,20,20,21,21,22,22,27,27,28,28,29,29,30,30,32,32],"right_children":[2,4,6,8,10,12,-1,-1,14,16,18,-1,20,22,24,26,-1,28,-1,30,32,34,36,-1,-1,-1,-1,38,40,42,44,-1,46,-1,-1,-1,-1,-1,-1,-1,-1,-1,-1,-1,-1,-1,-1],"split_conditions":[1.16246666E2,1.7038304E2,2.8506363E2,1.3055792E-1,1.0054361E2,6.778E1,3.6155698E0,3.4180336E0,4.481977E2,2.5606427E2,5.936778E2,3.2971501E0,1.3695201E-1,2.377649E2,1.1395583E2,1.2526082E2,-2.253514E0,1.8446387E2,-1.9458408E0,1.3647316E-1,1.8475223E2,2.8329166E2,2.51562E2,-3.1937087E-1,2.1494498E0,-1.1760867E0,-3.4424317E-1,4.1307724E2,2.4668655E2,1.0933E1,1.2798765E2,-1.6640539E0,1.2236975E2,-9.891066E-1,-4.9846768E-1,-3.7153026E-1,-1.2851793E-1,-9.077846E-1,-4.220376E-1,-3.100378E-1,6.155836E-1,2.3875415E0,-1.9424567E-1,8.308218E-1,4.9499793E0,-5.2074004E-2,3.031041E-1],"split_indices":[12,23,22,9,12,15,0,0,0,23,7,0,9,24,18,9,0,20,0,10,24,4,24,0,0,0,0,3,21,20,15,0,12,0,0,0,0,0,0,0,0,0,0,0,0,0,0],"split_type":[0,0,0,0,0,0,0,0,0,0,0,0,0,0,0,0,0,0,0,0,0,0,0,0,0,0,0,0,0,0,0,0,0,0,0,0,0,0,0,0,0,0,0,0,0,0,0],"sum_hessian":[1.068E3,3.53E2,7.15E2,7.2E1,2.81E2,7.1E2,5E0,5E0,6.7E1,7.4E1,2.07E2,6E0,7.04E2,5.6E1,1.1E1,6.9E1,5E0,1.98E2,9E0,2.58E2,4.46E2,2.1E1,3.5E1,6E0,5E0,6.4E1,5E0,1.55E2,4.3E1,1.16E2,1.42E2,5E0,4.41E2,1.4E1,7E0,1.4E1,2.1E1,9.6E1,5.9E1,3.8E1,5E0,8E0,1.08E2,1.36E2,6E0,1.82E2,2.59E2],"tree_param":{"num_deleted":"0","num_feature":"32","num_nodes":"47","size_leaf_vector":"1"}},{"base_weights":[4.3898726E-1,-1.2620794E1,6.84249E0,-3.1941338E0,-1.699083E1,5.642792E0,2.8412207E1,1.3936387E1,-9.479277E0,-1.57340975E1,-2.8549306E0,5.1387224E0,3.1074822E0,4.3073235E0,1.4891831E1,-1.8638035E0,2.9803705E0,-1.4488277E1,-4.3639913E0,-1.8214634E1,-3.429222E0,2.7667648E1,3.844264E0,2.8888633E0,2.8666298E0,1.8710631E0,-1.4176782E1,-9.861787E-1,-1.1733373E1,-7.2065263E0,-2.5802572E0,-2.0259556E1,-5.666137E0,-6.7986403E0,4.6476123E-1,4.366889E1,1.2812321E0,2.3866558E0,1.4947236E1,6.960962E0,-1.7110014E0,-1.0192032E0,-2.5018975E-1,-6.367373E-1,-3.3048058E-1,-4.514241E-1,-1.3242601E-1,-1.7967138E-1,-1.9360382E-2,-1.1605539E0,-7.822072E-1,6.5584695E-1,-1.0876722E0,-3.981596E-1,-1.3986294E-1,1.0724472E0,3.1120718E0,1.9650815E-1,-1.14664175E-1,-6.137168E-1,1.6519111E-1,1.6612784E0,-5.091721E-2,4.3370482E-1,1.997193E-1,-2.955144E-1,1.3592142E-1],"categories":[],"categories_nodes":[],"categories_segments":[],"categories_sizes":[],"default_left":[0,0,0,0,0,0,0,0,0,0,0,0,0,0,0,0,0,0,0,0,0,0,0,0,0,0,0,0,0,0,0,0,0,0,0,0,0,0,0,0,0,0,0,0,0,0,0,0,0,0,0,0,0,0,0,0,0,0,0,0,0,0,0,0,0,0,0],"id":25,"left_children":[1,3,5,7,9,11,13,15,17,19,-1,21,-1,-1,23,25,-1,27,29,31,33,35,37,39,-1,-1,41,-1,43,45,47,49,51,53,-1,55,57,59,61,63,65,-1,-1,-1,-1,-1,-1,-1,-1,-1,-1,-1,-1,-1,-1,-1,-1,-1,-1,-1,-1,-1,-1,-1,-1,-1,-1],"loss_changes":[9.048802E4,1.4609078E4,1.8623074E4,1.2405787E4,1.1342664E4,1.9298969E4,2.8369393E4,2.2486809E4,2.0871748E3,7.169254E3,0E0,1.9837812E4,0E0,0E0,1.6129637E4,1.2137376E4,0E0,3.7118652E2,1.9845074E2,4.9377656E3,1.8207786E3,1.5561527E4,1.0449684E4,4.9944385E2,0E0,0E0,9.773103E2,0E0,6.781787E1,1.0779199E2,6.0424637E1,1.9351953E3,9.049107E3,1.3042273E2,0E0,8.1482812E3,1.5120633E2,7.7579863E3,2.1923867E4,3.5235474E1,2.5819165E2,0E0,0E0,0E0,0E0,0E0,0E0,0E0,0E0,0E0,0E0,0E0,0E0,0E0,0E0,0E0,0E0,0E0,0E0,0E0,0E0,0E0,0E0,0E0,0E0,0E0,0E0],"parents":[2147483647,0,0,1,1,2,2,3,3,4,4,5,5,6,6,7,7,8,8,9,9,11,11,14,14,15,15,17,17,18,18,19,19,20,20,21,21,22,22,23,23,26,26,28,28,29,29,30,30,31,31,32,32,33,33,35,35,36,36,37,37,38,38,39,39,40,40],"right_children":[2,4,6,8,10,12,14,16,18,20,-1,22,-1,-1,24,26,-1,28,30,32,34,36,38,40,-1,-1,42,-1,44,46,48,50,52,54,-1,56,58,60,62,64,66,-1,-1,-1,-1,-1,-1,-1,-1,-1,-1,-1,-1,-1,-1,-1,-1,-1,-1,-1,-1,-1,-1,-1,-1,-1,-1],"split_conditions":[1.16246666E2,2.0158885E2,2.7299493E2,1.3698623E-1,5.0147104E2,2.8506363E2,1.4126195E2,1.2018445E2,1.7553503E2,2.0656331E2,-2.8549306E0,1.0933E1,3.1074822E0,4.3073235E0,2.8506363E2,1.5599675E2,2.9803705E0,2.0484799E2,2.4502823E2,1E0,2.416664E2,1.4808536E-1,2.6831638E2,6.234898E-1,2.8666298E0,1.8710631E0,1.827847E2,-9.861787E-1,1.2687515E2,1.25334076E2,1.1474611E2,1.2236975E2,3.831976E2,1.2615866E2,4.6476123E-1,6.234898E-1,1.1449431E2,1.9803947E2,4.4564954E2,4.5256186E2,1.376703E-1,-1.0192032E0,-2.5018975E-1,-6.367373E-1,-3.3048058E-1,-4.514241E-1,-1.3242601E-1,-1.7967138E-1,-1.9360382E-2,-1.1605539E0,-7.822072E-1,6.5584695E-1,-1.0876722E0,-3.981596E-1,-1.3986294E-1,1.0724472E0,3.1120718E0,1.9650815E-1,-1.14664175E-1,-6.137168E-1,1.6519111E-1,1.6612784E0,-5.091721E-2,4.3370482E-1,1.997193E-1,-2.955144E-1,1.3592142E-1],"split_indices":[12,23,20,8,0,23,16,18,20,21,0,21,0,0,21,23,0,24,24,31,21,8,22,31,0,0,20,0,11,8,12,15,0,11,0,31,15,20,1,1,10,0,0,0,0,0,0,0,0,0,0,0,0,0,0,0,0,0,0,0,0,0,0,0,0,0,0],"split_type":[0,0,0,0,0,0,0,0,0,0,0,0,0,0,0,0,0,0,0,0,0,0,0,0,0,0,0,0,0,0,0,0,0,0,0,0,0,0,0,0,0,0,0,0,0,0,0,0,0,0,0,0,0,0,0,0,0,0,0,0,0,0,0,0,0,0,0],"sum_hessian":[1.08E3,3.55E2,7.25E2,1.13E2,2.42E2,6.88E2,3.7E1,3E1,8.3E1,2.36E2,6E0,6.83E2,5E0,6E0,3.1E1,2.3E1,7E0,4.1E1,4.2E1,1.96E2,4E1,3.6E1,6.47E2,2.5E1,6E0,5E0,1.8E1,1.2E1,2.9E1,1.5E1,2.7E1,1.68E2,2.8E1,3.2E1,8E0,2.2E1,1.4E1,5.73E2,7.4E1,1.3E1,1.2E1,1E1,8E0,2.3E1,6E0,1E1,5E0,1.8E1,9E0,1E2,6.8E1,1.3E1,1.5E1,2.4E1,8E0,1.1E1,1.1E1,8E0,6E0,3.3E1,5.4E2,3.4E1,4E1,7E0,6E0,6E0,6E0],"tree_param":{"num_deleted":"0","num_feature":"32","num_nodes":"67","size_leaf_vector":"1"}},{"base_weights":[7.3141927E-1,-1.0437068E1,7.3807893E0,2.730928E0,-1.4245641E1,1.841302E0,1.3743974E1,2.8947424E1,-7.3928156E0,-2.717686E1,-1.1480027E1,-2.139668E0,5.5734634E0,2.9211424E1,4.9585376E0,7.3737854E1,-5.8220544E0,-4.9186416E0,-9.541262E-1,-2.6046462E0,-2.2250658E1,-1.3874114E1,1.6128392E0,-1.2635945E0,-1.3075219E0,6.7653728E0,-4.6287026E-2,1.0627505E-2,4.381033E1,3.0216525E0,2.2535532E0,1.9251232E0,4.833347E0,-4.3638617E-1,-1.452042E-1,-9.15817E0,-2.7783742E0,-2.4788298E1,-5.9250563E-2,-1.642707E1,-3.0256457E0,1.9495039E1,-2.372161E1,9.5025295E-1,-2.137613E0,4.9777274E0,8.417425E0,-4.1890264E0,5.197602E0,-4.661165E0,1.2860192E0,2.3665394E1,8.744625E1,2.9511493E-1,7.34882E0,-5.572048E-1,-2.96145E-1,-1.871522E-1,1.4868526E-1,-1.0897359E0,-1.9300861E0,-7.61796E-1,-2.1241763E0,-2.776495E-1,3.4235844E-1,-1.1356696E0,4.043409E0,-1.8089455E0,-6.8143183E-1,-2.7356008E-1,1.3097647E-1,1.4239249E-1,3.3838373E-1,6.5312797E-1,3.6786804E-1,-4.5491108E-1,1.8429475E-1,3.720246E-1,1.4322548E-1,-3.3208737E-1,6.736233E-2,-4.2395273E-1,2.0467684E0,4.328206E-3,5.5851235E0,-2.7604505E-1,1.3234471E-1,1.0523214E0,3.015333E-1],"categories":[],"categories_nodes":[],"categories_segments":[],"categories_sizes":[],"default_left":[0,0,0,0,0,0,0,0,0,0,0,0,0,0,0,0,0,0,0,0,0,0,0,0,0,0,0,0,0,0,0,0,0,0,0,0,0,0,0,0,0,0,0,0,0,0,0,0,0,0,0,0,0,0,0,0,0,0,0,0,0,0,0,0,0,0,0,0,0,0,0,0,0,0,0,0,0,0,0,0,0,0,0,0,0,0,0,0,0],"id":26,"left_children":[1,3,5,7,9,11,13,15,17,19,21,23,25,27,29,31,33,35,-1,-1,37,39,41,43,-1,45,47,49,51,53,-1,-1,-1,-1,-1,55,57,59,-1,61,63,65,67,-1,69,71,73,75,77,79,-1,81,83,85,87,-1,-1,-1,-1,-1,-1,-1,-1,-1,-1,-1,-1,-1,-1,-1,-1,-1,-1,-1,-1,-1,-1,-1,-1,-1,-1,-1,-1,-1,-1,-1,-1,-1,-1],"loss_changes":[7.8201836E4,1.97495E4,2.3237328E4,2.3837568E4,1.0591785E4,5.271867E3,4.156945E4,3.9369598E4,1.7836943E3,5.3387695E3,7.954008E3,3.5822695E3,1.2267622E3,4.7314414E4,1.5164591E4,5.151633E3,1.0067059E2,4.7241626E2,0E0,0E0,2.4270508E3,5.8752266E3,1.8583457E4,2.9973733E3,0E0,4.0270605E2,7.3856616E2,4.6861978E3,6.2968594E4,2.226924E3,0E0,0E0,0E0,0E0,0E0,4.793799E1,2.2206421E2,8.4806445E2,0E0,4.716383E3,1.0858766E3,6.401374E4,1.6393799E3,0E0,2.5678125E3,2.6569275E2,2.8101123E2,7.686072E2,5.614917E1,4.021825E2,0E0,2.9217297E4,4.87165E4,1.61465E3,1.1884241E3,0E0,0E0,0E0,0E0,0E0,0E0,0E0,0E0,0E0,0E0,0E0,0E0,0E0,0E0,0E0,0E0,0E0,0E0,0E0,0E0,0E0,0E0,0E0,0E0,0E0,0E0,0E0,0E0,0E0,0E0,0E0,0E0,0E0,0E0],"parents":[2147483647,0,0,1,1,2,2,3,3,4,4,5,5,6,6,7,7,8,8,9,9,10,10,11,11,12,12,13,13,14,14,15,15,16,16,17,17,20,20,21,21,22,22,23,23,25,25,26,26,27,27,28,28,29,29,35,35,36,36,37,37,39,39,40,40,41,41,42,42,44,44,45,45,46,46,47,47,48,48,49,49,51,51,52,52,53,53,54,54],"right_children":[2,4,6,8,10,12,14,16,18,20,22,24,26,28,30,32,34,36,-1,-1,38,40,42,44,-1,46,48,50,52,54,-1,-1,-1,-1,-1,56,58,60,-1,62,64,66,68,-1,70,72,74,76,78,80,-1,82,84,86,88,-1,-1,-1,-1,-1,-1,-1,-1,-1,-1,-1,-1,-1,-1,-1,-1,-1,-1,-1,-1,-1,-1,-1,-1,-1,-1,-1,-1,-1,-1,-1,-1,-1,-1],"split_conditions":[1.184075E2,1.7038304E2,6.234898E-1,1.3698623E-1,1.9262486E2,2.856489E2,1.3659288E-1,2.4547934E2,2.5881904E-1,1.9719934E2,1E0,2.8529242E2,2.6554016E2,4.1414062E2,1.283507E2,3.724489E2,1.9250934E2,2.4502823E2,-9.541262E-1,-2.6046462E0,1.2333834E2,2.510471E2,3.910091E2,9.286554E0,-1.3075219E0,2.8377E2,1.4587152E2,2.6595062E2,2.5521564E2,1.2373583E2,2.2535532E0,1.9251232E0,4.833347E0,-4.3638617E-1,-1.452042E-1,4.067749E2,4.4218597E2,4.503365E2,-5.9250563E-2,5.8798834E2,2.7418112E2,3.6084827E2,1.3903844E-1,9.5025295E-1,4.14425E2,2.6215872E2,5.135967E2,4.6113727E2,-7.818315E-1,4E2,1.2860192E0,4.426265E2,1.3072693E-1,1.2526082E2,2.2727972E2,-5.572048E-1,-2.96145E-1,-1.871522E-1,1.4868526E-1,-1.0897359E0,-1.9300861E0,-7.61796E-1,-2.1241763E0,-2.776495E-1,3.4235844E-1,