{"learner":{"attributes":{"best_iteration":"80","best_score":"14.54171400803786","scikit_learn":"{\"_estimator_type\": \"regressor\"}"},"feature_names":["aux_CP013_TM30_83_MED_t0","aux_CP013_TM30_83_MED_t1","aux_CP013_TM30_83_MED_t3","aux_CP013_TM30_83_MED_t6","aux_CP217_TM06_13_CALC_t0","aux_CP217_TM06_13_CALC_t1","aux_CP217_TM06_13_CALC_t3","aux_CP217_TM06_13_CALC_t6","aux_CP236_TM12_11_MED_t0","aux_CP236_TM12_11_MED_t1","aux_CP236_TM12_11_MED_t3","aux_CP236_TM12_11_MED_t6","aux_CP236_TM12_12_CALC_t0","aux_CP236_TM12_12_CALC_t1","aux_CP236_TM12_12_CALC_t3","aux_CP236_TM12_12_CALC_t6","aux_CP237_TM1_2_MED_t0","aux_CP237_TM1_2_MED_t1","aux_CP237_TM1_2_MED_t3","aux_CP237_TM1_2_MED_t6","aux_GPRS174_M007_MED_t0","aux_GPRS174_M007_MED_t1","aux_GPRS174_M007_MED_t3","aux_GPRS174_M007_MED_t6","aux_GPRS175_M007_MED_t0","aux_GPRS175_M007_MED_t1","aux_GPRS175_M007_MED_t3","aux_GPRS175_M007_MED_t6","aux_GPRS176_M007_MED_t0","aux_GPRS176_M007_MED_t1","aux_GPRS176_M007_MED_t3","aux_GPRS176_M007_MED_t6","hora_sin","hora_cos","dia_sem_sin","dia_sem_cos"],"feature_types":["float","float","float","float","float","float","float","float","float","float","float","float","float","float","float","float","float","float","float","float","float","float","float","float","float","float","float","float","float","float","float","float","float","float","float","float"],"gradient_booster":{"model":{"gbtree_model_param":{"num_parallel_tree":"1","num_trees":"111"},"iteration_indptr":[0,1,2,3,4,5,6,7,8,9,10,11,12,13,14,15,16,17,18,19,20,21,22,23,24,25,26,27,28,29,30,31,32,33,34,35,36,37,38,39,40,41,42,43,44,45,46,47,48,49,50,51,52,53,54,55,56,57,58,59,60,61,62,63,64,65,66,67,68,69,70,71,72,73,74,75,76,77,78,79,80,81,82,83,84,85,86,87,88,89,90,91,92,93,94,95,96,97,98,99,100,101,102,103,104,105,106,107,108,109,110,111],"tree_info":[0,0,0,0,0,0,0,0,0,0,0,0,0,0,0,0,0,0,0,0,0,0,0,0,0,0,0,0,0,0,0,0,0,0,0,0,0,0,0,0,0,0,0,0,0,0,0,0,0,0,0,0,0,0,0,0,0,0,0,0,0,0,0,0,0,0,0,0,0,0,0,0,0,0,0,0,0,0,0,0,0,0,0,0,0,0,0,0,0,0,0,0,0,0,0,0,0,0,0,0,0,0,0,0,0,0,0,0,0,0,0],"trees":[{"base_weights":[-1.1540406E-1,3.8906515E0,-5.0610157E1,5.448811E0,-5.506526E1,-6.07916E1,-1.1502345E1,-1.5871602E1,9.610486E0,1.4182262E-1,-6.7780266E1,-8.0781145E0,-6.973913E1,-2.6353445E0,5.78091E-1,3.0966506E0,-3.3400063E1,-4.040073E0,1.0216125E1,-3.9176838E0,-1.2373328E0,-1.4118165E0,6.704893E-1,-3.6397283E0,-1.555483E0,-2.9544163E0,7.7816277E0,7.729447E0,-4.6821808E1,1.1732113E1,-1.8852026E1,-9.8359996E-1,8.103415E-1,-2.938802E-1,6.441779E-1,-5.0886315E-1,-2.990415E0,9.8914003E-1,3.921163E-1,2.625651E-1,-2.542429E0],"categories":[],"categories_nodes":[],"categories_segments":[],"categories_sizes":[],"default_left":[0,0,0,0,0,0,0,0,0,0,0,0,0,0,0,0,0,0,0,0,0,0,0,0,0,0,0,0,0,0,0,0,0,0,0,0,0,0,0,0,0],"id":0,"left_children":[1,3,5,7,9,11,13,15,17,-1,19,21,23,-1,-1,25,27,-1,29,-1,-1,-1,-1,-1,-1,-1,31,33,35,37,39,-1,-1,-1,-1,-1,-1,-1,-1,-1,-1],"loss_changes":[2.3667247E5,9.987428E4,3.353653E4,9.393808E4,2.0812922E4,3.1501406E4,1.867012E4,5.762625E4,4.927825E4,0E0,8.515977E3,5.1448604E3,4.57075E3,0E0,0E0,2.4926828E4,5.0048492E4,0E0,3.8999406E4,0E0,0E0,0E0,0E0,0E0,0E0,0E0,1.8591357E4,1.6894672E3,3.1744438E4,2.6053125E4,3.420541E4,0E0,0E0,0E0,0E0,0E0,0E0,0E0,0E0,0E0,0E0],"parents":[2147483647,0,0,1,1,2,2,3,3,4,4,5,5,6,6,7,7,8,8,10,10,11,11,12,12,15,15,16,16,18,18,26,26,27,27,28,28,29,29,30,30],"right_children":[2,4,6,8,10,12,14,16,18,-1,20,22,24,-1,-1,26,28,-1,30,-1,-1,-1,-1,-1,-1,-1,32,34,36,38,40,-1,-1,-1,-1,-1,-1,-1,-1,-1,-1],"split_conditions":[2.9450352E1,4.711933E1,8.4900444E1,4.2765167E1,0E0,5.0726402E1,1.1995E1,8.752406E1,2.0612703E1,1.4182262E-1,2.7881166E1,8.984252E1,9.08049E1,-2.6353445E0,5.78091E-1,1.4092156E1,6.099445E1,-4.040073E0,3.123107E1,-3.9176838E0,-1.2373328E0,-1.4118165E0,6.704893E-1,-3.6397283E0,-1.555483E0,-2.9544163E0,7.887139E1,8.846894E1,2.4749159E1,5.014965E1,5.5771286E1,-9.8359996E-1,8.103415E-1,-2.938802E-1,6.441779E-1,-5.0886315E-1,-2.990415E0,9.8914003E-1,3.921163E-1,2.625651E-1,-2.542429E0],"split_indices":[30,17,4,19,34,7,3,13,28,0,10,15,15,0,0,0,7,0,21,0,0,0,0,0,0,0,15,13,22,26,7,0,0,0,0,0,0,0,0,0,0],"split_type":[0,0,0,0,0,0,0,0,0,0,0,0,0,0,0,0,0,0,0,0,0,0,0,0,0,0,0,0,0,0,0,0,0,0,0,0,0,0,0,0,0],"sum_hessian":[1.168E3,1.083E3,8.5E1,1.056E3,2.7E1,6.7E1,1.8E1,1.72E2,8.84E2,5E0,2.2E1,1E1,5.7E1,6E0,1.2E1,8.3E1,8.9E1,5E0,8.79E2,1.7E1,5E0,5E0,5E0,5.2E1,5E0,5E0,7.8E1,2.2E1,6.7E1,8.36E2,4.3E1,1.8E1,6E1,6E0,1.6E1,1.8E1,4.9E1,2.71E2,5.65E2,2.5E1,1.8E1],"tree_param":{"num_deleted":"0","num_feature":"36","num_nodes":"41","size_leaf_vector":"1"}},{"base_weights":[-9.4044596E-2,3.5182953E0,-4.674988E1,-1.1711548E1,7.8084083E0,-5.6262432E1,-3.393417E0,1.0170019E1,-3.5620422E1,-3.4918144E0,8.453179E0,-7.6181717E0,-6.4516304E1,6.845653E-1,-1.3664838E0,-2.730505E0,1.3927568E1,-6.584983E1,-1.8152939E1,1.0058396E1,-1.6819489E1,5.3854555E-1,-1.2377113E0,-3.502241E0,-7.1082073E-1,-1.08840885E1,2.037931E1,-3.502343E0,-1.4838023E0,-2.8663497E0,-4.923946E1,1.0518789E1,-2.5611088E0,4.224798E0,-4.1711685E1,8.865592E-1,-2.168495E0,5.299937E-1,1.1124085E0,-2.3300748E0,3.285666E-1,-3.227125E0,-1.4201513E-1,1.4211646E-2,6.670742E-1,6.9284797E-1,-1.6692976E0,-3.6164325E-1,-2.9805765E0],"categories":[],"categories_nodes":[],"categories_segments":[],"categories_sizes":[],"default_left":[0,0,0,0,0,0,0,0,0,0,0,0,0,0,0,0,0,0,0,0,0,0,0,0,0,0,0,0,0,0,0,0,0,0,0,0,0,0,0,0,0,0,0,0,0,0,0,0,0],"id":1,"left_children":[1,3,5,7,9,11,13,15,17,-1,19,21,23,-1,-1,-1,25,27,29,31,33,-1,-1,-1,-1,35,37,-1,-1,39,41,43,-1,45,47,-1,-1,-1,-1,-1,-1,-1,-1,-1,-1,-1,-1,-1,-1],"loss_changes":[1.946602E5,7.013313E4,3.403486E4,1.2383142E5,4.248695E4,2.6803516E4,6.9186523E3,3.0939918E4,5.8463812E4,0E0,3.3880613E4,3.7343032E3,1.5124656E4,0E0,0E0,0E0,1.9112016E4,4.1360156E3,3.454375E4,2.2597383E4,2.6371898E4,0E0,0E0,0E0,0E0,2.401132E4,1.4788672E3,0E0,0E0,2.0948154E4,1.6851098E4,2.2441625E4,0E0,1.06043125E4,1.3756961E4,0E0,0E0,0E0,0E0,0E0,0E0,0E0,0E0,0E0,0E0,0E0,0E0,0E0,0E0],"parents":[2147483647,0,0,1,1,2,2,3,3,4,4,5,5,6,6,7,7,8,8,10,10,11,11,12,12,16,16,17,17,18,18,19,19,20,20,25,25,26,26,29,29,30,30,31,31,33,33,34,34],"right_children":[2,4,6,8,10,12,14,16,18,-1,20,22,24,-1,-1,-1,26,28,30,32,34,-1,-1,-1,-1,36,38,-1,-1,40,42,44,-1,46,48,-1,-1,-1,-1,-1,-1,-1,-1,-1,-1,-1,-1,-1,-1],"split_conditions":[2.9450352E1,-7.0710677E-1,9.055993E1,2.4138454E1,2.0612703E1,5.1710915E1,6.2791298E1,1.9666667E-1,5.7931824E1,-3.4918144E0,3.123107E1,8.087758E1,8.6780975E1,6.845653E-1,-1.3664838E0,-2.730505E0,4.060472E1,2.4756834E1,8.881015E1,9.066056E1,6.515487E1,5.3854555E-1,-1.2377113E0,-3.502241E0,-7.1082073E-1,3.0298306E1,-9.659258E-1,-3.502343E0,-1.4838023E0,-9.659258E-1,2.02485E1,1.1875E1,-2.5611088E0,5.815165E1,5.619838E1,8.865592E-1,-2.168495E0,5.299937E-1,1.1124085E0,-2.3300748E0,3.285666E-1,-3.227125E0,-1.4201513E-1,1.4211646E-2,6.670742E-1,6.9284797E-1,-1.6692976E0,-3.6164325E-1,-2.9805765E0],"split_indices":[30,32,15,30,28,7,7,1,4,0,21,4,4,0,0,0,4,8,13,6,6,0,0,0,0,3,32,0,0,32,11,2,0,24,7,0,0,0,0,0,0,0,0,0,0,0,0,0,0],"split_type":[0,0,0,0,0,0,0,0,0,0,0,0,0,0,0,0,0,0,0,0,0,0,0,0,0,0,0,0,0,0,0,0,0,0,0,0,0,0,0,0,0,0,0,0,0,0,0,0,0],"sum_hessian":[1.153E3,1.071E3,8.2E1,2.35E2,8.36E2,6.7E1,1.5E1,1.23E2,1.12E2,6E0,8.3E2,1E1,5.7E1,9E0,6E0,6E0,1.17E2,4E1,7.2E1,7.81E2,4.9E1,5E0,5E0,5.1E1,6E0,2.4E1,9.3E1,3.5E1,5E0,4.9E1,2.3E1,7.76E2,5E0,2.7E1,2.2E1,1.3E1,1.1E1,1.6E1,7.7E1,8E0,4.1E1,1.7E1,6E0,1.68E2,6.08E2,2.2E1,5E0,8E0,1.4E1],"tree_param":{"num_deleted":"0","num_feature":"36","num_nodes":"49","size_leaf_vector":"1"}},{"base_weights":[-1.9034404E-1,4.8908563E0,-3.6473774E1,-1.00111885E1,9.499501E0,-7.989129E0,-5.604544E1,1.1683372E1,-3.4910183E1,-3.6330078E0,1.01275E1,2.6279113E0,-4.9799862E1,-6.421753E1,-1.729421E1,-2.4298027E0,1.5019734E1,-4.6437737E1,9.288254E0,-3.7035573E0,1.22690325E1,8.414483E0,-1.963192E0,-3.1756585E0,-1.2742181E0,-2.0320666E0,-6.6222244E1,2.159225E-1,-2.2856562E0,-1.3255696E1,1.9994148E1,-6.1555775E1,-2.3524387E1,-3.7051055E-1,1.407786E1,-5.629103E0,2.9315395E0,1.4296862E1,-4.685905E0,1.3915011E1,-1.7310957E0,-2.2702281E0,-3.4449372E0,-2.9032772E0,8.8569206E-1,1.1208173E0,7.2532153E-1,-1.1325583E0,-3.2567177E0,2.710404E-1,-1.8819456E0,9.381424E-1,1.675881E-1,8.199272E-1,-9.557727E-1,8.0445194E-1,1.00344025E-1,5.542936E-1,-1.3569628E0,2.6854417E-1,7.7672833E-1,5.309405E-1,-7.710426E-1],"categories":[],"categories_nodes":[],"categories_segments":[],"categories_sizes":[],"default_left":[0,0,0,0,0,0,0,0,0,0,0,0,0,0,0,0,0,0,0,0,0,0,0,0,0,0,0,0,0,0,0,0,0,0,0,0,0,0,0,0,0,0,0,0,0,0,0,0,0,0,0,0,0,0,0,0,0,0,0,0,0,0,0],"id":2,"left_children":[1,3,5,7,9,11,13,15,17,-1,19,21,23,25,27,-1,29,31,33,35,37,39,-1,-1,-1,-1,41,-1,-1,43,45,47,49,-1,51,-1,53,55,57,59,61,-1,-1,-1,-1,-1,-1,-1,-1,-1,-1,-1,-1,-1,-1,-1,-1,-1,-1,-1,-1,-1,-1],"loss_changes":[2.1312123E5,6.973478E4,7.870972E4,1.3005164E5,4.0716586E4,2.6326055E4,2.5482281E4,2.6670246E4,5.749903E4,0E0,2.2853438E4,1.1962963E4,2.3738574E3,5.59125E2,1.0028883E4,0E0,1.7566117E4,2.9373469E4,2.0244846E3,7.5472625E4,2.3000555E4,2.4249666E3,0E0,0E0,0E0,0E0,3.148125E2,0E0,0E0,2.739966E4,1.0668164E3,5.8946875E3,1.5323518E4,0E0,8.8968066E2,0E0,2.9706982E4,1.3093297E4,2.5799771E4,3.0193018E2,2.8693062E3,0E0,0E0,0E0,0E0,0E0,0E0,0E0,0E0,0E0,0E0,0E0,0E0,0E0,0E0,0E0,0E0,0E0,0E0,0E0,0E0,0E0,0E0],"parents":[2147483647,0,0,1,1,2,2,3,3,4,4,5,5,6,6,7,7,8,8,10,10,11,11,12,12,13,13,14,14,16,16,17,17,18,18,19,19,20,20,21,21,26,26,29,29,30,30,31,31,32,32,34,34,36,36,37,37,38,38,39,39,40,40],"right_children":[2,4,6,8,10,12,14,16,18,-1,20,22,24,26,28,-1,30,32,34,36,38,40,-1,-1,-1,-1,42,-1,-1,44,46,48,50,-1,52,-1,54,56,58,60,62,-1,-1,-1,-1,-1,-1,-1,-1,-1,-1,-1,-1,-1,-1,-1,-1,-1,-1,-1,-1,-1,-1],"split_conditions":[3.0662628E1,-7.0710677E-1,5.673304E1,2.4138454E1,2.121449E1,2.9729458E1,8.6780975E1,1.9666667E-1,2.6881666E1,-3.6330078E0,4.3055832E1,5.7698597E1,1.6278334E1,3.0724804E1,4.4691166E1,-2.4298027E0,3.8010403E1,2.4962143E1,4.3388373E-1,5.4E0,4.5578335E1,4.4747E1,-1.963192E0,-3.1756585E0,-1.2742181E0,-2.0320666E0,7.7806046E1,2.159225E-1,-2.2856562E0,4.3532E1,2.4304897E1,2.4404358E1,2.5294958E1,-3.7051055E-1,5.1372887E1,-5.629103E0,8.8014E1,7.873436E1,2.6511143E1,1.0123333E1,1.3551666E1,-2.2702281E0,-3.4449372E0,-2.9032772E0,8.8569206E-1,1.1208173E0,7.2532153E-1,-1.1325583E0,-3.2567177E0,2.710404E-1,-1.8819456E0,9.381424E-1,1.675881E-1,8.199272E-1,-9.557727E-1,8.0445194E-1,1.00344025E-1,5.542936E-1,-1.3569628E0,2.6854417E-1,7.7672833E-1,5.309405E-1,-7.710426E-1],"split_indices":[22,32,7,30,20,30,4,0,0,0,19,24,0,22,16,0,4,28,34,0,16,16,0,0,0,0,5,0,0,19,23,23,30,0,26,0,14,6,23,2,0,0,0,0,0,0,0,0,0,0,0,0,0,0,0,0,0,0,0,0,0,0,0],"split_type":[0,0,0,0,0,0,0,0,0,0,0,0,0,0,0,0,0,0,0,0,0,0,0,0,0,0,0,0,0,0,0,0,0,0,0,0,0,0,0,0,0,0,0,0,0,0,0,0,0,0,0,0,0,0,0,0,0,0,0,0,0,0,0],"sum_hessian":[1.154E3,1.013E3,1.41E2,2.39E2,7.74E2,5.8E1,8.3E1,1.28E2,1.11E2,5E0,7.69E2,4.7E1,1.1E1,6.8E1,1.5E1,6E0,1.22E2,8.8E1,2.3E1,1.03E2,6.66E2,4.2E1,5E0,6E0,5E0,7E0,6.1E1,9E0,6E0,1.8E1,1.04E2,5.2E1,3.6E1,5E0,1.8E1,5E0,9.8E1,5.95E2,7.1E1,2.7E1,1.5E1,9E0,5.2E1,7E0,1.1E1,7E1,3.4E1,5E0,4.7E1,1.2E1,2.4E1,1.2E1,6E0,6.1E1,3.7E1,5.19E2,7.6E1,4.2E1,2.9E1,5E0,2.2E1,8E0,7E0],"tree_param":{"num_deleted":"0","num_feature":"36","num_nodes":"63","size_leaf_vector":"1"}},{"base_weights":[6.697125E-2,3.9987793E0,-4.2745716E1,-1.2977161E1,7.2360187E0,-1.206632E1,-5.294597E1,7.8293357E0,-2.4965694E1,8.640525E0,-2.9036615E1,5.873017E0,-2.3307703E0,-6.18781E1,-1.6693352E1,-1.6721352E0,1.4324318E1,8.326699E0,-3.8732147E1,-3.2734833E0,9.229026E0,1.1746855E1,-4.6523346E1,7.4960345E-1,-7.4235487E-1,-1.9233919E0,-3.2397034E0,-2.0048196E0,2.9765266E-1,1.7840376E1,-1.8117946E-1,1.555738E1,-1.0369155E0,-2.264869E1,-6.1141224E1,1.0592158E1,-2.347435E1,7.887593E-1,2.872024E-1,-2.897578E0,-1.0513074E0,9.88958E-1,5.925223E-1,2.7806008E-1,8.7859553E-1,-2.0725007E0,2.9799908E-2,-2.5693277E-1,-3.6931703E0,9.4814837E-1,3.941114E-1,-9.2051774E-2,-2.996763E0],"categories":[],"categories_nodes":[],"categories_segments":[],"categories_sizes":[],"default_left":[0,0,0,0,0,0,0,0,0,0,0,0,0,0,0,0,0,0,0,0,0,0,0,0,0,0,0,0,0,0,0,0,0,0,0,0,0,0,0,0,0,0,0,0,0,0,0,0,0,0,0,0,0],"id":3,"left_children":[1,3,5,7,9,11,13,15,17,19,21,23,-1,25,27,-1,29,31,33,-1,35,37,39,-1,-1,-1,-1,-1,-1,41,-1,43,-1,45,47,49,51,-1,-1,-1,-1,-1,-1,-1,-1,-1,-1,-1,-1,-1,-1,-1,-1],"loss_changes":[1.9812461E5,5.9335023E4,3.0335453E4,4.335019E4,4.6405133E4,1.6392324E4,2.2921375E4,1.7633049E4,5.0740547E4,3.867358E4,2.4797746E4,3.6236636E3,0E0,1.5247344E3,8.722023E3,0E0,3.599997E3,7.2573887E3,2.6719266E4,0E0,3.8897375E4,1.7322876E2,5.7669023E3,0E0,0E0,0E0,0E0,0E0,0E0,3.0826562E2,0E0,4.4368115E2,0E0,2.0569242E4,2.2411742E4,1.8743875E4,2.7490443E4,0E0,0E0,0E0,0E0,0E0,0E0,0E0,0E0,0E0,0E0,0E0,0E0,0E0,0E0,0E0,0E0],"parents":[2147483647,0,0,1,1,2,2,3,3,4,4,5,5,6,6,7,7,8,8,9,9,10,10,11,11,13,13,14,14,16,16,17,17,18,18,20,20,21,21,22,22,29,29,31,31,33,33,34,34,35,35,36,36],"right_children":[2,4,6,8,10,12,14,16,18,20,22,24,-1,26,28,-1,30,32,34,-1,36,38,40,-1,-1,-1,-1,-1,-1,42,-1,44,-1,46,48,50,52,-1,-1,-1,-1,-1,-1,-1,-1,-1,-1,-1,-1,-1,-1,-1,-1],"split_conditions":[3.1011574E1,4.2765167E1,5.6478615E1,2.4447308E1,4.6476833E1,2.9401167E1,8.6780975E1,3.7278763E1,1.62275E1,4.04035E1,-4.3388373E-1,5.7293457E1,-2.3307703E0,2.42405E1,1.1995E1,-1.6721352E0,3.297619E1,-1.8369701E-16,6.871681E1,-3.2734833E0,3.123107E1,8.903762E1,4.5069E1,7.4960345E-1,-7.4235487E-1,-1.9233919E0,-3.2397034E0,-2.0048196E0,2.9765266E-1,4.918294E1,-1.8117946E-1,8.374016E1,-1.0369155E0,7.0710677E-1,4.1936E1,8.52604E1,6.515487E1,7.887593E-1,2.872024E-1,-2.897578E0,-1.0513074E0,9.88958E-1,5.925223E-1,2.7806008E-1,8.7859553E-1,-2.0725007E0,2.9799908E-2,-2.5693277E-1,-3.6931703E0,9.4814837E-1,3.941114E-1,-9.2051774E-2,-2.996763E0],"split_indices":[22,19,7,23,17,8,4,4,8,16,34,26,0,8,3,0,3,33,7,0,21,13,19,0,0,0,0,0,0,25,0,15,0,33,18,14,6,0,0,0,0,0,0,0,0,0,0,0,0,0,0,0,0],"split_type":[0,0,0,0,0,0,0,0,0,0,0,0,0,0,0,0,0,0,0,0,0,0,0,0,0,0,0,0,0,0,0,0,0,0,0,0,0,0,0,0,0,0,0,0,0,0,0,0,0,0,0,0,0],"sum_hessian":[1.175E3,1.077E3,9.8E1,1.72E2,9.05E2,2.5E1,7.3E1,6.3E1,1.09E2,8.72E2,3.3E1,1.7E1,8E0,5.8E1,1.5E1,8E0,5.5E1,3.2E1,7.7E1,6E0,8.66E2,1E1,2.3E1,1.2E1,5E0,8E0,5E1,7E0,8E0,4.6E1,9E0,2.6E1,6E0,4.6E1,3.1E1,8.32E2,3.4E1,5E0,5E0,1.5E1,8E0,3.3E1,1.3E1,5E0,2.1E1,2.5E1,2.1E1,6E0,2.5E1,2.02E2,6.3E2,2.2E1,1.2E1],"tree_param":{"num_deleted":"0","num_feature":"36","num_nodes":"53","size_leaf_vector":"1"}},{"base_weights":[-1.9842783E-1,2.926314E0,-4.096948E1,-1.10575695E1,6.984935E0,-4.6136906E1,6.614883E-1,9.65035E0,-3.2537006E1,8.668783E0,-1.8180302E1,-2.8867204E0,-5.4199646E1,1.1983922E1,-1.5692358E0,6.5394816E0,-5.215824E1,-3.366527E1,9.422471E0,1.7807772E0,-4.4298264E1,6.8153787E-1,-9.503048E-1,-1.2367933E0,-5.796526E1,-1.1112704E0,1.3997916E1,-8.5547125E-1,1.0302092E1,7.47628E-1,-5.780307E1,8.289097E-1,-4.314567E0,-2.5814853E0,1.16911335E1,1.1579018E1,-1.391202E0,-5.222371E-1,-2.7813144E0,-3.012916E0,-1.4398359E0,7.8236336E-1,-9.003362E-1,4.2150695E-2,9.85439E-1,-1.2790803E0,-3.0134237E0,-6.336211E0,2.4019721E-1,7.0170236E-1,3.717044E-2,3.1717345E-1,6.3088316E-1],"categories":[],"categories_nodes":[],"categories_segments":[],"categories_sizes":[],"default_left":[0,0,0,0,0,0,0,0,0,0,0,0,0,0,0,0,0,0,0,0,0,0,0,0,0,0,0,0,0,0,0,0,0,0,0,0,0,0,0,0,0,0,0,0,0,0,0,0,0,0,0,0,0],"id":4,"left_children":[1,3,5,7,9,11,-1,13,15,17,19,21,23,25,-1,27,29,31,33,35,37,-1,-1,-1,39,-1,41,-1,43,-1,45,-1,-1,47,49,51,-1,-1,-1,-1,-1,-1,-1,-1,-1,-1,-1,-1,-1,-1,-1,-1,-1],"loss_changes":[1.4854353E5,6.154279E4,2.3859531E4,1.0884611E5,3.5751184E4,2.6340172E4,0E0,1.2343957E4,9.235314E4,2.5457227E4,2.7714299E4,3.7208735E3,5.6586562E3,8.50908E3,0E0,3.823828E3,3.1174906E4,3.845515E4,2.113661E4,9.312878E3,8.232742E3,0E0,0E0,0E0,2.0014219E3,0E0,6.2464355E3,0E0,3.1845593E3,0E0,4.328125E3,0E0,0E0,1.1431004E5,1.6711617E4,4.8573242E1,0E0,0E0,0E0,0E0,0E0,0E0,0E0,0E0,0E0,0E0,0E0,0E0,0E0,0E0,0E0,0E0,0E0],"parents":[2147483647,0,0,1,1,2,2,3,3,4,4,5,5,7,7,8,8,9,9,10,10,11,11,12,12,13,13,15,15,16,16,17,17,18,18,19,19,20,20,24,24,26,26,28,28,30,30,33,33,34,34,35,35],"right_children":[2,4,6,8,10,12,-1,14,16,18,20,22,24,26,-1,28,30,32,34,36,38,-1,-1,-1,40,-1,42,-1,44,-1,46,-1,-1,48,50,52,-1,-1,-1,-1,-1,-1,-1,-1,-1,-1,-1,-1,-1,-1,-1,-1,-1],"split_conditions":[2.9450352E1,-7.0710677E-1,9.1338585E1,2.4189686E1,2.9450352E1,5.0726402E1,6.614883E-1,3.4070587E1,-1.8369701E-16,2.219811E1,6.515487E1,9.032371E1,8.559055E1,2.1924671E1,-1.5692358E0,4.20055E1,2.3353949E1,2.6783333E1,4.322167E1,5.7698597E1,5.619838E1,6.8153787E-1,-9.503048E-1,-1.2367933E0,8.645649E1,-1.1112704E0,4.6476833E1,-8.5547125E-1,-8.660254E-1,7.47628E-1,-4.3388373E-1,8.289097E-1,-4.314567E0,1.9666667E-1,4.4954998E1,1.084E1,-1.391202E0,-5.222371E-1,-2.7813144E0,-3.012916E0,-1.4398359E0,7.8236336E-1,-9.003362E-1,4.2150695E-2,9.85439E-1,-1.2790803E0,-3.0134237E0,-6.336211E0,2.4019721E-1,7.0170236E-1,3.717044E-2,3.1717345E-1,6.3088316E-1],"split_indices":[30,32,14,30,29,7,0,3,33,20,6,13,12,29,0,17,31,1,19,25,7,0,0,0,5,0,16,0,32,0,34,0,0,0,17,2,0,0,0,0,0,0,0,0,0,0,0,0,0,0,0,0,0],"split_type":[0,0,0,0,0,0,0,0,0,0,0,0,0,0,0,0,0,0,0,0,0,0,0,0,0,0,0,0,0,0,0,0,0,0,0,0,0,0,0,0,0,0,0,0,0,0,0,0,0,0,0,0,0],"sum_hessian":[1.164E3,1.082E3,8.2E1,2.43E2,8.39E2,7.5E1,7E0,1.24E2,1.19E2,7.87E2,5.2E1,1.2E1,6.3E1,1.18E2,6E0,4E1,7.9E1,1.3E1,7.74E2,3E1,2.2E1,6E0,6E0,8E0,5.5E1,6E0,1.12E2,5E0,3.5E1,6E0,7.3E1,7E0,6E0,1.23E2,6.51E2,2.3E1,7E0,6E0,1.6E1,5E1,5E0,1.07E2,5E0,1.8E1,1.7E1,6E0,6.7E1,6E0,1.17E2,5.36E2,1.15E2,5E0,1.8E1],"tree_param":{"num_deleted":"0","num_feature":"36","num_nodes":"53","size_leaf_vector":"1"}},{"base_weights":[7.205917E-2,3.6603847E0,-3.5386868E1,-9.325131E0,7.5502343E0,2.1077044E0,-4.425871E1,6.0722737E0,-3.2253677E1,9.078588E0,-2.2341171E1,1.0190616E1,-1.0564249E0,-5.4633587E1,-1.0174596E1,-1.4279301E1,1.3043416E1,3.3540242E0,-5.2028004E1,9.645656E0,-3.230876E1,4.0226183E0,-4.764586E1,2.0670472E-2,7.7384824E-1,-2.4252857E1,-3.0034645E0,-2.0211723E0,9.990706E0,3.341779E0,-2.7106771E0,-1.1505516E0,1.4926595E1,-8.4748316E-1,7.059277E0,-6.130921E-1,-5.8198246E1,-2.2719242E-1,1.1284302E1,-4.4617385E-2,-2.9161859E0,1.1628384E1,-8.4565973E-1,-2.8218515E0,-1.6160935E0,-1.854719E-1,-1.9191262E0,2.5619397E-1,6.057035E-1,-1.5883514E0,6.1798257E-1,9.617192E-1,2.8869748E-1,-3.8956467E-2,9.291517E-1,-1.6832037E0,-2.9970758E0,7.920904E-1,-2.1623273E0,6.434806E-1,6.389954E-3,3.3400682E-1,6.630606E-1],"categories":[],"categories_nodes":[],"categories_segments":[],"categories_sizes":[],"default_left":[0,0,0,0,0,0,0,0,0,0,0,0,0,0,0,0,0,0,0,0,0,0,0,0,0,0,0,0,0,0,0,0,0,0,0,0,0,0,0,0,0,0,0,0,0,0,0,0,0,0,0,0,0,0,0,0,0,0,0,0,0,0,0],"id":5,"left_children":[1,3,5,7,9,11,13,15,17,19,21,23,-1,25,27,29,31,33,35,37,39,41,43,-1,-1,45,-1,-1,47,49,-1,-1,51,-1,53,-1,55,57,59,-1,-1,61,-1,-1,-1,-1,-1,-1,-1,-1,-1,-1,-1,-1,-1,-1,-1,-1,-1,-1,-1,-1,-1],"loss_changes":[1.5230322E5,5.4976453E4,3.6688547E4,8.881154E4,3.843954E4,4.3461733E3,3.0909703E4,2.160906E4,7.129533E4,1.90145E4,2.754825E4,8.706699E2,0E0,9.764281E3,1.38264E4,2.7629953E4,8.0150234E3,2.9021843E3,1.5228172E4,1.2735836E4,8.932296E3,3.5400352E3,9.960039E2,0E0,0E0,3.3366724E3,0E0,0E0,8.0881714E1,9.255677E3,0E0,0E0,4.144629E3,0E0,2.9067517E3,0E0,3.67875E2,7.880225E4,1.1935461E4,0E0,0E0,3.869336E1,0E0,0E0,0E0,0E0,0E0,0E0,0E0,0E0,0E0,0E0,0E0,0E0,0E0,0E0,0E0,0E0,0E0,0E0,0E0,0E0,0E0],"parents":[2147483647,0,0,1,1,2,2,3,3,4,4,5,5,6,6,7,7,8,8,9,9,10,10,11,11,13,13,14,14,15,15,16,16,17,17,18,18,19,19,20,20,21,21,22,22,25,25,28,28,29,29,32,32,34,34,36,36,37,37,38,38,41,41],"right_children":[2,4,6,8,10,12,14,16,18,20,22,24,-1,26,28,30,32,34,36,38,40,42,44,-1,-1,46,-1,-1,48,50,-1,-1,52,-1,54,-1,56,58,60,-1,-1,62,-1,-1,-1,-1,-1,-1,-1,-1,-1,-1,-1,-1,-1,-1,-1,-1,-1,-1,-1,-1,-1],"split_conditions":[2.9253471E1,-7.0710677E-1,6.926623E1,2.443938E1,3.123107E1,3.0168846E1,8.4900444E1,4.3521385E1,-1.8369701E-16,3.038297E1,6.461406E1,2.8398666E1,-1.0564249E0,2.4487833E1,1.1995E1,4.9413715E1,1.9666667E-1,4.20055E1,-4.3388373E-1,4.612042E1,5.432679E1,1.2551666E1,9.004374E1,2.0670472E-2,7.7384824E-1,2.22E1,-3.0034645E0,-2.0211723E0,1.48133335E1,3.1687626E1,-2.7106771E0,-1.1505516E0,2.3697918E1,-8.4748316E-1,-8.660254E-1,-6.130921E-1,8.504812E1,4.7776546E1,7.880764E1,-4.4617385E-2,-2.9161859E0,2.5213396E1,-8.4565973E-1,-2.8218515E0,-1.6160935E0,-1.854719E-1,-1.9191262E0,2.5619397E-1,6.057035E-1,-1.5883514E0,6.1798257E-1,9.617192E-1,2.8869748E-1,-3.8956467E-2,9.291517E-1,-1.6832037E0,-2.9970758E0,7.920904E-1,-2.1623273E0,6.434806E-1,6.389954E-3,3.3400682E-1,6.630606E-1],"split_indices":[30,32,6,30,21,29,4,4,33,31,6,9,0,8,3,6,1,17,34,4,26,0,14,0,0,0,0,0,0,4,0,0,31,0,32,0,14,6,6,0,0,31,0,0,0,0,0,0,0,0,0,0,0,0,0,0,0,0,0,0,0,0,0],"split_type":[0,0,0,0,0,0,0,0,0,0,0,0,0,0,0,0,0,0,0,0,0,0,0,0,0,0,0,0,0,0,0,0,0,0,0,0,0,0,0,0,0,0,0,0,0,0,0,0,0,0,0,0,0,0,0,0,0,0,0,0,0,0,0],"sum_hessian":[1.195E3,1.086E3,1.09E2,2.5E2,8.36E2,2.1E1,8.8E1,1.5E2,1E2,7.96E2,4E1,1.6E1,5E0,6.7E1,2.1E1,3.8E1,1.12E2,3.6E1,6.4E1,7.86E2,1E1,2E1,2E1,6E0,1E1,1.1E1,5.6E1,8E0,1.3E1,2.7E1,1.1E1,5E0,1.07E2,5E0,3.1E1,9E0,5.5E1,1.12E2,6.74E2,5E0,5E0,1.5E1,5E0,1.1E1,9E0,5E0,6E0,5E0,8E0,5E0,2.2E1,7.2E1,3.5E1,1.9E1,1.2E1,5E0,5E1,8.2E1,3E1,5.9E2,8.4E1,5E0,1E1],"tree_param":{"num_deleted":"0","num_feature":"36","num_nodes":"63","size_leaf_vector":"1"}},{"base_weights":[-6.746042E-1,2.337333E0,-3.9428528E1,-9.716747E0,5.8073926E0,-4.4095397E-1,-4.7218315E1,8.155121E0,-2.7074532E1,1.3676991E1,2.2951357E0,-8.8138103E-1,6.482169E-1,-2.890021E0,-3.1178827E1,-2.1024625E0,1.1167187E1,7.8286424E0,-4.462281E1,1.49025955E1,-2.5834064E0,9.516362E0,-9.717292E0,-4.29565E1,-1.658916E-1,1.34639635E1,-8.556716E-1,-6.775376E-1,1.1771063E1,3.8528523E-1,-5.038543E1,-6.787123E-1,1.5563861E1,7.0137477E0,-1.2281432E0,-2.6763794E1,1.2042191E1,-6.7719784E0,-3.7160152E1,-6.630449E-1,-2.5700662E0,1.4011309E-1,7.733929E-1,2.278538E-1,8.990286E-1,-1.6898769E0,-2.8375754E0,8.1797403E-1,1.372214E-1,-1.6830882E-1,6.582751E-1,1.1251782E0,-5.5693784E0,6.415143E-1,-1.1176777E0,-1.7221445E0,-1.7436397E-1,-6.058125E-2,-2.5726058E0],"categories":[],"categories_nodes":[],"categories_segments":[],"categories_sizes":[],"default_left":[0,0,0,0,0,0,0,0,0,0,0,0,0,0,0,0,0,0,0,0,0,0,0,0,0,0,0,0,0,0,0,0,0,0,0,0,0,0,0,0,0,0,0,0,0,0,0,0,0,0,0,0,0,0,0,0,0,0,0],"id":6,"left_children":[1,3,5,7,9,11,13,15,17,19,21,-1,-1,-1,23,-1,25,27,29,31,33,35,37,39,-1,41,-1,-1,43,-1,45,-1,47,49,-1,51,53,55,57,-1,-1,-1,-1,-1,-1,-1,-1,-1,-1,-1,-1,-1,-1,-1,-1,-1,-1,-1,-1],"loss_changes":[1.3596305E5,4.5272516E4,2.5485633E4,7.529497E4,2.3184654E4,3.684881E3,1.0070156E4,1.8612746E4,7.568935E4,5.201293E3,5.057773E4,0E0,0E0,0E0,9.696982E3,0E0,7.634838E3,3.6993633E3,2.5119562E4,4.749672E3,4.1818975E3,3.367685E4,1.744525E4,4.57816E3,0E0,2.2195098E3,0E0,0E0,1.528439E3,0E0,5.8872812E3,0E0,2.36025E3,9.392638E2,0E0,1.02576055E5,9.529379E3,1.7963328E4,1.0721672E4,0E0,0E0,0E0,0E0,0E0,0E0,0E0,0E0,0E0,0E0,0E0,0E0,0E0,0E0,0E0,0E0,0E0,0E0,0E0,0E0],"parents":[2147483647,0,0,1,1,2,2,3,3,4,4,5,5,6,6,7,7,8,8,9,9,10,10,14,14,16,16,17,17,18,18,19,19,20,20,21,21,22,22,23,23,25,25,28,28,30,30,32,32,33,33,35,35,36,36,37,37,38,38],"right_children":[2,4,6,8,10,12,14,16,18,20,22,-1,-1,-1,24,-1,26,28,30,32,34,36,38,40,-1,42,-1,-1,44,-1,46,-1,48,50,-1,52,54,56,58,-1,-1,-1,-1,-1,-1,-1,-1,-1,-1,-1,-1,-1,-1,-1,-1,-1,-1,-1,-1],"split_conditions":[2.9450352E1,-7.0710677E-1,5.1710915E1,2.4189686E1,5.390118E1,8.966754E1,9.081365E1,1.9666667E-1,-1.8369701E-16,7.580383E1,8.8014E1,-8.8138103E-1,6.482169E-1,-2.890021E0,8.5013115E1,-2.1024625E0,3.3751667E1,2.5275377E1,2.3683449E1,4.9272312E1,2.9734118E1,1.9666667E-1,2.9450352E1,8.930884E1,-1.658916E-1,2.2594763E1,-8.556716E-1,-6.775376E-1,-8.660254E-1,3.8528523E-1,4.9923065E1,-6.787123E-1,3.0374166E1,5.0969765E1,-1.2281432E0,1.9666667E-1,8.926228E1,4.329787E1,1.0176666E1,-6.630449E-1,-2.5700662E0,1.4011309E-1,7.733929E-1,2.278538E-1,8.990286E-1,-1.6898769E0,-2.8375754E0,8.1797403E-1,1.372214E-1,-1.6830882E-1,6.582751E-1,1.1251782E0,-5.5693784E0,6.415143E-1,-1.1176777E0,-1.7221445E0,-1.7436397E-1,-6.058125E-2,-2.5726058E0],"split_indices":[30,32,7,30,7,15,14,1,33,5,14,0,0,0,5,0,3,22,31,24,8,0,29,13,0,28,0,0,32,0,27,0,10,7,0,3,7,18,1,0,0,0,0,0,0,0,0,0,0,0,0,0,0,0,0,0,0,0,0],"split_type":[0,0,0,0,0,0,0,0,0,0,0,0,0,0,0,0,0,0,0,0,0,0,0,0,0,0,0,0,0,0,0,0,0,0,0,0,0,0,0,0,0,0,0,0,0,0,0,0,0,0,0,0,0,0,0,0,0,0,0],"sum_hessian":[1.163E3,1.08E3,8.3E1,2.41E2,8.39E2,1.4E1,6.9E1,1.19E2,1.22E2,2.58E2,5.81E2,6E0,8E0,4E1,2.9E1,6E0,1.13E2,4.1E1,8.1E1,2.4E2,1.8E1,3.63E2,2.18E2,2E1,9E0,1.05E2,8E0,6E0,3.5E1,8E0,7.3E1,5E0,2.35E2,1.3E1,5E0,2.3E1,3.4E2,1.98E2,2E1,5E0,1.5E1,1.7E1,8.8E1,1.7E1,1.8E1,2.2E1,5.1E1,2.21E2,1.4E1,5E0,8E0,1.5E1,8E0,3.33E2,7E0,2E1,1.78E2,6E0,1.4E1],"tree_param":{"num_deleted":"0","num_feature":"36","num_nodes":"59","size_leaf_vector":"1"}},{"base_weights":[-7.64695E-2,2.9624124E0,-3.712378E1,-9.274516E0,6.449084E0,3.585848E-1,-4.472775E1,9.101665E0,-2.8828773E1,-2.2399523E0,7.0545053E0,-8.436077E-1,6.197122E-1,-5.0140038E1,-1.2577593E1,-1.5844034E0,1.1790785E1,3.7911887E0,-4.5824745E1,-2.2100506E-2,1.1036151E1,-9.813609E-1,-2.7109795E0,6.1760014E-1,-1.6081651E0,-4.7534356E0,1.6519081E1,-1.1092162E0,8.017908E0,-5.520947E0,-5.245688E1,8.991244E0,-1.5837132E1,1.2061978E1,-1.5977007E1,7.733583E-1,-2.0342586E0,3.0985287E-1,9.224042E-1,-5.350324E-1,6.060821E-1,7.661764E-1,-1.1306609E0,-2.741655E0,-9.7695446E-1,-8.708156E-1,6.072696E-1,-2.0220518E0,-5.9930034E-2,3.078161E-3,6.732137E-1,3.755029E-1,-2.2764492E0],"categories":[],"categories_nodes":[],"categories_segments":[],"categories_sizes":[],"default_left":[0,0,0,0,0,0,0,0,0,0,0,0,0,0,0,0,0,0,0,0,0,0,0,0,0,0,0,0,0,0,0,0,0,0,0,0,0,0,0,0,0,0,0,0,0,0,0,0,0,0,0,0,0],"id":7,"left_children":[1,3,5,7,9,11,13,15,17,-1,19,-1,-1,21,23,-1,25,27,29,31,33,-1,-1,-1,-1,35,37,-1,39,41,43,45,47,49,51,-1,-1,-1,-1,-1,-1,-1,-1,-1,-1,-1,-1,-1,-1,-1,-1,-1,-1],"loss_changes":[1.3217255E5,4.6352305E4,2.5386812E4,8.6863516E4,2.6529824E4,3.5268025E3,1.22395E4,1.4082698E4,6.5043656E4,0E0,2.3556934E4,0E0,0E0,6.7705938E3,6.258429E3,0E0,9.310363E3,4.6778945E3,2.0286703E4,4.3192074E4,1.5017617E4,0E0,0E0,0E0,0E0,2.024896E4,1.715043E3,0E0,2.895225E3,4.6225967E3,4.0837188E3,1.6286612E4,3.9565508E4,8.681148E3,1.4227512E4,0E0,0E0,0E0,0E0,0E0,0E0,0E0,0E0,0E0,0E0,0E0,0E0,0E0,0E0,0E0,0E0,0E0,0E0],"parents":[2147483647,0,0,1,1,2,2,3,3,4,4,5,5,6,6,7,7,8,8,10,10,13,13,14,14,16,16,17,17,18,18,19,19,20,20,25,25,26,26,28,28,29,29,30,30,31,31,32,32,33,33,34,34],"right_children":[2,4,6,8,10,12,14,16,18,-1,20,-1,-1,22,24,-1,26,28,30,32,34,-1,-1,-1,-1,36,38,-1,40,42,44,46,48,50,52,-1,-1,-1,-1,-1,-1,-1,-1,-1,-1,-1,-1,-1,-1,-1,-1,-1,-1],"split_conditions":[2.9450352E1,-7.0710677E-1,5.1710915E1,2.4189686E1,2.121449E1,8.966754E1,8.6780975E1,1.9666667E-1,-1.8369701E-16,-2.2399523E0,1.4623333E1,-8.436077E-1,6.197122E-1,8.585302E1,3.1610832E1,-1.5844034E0,4.060472E1,5.9421093E1,-4.3388373E-1,6.8222046E1,3.1267706E1,-9.813609E-1,-2.7109795E0,6.1760014E-1,-1.6081651E0,3.0298306E1,-9.659258E-1,-1.1092162E0,1.18125E1,2.50965E1,2.638E1,4.7776546E1,6.234898E-1,3.8922794E1,6.121511E1,7.733583E-1,-2.0342586E0,3.0985287E-1,9.224042E-1,-5.350324E-1,6.060821E-1,7.661764E-1,-1.1306609E0,-2.741655E0,-9.7695446E-1,-8.708156E-1,6.072696E-1,-2.0220518E0,-5.9930034E-2,3.078161E-3,6.732137E-1,3.755029E-1,-2.2764492E0],"split_indices":[30,32,7,30,20,15,4,1,33,0,2,0,0,12,22,0,4,4,34,6,20,0,0,0,0,3,32,0,10,9,0,4,35,4,7,0,0,0,0,0,0,0,0,0,0,0,0,0,0,0,0,0,0],"split_type":[0,0,0,0,0,0,0,0,0,0,0,0,0,0,0,0,0,0,0,0,0,0,0,0,0,0,0,0,0,0,0,0,0,0,0,0,0,0,0,0,0,0,0,0,0,0,0,0,0,0,0,0,0],"sum_hessian":[1.172E3,1.084E3,8.8E1,2.4E2,8.44E2,1.5E1,7.3E1,1.24E2,1.16E2,9E0,8.35E2,6E0,9E0,6.2E1,1.1E1,7E0,1.17E2,4E1,7.6E1,3.01E2,5.34E2,8E0,5.4E1,5E0,6E0,2.6E1,9.1E1,5E0,3.5E1,1.1E1,6.5E1,1.92E2,1.09E2,5.15E2,1.9E1,1.7E1,9E0,1.5E1,7.6E1,6E0,2.9E1,5E0,6E0,6E1,5E0,2E1,1.72E2,4E1,6.9E1,5.4E1,4.61E2,1.1E1,8E0],"tree_param":{"num_deleted":"0","num_feature":"36","num_nodes":"53","size_leaf_vector":"1"}},{"base_weights":[1.7052655E-1,3.0266025E0,-3.8299217E1,-1.2372918E1,5.8430624E0,-5.943443E-1,-4.421435E1,4.562979E0,-3.0398357E1,6.83503E0,-2.610502E1,-7.017641E-1,5.49854E-1,-4.9315487E1,-4.332995E-1,-1.8156452E1,1.0259976E1,1.2300386E1,-3.8622765E1,1.518955E1,3.614026E0,1.7913562E-1,-4.0361458E1,-1.0423244E0,-2.5741658E0,-4.038931E1,7.3353916E-1,1.6462688E1,-7.5770645E0,1.2239194E-1,8.745465E-1,3.703584E-1,-4.4782547E1,-2.0339105E0,1.5994559E1,1.2741893E1,-1.821988E0,-2.7464422E1,-2.926644E0,-1.1229867E0,-2.5785332E0,8.597967E-1,3.9181384E-1,2.2318618E-1,-1.721303E0,-2.5688967E-1,-2.4912343E0,8.646628E-1,-1.2129978E0,8.3899605E-1,3.7582362E-1,6.764346E-1,-5.9752816E-1,-1.5924286E0,5.442197E-2,-1.5798943E-1,-2.1123674E0],"categories":[],"categories_nodes":[],"categories_segments":[],"categories_sizes":[],"default_left":[0,0,0,0,0,0,0,0,0,0,0,0,0,0,0,0,0,0,0,0,0,0,0,0,0,0,0,0,0,0,0,0,0,0,0,0,0,0,0,0,0,0,0,0,0,0,0,0,0,0,0,0,0,0,0,0,0],"id":8,"left_children":[1,3,5,7,9,11,13,15,17,19,21,-1,-1,23,-1,25,27,29,31,33,35,-1,37,-1,-1,39,-1,41,43,-1,-1,-1,45,47,49,51,53,55,-1,-1,-1,-1,-1,-1,-1,-1,-1,-1,-1,-1,-1,-1,-1,-1,-1,-1,-1],"loss_changes":[1.2877309E5,4.7390637E4,1.803461E4,5.1733098E4,2.9427729E4,2.0242462E3,1.22604375E4,1.1575558E4,2.9273805E4,2.405454E4,1.1999035E4,0E0,0E0,2.6841875E3,0E0,1.3732292E4,7.9809287E3,6.711521E2,1.9899312E4,3.4863164E3,3.2177555E4,0E0,2.836621E3,0E0,0E0,1.0395801E3,0E0,1.9798438E2,6.299043E3,0E0,0E0,0E0,1.193207E4,5.5750283E3,1.4561367E3,4.86341E3,3.5605547E4,4.532782E3,0E0,0E0,0E0,0E0,0E0,0E0,0E0,0E0,0E0,0E0,0E0,0E0,0E0,0E0,0E0,0E0,0E0,0E0,0E0],"parents":[2147483647,0,0,1,1,2,2,3,3,4,4,5,5,6,6,7,7,8,8,9,9,10,10,13,13,15,15,16,16,17,17,18,18,19,19,20,20,22,22,25,25,27,27,28,28,32,32,33,33,34,34,35,35,36,36,37,37],"right_children":[2,4,6,8,10,12,14,16,18,20,22,-1,-1,24,-1,26,28,30,32,34,36,-1,38,-1,-1,40,-1,42,44,-1,-1,-1,46,48,50,52,54,56,-1,-1,-1,-1,-1,-1,-1,-1,-1,-1,-1,-1,-1,-1,-1,-1,-1,-1,-1],"split_conditions":[2.9450352E1,4.273733E1,5.1710915E1,8.752406E1,4.711933E1,8.966754E1,8.63671E1,7.887139E1,4.848291E1,1.7015614E1,4.685472E1,-7.017641E-1,5.49854E-1,8.5485565E1,-4.332995E-1,4.217433E1,8.744532E1,4.2765167E1,6.0026863E1,9.259666E0,2.4369635E1,1.7913562E-1,2.2749999E0,-1.0423244E0,-2.5741658E0,7.68154E1,7.3353916E-1,6.871313E1,5.096987E1,1.2239194E-1,8.745465E-1,3.703584E-1,0E0,5.727037E1,8.577232E1,2.6881666E1,-7.0710677E-1,-1.8369701E-16,-2.926644E0,-1.1229867E0,-2.5785332E0,8.597967E-1,3.9181384E-1,2.2318618E-1,-1.721303E0,-2.5688967E-1,-2.4912343E0,8.646628E-1,-1.2129978E0,8.3899605E-1,3.7582362E-1,6.764346E-1,-5.9752816E-1,-1.5924286E0,5.442197E-2,-1.5798943E-1,-2.1123674E0],"split_indices":[30,19,7,13,16,15,4,15,26,9,5,0,0,12,0,19,12,16,7,8,31,0,2,0,0,15,0,4,26,0,0,0,34,4,6,1,32,33,0,0,0,0,0,0,0,0,0,0,0,0,0,0,0,0,0,0,0],"split_type":[0,0,0,0,0,0,0,0,0,0,0,0,0,0,0,0,0,0,0,0,0,0,0,0,0,0,0,0,0,0,0,0,0,0,0,0,0,0,0,0,0,0,0,0,0,0,0,0,0,0,0,0,0,0,0,0,0],"sum_hessian":[1.17E3,1.09E3,8E1,1.68E2,9.22E2,1.1E1,6.9E1,8.7E1,8.1E1,8.95E2,2.7E1,5E0,6E0,6E1,9E0,1.7E1,7E1,1.3E1,6.8E1,2.48E2,6.47E2,9E0,1.8E1,5E0,5.5E1,1E1,7E0,5.2E1,1.8E1,5E0,8E0,8E0,6E1,1.1E1,2.37E2,2.41E2,4.06E2,1.2E1,6E0,5E0,5E0,4.7E1,5E0,1.3E1,5E0,7E0,5.3E1,6E0,5E0,2.16E2,2.1E1,2.34E2,7E0,3.5E1,3.71E2,5E0,7E0],"tree_param":{"num_deleted":"0","num_feature":"36","num_nodes":"57","size_leaf_vector":"1"}},{"base_weights":[1.319296E-1,2.866762E0,-3.202524E1,-1.1663763E1,5.491061E0,-1.2609179E1,-4.3383785E1,4.308991E0,-2.219546E1,8.434736E0,-7.136475E0,6.846432E0,-3.614687E1,-2.376578E0,-6.0123485E-1,-1.8468325E0,9.050833E0,7.0981846E0,-3.5036148E1,-2.858727E0,9.052449E0,7.637422E0,-1.947798E1,6.348476E-1,-4.4521362E-1,-1.1023221E0,-2.3739498E0,1.2626862E1,-7.879609E-1,-8.04336E-1,1.2179386E1,-7.7684813E0,-4.3119434E1,1.0240033E1,-2.1084126E1,-7.286165E0,1.2486327E1,-3.627978E1,-6.902525E0,-3.8420853E-1,7.943446E-1,2.668779E-1,7.2069365E-1,-1.6959429E0,4.784901E-1,-2.4806316E0,3.3116755E-1,5.3902E-1,-1.2362443E0,2.5395617E-1,-2.3808658E0,7.1821505E-1,-1.1462584E0,7.5684506E-1,-6.937491E-1,2.8775055E-2,-2.3500745E0,2.5358459E-2,-2.242088E0],"categories":[],"categories_nodes":[],"categories_segments":[],"categories_sizes":[],"default_left":[0,0,0,0,0,0,0,0,0,0,0,0,0,0,0,0,0,0,0,0,0,0,0,0,0,0,0,0,0,0,0,0,0,0,0,0,0,0,0,0,0,0,0,0,0,0,0,0,0,0,0,0,0,0,0,0,0,0,0],"id":9,"left_children":[1,3,5,7,9,11,13,15,17,19,21,23,25,-1,-1,-1,27,29,31,-1,33,35,37,-1,-1,-1,-1,39,-1,-1,41,43,45,47,49,51,53,55,57,-1,-1,-1,-1,-1,-1,-1,-1,-1,-1,-1,-1,-1,-1,-1,-1,-1,-1,-1,-1],"loss_changes":[1.02104484E5,4.086515E4,1.9516336E4,2.7685543E4,3.3774754E4,1.62783125E4,6.8365156E3,1.3239819E4,3.7490395E4,3.0341121E4,3.151107E4,1.9564324E3,1.5029082E3,0E0,0E0,0E0,5.5219644E3,3.8475579E3,1.4868391E4,0E0,2.634132E4,5.8081787E3,1.960654E4,0E0,0E0,0E0,0E0,3.6322705E3,0E0,0E0,3.1857715E2,8.034877E3,1.7451344E4,1.3547539E4,1.968355E4,7.1019937E3,4.402506E3,1.5837754E4,1.5488674E4,0E0,0E0,0E0,0E0,0E0,0E0,0E0,0E0,0E0,0E0,0E0,0E0,0E0,0E0,0E0,0E0,0E0,0E0,0E0,0E0],"parents":[2147483647,0,0,1,1,2,2,3,3,4,4,5,5,6,6,7,7,8,8,9,9,10,10,11,11,12,12,16,16,17,17,18,18,20,20,21,21,22,22,27,27,30,30,31,31,32,32,33,33,34,34,35,35,36,36,37,37,38,38],"right_children":[2,4,6,8,10,12,14,16,18,20,22,24,26,-1,-1,-1,28,30,32,-1,34,36,38,-1,-1,-1,-1,40,-1,-1,42,44,46,48,50,52,54,56,58,-1,-1,-1,-1,-1,-1,-1,-1,-1,-1,-1,-1,-1,-1,-1,-1,-1,-1,-1,-1],"split_conditions":[3.1011574E1,4.273733E1,7.55531E1,8.751326E1,4.4954998E1,3.0293E1,9.0647415E1,4.027734E1,6.099445E1,4.04035E1,5.4498524E1,2.9661098E1,3.1321487E1,-2.376578E0,-6.0123485E-1,-1.8468325E0,7.858776E1,3.453235E1,2.4074074E1,-2.858727E0,3.123107E1,4.5087677E1,5.9769447E1,6.348476E-1,-4.4521362E-1,-1.1023221E0,-2.3739498E0,7.887139E1,-7.879609E-1,-8.04336E-1,1.1271187E1,5.024794E1,2.638E1,5.785216E1,5.4498524E1,4.9529793E1,6.1061947E1,4.9867256E1,4.711933E1,-3.8420853E-1,7.943446E-1,2.668779E-1,7.2069365E-1,-1.6959429E0,4.784901E-1,-2.4806316E0,3.3116755E-1,5.3902E-1,-1.2362443E0,2.5395617E-1,-2.3808658E0,7.1821505E-1,-1.1462584E0,7.5684506E-1,-6.937491E-1,2.8775055E-2,-2.3500745E0,2.5358459E-2,-2.242088E0],"split_indices":[22,19,6,12,17,9,15,4,7,16,7,30,22,0,0,0,7,4,30,0,21,18,4,0,0,0,0,15,0,0,0,4,0,27,7,27,6,6,16,0,0,0,0,0,0,0,0,0,0,0,0,0,0,0,0,0,0,0,0],"split_type":[0,0,0,0,0,0,0,0,0,0,0,0,0,0,0,0,0,0,0,0,0,0,0,0,0,0,0,0,0,0,0,0,0,0,0,0,0,0,0,0,0,0,0,0,0,0,0,0,0,0,0,0,0,0,0,0,0,0,0],"sum_hessian":[1.159E3,1.069E3,9E1,1.63E2,9.06E2,3.4E1,5.6E1,6.5E1,9.8E1,7.35E2,1.71E2,1.9E1,1.5E1,4.9E1,7E0,6E0,5.9E1,3E1,6.8E1,6E0,7.29E2,7.8E1,9.3E1,1.4E1,5E0,8E0,7E0,5.2E1,7E0,5E0,2.5E1,1.6E1,5.2E1,7.02E2,2.7E1,1.9E1,5.9E1,3.9E1,5.4E1,7E0,4.5E1,7E0,1.8E1,6E0,1E1,4.6E1,6E0,6.92E2,1E1,1.4E1,1.3E1,8E0,1.1E1,5.4E1,5E0,9E0,3E1,4.6E1,8E0],"tree_param":{"num_deleted":"0","num_feature":"36","num_nodes":"59","size_leaf_vector":"1"}},{"base_weights":[-7.1155006E-1,2.0090857E0,-2.7556221E1,3.0856214E0,-3.4907955E1,5.1950846E0,-3.6586876E1,-3.0253568E0,3.707372E0,7.331325E-1,-4.5412582E1,1.3602434E1,-5.158718E-1,-7.153066E-2,-3.9763023E1,-4.0894775E0,7.4031157E0,-3.193568E0,-2.8841974E1,4.6969196E-1,8.8286114E-1,-4.2931145E1,-7.116751E-1,-1.0972679E1,1.2658185E1,9.998533E0,-4.5444646E0,-2.3388055E-1,-2.2210352E0,-4.502362E1,-1.0798562E0,5.7012004E-1,-9.942201E-1,-4.9417004E-1,7.003221E-1,5.3123164E-1,-2.5200145E0,3.5376438E-1,-8.33141E-1,-2.3350244E0,-1.506751E0],"categories":[],"categories_nodes":[],"categories_segments":[],"categories_sizes":[],"default_left":[0,0,0,0,0,0,0,0,0,0,0,0,0,0,0,0,0,0,0,0,0,0,0,0,0,0,0,0,0,0,0,0,0,0,0,0,0,0,0,0,0],"id":10,"left_children":[1,3,5,7,9,11,13,-1,15,-1,17,19,-1,-1,21,23,25,-1,27,-1,-1,29,-1,31,33,35,37,-1,-1,39,-1,-1,-1,-1,-1,-1,-1,-1,-1,-1,-1],"loss_changes":[8.492409E4,4.2072625E4,3.1840148E4,4.082501E4,1.629057E4,3.2707314E3,9.318555E3,0E0,2.9364441E4,0E0,5.795383E3,1.0446509E2,0E0,0E0,5.6110234E3,3.794976E4,2.1473168E4,0E0,5.4340566E3,0E0,0E0,2.056539E3,0E0,4.6687895E4,3.056461E3,2.2010836E4,1.7579576E4,0E0,0E0,1.0792969E2,0E0,0E0,0E0,0E0,0E0,0E0,0E0,0E0,0E0,0E0,0E0],"parents":[2147483647,0,0,1,1,2,2,3,3,4,4,5,5,6,6,8,8,10,10,11,11,14,14,15,15,16,16,18,18,21,21,23,23,24,24,25,25,26,26,29,29],"right_children":[2,4,6,8,10,12,14,-1,16,-1,18,20,-1,-1,22,24,26,-1,28,-1,-1,30,-1,32,34,36,38,-1,-1,40,-1,-1,-1,-1,-1,-1,-1,-1,-1,-1,-1],"split_conditions":[5.6488907E1,4.67965E1,5.0018436E1,2.0612703E1,-4.3388373E-1,7.5409294E1,2.7312569E1,-3.0253568E0,4.3452667E1,7.331325E-1,4.8147835E1,2.81265E1,-5.158718E-1,-7.153066E-2,9.098863E1,2.8721666E1,4.5114666E1,-3.193568E0,8.8608925E1,4.6969196E-1,8.8286114E-1,9.0647415E1,-7.116751E-1,2.4169266E1,-9.659258E-1,9.066056E1,5.850295E1,-2.3388055E-1,-2.2210352E0,8.645649E1,-1.0798562E0,5.7012004E-1,-9.942201E-1,-4.9417004E-1,7.003221E-1,5.3123164E-1,-2.5200145E0,3.5376438E-1,-8.33141E-1,-2.3350244E0,-1.506751E0],"split_indices":[26,17,7,28,34,5,29,0,19,0,17,11,0,0,13,0,17,0,13,0,0,15,0,23,32,6,7,0,0,5,0,0,0,0,0,0,0,0,0,0,0],"split_type":[0,0,0,0,0,0,0,0,0,0,0,0,0,0,0,0,0,0,0,0,0,0,0,0,0,0,0,0,0,0,0,0,0,0,0,0,0,0,0,0,0],"sum_hessian":[1.161E3,1.055E3,1.06E2,1.026E3,2.9E1,2.3E1,8.3E1,9E0,1.017E3,5E0,2.4E1,1.5E1,8E0,7E0,7.6E1,3.27E2,6.9E2,1E1,1.4E1,9E0,6E0,6.7E1,9E0,2.32E2,9.5E1,5.67E2,1.23E2,6E0,8E0,6E1,7E0,6.6E1,1.66E2,5E0,9E1,5.62E2,5E0,6.3E1,6E1,5.2E1,8E0],"tree_param":{"num_deleted":"0","num_feature":"36","num_nodes":"41","size_leaf_vector":"1"}},{"base_weights":[-2.3939148E-1,2.1495357E0,-3.0591179E1,-2.6991355E0,2.6717327E0,-3.7648796E1,-1.4020081E-1,1.2230782E1,-4.3902338E-1,5.1154252E-2,-4.0687584E1,-9.9649346E-1,9.757983E0,2.89703E-1,1.3483459E1,-1.5861219E1,5.063936E0,-4.4174873E1,-2.9830468E-1,8.422513E-1,-5.9948475E-3,7.2255224E-1,-1.4027029E0,1.518556E1,8.617037E0,4.5179152E0,-3.1099901E1,6.948555E0,-1.5690764E1,-1.4229968E0,-2.3059032E0,7.99626E-1,8.457901E-2,-3.2994112E-1,7.1315867E-1,-1.690552E0,4.0366855E-1,-1.9468031E0,4.289256E-2,3.7732133E-1,-2.415014E0,-1.5039842E-1,-2.2538378E0],"categories":[],"categories_nodes":[],"categories_segments":[],"categories_sizes":[],"default_left":[0,0,0,0,0,0,0,0,0,0,0,0,0,0,0,0,0,0,0,0,0,0,0,0,0,0,0,0,0,0,0,0,0,0,0,0,0,0,0,0,0,0,0],"id":11,"left_children":[1,3,5,-1,7,9,11,13,15,-1,17,-1,19,21,23,25,27,29,-1,-1,-1,-1,-1,31,33,35,37,39,41,-1,-1,-1,-1,-1,-1,-1,-1,-1,-1,-1,-1,-1,-1],"loss_changes":[8.446817E4,3.1796152E4,1.8258398E4,0E0,3.1853668E4,8.1541797E3,3.5254827E3,3.9287578E3,6.873938E4,0E0,7.4808047E3,0E0,8.437517E2,1.0840078E4,1.8381523E3,6.629056E4,2.3459627E4,4.5117188E2,0E0,0E0,0E0,0E0,0E0,1.8767656E3,5.593178E3,1.2807869E4,3.0589195E4,1.8461799E4,1.8494428E4,0E0,0E0,0E0,0E0,0E0,0E0,0E0,0E0,0E0,0E0,0E0,0E0,0E0,0E0],"parents":[2147483647,0,0,1,1,2,2,4,4,5,5,6,6,7,7,8,8,10,10,12,12,13,13,14,14,15,15,16,16,17,17,23,23,24,24,25,25,26,26,27,27,28,28],"right_children":[2,4,6,-1,8,10,12,14,16,-1,18,-1,20,22,24,26,28,30,-1,-1,-1,-1,-1,32,34,36,38,40,42,-1,-1,-1,-1,-1,-1,-1,-1,-1,-1,-1,-1,-1,-1],"split_conditions":[2.9450352E1,4.5084923E1,9.055993E1,-2.6991355E0,2.3843195E1,7.523826E1,4.4668667E1,2.2704462E1,-2.5881904E-1,5.1154252E-2,8.63671E1,-9.9649346E-1,4.4842667E1,2.9175E1,4.4618E1,8.740157E1,3.123107E1,7.7806046E1,-2.9830468E-1,8.422513E-1,-5.9948475E-3,7.2255224E-1,-1.4027029E0,8.907262E1,1.3246833E1,5.0969765E1,2.0411755E1,9.066056E1,7.0184364E1,-1.4229968E0,-2.3059032E0,7.99626E-1,8.457901E-2,-3.2994112E-1,7.1315867E-1,-1.690552E0,4.0366855E-1,-1.9468031E0,4.289256E-2,3.7732133E-1,-2.415014E0,-1.5039842E-1,-2.2538378E0],"split_indices":[30,24,15,0,30,5,18,20,32,0,4,0,16,3,16,13,21,5,0,0,0,0,0,14,11,4,11,6,6,0,0,0,0,0,0,0,0,0,0,0,0,0,0],"split_type":[0,0,0,0,0,0,0,0,0,0,0,0,0,0,0,0,0,0,0,0,0,0,0,0,0,0,0,0,0,0,0,0,0,0,0,0,0,0,0,0,0,0,0],"sum_hessian":[1.163E3,1.079E3,8.4E1,9E0,1.07E3,6.8E1,1.6E1,2.62E2,8.08E2,5E0,6.3E1,5E0,1.1E1,2.5E1,2.37E2,2.12E2,5.96E2,5.7E1,6E0,6E0,5E0,1.7E1,8E0,1.74E2,6.3E1,9.1E1,1.21E2,5.47E2,4.9E1,8E0,4.9E1,1.64E2,1E1,1.7E1,4.6E1,7E0,8.4E1,9.7E1,2.4E1,5.42E2,5E0,3.5E1,1.4E1],"tree_param":{"num_deleted":"0","num_feature":"36","num_nodes":"43","size_leaf_vector":"1"}},{"base_weights":[3.2662672E-1,2.4449713E0,-3.0491247E1,3.356515E0,-3.227744E1,-1.7514828E1,-4.0267605E1,-2.728293E0,3.8470876E0,-5.33527E1,-1.31302E1,-2.1212847E0,-6.845889E0,-9.32162E-1,-2.1675508E0,-8.317984E0,6.256544E0,-3.3315308E0,-1.8356339E0,7.213345E-1,-2.697667E1,-2.2559622E1,9.386758E0,5.710096E0,-1.772537E1,7.0874724E0,-2.031498E1,-6.251542E-1,-1.8468739E0,2.2210495E-1,-2.000173E0,1.1679413E-1,6.744535E-1,-2.078823E0,4.9619362E-1,-2.4572861E-1,-1.6131973E0,4.2636058E-1,-1.3257803E-1,1.8003835E-1,-1.8494177E0],"categories":[],"categories_nodes":[],"categories_segments":[],"categories_sizes":[],"default_left":[0,0,0,0,0,0,0,0,0,0,0,0,0,0,0,0,0,0,0,0,0,0,0,0,0,0,0,0,0,0,0,0,0,0,0,0,0,0,0,0,0],"id":12,"left_children":[1,3,5,7,9,11,13,-1,15,17,19,-1,21,-1,-1,23,25,-1,-1,-1,27,29,31,33,35,37,39,-1,-1,-1,-1,-1,-1,-1,-1,-1,-1,-1,-1,-1,-1],"loss_changes":[7.612629E4,3.4636684E4,8.803609E3,3.043855E4,1.0591744E4,8.740896E3,1.9860234E3,0E0,3.1004475E4,4.1576172E2,6.4954893E3,0E0,6.589966E3,0E0,0E0,2.3196738E4,1.961636E4,0E0,0E0,0E0,1.1190776E3,6.3044326E3,3.4293213E2,1.4556537E4,1.939405E4,1.2025742E4,1.090294E4,0E0,0E0,0E0,0E0,0E0,0E0,0E0,0E0,0E0,0E0,0E0,0E0,0E0,0E0],"parents":[2147483647,0,0,1,1,2,2,3,3,4,4,5,5,6,6,8,8,9,9,10,10,12,12,15,15,16,16,20,20,21,21,22,22,23,23,24,24,25,25,26,26],"right_children":[2,4,6,8,10,12,14,-1,16,18,20,-1,22,-1,-1,24,26,-1,-1,-1,28,30,32,34,36,38,40,-1,-1,-1,-1,-1,-1,-1,-1,-1,-1,-1,-1,-1,-1],"split_conditions":[3.1275074E1,4.711933E1,2.9871962E1,4.5084923E1,2.15E-1,-4.3388373E-1,5.321759E1,-2.728293E0,4.2765167E1,8.7025375E1,8.5310585E1,-2.1212847E0,9.08049E1,-9.32162E-1,-2.1675508E0,8.751326E1,2.9871962E1,-3.3315308E0,-1.8356339E0,7.213345E-1,2.4258175E1,7.788717E1,8.3546814E1,3.7278763E1,5.0021973E1,2.9972347E1,7.452065E1,-6.251542E-1,-1.8468739E0,2.2210495E-1,-2.000173E0,1.1679413E-1,6.744535E-1,-2.078823E0,4.9619362E-1,-2.4572861E-1,-1.6131973E0,4.2636058E-1,-1.3257803E-1,1.8003835E-1,-1.8494177E0],"split_indices":[22,17,30,24,1,34,24,0,19,14,14,0,14,0,0,12,28,0,0,0,30,5,4,4,27,22,5,0,0,0,0,0,0,0,0,0,0,0,0,0,0],"split_type":[0,0,0,0,0,0,0,0,0,0,0,0,0,0,0,0,0,0,0,0,0,0,0,0,0,0,0,0,0,0,0,0,0,0,0,0,0,0,0,0,0],"sum_hessian":[1.164E3,1.09E3,7.4E1,1.063E3,2.7E1,3.3E1,4.1E1,8E0,1.055E3,1.2E1,1.5E1,9E0,2.4E1,6E0,3.5E1,1.74E2,8.81E2,5E0,7E0,5E0,1E1,1.2E1,1.2E1,7E1,1.04E2,8.55E2,2.6E1,5E0,5E0,5E0,7E0,5E0,7E0,5E0,6.5E1,5.6E1,4.8E1,7.45E2,1.1E2,1.1E1,1.5E1],"tree_param":{"num_deleted":"0","num_feature":"36","num_nodes":"41","size_leaf_vector":"1"}},{"base_weights":[-5.9087135E-2,2.751442E0,-2.0709791E1,-7.7482843E0,5.94425E0,-4.1307526E0,-3.483356E1,5.4788265E0,-2.2404127E1,-2.5682852E0,6.5186605E0,-1.7945426E0,1.5119095E0,-4.0206593E1,-8.159673E0,-1.369625E1,1.0741434E1,4.0099235E0,-3.654642E1,6.1782074E-1,9.195577E0,7.341724E0,-1.5192536E0,-3.333039E1,-2.2067497E0,7.708186E-1,-1.6976172E0,-3.961861E1,8.215434E0,-6.983885E-1,1.2174911E1,-1.0131633E0,7.946846E0,-4.1192295E1,7.227638E-1,-4.831236E0,4.277507E0,9.652002E0,-9.448144E-1,1.1256565E1,-4.3575716E0,-6.867088E-1,-1.9748678E0,-1.0504557E0,-2.4305456E0,6.8608326E-1,-1.615947E-1,7.246797E-1,3.157362E-1,-3.486394E-1,5.5832666E-1,-5.4637694E-1,-2.1949806E0,4.2697558E-1,-1.1933222E-1,5.583636E-1,1.172771E-1,2.5095582E-1,6.40036E-1,6.437264E-1,-1.0490723E0],"categories":[],"categories_nodes":[],"categories_segments":[],"categories_sizes":[],"default_left":[0,0,0,0,0,0,0,0,0,0,0,0,0,0,0,0,0,0,0,0,0,0,0,0,0,0,0,0,0,0,0,0,0,0,0,0,0,0,0,0,0,0,0,0,0,0,0,0,0,0,0,0,0,0,0,0,0,0,0,0,0],"id":13,"left_children":[1,3,5,7,9,11,13,15,17,-1,19,-1,21,23,25,27,29,31,33,35,37,39,-1,41,-1,-1,-1,43,45,-1,47,-1,49,51,-1,-1,53,55,-1,57,59,-1,-1,-1,-1,-1,-1,-1,-1,-1,-1,-1,-1,-1,-1,-1,-1,-1,-1,-1,-1],"loss_changes":[6.831312E4,3.477634E4,3.2868566E4,4.703722E4,2.6501297E4,1.1885661E4,1.0559383E4,1.3063415E4,4.3108656E4,0E0,1.2440629E4,0E0,1.0820123E4,2.2301562E2,9.038522E3,1.6232697E4,3.7473047E3,4.077826E3,1.836918E4,8.830574E4,7.1309023E3,2.2939846E3,0E0,2.7151426E3,0E0,0E0,0E0,1.1472129E3,1.0539021E3,0E0,1.2108369E3,0E0,1.8075967E3,5.1684062E3,0E0,0E0,6.8092275E3,5.884504E3,0E0,2.903379E2,3.9949722E3,0E0,0E0,0E0,0E0,0E0,0E0,0E0,0E0,0E0,0E0,0E0,0E0,0E0,0E0,0E0,0E0,0E0,0E0,0E0,0E0],"parents":[2147483647,0,0,1,1,2,2,3,3,4,4,5,5,6,6,7,7,8,8,10,10,12,12,13,13,14,14,15,15,16,16,17,17,18,18,19,19,20,20,21,21,23,23,27,27,28,28,30,30,32,32,33,33,36,36,37,37,39,39,40,40],"right_children":[2,4,6,8,10,12,14,16,18,-1,20,-1,22,24,26,28,30,32,34,36,38,40,-1,42,-1,-1,-1,44,46,-1,48,-1,50,52,-1,-1,54,56,-1,58,60,-1,-1,-1,-1,-1,-1,-1,-1,-1,-1,-1,-1,-1,-1,-1,-1,-1,-1,-1,-1],"split_conditions":[3.06569E1,-7.0710677E-1,5.673304E1,2.4189686E1,2.0612703E1,-7.818315E-1,8.6780975E1,4.060472E1,-1.8369701E-16,-2.5682852E0,4.3888668E1,-1.7945426E0,3.0023872E1,1.0391666E1,4.4691166E1,1.5557667E1,1.9666667E-1,5.9769447E1,2.3801666E1,5.9183335E0,8.9332596E1,2.93655E1,-1.5192536E0,2.7037882E1,-2.2067497E0,7.708186E-1,-1.6976172E0,5.053835E1,8.873141E1,-6.983885E-1,2.4304897E1,-1.0131633E0,4.2623165E1,2.4404358E1,7.227638E-1,-4.831236E0,8.818898E1,4.5016666E1,-9.448144E-1,2.1663214E1,8.871391E1,-6.867088E-1,-1.9748678E0,-1.0504557E0,-2.4305456E0,6.8608326E-1,-1.615947E-1,7.246797E-1,3.157362E-1,-3.486394E-1,5.5832666E-1,-5.4637694E-1,-2.1949806E0,4.2697558E-1,-1.1933222E-1,5.583636E-1,1.172771E-1,2.5095582E-1,6.40036E-1,6.437264E-1,-1.0490723E0],"split_indices":[22,32,7,30,28,34,4,4,33,0,19,0,29,2,16,11,1,4,11,0,6,11,0,28,0,0,0,6,13,0,23,0,16,23,0,0,13,16,0,8,13,0,0,0,0,0,0,0,0,0,0,0,0,0,0,0,0,0,0,0,0],"split_type":[0,0,0,0,0,0,0,0,0,0,0,0,0,0,0,0,0,0,0,0,0,0,0,0,0,0,0,0,0,0,0,0,0,0,0,0,0,0,0,0,0,0,0,0,0,0,0,0,0,0,0,0,0,0,0,0,0,0,0,0,0],"sum_hessian":[1.175E3,1.035E3,1.4E2,2.41E2,7.94E2,6.5E1,7.5E1,1.27E2,1.14E2,7E0,7.87E2,9E0,5.6E1,6.2E1,1.3E1,2.7E1,1E2,4E1,7.4E1,2.46E2,5.41E2,4.8E1,8E0,2.6E1,3.6E1,7E0,6E0,1.2E1,1.5E1,5E0,9.5E1,5E0,3.5E1,6.8E1,6E0,8E0,2.38E2,5.33E2,8E0,3.6E1,1.2E1,7E0,1.9E1,5E0,7E0,1E1,5E0,6.7E1,2.8E1,6E0,2.9E1,6E0,6.2E1,1.45E2,9.3E1,4.41E2,9.2E1,8E0,2.8E1,6E0,6E0],"tree_param":{"num_deleted":"0","num_feature":"36","num_nodes":"61","size_leaf_vector":"1"}},{"base_weights":[-6.474252E-1,1.3292408E0,-2.3753197E1,2.3224492E0,-2.9768343E1,-2.6568532E0,-3.214932E1,5.1381197E0,-7.2483068E0,-4.3252037E1,-8.37247E0,6.1056337E0,-1.2121732E0,-3.6726135E1,2.5193754E-1,1.3148188E1,2.328454E0,-1.8246363E1,1.067241E1,-2.5269783E0,-1.1241916E0,-1.4715675E0,5.5440557E-1,6.780252E-1,-6.76624E-1,-7.5111264E-1,-1.9704293E0,1.3949024E1,-2.380273E0,-1.8304714E1,4.0595274E0,4.312327E0,-2.594438E1,-1.0539402E0,1.278929E1,7.124352E-1,3.047391E-1,-1.1934297E0,9.7440463E-1,-2.592608E-3,-1.8275489E0,2.3356502E-1,-1.6509415E0,5.080924E-1,-9.4405526E-1,-2.150814E0,-5.372941E-1,7.361691E-1,4.374672E-1],"categories":[],"categories_nodes":[],"categories_segments":[],"categories_sizes":[],"default_left":[0,0,0,0,0,0,0,0,0,0,0,0,0,0,0,0,0,0,0,0,0,0,0,0,0,0,0,0,0,0,0,0,0,0,0,0,0,0,0,0,0,0,0,0,0,0,0,0,0],"id":14,"left_children":[1,3,5,7,9,11,13,15,17,19,21,23,-1,25,-1,27,29,31,33,-1,-1,-1,-1,-1,-1,-1,-1,35,37,39,41,43,45,-1,47,-1,-1,-1,-1,-1,-1,-1,-1,-1,-1,-1,-1,-1,-1],"loss_changes":[5.2739754E4,3.29295E4,1.6029707E4,2.7847465E4,9.153059E3,5.25695E3,1.1251406E4,1.7927316E4,4.6512355E4,1.8833516E3,6.0656255E3,3.1115015E3,0E0,2.7792812E3,0E0,2.6085625E3,2.1217664E4,2.5468E4,6.3179697E3,0E0,0E0,0E0,0E0,0E0,0E0,0E0,0E0,3.748125E2,5.6346494E3,1.5314581E4,1.2559304E4,5.3464727E3,2.7814305E4,0E0,5.329922E2,0E0,0E0,0E0,0E0,0E0,0E0,0E0,0E0,0E0,0E0,0E0,0E0,0E0,0E0],"parents":[2147483647,0,0,1,1,2,2,3,3,4,4,5,5,6,6,7,7,8,8,9,9,10,10,11,11,13,13,15,15,16,16,17,17,18,18,27,27,28,28,29,29,30,30,31,31,32,32,34,34],"right_children":[2,4,6,8,10,12,14,16,18,20,22,24,-1,26,-1,28,30,32,34,-1,-1,-1,-1,-1,-1,-1,-1,36,38,40,42,44,46,-1,48,-1,-1,-1,-1,-1,-1,-1,-1,-1,-1,-1,-1,-1,-1],"split_conditions":[3.1011574E1,4.67965E1,5.6478615E1,2.9663334E1,1.4461667E1,2.9661098E1,8.740518E1,5.009261E1,2.8721666E1,2.8101334E1,5.765118E1,2.9942333E1,-1.2121732E0,2.42405E1,2.5193754E-1,4.6188E1,-5E-1,5.2865044E1,-9.659258E-1,-2.5269783E0,-1.1241916E0,-1.4715675E0,5.5440557E-1,6.780252E-1,-6.76624E-1,-7.5111264E-1,-1.9704293E0,8.907262E1,1.6042E1,-1.8369701E-16,3.213075E1,6.1132004E1,5.464227E1,-1.0539402E0,8.5310585E1,7.124352E-1,3.047391E-1,-1.1934297E0,9.7440463E-1,-2.592608E-3,-1.8275489E0,2.3356502E-1,-1.6509415E0,5.080924E-1,-9.4405526E-1,-2.150814E0,-5.372941E-1,7.361691E-1,4.374672E-1],"split_indices":[22,17,7,3,1,30,4,26,0,11,7,8,0,8,0,18,32,6,32,0,0,0,0,0,0,0,0,14,11,33,20,7,4,0,13,0,0,0,0,0,0,0,0,0,0,0,0,0,0],"split_type":[0,0,0,0,0,0,0,0,0,0,0,0,0,0,0,0,0,0,0,0,0,0,0,0,0,0,0,0,0,0,0,0,0,0,0,0,0,0,0,0,0,0,0,0,0,0,0,0,0],"sum_hessian":[1.153E3,1.063E3,9E1,1.031E3,3.2E1,2.6E1,6.4E1,7.97E2,2.34E2,1.9E1,1.3E1,1.9E1,7E0,5.7E1,7E0,2.06E2,5.91E2,1.45E2,8.9E1,1.3E1,6E0,6E0,7E0,1.4E1,5E0,7E0,5E1,1.96E2,1E1,4.5E1,5.46E2,3.7E1,1.08E2,5E0,8.4E1,1.88E2,8E0,5E0,5E0,2.3E1,2.2E1,5.38E2,8E0,3E1,7E0,5E1,5.8E1,5.5E1,2.9E1],"tree_param":{"num_deleted":"0","num_feature":"36","num_nodes":"49","size_leaf_vector":"1"}},{"base_weights":[3.5710976E-2,2.970709E0,-1.4775108E1,-3.207438E0,6.8119555E0,1.1925316E0,-3.1088871E1,5.394908E0,-1.6645752E1,-2.5455275E0,7.3789387E0,4.2048373E0,-1.9492089E0,-4.5330377E0,-3.5192398E1,-2.1402273E1,6.710699E0,-2.8114477E1,8.351846E0,8.26495E0,-2.7660767E1,8.915438E0,-7.636462E0,-1.4425873E0,6.085996E-1,-2.518481E0,-3.1652777E1,-1.8735443E0,-8.749751E-2,1.21813345E1,1.6089776E0,-6.873693E0,-4.2512787E1,-2.5123912E-1,1.1654858E1,8.87301E0,-9.351398E0,-1.0483698E-1,-2.2229686E0,1.1006797E1,-7.082252E-1,2.4841838E0,-1.599801E0,-1.1834482E1,-3.5547348E1,-4.1316023E-1,6.638122E-1,8.132729E-1,-3.3649784E-1,-3.13264E0,1.17732E-1,-2.2574432E0,-1.1273679E0,-1.424077E-1,7.233151E-1,4.9281913E-1,5.7015162E-2,6.1954087E-1,-1.6171349E0,6.254566E-1,-2.541591E-1,-9.287681E-1,5.374529E-1,-1.1872038E0,3.0003604E-1,-6.628899E-1,-1.8699051E0],"categories":[],"categories_nodes":[],"categories_segments":[],"categories_sizes":[],"default_left":[0,0,0,0,0,0,0,0,0,0,0,0,0,0,0,0,0,0,0,0,0,0,0,0,0,0,0,0,0,0,0,0,0,0,0,0,0,0,0,0,0,0,0,0,0,0,0,0,0,0,0,0,0,0,0,0,0,0,0,0,0,0,0,0,0,0,0],"id":15,"left_children":[1,3,5,7,9,11,13,15,17,-1,19,21,-1,23,25,27,29,31,33,35,37,39,41,-1,-1,-1,43,-1,-1,45,47,49,51,-1,53,55,57,-1,-1,59,-1,61,-1,63,65,-1,-1,-1,-1,-1,-1,-1,-1,-1,-1,-1,-1,-1,-1,-1,-1,-1,-1,-1,-1,-1,-1],"loss_changes":[5.098923E4,2.3255627E4,5.0575566E4,4.355691E4,2.0138842E4,1.2141872E4,1.0297875E4,8.251839E3,4.2380305E4,0E0,1.8822979E4,5.255717E3,0E0,6.040277E3,2.8563516E3,3.404147E3,6.1191465E3,3.0591805E4,2.1358347E3,6.349324E3,6.3437227E3,3.3895747E3,6.7388657E3,0E0,0E0,0E0,4.9774297E3,0E0,0E0,2.4830068E3,1.4165653E4,2.1772975E4,2.1330625E3,0E0,1.5917915E3,4.2916016E3,1.0400382E4,0E0,0E0,1.5630259E3,0E0,3.679974E3,0E0,2.9055854E3,1.8917656E3,0E0,0E0,0E0,0E0,0E0,0E0,0E0,0E0,0E0,0E0,0E0,0E0,0E0,0E0,0E0,0E0,0E0,0E0,0E0,0E0,0E0,0E0],"parents":[2147483647,0,0,1,1,2,2,3,3,4,4,5,5,6,6,7,7,8,8,10,10,11,11,13,13,14,14,15,15,16,16,17,17,18,18,19,19,20,20,21,21,22,22,26,26,29,29,30,30,31,31,32,32,34,34,35,35,36,36,39,39,41,41,43,43,44,44],"right_children":[2,4,6,8,10,12,14,16,18,-1,20,22,-1,24,26,28,30,32,34,36,38,40,42,-1,-1,-1,44,-1,-1,46,48,50,52,-1,54,56,58,-1,-1,60,-1,62,-1,64,66,-1,-1,-1,-1,-1,-1,-1,-1,-1,-1,-1,-1,-1,-1,-1,-1,-1,-1,-1,-1,-1,-1],"split_conditions":[2.8535276E1,1.9384167E1,5.673304E1,2.4432146E1,4.5084923E1,3.038297E1,2.0365833E1,2.15E-1,2.7249123E1,-2.5455275E0,3.123107E1,4.4988E1,-1.9492089E0,4.3445168E1,2.7124363E1,2.3444475E1,8.733158E1,2.1408833E1,4.3445168E1,5.755041E1,7.037242E1,2.9729458E1,7.5850624E1,-1.4425873E0,6.085996E-1,-2.518481E0,8.755031E1,-1.8735443E0,-8.749751E-2,2.280935E1,2.3386261E1,2.3787426E1,3.123E1,-2.5123912E-1,1.5786667E1,4.5288166E1,7.8125E1,-1.0483698E-1,-2.2229686E0,4.497E1,-7.082252E-1,2.8626068E1,-1.599801E0,2.9125864E1,6.965339E1,-4.1316023E-1,6.638122E-1,8.132729E-1,-3.3649784E-1,-3.13264E0,1.17732E-1,-2.2574432E0,-1.1273679E0,-1.424077E-1,7.233151E-1,4.9281913E-1,5.7015162E-2,6.1954087E-1,-1.6171349E0,6.254566E-1,-2.541591E-1,-9.287681E-1,5.374529E-1,-1.1872038E0,3.0003604E-1,-6.628899E-1,-1.8699051E0],"split_indices":[30,11,7,30,24,28,8,1,21,0,21,17,0,16,20,20,12,8,17,27,5,30,5,0,0,0,12,0,0,20,31,20,2,0,10,17,6,0,0,16,0,20,0,21,6,0,0,0,0,0,0,0,0,0,0,0,0,0,0,0,0,0,0,0,0,0,0],"split_type":[0,0,0,0,0,0,0,0,0,0,0,0,0,0,0,0,0,0,0,0,0,0,0,0,0,0,0,0,0,0,0,0,0,0,0,0,0,0,0,0,0,0,0,0,0,0,0,0,0,0,0,0,0,0,0,0,0,0,0,0,0,0,0,0,0,0,0],"sum_hessian":[1.171E3,9.78E2,1.93E2,3.75E2,6.03E2,9.8E1,9.5E1,2.29E2,1.46E2,5E0,5.98E2,9.2E1,6E0,1.3E1,8.2E1,1E1,2.19E2,1E2,4.6E1,5.84E2,1.4E1,6.6E1,2.6E1,5E0,8E0,1.3E1,6.9E1,5E0,5E0,1.05E2,1.14E2,4.1E1,5.9E1,9E0,3.7E1,5.65E2,1.9E1,6E0,8E0,6.1E1,5E0,1.9E1,7E0,1.2E1,5.7E1,5E0,1E2,4.1E1,7.3E1,5E0,3.6E1,5.1E1,8E0,6E0,3.1E1,5.01E2,6.4E1,1E1,9E0,5.6E1,5E0,5E0,1.4E1,7E0,5E0,5E0,5.2E1],"tree_param":{"num_deleted":"0","num_feature":"36","num_nodes":"67","size_leaf_vector":"1"}},{"base_weights":[-5.81924E-1,1.3196696E0,-2.5883604E1,-4.0586367E0,4.881229E0,-2.9884335E1,7.1730554E-1,-5.5924194E1,-1.5246469E0,6.223403E0,-1.9576431E1,-9.264924E-2,-3.2328968E1,-4.7523437E0,-3.2361126E1,6.9262505E0,-8.965736E0,7.2245226E0,-1.5879705E1,4.5480308E-1,-2.875243E1,-3.512518E1,-1.4649129E-1,-2.2099276E0,-8.9728683E-1,-6.4282574E-2,1.2665314E1,-1.3029306E0,-3.1789322E1,8.894818E0,-3.6908677E0,-3.4448093E1,1.0193121E1,-1.9738438E0,1.4984074E-2,-1.8685776E0,-3.956879E-1,3.4945822E-1,-1.7431835E0,6.839208E-1,-3.241397E-1,-1.1411508E0,2.1246175E-1,-2.0038788E0,-2.3233739E-1,5.3742087E-1,-4.7756564E-2,4.7157547E-1,-9.0500253E-1,-2.640377E-1,-2.570521E0,2.4848048E-1,7.285849E-1],"categories":[],"categories_nodes":[],"categories_segments":[],"categories_sizes":[],"default_left":[0,0,0,0,0,0,0,0,0,0,0,0,0,0,0,0,0,0,0,0,0,0,0,0,0,0,0,0,0,0,0,0,0,0,0,0,0,0,0,0,0,0,0,0,0,0,0,0,0,0,0,0,0],"id":16,"left_children":[1,3,5,7,9,11,-1,13,15,17,19,-1,21,-1,23,25,27,29,31,-1,33,35,-1,-1,-1,37,39,41,43,45,47,49,51,-1,-1,-1,-1,-1,-1,-1,-1,-1,-1,-1,-1,-1,-1,-1,-1,-1,-1,-1,-1],"loss_changes":[5.575206E4,2.0669152E4,1.3467082E4,5.6422516E4,2.1424852E4,5.007633E3,0E0,1.5348445E4,2.590758E4,1.3744615E4,9.208858E3,0E0,5.4833047E3,0E0,1.589585E3,7.7450635E3,3.8256773E4,1.0790189E4,1.3425079E4,0E0,8.1165117E3,3.4895938E3,0E0,0E0,0E0,2.184655E4,2.1456875E3,1.9813549E4,1.2182348E4,9.359262E3,1.5109113E4,7.6387793E3,2.0008875E2,0E0,0E0,0E0,0E0,0E0,0E0,0E0,0E0,0E0,0E0,0E0,0E0,0E0,0E0,0E0,0E0,0E0,0E0,0E0,0E0],"parents":[2147483647,0,0,1,1,2,2,3,3,4,4,5,5,7,7,8,8,9,9,10,10,12,12,14,14,15,15,16,16,17,17,18,18,20,20,21,21,25,25,26,26,27,27,28,28,29,29,30,30,31,31,32,32],"right_children":[2,4,6,8,10,12,-1,14,16,18,20,-1,22,-1,24,26,28,30,32,-1,34,36,-1,-1,-1,38,40,42,44,46,48,50,52,-1,-1,-1,-1,-1,-1,-1,-1,-1,-1,-1,-1,-1,-1,-1,-1,-1,-1,-1,-1],"split_conditions":[2.9450352E1,4.3855335E1,9.1338585E1,5.9183335E0,3.1268288E1,7.523826E1,7.1730554E-1,-5E-1,2.4189686E1,4.6291E1,7.452065E1,-9.264924E-2,9.0594925E1,-4.7523437E0,2.404313E1,5.1710915E1,4.38645E1,4.5565166E1,2.7189596E1,4.5480308E-1,9.0883644E1,8.740518E1,-1.4649129E-1,-2.2099276E0,-8.9728683E-1,5.562252E1,4.4739502E1,5.464227E1,2.700951E1,7.8237465E1,2.4980856E1,4.9362667E1,8.660254E-1,-1.9738438E0,1.4984074E-2,-1.8685776E0,-3.956879E-1,3.4945822E-1,-1.7431835E0,6.839208E-1,-3.241397E-1,-1.1411508E0,2.1246175E-1,-2.0038788E0,-2.3233739E-1,5.3742087E-1,-4.7756564E-2,4.7157547E-1,-9.0500253E-1,-2.640377E-1,-2.570521E0,2.4848048E-1,7.285849E-1],"split_indices":[30,19,14,0,21,5,0,33,30,18,5,0,15,0,21,4,17,17,21,0,13,4,0,0,0,6,16,4,21,6,31,26,33,0,0,0,0,0,0,0,0,0,0,0,0,0,0,0,0,0,0,0,0],"split_type":[0,0,0,0,0,0,0,0,0,0,0,0,0,0,0,0,0,0,0,0,0,0,0,0,0,0,0,0,0,0,0,0,0,0,0,0,0,0,0,0,0,0,0,0,0,0,0,0,0,0,0,0,0],"sum_hessian":[1.157E3,1.077E3,8E1,4.29E2,6.48E2,7.3E1,7E0,1.9E1,4.1E2,6.15E2,3.3E1,6E0,6.7E1,6E0,1.3E1,1.92E2,2.18E2,5.89E2,2.6E1,8E0,2.5E1,6.1E1,6E0,6E0,7E0,8.7E1,1.05E2,1.64E2,5.4E1,5.11E2,7.8E1,1.5E1,1.1E1,1.8E1,7E0,5.6E1,5E0,7.3E1,1.4E1,1E2,5E0,3.3E1,1.31E2,4.1E1,1.3E1,4.3E2,8.1E1,4.1E1,3.7E1,6E0,9E0,6E0,5E0],"tree_param":{"num_deleted":"0","num_feature":"36","num_nodes":"53","size_leaf_vector":"1"}},{"base_weights":[-2.7242896E-1,1.5768795E0,-1.8939997E1,-1.406624E1,2.9377282E0,-5.284064E0,-3.0345272E1,-5.6082554E0,-4.2427487E0,5.776647E0,-6.0380836E0,6.558747E0,-3.0126032E1,2.8346812E-2,-3.3330425E1,1.235017E1,-2.0870043E1,6.4953403E0,-1.2778429E1,1.9647259E0,-2.0995335E1,1.3859476E1,-1.5513632E0,-8.3302414E-1,-1.7361529E0,-1.0490917E0,-1.771237E0,5.181475E0,2.0980947E1,1.2299586E1,-3.78977E1,7.772102E0,-2.571233E0,4.4205956E0,-3.2971195E1,-2.2936187E0,4.2146916E0,8.3675164E-1,-2.96937E1,4.3956074E-1,7.8263366E-1,-1.198062E0,6.420705E-1,5.503409E-1,-5.5998427E-1,1.234957E0,5.3253853E-1,6.942015E-1,3.7961242E-1,-2.3417854E0,-2.1892868E-1,6.2425154E-1,2.8930897E-1,-1.7672434E0,3.116991E-1,5.6010497E-1,-2.942247E-1,-2.0279186E0,-8.67155E-1,3.387899E-1,-1.5898079E0,-1.9073031E0,-5.3331614E-1],"categories":[],"categories_nodes":[],"categories_segments":[],"categories_sizes":[],"default_left":[0,0,0,0,0,0,0,0,0,0,0,0,0,0,0,0,0,0,0,0,0,0,0,0,0,0,0,0,0,0,0,0,0,0,0,0,0,0,0,0,0,0,0,0,0,0,0,0,0,0,0,0,0,0,0,0,0,0,0,0,0,0,0],"id":17,"left_children":[1,3,5,7,9,11,13,15,-1,17,19,21,23,-1,25,27,29,31,33,35,37,39,41,-1,-1,-1,-1,43,45,47,49,51,53,55,57,-1,59,-1,61,-1,-1,-1,-1,-1,-1,-1,-1,-1,-1,-1,-1,-1,-1,-1,-1,-1,-1,-1,-1,-1,-1,-1,-1],"loss_changes":[4.0215312E4,2.2605402E4,1.6189805E4,5.0407117E4,2.4904898E4,1.4615683E4,5.282004E3,2.1362582E4,0E0,9.977244E3,2.8172658E4,2.0358623E3,4.0678223E2,0E0,5.9590234E2,2.116042E3,2.4190332E4,8.297236E3,9.872893E3,1.6764475E4,2.7410004E4,2.3540771E1,5.7919917E3,0E0,0E0,0E0,0E0,2.1271973E3,3.4795312E2,4.319092E0,8.1784453E3,5.7943477E3,2.5906771E4,1.1845944E3,8.3225195E2,0E0,1.386263E4,0E0,1.0363605E4,0E0,0E0,0E0,0E0,0E0,0E0,0E0,0E0,0E0,0E0,0E0,0E0,0E0,0E0,0E0,0E0,0E0,0E0,0E0,0E0,0E0,0E0,0E0,0E0],"parents":[2147483647,0,0,1,1,2,2,3,3,4,4,5,5,6,6,7,7,9,9,10,10,11,11,12,12,14,14,15,15,16,16,17,17,18,18,19,19,20,20,21,21,22,22,27,27,28,28,29,29,30,30,31,31,32,32,33,33,34,34,36,36,38,38],"right_children":[2,4,6,8,10,12,14,16,-1,18,20,22,24,-1,26,28,30,32,34,36,38,40,42,-1,-1,-1,-1,44,46,48,50,52,54,56,58,-1,60,-1,62,-1,-1,-1,-1,-1,-1,-1,-1,-1,-1,-1,-1,-1,-1,-1,-1,-1,-1,-1,-1,-1,-1,-1,-1],"split_conditions":[2.9253471E1,1.095E0,5.9716076E1,2.2749999E0,2.9771667E1,3.1755505E1,8.495188E1,-1.8369701E-16,-4.2427487E0,3.1268288E1,8.7025375E1,3.0426167E1,5.219764E1,2.8346812E-2,7.788717E1,7.355813E1,5.4321533E1,7.8237465E1,6.515487E1,2.24005E1,4.8050808E1,1.602E1,2.9779827E1,-8.3302414E-1,-1.7361529E0,-1.0490917E0,-1.771237E0,6.600664E1,2.7528368E1,3.0145666E1,2.7881166E1,8.629047E1,6.965339E1,2.9137667E1,8.087758E1,-2.2936187E0,4.4682335E1,8.3675164E-1,5.619838E1,4.3956074E-1,7.8263366E-1,-1.198062E0,6.420705E-1,5.503409E-1,-5.5998427E-1,1.234957E0,5.3253853E-1,6.942015E-1,3.7961242E-1,-2.3417854E0,-2.1892868E-1,6.2425154E-1,2.8930897E-1,-1.7672434E0,3.116991E-1,5.6010497E-1,-2.942247E-1,-2.0279186E0,-8.67155E-1,3.387899E-1,-1.5898079E0,-1.9073031E0,-5.3331614E-1],"split_indices":[30,0,7,3,3,21,12,33,0,21,14,21,7,0,5,6,7,6,6,20,6,0,20,0,0,0,0,5,20,8,10,13,4,10,4,0,17,0,4,0,0,0,0,0,0,0,0,0,0,0,0,0,0,0,0,0,0,0,0,0,0,0,0],"split_type":[0,0,0,0,0,0,0,0,0,0,0,0,0,0,0,0,0,0,0,0,0,0,0,0,0,0,0,0,0,0,0,0,0,0,0,0,0,0,0,0,0,0,0,0,0,0,0,0,0,0,0,0,0,0,0,0,0,0,0,0,0,0,0],"sum_hessian":[1.163E3,1.059E3,1.04E2,8.4E1,9.75E2,4.8E1,5.6E1,7.6E1,8E0,7.41E2,2.34E2,3.3E1,1.5E1,5E0,5.1E1,3.5E1,4.1E1,7.14E2,2.7E1,1.53E2,8.1E1,1.7E1,1.6E1,5E0,1E1,9E0,4.2E1,2E1,1.5E1,1.4E1,2.7E1,6.26E2,8.8E1,1.5E1,1.2E1,6E0,1.47E2,1.5E1,6.6E1,6E0,1.1E1,6E0,1E1,1.5E1,5E0,1E1,5E0,9E0,5E0,2.1E1,6E0,1.84E2,4.42E2,1.8E1,7E1,9E0,6E0,7E0,5E0,1.38E2,9E0,4.5E1,2.1E1],"tree_param":{"num_deleted":"0","num_feature":"36","num_nodes":"63","size_leaf_vector":"1"}},{"base_weights":[-1.0676864E0,7.950096E-1,-2.0707817E1,-1.7193537E1,1.9686486E0,-3.730176E0,-2.7728638E1,-3.5935417E-1,-6.9771645E1,9.1235895E0,-6.374196E-1,4.283967E0,-1.591676E0,-3.1600662E1,-5.7267857E0,1.6213528E1,-1.5695008E1,-2.2273312E0,-5.218612E0,-6.4538426E0,1.026227E1,-1.5198064E1,3.7828064E0,-9.0767634E-1,6.1651015E-1,-1.7609409E0,-2.6075024E1,3.7917387E-1,-1.0158814E0,8.736947E0,1.3272351E0,5.1140803E-1,-3.4162697E1,-1.4771821E0,6.5077174E-1,1.0716371E1,-1.5890168E-1,3.0777662E0,-3.5053516E1,4.736189E0,-2.1362108E1,-1.6039934E0,-1.6670979E1,5.281295E-1,1.9585565E-1,-2.3170912E0,-8.0891705E-1,5.684299E-1,1.6221046E-1,-1.5929763E0,4.1405687E-1,2.3858848E-1,-2.0287886E0,3.3932155E-1,-2.5146982E-1,1.7359745E-2,-2.0569246E0,-1.4293807E0,-2.818566E-1],"categories":[],"categories_nodes":[],"categories_segments":[],"categories_sizes":[],"default_left":[0,0,0,0,0,0,0,0,0,0,0,0,0,0,0,0,0,0,0,0,0,0,0,0,0,0,0,0,0,0,0,0,0,0,0,0,0,0,0,0,0,0,0,0,0,0,0,0,0,0,0,0,0,0,0,0,0,0,0],"id":18,"left_children":[1,3,5,7,9,11,13,15,17,19,21,23,-1,25,27,29,31,-1,-1,33,35,37,39,-1,-1,-1,41,-1,-1,43,-1,-1,45,-1,-1,47,-1,49,51,53,55,-1,57,-1,-1,-1,-1,-1,-1,-1,-1,-1,-1,-1,-1,-1,-1,-1,-1],"loss_changes":[4.3077344E4,2.27489E4,1.2051512E4,5.838514E4,1.8858035E4,7.1210786E3,5.9491055E3,1.3216375E4,9.300492E3,4.855795E3,4.7814746E4,4.7366885E3,0E0,2.9508203E2,2.4858472E3,1.6955981E3,1.3277821E4,0E0,0E0,8.927468E3,1.5728301E3,6.2888426E4,1.3763963E4,0E0,0E0,0E0,1.0414785E3,0E0,0E0,9.796582E1,0E0,0E0,2.7485547E3,0E0,0E0,1.1508047E3,0E0,1.6804521E4,1.8451008E4,1.1046304E4,9.034324E3,0E0,1.5447476E3,0E0,0E0,0E0,0E0,0E0,0E0,0E0,0E0,0E0,0E0,0E0,0E0,0E0,0E0,0E0,0E0],"parents":[2147483647,0,0,1,1,2,2,3,3,4,4,5,5,6,6,7,7,8,8,9,9,10,10,11,11,13,13,14,14,15,15,16,16,19,19,20,20,21,21,22,22,26,26,29,29,32,32,35,35,37,37,38,38,39,39,40,40,42,42],"right_children":[2,4,6,8,10,12,14,16,18,20,22,24,-1,26,28,30,32,-1,-1,34,36,38,40,-1,-1,-1,42,-1,-1,44,-1,-1,46,-1,-1,48,-1,50,52,54,56,-1,58,-1,-1,-1,-1,-1,-1,-1,-1,-1,-1,-1,-1,-1,-1,-1,-1],"split_conditions":[3.1011574E1,1.9666667E-1,5.673304E1,1.9666667E-1,2.4749159E1,3.213075E1,8.740518E1,8.776534E1,5.320056E1,1.0293333E1,5.6898968E1,-4.3388373E-1,-1.591676E0,6.917036E1,8.10177E1,6.600664E1,5.4321533E1,-2.2273312E0,-5.218612E0,4.8495193E1,3.3625E1,5.5335545E1,5.7698597E1,-9.0767634E-1,6.1651015E-1,-1.7609409E0,9.055993E1,3.7917387E-1,-1.0158814E0,4.4394333E1,1.3272351E0,5.1140803E-1,7.1640854E1,-1.4771821E0,6.5077174E-1,5.1308136E1,-1.5890168E-1,3.6084072E1,8.505995E1,7.873436E1,1.4857142E1,-1.6039934E0,2.916088E1,5.281295E-1,1.9585565E-1,-2.3170912E0,-8.0891705E-1,5.684299E-1,1.6221046E-1,-1.5929763E0,4.1405687E-1,2.3858848E-1,-2.0287886E0,3.3932155E-1,-2.5146982E-1,1.7359745E-2,-2.0569246E0,-1.4293807E0,-2.818566E-1],"split_indices":[22,0,7,3,22,21,4,13,27,11,4,34,0,7,6,6,7,0,0,25,3,6,24,0,0,0,14,0,0,16,0,0,7,0,0,25,0,4,12,6,3,0,31,0,0,0,0,0,0,0,0,0,0,0,0,0,0,0,0],"split_type":[0,0,0,0,0,0,0,0,0,0,0,0,0,0,0,0,0,0,0,0,0,0,0,0,0,0,0,0,0,0,0,0,0,0,0,0,0,0,0,0,0,0,0,0,0,0,0,0,0,0,0,0,0,0,0,0,0,0,0],"sum_hessian":[1.176E3,1.075E3,1.01E2,6.5E1,1.01E3,3E1,7.1E1,5E1,1.5E1,2.69E2,7.41E2,2.4E1,6E0,6E1,1.1E1,2.4E1,2.6E1,1E1,5E0,1.8E1,2.51E2,1.72E2,5.69E2,6E0,1.8E1,3.3E1,2.7E1,6E0,5E0,1.5E1,9E0,1.1E1,1.5E1,8E0,1E1,2.43E2,8E0,9E1,8.2E1,5.49E2,2E1,1.5E1,1.2E1,1E1,5E0,8E0,7E0,2.23E2,2E1,1.1E1,7.9E1,1E1,7.2E1,4.54E2,9.5E1,1E1,1E1,5E0,7E0],"tree_param":{"num_deleted":"0","num_feature":"36","num_nodes":"59","size_leaf_vector":"1"}},{"base_weights":[-3.325733E-1,1.5911447E0,-1.5823336E1,-4.284776E1,2.0574956E0,5.191016E0,-2.415123E1,-3.0283256E0,-8.985526E-1,-5.860493E0,4.4640193E0,9.691178E0,-6.441745E-1,-2.8793486E1,2.2108881E0,3.9475827E0,-1.978725E1,-1.1071502E1,5.380555E0,1.0242221E1,2.835732E-1,-2.3358797E1,-3.390537E1,-5.8349884E-1,5.164159E-1,-1.0232518E1,8.947548E0,-1.9382924E0,-1.1603291E1,9.74801E0,-4.2462296E0,6.494261E0,-3.1714573E0,3.0835983E-1,5.457014E-1,-7.5817204E0,-2.8709316E1,-9.008458E-1,-1.7854528E0,1.5072797E-1,-2.1515608E0,6.1094946E-1,4.475702E-2,-1.0105071E0,3.2241672E-1,7.940677E-1,-1.1774467E0,-1.6216664E-1,3.8810852E-1,-2.2402968E0,3.713511E-1,5.807192E-1,-1.436511E0,-5.0148344E-1,-1.5955977E0],"categories":[],"categories_nodes":[],"categories_segments":[],"categories_sizes":[],"default_left":[0,0,0,0,0,0,0,0,0,0,0,0,0,0,0,0,0,0,0,0,0,0,0,0,0,0,0,0,0,0,0,0,0,0,0,0,0,0,0,0,0,0,0,0,0,0,0,0,0,0,0,0,0,0,0],"id":19,"left_children":[1,3,5,7,9,11,13,-1,-1,15,17,19,-1,21,23,25,27,29,31,33,-1,35,37,-1,-1,39,41,-1,43,45,-1,47,49,-1,-1,51,53,-1,-1,-1,-1,-1,-1,-1,-1,-1,-1,-1,-1,-1,-1,-1,-1,-1,-1],"loss_changes":[3.5339434E4,2.1948035E4,2.3052957E4,3.7523262E3,1.9938314E4,3.2153892E3,1.1570012E4,0E0,0E0,3.34088E4,1.1478572E4,8.986328E0,0E0,1.4248047E3,1.8105511E3,1.0301029E4,1.5232477E4,7.0026695E4,7.2404434E3,2.1611328E0,0E0,3.3241582E3,4.6891797E2,0E0,0E0,1.6644223E4,2.8064482E3,0E0,1.1318168E4,7.7251997E3,0E0,8.310051E3,3.916758E4,0E0,0E0,5.2070205E3,1.5302852E3,0E0,0E0,0E0,0E0,0E0,0E0,0E0,0E0,0E0,0E0,0E0,0E0,0E0,0E0,0E0,0E0,0E0,0E0],"parents":[2147483647,0,0,1,1,2,2,3,3,4,4,5,5,6,6,9,9,10,10,11,11,13,13,14,14,15,15,16,16,17,17,18,18,19,19,21,21,22,22,25,25,26,26,28,28,29,29,31,31,32,32,35,35,36,36],"right_children":[2,4,6,8,10,12,14,-1,-1,16,18,20,-1,22,24,26,28,30,32,34,-1,36,38,-1,-1,40,42,-1,44,46,-1,48,50,-1,-1,52,54,-1,-1,-1,-1,-1,-1,-1,-1,-1,-1,-1,-1,-1,-1,-1,-1,-1,-1],"split_conditions":[3.06569E1,2.0612703E1,5.1710915E1,2.8185E1,-7.0710677E-1,8.137906E1,8.6780975E1,-3.0283256E0,-8.985526E-1,2.4432146E1,1.9666667E-1,9.0717415E1,-6.441745E-1,1.084E1,1.2585E1,4.3521385E1,5.7995174E1,1.9666667E-1,7.873436E1,5.3664265E1,2.835732E-1,5.8977875E1,2.82825E1,-5.8349884E-1,5.164159E-1,5.0018436E1,4.3388373E-1,-1.9382924E0,2.4563334E1,5.585496E1,-4.2462296E0,4.191003E1,6.965339E1,3.0835983E-1,5.457014E-1,4.48535E1,-2.2252093E-1,-9.008458E-1,-1.7854528E0,1.5072797E-1,-2.1515608E0,6.1094946E-1,4.475702E-2,-1.0105071E0,3.2241672E-1,7.940677E-1,-1.1774467E0,-1.6216664E-1,3.8810852E-1,-2.2402968E0,3.713511E-1,5.807192E-1,-1.436511E0,-5.0148344E-1,-1.5955977E0],"split_indices":[22,28,7,3,32,4,4,0,0,30,0,13,0,2,3,4,4,3,6,25,0,7,10,0,0,6,34,0,0,25,0,4,4,0,0,17,35,0,0,0,0,0,0,0,0,0,0,0,0,0,0,0,0,0,0],"split_type":[0,0,0,0,0,0,0,0,0,0,0,0,0,0,0,0,0,0,0,0,0,0,0,0,0,0,0,0,0,0,0,0,0,0,0,0,0,0,0,0,0,0,0,0,0,0,0,0,0,0,0,0,0,0,0],"sum_hessian":[1.184E3,1.054E3,1.3E2,1E1,1.044E3,3.7E1,9.3E1,5E0,5E0,2.43E2,8.01E2,3E1,7E0,7.9E1,1.4E1,1.43E2,1E2,4.4E1,7.57E2,2.5E1,5E0,4.1E1,3.8E1,5E0,9E0,3.7E1,1.06E2,2.9E1,7.1E1,3.5E1,9E0,6.7E2,8.7E1,5E0,2E1,1.1E1,3E1,5E0,3.3E1,2.7E1,1E1,7.5E1,3.1E1,4.8E1,2.3E1,3E1,5E0,7.7E1,5.93E2,1.7E1,7E1,6E0,5E0,5E0,2.5E1],"tree_param":{"num_deleted":"0","num_feature":"36","num_nodes":"55","size_leaf_vector":"1"}},{"base_weights":[-5.4154396E-1,1.296224E0,-1.6328114E1,-3.0279335E1,1.985427E0,-2.4893227E0,-2.752207E1,6.0768896E-1,-5.372725E1,-6.52916E0,4.4292445E0,4.568169E0,-1.4671966E0,-3.1063839E1,-6.014215E0,-1.4190094E0,-4.350057E0,3.7102616E0,-2.0633924E1,6.7559714E0,-2.382396E0,-1.0475359E0,8.92227E0,-2.1690845E0,-2.7976992E1,3.7930748E-1,-9.3144387E-1,-7.930905E0,7.7835135E0,3.035574E0,-3.0970453E1,9.767077E0,3.0028229E0,5.4583554E0,-1.589587E1,1.1185272E1,-2.8744778E-1,-1.9279392E1,-1.5254569E0,-1.4544524E0,3.4255254E-1,5.1724076E-1,-2.5754316E-2,-7.0944786E-1,3.87051E-1,-1.713643E0,-7.4649945E-2,5.0905055E-1,-7.408701E-1,5.158304E-1,-1.6216958E-1,-4.8150083E-1,3.8024423E-1,-1.5881573E0,-4.2737642E-1,1.3106263E-1,6.26095E-1,-1.3866563E0,-3.4247485E-1],"categories":[],"categories_nodes":[],"categories_segments":[],"categories_sizes":[],"default_left":[0,0,0,0,0,0,0,0,0,0,0,0,0,0,0,0,0,0,0,0,0,0,0,0,0,0,0,0,0,0,0,0,0,0,0,0,0,0,0,0,0,0,0,0,0,0,0,0,0,0,0,0,0,0,0,0,0,0,0],"id":20,"left_children":[1,3,5,7,9,11,13,-1,15,17,19,21,-1,23,25,-1,-1,27,29,31,33,-1,35,-1,37,-1,-1,39,41,43,45,47,49,51,53,55,-1,57,-1,-1,-1,-1,-1,-1,-1,-1,-1,-1,-1,-1,-1,-1,-1,-1,-1,-1,-1,-1,-1],"loss_changes":[3.4779105E4,2.3429648E4,1.9292344E4,2.3541408E4,2.1918826E4,1.0939518E4,5.0656016E3,0E0,1.0170285E4,3.4018035E4,1.2980874E4,5.296868E3,0E0,1.0225508E3,2.0296296E3,0E0,0E0,6.5579004E3,2.4318191E4,6.86308E3,2.223257E4,0E0,1.3928882E3,0E0,5.080039E2,0E0,0E0,1.1460828E4,2.1743433E3,2.6217139E3,6.662172E3,3.5899922E3,1.2505756E4,4.380588E3,8.702531E3,3.663042E2,0E0,1.27769E3,0E0,0E0,0E0,0E0,0E0,0E0,0E0,0E0,0E0,0E0,0E0,0E0,0E0,0E0,0E0,0E0,0E0,0E0,0E0,0E0,0E0],"parents":[2147483647,0,0,1,1,2,2,3,3,4,4,5,5,6,6,8,8,9,9,10,10,11,11,13,13,14,14,17,17,18,18,19,19,20,20,22,22,24,24,27,27,28,28,29,29,30,30,31,31,32,32,33,33,34,34,35,35,37,37],"right_children":[2,4,6,8,10,12,14,-1,16,18,20,22,-1,24,26,-1,-1,28,30,32,34,-1,36,-1,38,-1,-1,40,42,44,46,48,50,52,54,56,-1,58,-1,-1,-1,-1,-1,-1,-1,-1,-1,-1,-1,-1,-1,-1,-1,-1,-1,-1,-1,-1,-1],"split_conditions":[2.9188368E1,2.219811E1,5.9716076E1,-4.3388373E-1,-7.0710677E-1,3.0023872E1,9.0647415E1,6.0768896E-1,4.843001E1,2.4432146E1,5.4102993E1,-7.818315E-1,-1.4671966E0,2.9441551E1,2.757915E1,-1.4190094E0,-4.350057E0,4.3521385E1,-1.8369701E-16,4.3388373E-1,5.7048595E1,-1.0475359E0,2.8761574E1,-2.1690845E0,2.9117334E1,3.7930748E-1,-9.3144387E-1,1.5557667E1,2.3825653E1,6.0545723E1,2.0902668E1,3.0743103E1,1.6997414E1,5.7995174E1,6.95354E1,5.6259155E1,-2.8744778E-1,2.8942764E1,-1.5254569E0,-1.4544524E0,3.4255254E-1,5.1724076E-1,-2.5754316E-2,-7.0944786E-1,3.87051E-1,-1.713643E0,-7.4649945E-2,5.0905055E-1,-7.408701E-1,5.158304E-1,-1.6216958E-1,-4.8150083E-1,3.8024423E-1,-1.5881573E0,-4.2737642E-1,1.3106263E-1,6.26095E-1,-1.3866563E0,-3.4247485E-1],"split_indices":[30,20,7,34,32,29,15,0,26,30,26,34,0,30,29,0,0,4,33,34,7,0,31,0,9,0,0,11,31,4,11,21,8,4,4,26,0,21,0,0,0,0,0,0,0,0,0,0,0,0,0,0,0,0,0,0,0,0,0],"split_type":[0,0,0,0,0,0,0,0,0,0,0,0,0,0,0,0,0,0,0,0,0,0,0,0,0,0,0,0,0,0,0,0,0,0,0,0,0,0,0,0,0,0,0,0,0,0,0,0,0,0,0,0,0,0,0,0,0,0,0],"sum_hessian":[1.197E3,1.073E3,1.24E2,2.2E1,1.051E3,5.6E1,6.8E1,8E0,1.4E1,2.34E2,8.17E2,4.5E1,1.1E1,5.8E1,1E1,9E0,5E0,1.36E2,9.8E1,6.09E2,2.08E2,6E0,3.9E1,9E0,4.9E1,5E0,5E0,3.5E1,1.01E2,3E1,6.8E1,3.37E2,2.72E2,1.32E2,7.6E1,3.4E1,5E0,1.3E1,3.6E1,1.4E1,2.1E1,7.7E1,2.4E1,6E0,2.4E1,6.1E1,7E0,3.32E2,5E0,1.25E2,1.47E2,1.6E1,1.16E2,2.3E1,5.3E1,5E0,2.9E1,7E0,6E0],"tree_param":{"num_deleted":"0","num_feature":"36","num_nodes":"59","size_leaf_vector":"1"}},{"base_weights":[-9.713622E-2,1.9118358E0,-1.4132812E1,-3.9475138E0,5.2243695E0,3.2894416E0,-2.0840305E1,5.628963E0,-1.0314732E1,5.9378123E0,-1.395483E1,7.2907057E0,-6.090414E-1,-2.3304018E1,6.274321E-1,-3.2372806E0,8.502884E0,2.3646614E-2,-2.5261776E1,-1.5516429E0,6.2790227E0,2.354123E0,-3.345215E1,9.381333E0,-2.0062223E-1,-2.6060055E1,-5.9424677E0,1.0241616E1,-1.6791933E0,-1.3664576E1,9.727657E0,-3.0889868E1,8.294021E0,-9.515725E0,7.0533E0,-3.6596674E-1,4.2763186E-1,-9.9864525E-1,-2.0669687E0,4.017751E-1,6.5922195E-1,-1.7566708E1,-2.944606E1,3.7593707E-1,-1.3702036E0,6.1282724E-1,3.7004238E-1,-1.2774171E0,4.431129E-1,-1.4735543E0,4.317282E-1,5.9244007E-1,-1.5472326E-1,-7.221037E-1,-1.8491509E0,1.1496347E-1,6.245088E-1,-3.6280618E0,2.9959127E-1,3.7066013E-1,-8.776407E-1,-2.7795872E-1,-1.3397728E0,-1.0478232E0,-1.5786052E0],"categories":[],"categories_nodes":[],"categories_segments":[],"categories_sizes":[],"default_left":[0,0,0,0,0,0,0,0,0,0,0,0,0,0,0,0,0,0,0,0,0,0,0,0,0,0,0,0,0,0,0,0,0,0,0,0,0,0,0,0,0,0,0,0,0,0,0,0,0,0,0,0,0,0,0,0,0,0,0,0,0,0,0,0,0],"id":21,"left_children":[1,3,5,7,9,11,13,15,17,19,21,23,-1,25,-1,-1,27,29,31,-1,33,35,37,39,-1,41,43,45,47,49,51,53,55,57,59,-1,-1,-1,-1,-1,-1,61,63,-1,-1,-1,-1,-1,-1,-1,-1,-1,-1,-1,-1,-1,-1,-1,-1,-1,-1,-1,-1,-1,-1],"loss_changes":[3.3329227E4,2.008996E4,1.736554E4,2.2863371E4,9.126695E3,2.6881443E3,9.09541E3,3.0882545E4,3.477196E4,8.240609E3,7.713401E3,8.4162195E2,0E0,4.6268477E3,0E0,0E0,2.58512E3,1.793184E4,1.7633133E4,0E0,7.8081504E3,9.0217773E2,3.3765332E2,4.036621E1,0E0,1.9512617E3,4.54152E3,6.170957E2,5.7636245E3,1.9994957E4,2.1861484E3,7.3780312E3,3.2197156E2,2.9771873E4,5.47801E3,0E0,0E0,0E0,0E0,0E0,0E0,2.8397969E3,4.160664E2,0E0,0E0,0E0,0E0,0E0,0E0,0E0,0E0,0E0,0E0,0E0,0E0,0E0,0E0,0E0,0E0,0E0,0E0,0E0,0E0,0E0,0E0],"parents":[2147483647,0,0,1,1,2,2,3,3,4,4,5,5,6,6,7,7,8,8,9,9,10,10,11,11,13,13,16,16,17,17,18,18,20,20,21,21,22,22,23,23,25,25,26,26,27,27,28,28,29,29,30,30,31,31,32,32,33,33,34,34,41,41,42,42],"right_children":[2,4,6,8,10,12,14,16,18,20,22,24,-1,26,-1,-1,28,30,32,-1,34,36,38,40,-1,42,44,46,48,50,52,54,56,58,60,-1,-1,-1,-1,-1,-1,62,64,-1,-1,-1,-1,-1,-1,-1,-1,-1,-1,-1,-1,-1,-1,-1,-1,-1,-1,-1,-1,-1,-1],"split_conditions":[3.06569E1,1.9384167E1,5.0726402E1,-1.8369701E-16,5.7402115E1,8.137906E1,9.1338585E1,2.2267658E1,4.9923065E1,4.5084923E1,7.735619E1,1.866E1,-6.090414E-1,8.6780975E1,6.274321E-1,-3.2372806E0,1.7272833E1,4.9474865E1,5.332723E1,-1.5516429E0,4.25585E1,2.6092123E1,2.9576822E1,5.531626E1,-2.0062223E-1,2.8862833E1,2.9871962E1,7.818315E-1,5.6316372E1,5.053835E1,2.7741667E1,2.5234865E1,1.2551666E1,5.4E0,8.9332596E1,-3.6596674E-1,4.2763186E-1,-9.9864525E-1,-2.0669687E0,4.017751E-1,6.5922195E-1,1.0595E1,9.973333E0,3.7593707E-1,-1.3702036E0,6.1282724E-1,3.7004238E-1,-1.2774171E0,4.431129E-1,-1.4735543E0,4.317282E-1,5.9244007E-1,-1.5472326E-1,-7.221037E-1,-1.8491509E0,1.1496347E-1,6.245088E-1,-3.6280618E0,2.9959127E-1,3.7066013E-1,-8.776407E-1,-2.7795872E-1,-1.3397728E0,-1.0478232E0,-1.5786052E0],"split_indices":[22,11,7,33,24,4,14,20,27,24,4,0,0,4,0,0,11,24,24,0,18,23,29,27,0,9,30,34,4,4,1,22,0,0,6,0,0,0,0,0,0,2,1,0,0,0,0,0,0,0,0,0,0,0,0,0,0,0,0,0,0,0,0,0,0],"split_type":[0,0,0,0,0,0,0,0,0,0,0,0,0,0,0,0,0,0,0,0,0,0,0,0,0,0,0,0,0,0,0,0,0,0,0,0,0,0,0,0,0,0,0,0,0,0,0,0,0,0,0,0,0,0,0,0,0,0,0,0,0,0,0,0,0],"sum_hessian":[1.18E3,1.033E3,1.47E2,3.73E2,6.6E2,4.1E1,1.06E2,1.49E2,2.24E2,6.37E2,2.3E1,3.3E1,8E0,9.9E1,7E0,5E0,1.44E2,1.33E2,9.1E1,5E0,6.32E2,1.3E1,1E1,2.8E1,5E0,8.5E1,1.4E1,1.23E2,2.1E1,5.5E1,7.8E1,7.8E1,1.3E1,2.9E1,6.03E2,5E0,8E0,5E0,5E0,2.3E1,5E0,2.6E1,5.9E1,9E0,5E0,7E1,5.3E1,6E0,1.5E1,3.2E1,2.3E1,6.7E1,1.1E1,2.2E1,5.6E1,6E0,7E0,5E0,2.4E1,5.95E2,8E0,1.2E1,1.4E1,1.4E1,4.5E1],"tree_param":{"num_deleted":"0","num_feature":"36","num_nodes":"65","size_leaf_vector":"1"}},{"base_weights":[-2.3790827E-1,8.857578E-1,-2.3683886E1,7.979003E0,-1.5978363E0,-2.6821548E1,-2.676458E-1,-1.3261341E0,8.685142E0,3.9208593E0,-9.4795885E0,-4.8629713E-1,-1.4356426E0,9.23919E0,-9.162139E-1,5.7501087E0,-1.3168561E1,8.928073E0,-1.308895E1,1.0219871E1,-2.5877826E0,-2.7797129E1,6.762965E0,-3.0365927E0,-4.7243757E0,1.1922701E1,-6.861641E-1,-2.204888E1,-6.1618676E0,8.406847E-1,4.8400426E-1,-1.2985734E0,6.311143E-1,-2.694468E0,5.80435E-1,3.8104E-1,-9.4789135E-1,7.0236087E-1,-6.972508E-1,3.3688235E-1,6.604914E-1,5.113795E-1,-1.2042814E0,-1.5148176E0,-1.644561E-1],"categories":[],"categories_nodes":[],"categories_segments":[],"categories_sizes":[],"default_left":[0,0,0,0,0,0,0,0,0,0,0,0,0,0,0,0,0,0,0,0,0,0,0,0,0,0,0,0,0,0,0,0,0,0,0,0,0,0,0,0,0,0,0,0,0],"id":22,"left_children":[1,3,5,7,9,11,-1,-1,13,15,17,-1,-1,19,-1,21,23,25,27,29,31,33,35,-1,37,39,-1,41,43,-1,-1,-1,-1,-1,-1,-1,-1,-1,-1,-1,-1,-1,-1,-1,-1],"loss_changes":[3.0531287E4,1.9497504E4,2.9015781E3,7.220742E3,3.5705254E4,1.1718809E3,0E0,0E0,4.3883887E3,1.517395E4,2.2573963E4,0E0,0E0,3.2399902E3,0E0,1.5034509E4,1.8583297E4,3.9620522E3,1.7426047E4,7.4575977E2,8.1538384E3,1.3996231E4,9.520627E3,0E0,7.2924087E3,2.4269238E2,0E0,8.333629E3,1.1059483E4,0E0,0E0,0E0,0E0,0E0,0E0,0E0,0E0,0E0,0E0,0E0,0E0,0E0,0E0,0E0,0E0],"parents":[2147483647,0,0,1,1,2,2,3,3,4,4,5,5,8,8,9,9,10,10,13,13,15,15,16,16,17,17,18,18,19,19,20,20,21,21,22,22,24,24,25,25,27,27,28,28],"right_children":[2,4,6,8,10,12,-1,-1,14,16,18,-1,-1,20,-1,22,24,26,28,30,32,34,36,-1,38,40,-1,42,44,-1,-1,-1,-1,-1,-1,-1,-1,-1,-1,-1,-1,-1,-1,-1,-1],"split_conditions":[2.9729458E1,5.390118E1,8.740518E1,2.2879879E1,-1.8369701E-16,7.6563934E1,-2.676458E-1,-1.3261341E0,3.038297E1,2.9168667E1,2.3386261E1,-4.8629713E-1,-1.4356426E0,3.0374166E1,-9.162139E-1,4.04035E1,4.9989826E1,4.51105E1,7.0710677E-1,2.858407E1,5.7995174E1,2.6304232E1,4.58555E1,-3.0365927E0,8.55643E1,2.2568531E1,-6.861641E-1,6.944882E1,1.095E0,8.406847E-1,4.8400426E-1,-1.2985734E0,6.311143E-1,-2.694468E0,5.80435E-1,3.8104E-1,-9.4789135E-1,7.0236087E-1,-6.972508E-1,3.3688235E-1,6.604914E-1,5.113795E-1,-1.2042814E0,-1.5148176E0,-1.644561E-1],"split_indices":[30,7,4,20,33,5,0,0,28,10,31,0,0,10,0,16,24,16,33,6,4,22,17,0,13,23,0,14,0,0,0,0,0,0,0,0,0,0,0,0,0,0,0,0,0],"split_type":[0,0,0,0,0,0,0,0,0,0,0,0,0,0,0,0,0,0,0,0,0,0,0,0,0,0,0,0,0,0,0,0,0,0,0,0,0,0,0,0,0,0,0,0,0],"sum_hessian":[1.157E3,1.105E3,5.2E1,2.86E2,8.19E2,4.4E1,8E0,5E0,2.81E2,4.82E2,3.37E2,5E0,3.9E1,2.76E2,5E0,4.36E2,4.6E1,5.5E1,2.82E2,2.55E2,2.1E1,1.2E1,4.24E2,6E0,4E1,4.9E1,6E0,1.22E2,1.6E2,1.7E1,2.38E2,8E0,1.3E1,7E0,5E0,4.11E2,1.3E1,1.3E1,2.7E1,1.1E1,3.8E1,7E0,1.15E2,1.6E1,1.44E2],"tree_param":{"num_deleted":"0","num_feature":"36","num_nodes":"45","size_leaf_vector":"1"}},{"base_weights":[-4.1799405E-1,1.507943E0,-1.3117415E1,-3.9094616E1,1.939358E0,-2.5209177E-1,-2.444696E1,-6.42058E-1,-2.9407816E0,-2.6366587E0,5.3316145E0,2.8950856E0,-1.3492044E0,-2.7484592E1,-3.922454E0,5.3482857E0,-1.0502273E1,7.1277504E0,-4.157896E0,7.040165E0,-7.400113E0,-2.3015518E1,-3.679401E1,-8.6318713E-1,4.0295002E-1,-6.2587876E0,8.138432E0,-5.553819E0,-3.970703E1,7.9842553E0,6.032328E-1,8.502008E0,-1.9027376E1,8.666198E0,-3.0203864E-1,8.67671E0,-1.9255444E0,-2.3919156E-1,-2.6219376E1,-2.7971838E0,-1.3055079E0,7.012035E-1,-1.0031945E0,4.538323E-1,-1.713122E-1,1.2867986E-1,-6.8974656E-1,-1.4307207E0,-3.7610734E0,4.1943955E-1,-5.140056E-1,-1.456735E0,2.5843108E-1,5.2573985E-1,-4.3325835E-1,-2.0558143E0,-3.6726722E-1,5.242954E-1,-2.2948067E-1,2.5994608E-1,5.3113437E-1,-1.4058876E0,-4.7466817E-1],"categories":[],"categories_nodes":[],"categories_segments":[],"categories_sizes":[],"default_left":[0,0,0,0,0,0,0,0,0,0,0,0,0,0,0,0,0,0,0,0,0,0,0,0,0,0,0,0,0,0,0,0,0,0,0,0,0,0,0,0,0,0,0,0,0,0,0,0,0,0,0,0,0,0,0,0,0,0,0,0,0,0,0],"id":23,"left_children":[1,3,5,7,9,11,13,-1,-1,15,17,19,-1,21,23,25,27,29,31,33,35,37,39,-1,-1,41,43,45,47,49,51,53,55,57,-1,59,-1,-1,61,-1,-1,-1,-1,-1,-1,-1,-1,-1,-1,-1,-1,-1,-1,-1,-1,-1,-1,-1,-1,-1,-1,-1,-1],"loss_changes":[2.9346428E4,1.8324346E4,2.3021176E4,4.9327676E3,1.6034088E4,6.390305E3,5.1261016E3,0E0,0E0,2.769154E4,1.0137291E4,2.9539224E3,0E0,2.1843164E3,2.0582253E3,7.143534E3,3.1858031E4,2.782877E3,1.8046213E4,1.094845E3,1.034038E4,2.908879E3,3.032121E3,0E0,0E0,1.2322278E4,1.9521367E3,1.2829604E4,1.0443539E4,3.344416E3,8.158338E3,1.8881001E3,1.1047045E4,1.1100715E3,0E0,3.7939087E1,0E0,0E0,1.1264062E3,0E0,0E0,0E0,0E0,0E0,0E0,0E0,0E0,0E0,0E0,0E0,0E0,0E0,0E0,0E0,0E0,0E0,0E0,0E0,0E0,0E0,0E0,0E0,0E0],"parents":[2147483647,0,0,1,1,2,2,3,3,4,4,5,5,6,6,9,9,10,10,11,11,13,13,14,14,15,15,16,16,17,17,18,18,19,19,20,20,21,21,22,22,25,25,26,26,27,27,28,28,29,29,30,30,31,31,32,32,33,33,35,35,38,38],"right_children":[2,4,6,8,10,12,14,-1,-1,16,18,20,-1,22,24,26,28,30,32,34,36,38,40,-1,-1,42,44,46,48,50,52,54,56,58,-1,60,-1,-1,62,-1,-1,-1,-1,-1,-1,-1,-1,-1,-1,-1,-1,-1,-1,-1,-1,-1,-1,-1,-1,-1,-1,-1,-1],"split_conditions":[3.0483488E1,4.5084923E1,5.6478615E1,4.3875E1,4.3888668E1,5.7909996E1,8.740518E1,-6.42058E-1,-2.9407816E0,2.4189686E1,4.5565166E1,4.4954998E1,-1.3492044E0,2.9775167E1,5.744831E1,3.8010403E1,4.4313168E1,5.6702835E1,2.4980856E1,4.4895668E1,7.5850624E1,5.390052E1,3.0896515E1,-8.6318713E-1,4.0295002E-1,3.2063843E1,4.4645164E1,2.6843103E1,1.7436167E1,4.5817165E1,5.916561E1,6.257006E1,4.5069E1,2.9661098E1,-3.0203864E-1,4.1297935E1,-1.9255444E0,-2.3919156E-1,7.197272E1,-2.7971838E0,-1.3055079E0,7.012035E-1,-1.0031945E0,4.538323E-1,-1.713122E-1,1.2867986E-1,-6.8974656E-1,-1.4307207E0,-3.7610734E0,4.1943955E-1,-5.140056E-1,-1.456735E0,2.5843108E-1,5.2573985E-1,-4.3325835E-1,-2.0558143E0,-3.6726722E-1,5.242954E-1,-2.2948067E-1,2.5994608E-1,5.3113437E-1,-1.4058876E0,-4.7466817E-1],"split_indices":[22,24,7,18,19,24,4,0,0,30,17,17,0,11,26,4,17,27,31,16,5,25,22,0,0,5,17,3,11,16,4,5,19,30,0,7,0,0,7,0,0,0,0,0,0,0,0,0,0,0,0,0,0,0,0,0,0,0,0,0,0,0,0],"split_type":[0,0,0,0,0,0,0,0,0,0,0,0,0,0,0,0,0,0,0,0,0,0,0,0,0,0,0,0,0,0,0,0,0,0,0,0,0,0,0,0,0,0,0,0,0,0,0,0,0,0,0,0,0,0,0,0,0,0,0,0,0,0,0],"sum_hessian":[1.198E3,1.041E3,1.57E2,1E1,1.031E3,7.4E1,8.3E1,5E0,5E0,4.39E2,5.92E2,6.7E1,7E0,7.2E1,1.1E1,2.18E2,2.21E2,4.98E2,9.4E1,4.8E1,1.9E1,5.1E1,2.1E1,5E0,6E0,4.2E1,1.76E2,1.9E2,3.1E1,4.4E2,5.8E1,5.1E1,4.3E1,4.3E1,5E0,1.3E1,6E0,8E0,4.3E1,6E0,1.5E1,1.7E1,2.5E1,1.63E2,1.3E1,9.6E1,9.4E1,2.5E1,6E0,4.31E2,9E0,7E0,5.1E1,4.6E1,5E0,1.4E1,2.9E1,3.8E1,5E0,6E0,7E0,3.8E1,5E0],"tree_param":{"num_deleted":"0","num_feature":"36","num_nodes":"63","size_leaf_vector":"1"}},{"base_weights":[-6.624038E-1,9.130678E-1,-1.3618727E1,6.822154E0,-1.4172505E0,7.56985E0,-1.909493E1,-7.710894E0,8.008885E0,-1.1479848E1,2.3472002E0,9.861467E0,-1.0388608E-1,-2.4266186E1,-2.1928158E0,-1.7184362E0,6.093703E0,-9.3655556E-1,8.571731E0,1.1417822E0,-2.0535698E1,2.8287582E0,-2.0924556E0,5.5100684E0,6.510064E-1,-1.3689469E1,-2.656557E1,8.590327E0,-1.5581187E0,6.065565E-1,-2.9869315E-1,8.740961E-1,7.6744876E0,-2.4573762E0,6.1576905E0,-2.6954866E1,1.5149598E0,-2.4114214E1,3.4795632E0,1.7023309E-1,3.340232E-1,7.242693E-2,-1.2817768E0,-1.7651529E0,-1.2325486E0,4.4469535E-3,7.37799E-1,-3.1841215E-1,4.5010448E-1,-1.3740305E0,4.3839929E-1,6.073756E-2,-1.4994347E0,-6.494135E-1,7.4784887E-1,-3.0845153E0,3.5348174E-1,2.0347397E-1,-1.2464566E0],"categories":[],"categories_nodes":[],"categories_segments":[],"categories_sizes":[],"default_left":[0,0,0,0,0,0,0,0,0,0,0,0,0,0,0,0,0,0,0,0,0,0,0,0,0,0,0,0,0,0,0,0,0,0,0,0,0,0,0,0,0,0,0,0,0,0,0,0,0,0,0,0,0,0,0,0,0,0,0],"id":24,"left_children":[1,3,5,7,9,11,13,15,17,19,21,23,-1,25,27,-1,29,-1,31,33,35,37,-1,39,-1,41,43,45,-1,-1,-1,-1,47,-1,49,51,53,55,57,-1,-1,-1,-1,-1,-1,-1,-1,-1,-1,-1,-1,-1,-1,-1,-1,-1,-1,-1,-1],"loss_changes":[2.4100242E4,1.4510073E4,1.499792E4,5.201342E3,2.8665254E4,6.181985E2,8.859469E3,8.676275E3,4.3134746E3,2.3571104E4,1.1841462E4,2.2878613E2,0E0,1.5292617E3,8.0795254E3,0E0,1.2387979E3,0E0,2.0298594E3,2.2243785E4,1.7029008E4,9.655746E3,0E0,3.3525085E0,0E0,2.9329873E3,1.7766406E2,9.9311865E2,0E0,0E0,0E0,0E0,4.681093E3,0E0,7.263549E3,7.98725E3,5.6531367E3,1.5674563E4,9.048535E3,0E0,0E0,0E0,0E0,0E0,0E0,0E0,0E0,0E0,0E0,0E0,0E0,0E0,0E0,0E0,0E0,0E0,0E0,0E0,0E0],"parents":[2147483647,0,0,1,1,2,2,3,3,4,4,5,5,6,6,7,7,8,8,9,9,10,10,11,11,13,13,14,14,16,16,18,18,19,19,20,20,21,21,23,23,25,25,26,26,27,27,32,32,34,34,35,35,36,36,37,37,38,38],"right_children":[2,4,6,8,10,12,14,16,18,20,22,24,-1,26,28,-1,30,-1,32,34,36,38,-1,40,-1,42,44,46,-1,-1,-1,-1,48,-1,50,52,54,56,58,-1,-1,-1,-1,-1,-1,-1,-1,-1,-1,-1,-1,-1,-1,-1,-1,-1,-1,-1,-1],"split_conditions":[2.9188368E1,2.4074074E1,5.0018436E1,1.07765E1,-2.5881904E-1,3.0222668E1,8.4900444E1,4.027734E1,4.5084923E1,-1.8369701E-16,9.066056E1,4.2407818E1,-1.0388608E-1,2.4487833E1,3.019E1,-1.7184362E0,7.029498E1,-9.3655556E-1,3.1006638E1,4.04035E1,2.1153E1,3.8010403E1,-2.0924556E0,6.95354E1,6.510064E-1,1.0595E1,2.9389467E1,4.4386333E1,-1.5581187E0,6.065565E-1,-2.9869315E-1,8.740961E-1,3.6084072E1,-2.4573762E0,5.6316372E1,4.8695557E1,6.1559734E1,2.8255167E1,3.0023872E1,1.7023309E-1,3.340232E-1,7.242693E-2,-1.2817768E0,-1.7651529E0,-1.2325486E0,4.4469535E-3,7.37799E-1,-3.1841215E-1,4.5010448E-1,-1.3740305E0,4.3839929E-1,6.073756E-2,-1.4994347E0,-6.494135E-1,7.4784887E-1,-3.0845153E0,3.5348174E-1,2.0347397E-1,-1.2464566E0],"split_indices":[30,30,7,11,32,8,4,4,24,33,6,7,0,8,8,0,7,0,5,16,11,4,0,5,0,2,30,19,0,0,0,0,4,0,4,24,7,8,28,0,0,0,0,0,0,0,0,0,0,0,0,0,0,0,0,0,0,0,0],"split_type":[0,0,0,0,0,0,0,0,0,0,0,0,0,0,0,0,0,0,0,0,0,0,0,0,0,0,0,0,0,0,0,0,0,0,0,0,0,0,0,0,0,0,0,0,0,0,0,0,0,0,0,0,0,0,0,0,0,0,0],"sum_hessian":[1.179E3,1.052E3,1.27E2,2.97E2,7.55E2,2.6E1,1.01E2,2.2E1,2.75E2,2.05E2,5.5E2,2.1E1,5E0,7.7E1,2.4E1,7E0,1.5E1,5E0,2.7E2,8.6E1,1.19E2,5.45E2,5E0,1E1,1.1E1,1.5E1,6.2E1,1.8E1,6E0,1E1,5E0,2.3E1,2.47E2,7E0,7.9E1,9.2E1,2.7E1,1.2E1,5.33E2,5E0,5E0,7E0,8E0,8E0,5.4E1,8E0,1E1,2.1E1,2.26E2,5E0,7.4E1,9E0,8.3E1,1.3E1,1.4E1,5E0,7E0,5.23E2,1E1],"tree_param":{"num_deleted":"0","num_feature":"36","num_nodes":"59","size_leaf_vector":"1"}},{"base_weights":[-1.5571144E-1,6.641415E-1,-2.0846876E1,6.623739E0,-1.6407198E0,-1.2937221E1,-1.2965034E0,-1.2206553E0,7.286425E0,-1.1406376E1,1.0290207E0,-1.311837E0,1.4879856E-1,-7.2659073E0,8.287809E0,5.7822676E0,-2.4909199E1,6.855361E0,-2.412865E0,-1.6839417E0,5.5378513E0,8.6040753E-1,7.78713E0,-1.0749491E0,8.694154E0,-3.773202E-1,-3.25493E1,7.399814E0,-8.024327E-1,-1.1089546E1,5.7095814E0,-2.5984642E-1,5.717467E-1,-6.2186867E-1,4.3239808E-1,5.615866E-1,-6.6575676E-1,4.261445E-1,-1.2247709E0,1.5161175E-1,-1.8076099E0,1.3975897E0,3.3764803E-1,-1.4929345E0,-3.046356E-1,-1.2935938E0,3.292598E-1],"categories":[],"categories_nodes":[],"categories_segments":[],"categories_sizes":[],"default_left":[0,0,0,0,0,0,0,0,0,0,0,0,0,0,0,0,0,0,0,0,0,0,0,0,0,0,0,0,0,0,0,0,0,0,0,0,0,0,0,0,0,0,0,0,0,0,0],"id":25,"left_children":[1,3,5,7,9,11,-1,-1,13,15,17,-1,-1,19,21,23,25,27,29,-1,31,-1,33,-1,35,37,39,41,-1,43,45,-1,-1,-1,-1,-1,-1,-1,-1,-1,-1,-1,-1,-1,-1,-1,-1],"loss_changes":[2.04741E4,1.5958915E4,1.5101387E3,6.8401025E3,2.1860916E4,4.3131616E3,0E0,0E0,4.694367E3,4.1923086E4,1.3232305E4,0E0,0E0,7.2912017E3,1.1944355E3,6.540827E3,1.891446E4,3.17308E3,2.9311346E4,0E0,1.0096085E3,0E0,5.051586E3,0E0,4.2264155E3,5.5767725E3,9.984078E3,2.9983604E3,0E0,1.8665525E4,6.11388E3,0E0,0E0,0E0,0E0,0E0,0E0,0E0,0E0,0E0,0E0,0E0,0E0,0E0,0E0,0E0,0E0],"parents":[2147483647,0,0,1,1,2,2,3,3,4,4,5,5,8,8,9,9,10,10,13,13,14,14,15,15,16,16,17,17,18,18,20,20,22,22,24,24,25,25,26,26,27,27,29,29,30,30],"right_children":[2,4,6,8,10,12,-1,-1,14,16,18,-1,-1,20,22,24,26,28,30,-1,32,-1,34,-1,36,38,40,42,-1,44,46,-1,-1,-1,-1,-1,-1,-1,-1,-1,-1,-1,-1,-1,-1,-1,-1],"split_conditions":[2.9871962E1,2.4100899E1,2.8255167E1,1.1089033E1,5.727037E1,5.744831E1,-1.2965034E0,-1.2206553E0,1.0293333E1,4.9867256E1,6.469764E1,-1.311837E0,1.4879856E-1,2.3688366E1,2.7761799E1,3.6084072E1,8.5485565E1,3.038297E1,2.4563334E1,-1.6839417E0,4.1193333E1,8.6040753E-1,3.1687626E1,-1.0749491E0,2.7604166E1,5.8861E1,4.2593334E1,2.4664165E1,-8.024327E-1,4.374867E1,2.3066141E1,-2.5984642E-1,5.717467E-1,-6.2186867E-1,4.3239808E-1,5.615866E-1,-6.6575676E-1,4.261445E-1,-1.2247709E0,1.5161175E-1,-1.8076099E0,1.3975897E0,3.3764803E-1,-1.4929345E0,-3.046356E-1,-1.2935938E0,3.292598E-1],"split_indices":[30,30,8,21,4,26,0,0,11,6,6,0,0,21,5,4,14,28,0,0,19,0,4,0,30,5,17,20,0,19,20,0,0,0,0,0,0,0,0,0,0,0,0,0,0,0,0],"split_type":[0,0,0,0,0,0,0,0,0,0,0,0,0,0,0,0,0,0,0,0,0,0,0,0,0,0,0,0,0,0,0,0,0,0,0,0,0,0,0,0,0,0,0,0,0,0,0],"sum_hessian":[1.205E3,1.16E3,4.5E1,3.23E2,8.37E2,1.9E1,2.6E1,6E0,3.17E2,1.79E2,6.58E2,1E1,9E0,2E1,2.97E2,7.9E1,1E2,2.44E2,4.14E2,6E0,1.4E1,1.4E1,2.83E2,7E0,7.2E1,2.4E1,7.6E1,2.39E2,5E0,2E2,2.14E2,5E0,9E0,1.1E1,2.72E2,6.5E1,7E0,1.8E1,6E0,7E0,6.9E1,6E0,2.33E2,4.1E1,1.59E2,5E0,2.09E2],"tree_param":{"num_deleted":"0","num_feature":"36","num_nodes":"47","size_leaf_vector":"1"}},{"base_weights":[-2.7881476E-1,1.454349E0,-1.2554151E1,2.737177E0,-8.098538E0,-2.3159647E0,-2.2478743E1,4.9961905E0,-3.9424427E0,-2.8380238E1,3.444965E0,1.2235675E0,-1.1032302E0,6.973361E-2,-2.425612E1,5.6567564E0,-9.347165E0,1.4633658E0,-1.5676741E1,4.4098067E0,-4.227638E1,7.9728866E0,-1.6097164E1,-1.1282978E0,4.177194E0,-1.6058091E0,-1.979661E1,6.395377E0,-5.359921E0,5.380691E0,-2.9028261E1,-1.7265513E0,3.8862073E0,3.7442753E0,-2.3220291E1,-3.9613894E-1,6.076332E-1,-2.658301E1,-3.097656E0,-1.5968536E0,9.776484E0,-7.728702E-2,-1.8825005E0,6.7929077E0,-5.9714985E0,-4.377442E-1,-2.1231497E1,3.3645302E-1,-7.04414E-1,2.3889013E-2,-1.475633E0,-5.5203766E-1,7.259905E-1,2.793164E-1,-3.5179837E0,-3.1704286E-1,4.2084375E-1,-6.301134E-1,7.3903924E-1,-7.343128E-1,-1.7092755E0,-1.5568563E0,-9.026045E-1,-7.4623036E-1,5.9901875E-1,7.2727233E-1,3.9535838E-1,-8.524232E-2,4.33952E-1,4.1132346E-1,-8.6511993E-1,-5.8822936E-1,-1.1440048E0],"categories":[],"categories_nodes":[],"categories_segments":[],"categories_sizes":[],"default_left":[0,0,0,0,0,0,0,0,0,0,0,0,0,0,0,0,0,0,0,0,0,0,0,0,0,0,0,0,0,0,0,0,0,0,0,0,0,0,0,0,0,0,0,0,0,0,0,0,0,0,0,0,0,0,0,0,0,0,0,0,0,0,0,0,0,0,0,0,0,0,0,0,0],"id":26,"left_children":[1,3,5,7,9,11,13,15,17,19,21,23,-1,-1,25,27,29,31,33,35,37,39,41,-1,43,-1,45,47,49,51,53,-1,55,57,59,-1,-1,61,-1,63,65,-1,-1,67,69,-1,71,-1,-1,-1,-1,-1,-1,-1,-1,-1,-1,-1,-1,-1,-1,-1,-1,-1,-1,-1,-1,-1,-1,-1,-1,-1,-1],"loss_changes":[2.4762389E4,1.2521437E4,1.4577277E4,1.3600217E4,2.8429008E4,5.061949E3,3.1336562E3,6.429E3,1.4487169E4,2.0239043E4,7.0293765E3,4.4488765E3,0E0,0E0,1.7425547E3,5.274705E3,8.854367E3,1.38228955E4,1.0637137E4,1.4335581E3,7.916875E3,1.1210669E3,4.642253E3,0E0,1.5272262E3,0E0,5.3992773E2,4.2224316E3,5.797859E3,2.8620527E3,1.8998234E4,0E0,6.9112217E3,3.9750737E3,4.35909E3,0E0,0E0,1.7115625E2,0E0,2.1695906E3,3.6413525E2,0E0,0E0,7.367488E2,2.0737544E3,0E0,3.5164844E2,0E0,0E0,0E0,0E0,0E0,0E0,0E0,0E0,0E0,0E0,0E0,0E0,0E0,0E0,0E0,0E0,0E0,0E0,0E0,0E0,0E0,0E0,0E0,0E0,0E0,0E0],"parents":[2147483647,0,0,1,1,2,2,3,3,4,4,5,5,6,6,7,7,8,8,9,9,10,10,11,11,14,14,15,15,16,16,17,17,18,18,19,19,20,20,21,21,22,22,24,24,26,26,27,27,28,28,29,29,30,30,32,32,33,33,34,34,37,37,39,39,40,40,43,43,44,44,46,46],"right_children":[2,4,6,8,10,12,14,16,18,20,22,24,-1,-1,26,28,30,32,34,36,38,40,42,-1,44,-1,46,48,50,52,54,-1,56,58,60,-1,-1,62,-1,64,66,-1,-1,68,70,-1,72,-1,-1,-1,-1,-1,-1,-1,-1,-1,-1,-1,-1,-1,-1,-1,-1,-1,-1,-1,-1,-1,-1,-1,-1,-1,-1],"split_conditions":[3.06569E1,4.5458168E1,5.9421093E1,2.9663334E1,4.5069E1,5.7909996E1,8.495188E1,4.5583332E1,8.7025375E1,4.8945503E1,7.1640854E1,-7.818315E-1,-1.1032302E0,6.973361E-2,5.680818E1,5.691797E1,2.761879E1,4.7106277E1,6.1132004E1,4.46145E1,8.718285E1,1.9666667E-1,9.055993E1,-1.1282978E0,1.5655E1,-1.6058091E0,6.2341663E1,5.7909996E1,7.595502E1,4.4056667E1,6.675E0,-1.7265513E0,4.24845E1,2.3007812E1,2.4003166E1,-3.9613894E-1,6.076332E-1,2.4829E1,-3.097656E0,4.8050808E1,4.457402E1,-7.728702E-2,-1.8825005E0,5.3078716E1,2.0897833E1,-4.377442E-1,2.8266834E1,3.3645302E-1,-7.04414E-1,2.3889013E-2,-1.475633E0,-5.5203766E-1,7.259905E-1,2.793164E-1,-3.5179837E0,-3.1704286E-1,4.2084375E-1,-6.301134E-1,7.3903924E-1,-7.343128E-1,-1.7092755E0,-1.5568563E0,-9.026045E-1,-7.4623036E-1,5.9901875E-1,7.2727233E-1,3.9535838E-1,-8.524232E-2,4.33952E-1,4.1132346E-1,-8.6511993E-1,-5.8822936E-1,-1.1440048E0],"split_indices":[22,17,7,3,19,25,12,18,14,27,5,34,0,0,26,24,23,24,7,18,15,1,12,0,1,0,7,27,5,19,3,0,19,30,8,0,0,9,0,4,4,0,0,27,8,0,9,0,0,0,0,0,0,0,0,0,0,0,0,0,0,0,0,0,0,0,0,0,0,0,0,0,0],"split_type":[0,0,0,0,0,0,0,0,0,0,0,0,0,0,0,0,0,0,0,0,0,0,0,0,0,0,0,0,0,0,0,0,0,0,0,0,0,0,0,0,0,0,0,0,0,0,0,0,0,0,0,0,0,0,0,0,0,0,0,0,0,0,0,0,0,0,0,0,0,0,0,0,0],"sum_hessian":[1.162E3,1.019E3,1.43E2,8.99E2,1.2E2,7.1E1,7.2E1,6.72E2,2.27E2,4.3E1,7.7E1,6.1E1,1E1,5E0,6.7E1,6.43E2,2.9E1,1.56E2,7.1E1,1.3E1,3E1,6.3E1,1.4E1,6E0,5.5E1,2.2E1,4.5E1,6.03E2,4E1,1.7E1,1.2E1,9E0,1.47E2,2E1,5.1E1,5E0,8E0,1.8E1,1.2E1,1E1,5.3E1,9E0,5E0,4.4E1,1.1E1,6E0,3.9E1,5.94E2,9E0,3.3E1,7E0,6E0,1.1E1,7E0,5E0,4.5E1,1.02E2,8E0,1.2E1,3E1,2.1E1,1E1,8E0,5E0,5E0,1.3E1,4E1,8E0,3.6E1,5E0,6E0,7E0,3.2E1],"tree_param":{"num_deleted":"0","num_feature":"36","num_nodes":"73","size_leaf_vector":"1"}},{"base_weights":[7.437661E-2,1.6570684E0,-1.1613014E1,-5.7828E0,3.8524742E0,2.3936405E0,-1.6175297E1,1.9222466E0,-1.5781929E1,-8.738175E0,4.5815244E0,7.033438E0,-7.463742E0,-1.991781E1,-1.473927E0,-7.357875E0,7.011052E0,7.501909E-1,-2.2101425E1,7.239694E0,-3.6732585E0,-1.5512949E1,5.0003223E0,7.707007E0,1.7996514E-1,5.3187287E-1,-1.0963546E0,-9.548693E0,-2.2332685E1,6.024254E0,-9.743759E-1,2.6912594E0,-1.6340042E0,9.127968E0,-1.2632674E0,-1.3056099E1,8.311141E0,-7.203424E0,-2.7291721E1,1.2536186E1,-8.618078E-1,5.35889E-1,-2.5391786E0,5.2284837E0,-7.266122E-1,2.1710733E-1,4.4158968E-1,-2.014172E1,3.0989033E-1,-2.416086E1,-1.531351E1,-5.809847E-1,7.17627E-1,3.3257243E-1,-5.994167E-1,6.016952E-1,2.6035878E-1,4.0595227E-1,-1.1480726E0,-1.2918314E0,9.4188996E-2,1.439796E-1,6.2421316E-1,-8.229583E-1,9.331228E-1,-6.2964696E-1,-1.4738542E0,3.5133824E-1,1.0952715E0,3.2494137E-1,7.543975E-2,-9.7355954E-2,-1.748135E0,-8.0337507E-1,-1.2724438E0,-4.208756E-1,-1.0248449E0],"categories":[],"categories_nodes":[],"categories_segments":[],"categories_sizes":[],"default_left":[0,0,0,0,0,0,0,0,0,0,0,0,0,0,0,0,0,0,0,0,0,0,0,0,0,0,0,0,0,0,0,0,0,0,0,0,0,0,0,0,0,0,0,0,0,0,0,0,0,0,0,0,0,0,0,0,0,0,0,0,0,0,0,0,0,0,0,0,0,0,0,0,0,0,0,0,0],"id":27,"left_children":[1,3,5,7,9,11,13,15,17,19,21,23,25,27,29,31,33,35,37,39,-1,41,43,45,-1,-1,-1,47,49,51,-1,53,-1,55,57,59,61,63,65,67,-1,-1,-1,69,-1,-1,-1,71,-1,73,75,-1,-1,-1,-1,-1,-1,-1,-1,-1,-1,-1,-1,-1,-1,-1,-1,-1,-1,-1,-1,-1,-1,-1,-1,-1,-1],"loss_changes":[2.2178295E4,1.7270293E4,9.178127E3,1.8599268E4,7.5298594E3,1.6989581E3,5.91067E3,6.5213403E3,1.0988557E4,4.707747E4,6.5733027E3,2.8957642E1,3.3760254E3,1.9370156E3,3.225335E3,1.2559799E4,1.5712456E3,3.2396965E3,5.67666E3,5.0121436E3,0E0,1.5351078E4,3.4486797E3,3.6028564E1,0E0,0E0,0E0,3.128684E3,5.114922E2,2.6650906E3,0E0,2.1720288E3,0E0,7.4455615E2,4.0559133E3,2.1514006E3,4.1584436E2,5.3345137E3,1.4234258E3,1.443375E3,0E0,0E0,0E0,3.528629E3,0E0,0E0,0E0,2.8945122E3,0E0,1.3943945E2,4.3223438E2,0E0,0E0,0E0,0E0,0E0,0E0,0E0,0E0,0E0,0E0,0E0,0E0,0E0,0E0,0E0,0E0,0E0,0E0,0E0,0E0,0E0,0E0,0E0,0E0,0E0,0E0],"parents":[2147483647,0,0,1,1,2,2,3,3,4,4,5,5,6,6,7,7,8,8,9,9,10,10,11,11,12,12,13,13,14,14,15,15,16,16,17,17,18,18,19,19,21,21,22,22,23,23,27,27,28,28,29,29,31,31,33,33,34,34,35,35,36,36,37,37,38,38,39,39,43,43,47,47,49,49,50,50],"right_children":[2,4,6,8,10,12,14,16,18,20,22,24,26,28,30,32,34,36,38,40,-1,42,44,46,-1,-1,-1,48,50,52,-1,54,-1,56,58,60,62,64,66,68,-1,-1,-1,70,-1,-1,-1,72,-1,74,76,-1,-1,-1,-1,-1,-1,-1,-1,-1,-1,-1,-1,-1,-1,-1,-1,-1,-1,-1,-1,-1,-1,-1,-1,-1,-1],"split_conditions":[3.06569E1,-7.0710677E-1,5.0726402E1,2.4432146E1,1.9666667E-1,7.5409294E1,8.63671E1,4.6489677E1,-1.8369701E-16,1.9666667E-1,2.219811E1,4.5726665E1,5.4694443E1,2.4487833E1,2.9871962E1,5.219764E1,7.818315E-1,2.5964102E1,4.9923065E1,2.9425001E1,-3.6732585E0,-4.3388373E-1,8.9332596E1,8.9365555E1,1.7996514E-1,5.3187287E-1,-1.0963546E0,2.2271334E1,7.062481E1,2.9441551E1,-9.743759E-1,4.5181667E1,-1.6340042E0,6.234898E-1,8.445319E1,2.9023333E1,2.1563168E1,4.9529793E1,1.9666667E-1,6.600664E1,-8.618078E-1,5.35889E-1,-2.5391786E0,4.456867E1,-7.266122E-1,2.1710733E-1,4.4158968E-1,7.7806046E1,3.0989033E-1,7.0184364E1,4.4618E1,-5.809847E-1,7.17627E-1,3.3257243E-1,-5.994167E-1,6.016952E-1,2.6035878E-1,4.0595227E-1,-1.1480726E0,-1.2918314E0,9.4188996E-2,1.439796E-1,6.2421316E-1,-8.229583E-1,9.331228E-1,-6.2964696E-1,-1.4738542E0,3.5133824E-1,1.0952715E0,3.2494137E-1,7.543975E-2,-9.7355954E-2,-1.748135E0,-8.0337507E-1,-1.2724438E0,-4.208756E-1,-1.0248449E0],"split_indices":[22,32,7,30,0,5,4,4,33,3,20,19,24,8,30,6,34,20,27,8,0,34,6,15,0,0,0,8,7,30,0,17,0,35,15,0,8,27,1,4,0,0,0,17,0,0,0,5,0,6,19,0,0,0,0,0,0,0,0,0,0,0,0,0,0,0,0,0,0,0,0,0,0,0,0,0,0],"split_type":[0,0,0,0,0,0,0,0,0,0,0,0,0,0,0,0,0,0,0,0,0,0,0,0,0,0,0,0,0,0,0,0,0,0,0,0,0,0,0,0,0,0,0,0,0,0,0,0,0,0,0,0,0,0,0,0,0,0,0,0,0,0,0,0,0,0,0,0,0,0,0,0,0,0,0,0,0],"sum_hessian":[1.197E3,1.055E3,1.42E2,2.4E2,8.15E2,3.5E1,1.07E2,1.36E2,1.04E2,4.4E1,7.71E2,2.4E1,1.1E1,8.5E1,2.2E1,4.8E1,8.8E1,2.9E1,7.5E1,3.6E1,8E0,1.5E1,7.56E2,1.9E1,5E0,5E0,6E0,1.7E1,6.8E1,1.6E1,6E0,3.5E1,1.3E1,7E1,1.8E1,1E1,1.9E1,2E1,5.5E1,3E1,6E0,9E0,6E0,7.48E2,8E0,6E0,1.3E1,1E1,7E0,5.2E1,1.6E1,5E0,1.1E1,2.8E1,7E0,3.9E1,3.1E1,1.3E1,5E0,5E0,5E0,9E0,1E1,1.5E1,5E0,8E0,4.7E1,2E1,1E1,5.57E2,1.91E2,5E0,5E0,9E0,4.3E1,8E0,8E0],"tree_param":{"num_deleted":"0","num_feature":"36","num_nodes":"77","size_leaf_vector":"1"}},{"base_weights":[3.842906E-1,1.642413E0,-1.2034976E1,-1.3012353E1,2.3532672E0,-3.2349164E0,-1.8368326E1,8.274666E0,-2.5642708E1,7.841142E-1,7.2364497E0,4.897638E0,-1.5054738E1,-2.0531284E1,7.7254854E-2,-3.5755973E-2,1.1543526E1,-1.6662396E0,-1.5752058E-1,5.961136E0,-2.2740111E0,8.34999E0,-2.4602952E0,-5.616967E-1,1.3135431E1,4.398531E-2,-1.2215737E0,-2.4618988E1,-1.19374695E1,3.800953E-1,6.768502E-1,-1.1766218E0,6.5743985E0,2.0008576E0,-9.760929E0,8.776968E0,-5.514081E-1,-1.4719363E0,7.1001706E0,3.9947733E-1,7.1977115E-1,-1.0631757E0,-1.797383E0,1.3962446E-1,-1.7040289E1,3.9142987E-1,-2.7088496E-1,2.8033218E-1,-3.5176045E-1,-1.0501897E0,-1.6241957E-1,7.339539E-1,3.9679742E-1,-4.2156306E-1,3.70184E-1,2.0120387E-1,4.2196462E-1,-4.3283162E-1,-1.0178226E0],"categories":[],"categories_nodes":[],"categories_segments":[],"categories_sizes":[],"default_left":[0,0,0,0,0,0,0,0,0,0,0,0,0,0,0,0,0,0,0,0,0,0,0,0,0,0,0,0,0,0,0,0,0,0,0,0,0,0,0,0,0,0,0,0,0,0,0,0,0,0,0,0,0,0,0,0,0,0,0],"id":28,"left_children":[1,3,5,7,9,11,13,15,17,19,21,23,25,27,-1,-1,29,-1,-1,31,33,35,37,-1,39,-1,-1,41,43,-1,-1,-1,45,47,49,51,53,-1,55,-1,-1,-1,-1,-1,57,-1,-1,-1,-1,-1,-1,-1,-1,-1,-1,-1,-1,-1,-1],"loss_changes":[1.8174926E4,1.1030332E4,5.9019424E3,1.3388188E4,7.7172856E3,4.4965137E3,2.70408E3,5.676786E2,5.247787E3,1.2109557E4,2.6665723E3,3.8686328E3,2.8626953E3,1.6696777E3,0E0,0E0,4.984375E0,0E0,0E0,5.2898096E3,1.5414995E4,8.418164E2,6.917339E3,0E0,5.9401855E0,0E0,0E0,6.363887E2,1.5522961E3,0E0,0E0,0E0,4.2389463E3,1.0042013E4,1.2742773E4,9.236416E2,7.520593E2,0E0,4.717859E1,0E0,0E0,0E0,0E0,0E0,2.3790381E2,0E0,0E0,0E0,0E0,0E0,0E0,0E0,0E0,0E0,0E0,0E0,0E0,0E0,0E0],"parents":[2147483647,0,0,1,1,2,2,3,3,4,4,5,5,6,6,7,7,8,8,9,9,10,10,11,11,12,12,13,13,16,16,19,19,20,20,21,21,22,22,24,24,27,27,28,28,32,32,33,33,34,34,35,35,36,36,38,38,44,44],"right_children":[2,4,6,8,10,12,14,16,18,20,22,24,26,28,-1,-1,30,-1,-1,32,34,36,38,-1,40,-1,-1,42,44,-1,-1,-1,46,48,50,52,54,-1,56,-1,-1,-1,-1,-1,58,-1,-1,-1,-1,-1,-1,-1,-1,-1,-1,-1,-1,-1,-1],"split_conditions":[2.9253471E1,-9.659258E-1,5.9716076E1,2.3658016E1,2.8721666E1,4.49875E1,1.6283333E1,8.608049E1,2.4861666E1,5.5771286E1,8.397124E1,4.3725666E1,7.7806046E1,5.744831E1,7.7254854E-2,-3.5755973E-2,2.2752008E1,-1.6662396E0,-1.5752058E-1,2.24005E1,4.3388373E-1,3.0849333E1,7.746033E1,-5.616967E-1,4.4424168E1,4.398531E-2,-1.2215737E0,8.7416084E1,5.7698597E1,3.800953E-1,6.768502E-1,-1.1766218E0,3.06275E1,8.87664E1,4.3300835E1,2.3762377E1,3.240333E1,-1.4719363E0,4.3388373E-1,3.9947733E-1,7.1977115E-1,-1.0631757E0,-1.797383E0,1.3962446E-1,1.0123333E1,3.9142987E-1,-2.7088496E-1,2.8033218E-1,-3.5176045E-1,-1.0501897E0,-1.6241957E-1,7.339539E-1,3.9679742E-1,-4.2156306E-1,3.70184E-1,2.0120387E-1,4.2196462E-1,-4.3283162E-1,-1.0178226E0],"split_indices":[30,32,7,23,0,19,1,12,0,7,6,19,5,26,0,0,23,0,0,21,34,11,4,0,17,0,0,5,26,0,0,0,9,14,19,21,0,0,34,0,0,0,0,0,1,0,0,0,0,0,0,0,0,0,0,0,0,0,0],"split_type":[0,0,0,0,0,0,0,0,0,0,0,0,0,0,0,0,0,0,0,0,0,0,0,0,0,0,0,0,0,0,0,0,0,0,0,0,0,0,0,0,0,0,0,0,0,0,0,0,0,0,0,0,0,0,0,0,0,0,0],"sum_hessian":[1.161E3,1.055E3,1.06E2,4.8E1,1.007E3,4.5E1,6.1E1,1.8E1,3E1,7.63E2,2.44E2,2.7E1,1.8E1,5.5E1,6E0,5E0,1.3E1,2.2E1,8E0,2.83E2,4.8E2,2.19E2,2.5E1,9E0,1.8E1,7E0,1.1E1,3.6E1,1.9E1,6E0,7E0,5E0,2.78E2,3.06E2,1.74E2,2.09E2,1E1,6E0,1.9E1,5E0,1.3E1,3E1,6E0,5E0,1.4E1,2.52E2,2.6E1,2.19E2,8.7E1,6.3E1,1.11E2,2.4E1,1.85E2,5E0,5E0,7E0,1.2E1,5E0,9E0],"tree_param":{"num_deleted":"0","num_feature":"36","num_nodes":"59","size_leaf_vector":"1"}},{"base_weights":[-5.904381E-1,3.0932605E-1,-1.4612247E1,5.830667E0,-1.5402428E0,8.9930105E0,-2.0059858E1,-1.6658669E0,6.670071E0,5.4688144E0,-4.9110184E0,6.258928E-1,2.3860727E-1,-1.1165557E1,-2.7985687E1,7.571851E0,-4.5070868E0,-1.0691046E0,6.4770145E0,3.8979667E-1,-1.2888092E1,1.8694463E0,-2.1879587E1,-1.902357E0,-1.1296508E0,-3.9869466E-1,7.9178295E0,-1.5596763E0,5.7757707E0,7.04227E0,-3.9915853E0,4.064523E0,-1.5713606E1,-3.5122646E1,-9.917809E0,-7.1096605E-1,6.1993426E-1,-1.2520139E0,-6.2108606E-1,7.7277094E-1,3.612256E-1,-6.3888475E-2,4.5535883E-1,3.8441882E-1,4.8373304E-2,4.054841E-1,-1.0747446E0,4.6282053E-1,-2.1111444E-2,-2.7895086E0,-5.647553E-1,-9.484111E-1,-4.2896347E0,-8.439128E-1,-1.13648586E-1],"categories":[],"categories_nodes":[],"categories_segments":[],"categories_sizes":[],"default_left":[0,0,0,0,0,0,0,0,0,0,0,0,0,0,0,0,0,0,0,0,0,0,0,0,0,0,0,0,0,0,0,0,0,0,0,0,0,0,0,0,0,0,0,0,0,0,0,0,0,0,0,0,0,0,0],"id":29,"left_children":[1,3,5,7,9,11,13,-1,15,17,19,-1,-1,21,23,25,27,-1,29,31,33,35,37,-1,-1,-1,39,-1,41,43,45,47,49,51,53,-1,-1,-1,-1,-1,-1,-1,-1,-1,-1,-1,-1,-1,-1,-1,-1,-1,-1,-1,-1],"loss_changes":[1.4855361E4,1.1314204E4,9.311556E3,9.354922E3,1.9636348E4,1.4682458E2,3.7723008E3,0E0,2.7860918E3,