{"learner":{"attributes":{"best_iteration":"170","best_score":"191.33833190591577","scikit_learn":"{\"_estimator_type\": \"regressor\"}"},"feature_names":["aux_CP014_TM8_28_MED_t0","aux_CP014_TM8_28_MED_t1","aux_CP014_TM8_28_MED_t3","aux_CP014_TM8_28_MED_t6","aux_GPRS046_M029_CALC_t0","aux_GPRS046_M029_CALC_t1","aux_GPRS046_M029_CALC_t3","aux_GPRS046_M029_CALC_t6","hora_sin","hora_cos","dia_sem_sin","dia_sem_cos"],"feature_types":["float","float","float","float","float","float","float","float","float","float","float","float"],"gradient_booster":{"model":{"gbtree_model_param":{"num_parallel_tree":"1","num_trees":"201"},"iteration_indptr":[0,1,2,3,4,5,6,7,8,9,10,11,12,13,14,15,16,17,18,19,20,21,22,23,24,25,26,27,28,29,30,31,32,33,34,35,36,37,38,39,40,41,42,43,44,45,46,47,48,49,50,51,52,53,54,55,56,57,58,59,60,61,62,63,64,65,66,67,68,69,70,71,72,73,74,75,76,77,78,79,80,81,82,83,84,85,86,87,88,89,90,91,92,93,94,95,96,97,98,99,100,101,102,103,104,105,106,107,108,109,110,111,112,113,114,115,116,117,118,119,120,121,122,123,124,125,126,127,128,129,130,131,132,133,134,135,136,137,138,139,140,141,142,143,144,145,146,147,148,149,150,151,152,153,154,155,156,157,158,159,160,161,162,163,164,165,166,167,168,169,170,171,172,173,174,175,176,177,178,179,180,181,182,183,184,185,186,187,188,189,190,191,192,193,194,195,196,197,198,199,200,201],"tree_info":[0,0,0,0,0,0,0,0,0,0,0,0,0,0,0,0,0,0,0,0,0,0,0,0,0,0,0,0,0,0,0,0,0,0,0,0,0,0,0,0,0,0,0,0,0,0,0,0,0,0,0,0,0,0,0,0,0,0,0,0,0,0,0,0,0,0,0,0,0,0,0,0,0,0,0,0,0,0,0,0,0,0,0,0,0,0,0,0,0,0,0,0,0,0,0,0,0,0,0,0,0,0,0,0,0,0,0,0,0,0,0,0,0,0,0,0,0,0,0,0,0,0,0,0,0,0,0,0,0,0,0,0,0,0,0,0,0,0,0,0,0,0,0,0,0,0,0,0,0,0,0,0,0,0,0,0,0,0,0,0,0,0,0,0,0,0,0,0,0,0,0,0,0,0,0,0,0,0,0,0,0,0,0,0,0,0,0,0,0,0,0,0,0,0,0,0,0,0,0,0,0],"trees":[{"base_weights":[-2.1504128E0,-1.2471783E2,3.3171932E1,-3.025262E2,-9.66364E1,5.4392796E0,9.5481316E1,-3.3394278E2,-2.9315448E0,1.5561197E2,-1.1393664E2,9.939337E1,-5.7226224E0,2.0769887E2,7.878594E1,-1.2349141E2,-3.8143872E2,-2.8550193E-1,1.857016E2,-6.2226486E1,-1.8110675E2,1.4855536E2,4.2225864E-2,-5.284914E1,1.9414635E1,-1.383679E0,2.2420073E2,-2.4370563E2,8.545656E1,-9.7661E0,-1.1871703E0,-4.360847E0,-4.296612E2,1.2433603E2,1.2110781E1,-1.793185E2,-4.9665028E1,-3.1271298E2,-1.4520317E2,1.9874026E2,8.6145226E1,1.4872147E2,-6.9922775E1,-4.0355095E1,-1.7209296E2,6.363598E0,6.3168037E1,1.2441378E1,1.464933E2,-4.9406505E0,-1.73982E1,-8.2434746E1,9.554084E1,-2.41241E1,-1.1769272E1,8.584712E0,1.2333158E0,-1.3543736E1,-4.401306E0,-3.1815379E0,4.2205197E-1,-2.422734E1,-8.824006E0,-4.82512E0,-1.0287135E1,4.7712994E0,1.10272665E1,6.611872E0,-2.58099E0,9.541927E0,2.3351622E0,-6.48109E0,1.2306548E0,-9.936805E0,-1.6484396E0,-1.1168449E1,-3.0451987E0,-2.4327694E-1,2.9861085E0,-3.988189E0,3.46533E0,8.992005E0,5.1425686E0,-5.3105416E0,1.5177367E0,-2.623614E0,5.146366E0],"categories":[],"categories_nodes":[],"categories_segments":[],"categories_sizes":[],"default_left":[0,0,0,0,0,0,0,0,0,0,0,0,0,0,0,0,0,0,0,0,0,0,0,0,0,0,0,0,0,0,0,0,0,0,0,0,0,0,0,0,0,0,0,0,0,0,0,0,0,0,0,0,0,0,0,0,0,0,0,0,0,0,0,0,0,0,0,0,0,0,0,0,0,0,0,0,0,0,0,0,0,0,0,0,0,0,0],"id":0,"left_children":[1,3,5,7,9,11,13,15,-1,17,19,21,23,25,27,29,31,-1,33,35,37,39,41,43,45,-1,47,49,51,-1,-1,-1,53,55,-1,57,59,61,63,65,67,69,71,73,75,77,79,-1,81,-1,-1,83,85,-1,-1,-1,-1,-1,-1,-1,-1,-1,-1,-1,-1,-1,-1,-1,-1,-1,-1,-1,-1,-1,-1,-1,-1,-1,-1,-1,-1,-1,-1,-1,-1,-1,-1],"loss_changes":[1.0992083E7,2.806814E6,3.4053678E6,5.70383E5,2.164793E6,1.4320622E6,1.1208305E6,6.32545E5,0E0,1.5641019E5,1.589933E6,7.082021E5,1.4474644E6,3.0918275E5,1.160956E6,9.564989E4,7.4282E5,0E0,6.3483562E4,3.7643288E5,8.995745E5,2.866595E5,5.2012172E5,6.26215E5,4.5469975E5,0E0,1.0320775E5,1.3174088E5,8.8827025E5,0E0,0E0,0E0,3.68664E5,6.6548016E4,0E0,1.8507975E5,1.9367819E5,8.976165E5,4.4889825E5,9.83195E4,2.925794E5,5.9810844E4,1.9508662E5,4.449868E5,2.1442062E5,3.6878603E5,1.6609038E5,0E0,1.05813125E4,0E0,0E0,8.368236E4,5.42214E5,0E0,0E0,0E0,0E0,0E0,0E0,0E0,0E0,0E0,0E0,0E0,0E0,0E0,0E0,0E0,0E0,0E0,0E0,0E0,0E0,0E0,0E0,0E0,0E0,0E0,0E0,0E0,0E0,0E0,0E0,0E0,0E0,0E0,0E0],"parents":[2147483647,0,0,1,1,2,2,3,3,4,4,5,5,6,6,7,7,9,9,10,10,11,11,12,12,13,13,14,14,15,15,16,16,18,18,19,19,20,20,21,21,22,22,23,23,24,24,26,26,27,27,28,28,32,32,33,33,35,35,36,36,37,37,38,38,39,39,40,40,41,41,42,42,43,43,44,44,45,45,46,46,48,48,51,51,52,52],"right_children":[2,4,6,8,10,12,14,16,-1,18,20,22,24,26,28,30,32,-1,34,36,38,40,42,44,46,-1,48,50,52,-1,-1,-1,54,56,-1,58,60,62,64,66,68,70,72,74,76,78,80,-1,82,-1,-1,84,86,-1,-1,-1,-1,-1,-1,-1,-1,-1,-1,-1,-1,-1,-1,-1,-1,-1,-1,-1,-1,-1,-1,-1,-1,-1,-1,-1,-1,-1,-1,-1,-1,-1,-1],"split_conditions":[3.571784E2,2.7342596E2,4.4350235E2,4.3293408E2,2.5769608E1,2.0029411E1,3.8651962E1,4.7911766E1,-2.9315448E0,4.764706E0,2.5881904E-1,4.3111948E2,3.80021E2,-9.659258E-1,2.9634637E2,2.3975748E2,1.2246469E-16,-2.8550193E-1,3.9436804E2,2.1421942E2,-2.2252093E-1,1.0862745E1,0E0,8.882843E1,4.2916187E2,-1.383679E0,-2.5881904E-1,7.398529E1,-9.659258E-1,-9.7661E0,-1.1871703E0,-4.360847E0,1E0,3.2634512E2,1.2110781E1,6.234898E-1,4.459831E2,3.6109E2,7.0710677E-1,4.5539217E0,1E0,4.0718893E2,4.5997736E2,2.1421942E2,9.122549E1,4.5617444E2,2.8812537E2,1.2441378E1,4.0772653E2,-4.9406505E0,-1.73982E1,4.7831897E2,3.195075E2,-2.41241E1,-1.1769272E1,8.584712E0,1.2333158E0,-1.3543736E1,-4.401306E0,-3.1815379E0,4.2205197E-1,-2.422734E1,-8.824006E0,-4.82512E0,-1.0287135E1,4.7712994E0,1.10272665E1,6.611872E0,-2.58099E0,9.541927E0,2.3351622E0,-6.48109E0,1.2306548E0,-9.936805E0,-1.6484396E0,-1.1168449E1,-3.0451987E0,-2.4327694E-1,2.9861085E0,-3.988189E0,3.46533E0,8.992005E0,5.1425686E0,-5.3105416E0,1.5177367E0,-2.623614E0,5.146366E0],"split_indices":[2,0,2,3,6,6,5,5,0,6,9,3,0,8,0,0,8,0,0,2,11,5,10,6,2,0,9,5,8,0,0,0,8,2,0,11,0,0,8,5,11,0,3,0,5,0,3,0,0,0,0,2,3,0,0,0,0,0,0,0,0,0,0,0,0,0,0,0,0,0,0,0,0,0,0,0,0,0,0,0,0,0,0,0,0,0,0],"split_type":[0,0,0,0,0,0,0,0,0,0,0,0,0,0,0,0,0,0,0,0,0,0,0,0,0,0,0,0,0,0,0,0,0,0,0,0,0,0,0,0,0,0,0,0,0,0,0,0,0,0,0,0,0,0,0,0,0,0,0,0,0,0,0,0,0,0,0,0,0,0,0,0,0,0,0,0,0,0,0,0,0,0,0,0,0,0,0],"sum_hessian":[2.537E3,5.67E2,1.97E3,7.6E1,4.91E2,1.364E3,6.06E2,6.7E1,9E0,3.1E1,4.6E2,1.44E2,1.22E3,7.7E1,5.29E2,1.3E1,5.4E1,5E0,2.6E1,2.61E2,1.99E2,9.6E1,4.8E1,4.24E2,7.96E2,5E0,7.2E1,1E1,5.19E2,7E0,6E0,8E0,4.6E1,1.4E1,1.2E1,2.4E1,2.37E2,4.1E1,1.58E2,5.2E1,4.4E1,1.5E1,3.3E1,3.85E2,3.9E1,6.14E2,1.82E2,5.3E1,1.9E1,5E0,5E0,2.9E1,4.9E2,3.5E1,1.1E1,9E0,5E0,1.1E1,1.3E1,1.91E2,4.6E1,1.7E1,2.4E1,8.9E1,6.9E1,1E1,4.2E1,3.3E1,1.1E1,1E1,5E0,2E1,1.3E1,1.6E1,3.69E2,2.6E1,1.3E1,5.08E2,1.06E2,7E0,1.75E2,9E0,1E1,2.4E1,5E0,2.3E1,4.67E2],"tree_param":{"num_deleted":"0","num_feature":"12","num_nodes":"87","size_leaf_vector":"1"}},{"base_weights":[-2.1357663E-1,-9.051939E1,3.8760036E1,-2.2909546E2,-5.885835E1,1.6179514E1,1.03537796E2,2.5309162E1,-2.5081744E2,1.14651825E2,-7.595182E1,8.792893E1,2.0510557E0,1.414452E2,4.7953716E1,-2.9279966E0,5.947746E0,-3.0999557E2,-1.7660806E2,6.8041084E1,2.2691986E2,-2.1432362E1,-1.1977729E2,-9.6648735E1,9.931652E1,-2.214912E1,3.288839E1,2.3744281E2,1.1854783E2,8.454381E1,-5.326021E1,-3.5286148E2,-4.409407E1,-2.2871762E2,-6.893709E1,1.147984E2,-4.148992E1,1.2719968E1,6.935207E0,-4.128813E1,4.3123497E1,-7.4604706E1,-1.750641E2,2.44221E0,-1.141745E1,1.2583818E2,3.6969887E1,-2.0106006E0,-6.281258E1,-5.3358793E0,4.956355E1,5.767211E0,1.255786E1,-3.5034783E0,1.2599646E2,-9.0300934E1,1.0841089E2,-8.136803E1,6.55059E0,-6.2535706E0,-1.9753593E1,-4.765701E0,7.2291136E-1,-1.3462099E1,-6.1916523E0,-5.002901E0,1.276246E0,1.3919763E-1,9.684889E0,2.8179312E0,-6.671281E0,-1.4879675E0,-5.2926645E0,5.160621E0,9.721341E-3,-1.6816309E1,-3.243539E0,-1.2757644E1,-4.447729E0,9.452397E0,4.4714546E0,-6.279669E-2,6.1776156E0,-3.7195241E0,7.0516753E-1,-1.4373962E1,-2.606036E0,-1.728891E0,2.437497E0,1.5349034E0,4.8104963E0,7.0100145E0,1.5763714E0,-6.9455867E0,1.097708E0,-1.5368379E0,6.495401E0,-6.102296E0,1.8634251E0],"categories":[],"categories_nodes":[],"categories_segments":[],"categories_sizes":[],"default_left":[0,0,0,0,0,0,0,0,0,0,0,0,0,0,0,0,0,0,0,0,0,0,0,0,0,0,0,0,0,0,0,0,0,0,0,0,0,0,0,0,0,0,0,0,0,0,0,0,0,0,0,0,0,0,0,0,0,0,0,0,0,0,0,0,0,0,0,0,0,0,0,0,0,0,0,0,0,0,0,0,0,0,0,0,0,0,0,0,0,0,0,0,0,0,0,0,0,0,0],"id":1,"left_children":[1,3,5,7,9,11,13,15,17,19,21,23,25,27,29,-1,-1,31,33,35,37,39,41,43,45,47,49,51,53,55,57,59,61,63,65,67,69,-1,-1,71,73,75,77,-1,-1,79,81,83,85,87,89,-1,-1,-1,91,93,95,97,-1,-1,-1,-1,-1,-1,-1,-1,-1,-1,-1,-1,-1,-1,-1,-1,-1,-1,-1,-1,-1,-1,-1,-1,-1,-1,-1,-1,-1,-1,-1,-1,-1,-1,-1,-1,-1,-1,-1,-1,-1],"loss_changes":[8.872764E6,3.3209585E6,2.574155E6,7.855615E5,1.8475568E6,1.3247279E6,9.519055E5,1.0121984E5,5.161075E5,2.775728E5,1.3473962E6,4.6150638E5,8.1640144E5,5.65301E5,6.933434E5,0E0,0E0,7.93667E5,3.2084438E5,2.1474667E5,3.4604375E3,3.2607725E5,7.68616E5,2.602704E5,3.3099938E5,5.0185406E5,3.0685622E5,5.63935E4,3.17921E5,5.81497E5,2.6962938E5,5.37057E5,3.4375664E4,1.3663475E5,6.4296086E4,2.5573934E5,1.2447245E5,0E0,0E0,1.4124169E5,1.5474331E5,4.2142056E5,9.427655E5,0E0,0E0,3.09866E5,2.0536781E5,4.804151E5,4.7260975E5,2.3417564E5,2.9183594E5,0E0,0E0,0E0,2.80029E5,9.582716E4,3.6594725E5,2.1689578E5,0E0,0E0,0E0,0E0,0E0,0E0,0E0,0E0,0E0,0E0,0E0,0E0,0E0,0E0,0E0,0E0,0E0,0E0,0E0,0E0,0E0,0E0,0E0,0E0,0E0,0E0,0E0,0E0,0E0,0E0,0E0,0E0,0E0,0E0,0E0,0E0,0E0,0E0,0E0,0E0,0E0],"parents":[2147483647,0,0,1,1,2,2,3,3,4,4,5,5,6,6,7,7,8,8,9,9,10,10,11,11,12,12,13,13,14,14,17,17,18,18,19,19,20,20,21,21,22,22,23,23,24,24,25,25,26,26,27,27,28,28,29,29,30,30,31,31,32,32,33,33,34,34,35,35,36,36,39,39,40,40,41,41,42,42,45,45,46,46,47,47,48,48,49,49,50,50,54,54,55,55,56,56,57,57],"right_children":[2,4,6,8,10,12,14,16,18,20,22,24,26,28,30,-1,-1,32,34,36,38,40,42,44,46,48,50,52,54,56,58,60,62,64,66,68,70,-1,-1,72,74,76,78,-1,-1,80,82,84,86,88,90,-1,-1,-1,92,94,96,98,-1,-1,-1,-1,-1,-1,-1,-1,-1,-1,-1,-1,-1,-1,-1,-1,-1,-1,-1,-1,-1,-1,-1,-1,-1,-1,-1,-1,-1,-1,-1,-1,-1,-1,-1,-1,-1,-1,-1,-1,-1],"split_conditions":[3.7709424E2,3.0422345E2,4.5395856E2,2.6450981E1,4.417157E1,4.417157E1,-2.5881904E-1,3.917152E2,2.6881265E2,4.1389682E2,-1.8369701E-16,2.6881265E2,4.1327747E2,3.8651962E1,7.8132355E1,-2.9279966E0,5.947746E0,4.2210153E2,3.3360275E2,3.420936E2,2.6481092E1,3.5661264E2,7.0710677E-1,1.2246469E-16,4.3293408E2,2.5881904E-1,3.7105927E2,1.7647058E1,4.7911766E1,-9.659258E-1,9.659258E-1,1.2246469E-16,1.9494547E2,8.1039215E1,8.913725E1,2.6881265E2,4.0151132E2,1.2719968E1,6.935207E0,9.072059E1,3.6381015E2,5.1107845E1,9.659258E-1,2.44221E0,-1.141745E1,1.0862745E1,2.2559914E1,3.8707184E2,5.2911766E1,4.5617444E2,4.3683878E2,5.767211E0,1.255786E1,-3.5034783E0,8.677696E1,4.6486298E2,3.9350864E2,4.9327942E2,6.55059E0,-6.2535706E0,-1.9753593E1,-4.765701E0,7.2291136E-1,-1.3462099E1,-6.1916523E0,-5.002901E0,1.276246E0,1.3919763E-1,9.684889E0,2.8179312E0,-6.671281E0,-1.4879675E0,-5.2926645E0,5.160621E0,9.721341E-3,-1.6816309E1,-3.243539E0,-1.2757644E1,-4.447729E0,9.452397E0,4.4714546E0,-6.279669E-2,6.1776156E0,-3.7195241E0,7.0516753E-1,-1.4373962E1,-2.606036E0,-1.728891E0,2.437497E0,1.5349034E0,4.8104963E0,7.0100145E0,1.5763714E0,-6.9455867E0,1.097708E0,-1.5368379E0,6.495401E0,-6.102296E0,1.8634251E0],"split_indices":[2,0,2,5,4,7,9,3,0,0,9,0,0,5,5,0,0,3,2,2,4,2,8,8,3,8,3,7,4,8,9,8,0,7,4,2,3,0,0,4,2,4,8,0,0,5,7,3,5,0,2,0,0,0,4,0,3,3,0,0,0,0,0,0,0,0,0,0,0,0,0,0,0,0,0,0,0,0,0,0,0,0,0,0,0,0,0,0,0,0,0,0,0,0,0,0,0,0,0],"split_type":[0,0,0,0,0,0,0,0,0,0,0,0,0,0,0,0,0,0,0,0,0,0,0,0,0,0,0,0,0,0,0,0,0,0,0,0,0,0,0,0,0,0,0,0,0,0,0,0,0,0,0,0,0,0,0,0,0,0,0,0,0,0,0,0,0,0,0,0,0,0,0,0,0,0,0,0,0,0,0,0,0,0,0,0,0,0,0,0,0,0,0,0,0,0,0,0,0,0,0],"sum_hessian":[2.519E3,7.59E2,1.76E3,1.4E2,6.19E2,1.306E3,4.54E2,1.1E1,1.29E2,5.5E1,5.64E2,2.14E2,1.092E3,2.69E2,1.85E2,6E0,5E0,7E1,5.9E1,4E1,1.5E1,2.52E2,3.12E2,1.2E1,2.02E2,6.12E2,4.8E2,5E1,2.19E2,1.36E2,4.9E1,6E1,1E1,3.9E1,2E1,2.8E1,1.2E1,1E1,5E0,1.93E2,5.9E1,1.73E2,1.39E2,6E0,6E0,1.41E2,6.1E1,4.1E2,2.02E2,1.46E2,3.34E2,6E0,4.4E1,8E0,2.11E2,1.6E1,1.2E2,4.3E1,6E0,1E1,5E1,5E0,5E0,2.7E1,1.2E1,1.5E1,5E0,1.2E1,1.6E1,6E0,6E0,1.65E2,2.8E1,2.4E1,3.5E1,5E0,1.68E2,7.1E1,6.8E1,5E1,9.1E1,4.3E1,1.8E1,7.4E1,3.36E2,8E0,1.94E2,9.5E1,5.1E1,2.39E2,9.5E1,1.83E2,2.8E1,1.1E1,5E0,1.6E1,1.04E2,3.2E1,1.1E1],"tree_param":{"num_deleted":"0","num_feature":"12","num_nodes":"99","size_leaf_vector":"1"}},{"base_weights":[9.1031694E-1,-9.284683E1,4.583629E1,-2.1281155E2,-6.8787964E1,2.2646492E1,1.0817864E2,8.298711E1,-2.3694707E2,3.6880554E1,-8.574344E1,1.1177764E2,6.272863E0,1.9506453E2,8.947175E1,6.887277E0,7.1904075E-1,-2.068279E2,-4.310834E2,5.8740982E1,-7.739858E0,-1.2413583E2,-5.40773E1,1.4303088E2,2.6521305E1,-3.1595182E1,2.199202E1,3.8556554E0,2.06933E2,1.9437803E1,1.13569595E2,-2.3095232E2,-9.2435E1,-2.9887573E1,-1.356487E1,9.918663E1,-4.9872215E1,-4.587763E1,-1.5833658E2,-8.933265E1,-3.2341736E1,1.0903749E1,1.2732379E2,1.5527475E2,-4.999311E1,-5.177543E1,2.3074232E1,-3.2570087E1,3.0711655E1,3.379315E0,2.1618369E2,3.2251303E0,1.488369E2,8.1438446E1,1.4842888E2,-1.5755139E1,-8.998449E0,-7.4289984E-1,-1.0831394E1,7.924737E0,2.6612158E0,-7.5756707E0,4.4335507E-2,-8.641094E0,-9.7272396E-1,-2.0494484E1,-6.4294963E0,-5.227318E-1,-5.4673443E0,-4.007437E-1,-3.3921528E0,8.929263E0,4.8521204E0,1.0017685E1,8.340778E-1,-5.7224283E0,3.8852136E0,-3.1510727E0,1.6721182E0,-2.8993404E0,2.5508296E0,1.2173649E0,-3.607994E0,-2.7269235E0,1.8385113E0,1.1074264E1,6.2234855E0,-1.7972409E0,3.3824213E0,1.0136079E1,3.5064704E0,2.4108186E0,6.7397614E0,8.253655E0,-1.7961124E0],"categories":[],"categories_nodes":[],"categories_segments":[],"categories_sizes":[],"default_left":[0,0,0,0,0,0,0,0,0,0,0,0,0,0,0,0,0,0,0,0,0,0,0,0,0,0,0,0,0,0,0,0,0,0,0,0,0,0,0,0,0,0,0,0,0,0,0,0,0,0,0,0,0,0,0,0,0,0,0,0,0,0,0,0,0,0,0,0,0,0,0,0,0,0,0,0,0,0,0,0,0,0,0,0,0,0,0,0,0,0,0,0,0,0,0],"id":2,"left_children":[1,3,5,7,9,11,13,15,17,19,21,23,25,27,29,-1,-1,31,33,35,-1,37,39,41,43,45,47,-1,49,51,53,55,57,-1,-1,59,61,63,65,67,69,-1,71,73,75,77,79,81,83,-1,85,87,89,91,93,-1,-1,-1,-1,-1,-1,-1,-1,-1,-1,-1,-1,-1,-1,-1,-1,-1,-1,-1,-1,-1,-1,-1,-1,-1,-1,-1,-1,-1,-1,-1,-1,-1,-1,-1,-1,-1,-1,-1,-1],"loss_changes":[1.0623033E7,2.3433715E6,2.4624672E6,9.90617E5,1.2250792E6,1.8147811E6,7.33437E5,3.93284E4,6.47527E5,4.0714822E5,7.08124E5,5.104455E5,6.269008E5,9.74065E4,6.4246825E5,0E0,0E0,2.84942E5,2.6384425E5,3.8274366E5,0E0,7.01985E5,2.4537825E5,1.383995E5,5.299024E5,3.4209938E5,3.5496675E5,0E0,7.94615E4,2.071974E5,3.059885E5,3.336565E5,1.9908294E5,0E0,0E0,1.6327712E5,1.2397014E5,2.7166853E5,1.324086E6,1.9302294E5,1.739031E5,0E0,1.67362E5,1.2158878E5,2.8874378E5,2.1870031E5,1.9322067E5,2.3385647E5,3.335928E5,0E0,5.461E3,2.2702242E5,3.2408375E4,2.5937594E5,4.201745E5,0E0,0E0,0E0,0E0,0E0,0E0,0E0,0E0,0E0,0E0,0E0,0E0,0E0,0E0,0E0,0E0,0E0,0E0,0E0,0E0,0E0,0E0,0E0,0E0,0E0,0E0,0E0,0E0,0E0,0E0,0E0,0E0,0E0,0E0,0E0,0E0,0E0,0E0,0E0,0E0],"parents":[2147483647,0,0,1,1,2,2,3,3,4,4,5,5,6,6,7,7,8,8,9,9,10,10,11,11,12,12,13,13,14,14,17,17,18,18,19,19,21,21,22,22,23,23,24,24,25,25,26,26,28,28,29,29,30,30,31,31,32,32,35,35,36,36,37,37,38,38,39,39,40,40,42,42,43,43,44,44,45,45,46,46,47,47,48,48,50,50,51,51,52,52,53,53,54,54],"right_children":[2,4,6,8,10,12,14,16,18,20,22,24,26,28,30,-1,-1,32,34,36,-1,38,40,42,44,46,48,-1,50,52,54,56,58,-1,-1,60,62,64,66,68,70,-1,72,74,76,78,80,82,84,-1,86,88,90,92,94,-1,-1,-1,-1,-1,-1,-1,-1,-1,-1,-1,-1,-1,-1,-1,-1,-1,-1,-1,-1,-1,-1,-1,-1,-1,-1,-1,-1,-1,-1,-1,-1,-1,-1,-1,-1,-1,-1,-1,-1],"split_conditions":[3.8120233E2,2.7342596E2,4.5518826E2,1.2246469E-16,4.7911766E1,3.824683E1,5.7588234E1,2.4572833E2,9.2210785E1,4.2259085E2,3.571784E2,4.3293408E2,3.876914E2,-8.660254E-1,4.4033685E2,6.887277E0,7.1904075E-1,4.1662256E2,9.659258E-1,4.190488E2,-7.739858E0,-4.3388373E-1,3.471526E2,3.6497214E2,0E0,4.459831E2,3.80021E2,3.8556554E0,9.735294E0,5.0796548E2,4.45606E2,8.660254E-1,0E0,-2.9887573E1,-1.356487E1,2.1966095E1,1.9156862E1,3.0290353E2,0E0,3.6822052E2,3.7057584E2,1.0903749E1,9.063725E0,4.081437E2,4.7044977E2,4.41964E2,3.089984E2,7.26738E1,5.457843E1,3.379315E0,7.04902E1,8.217545E1,8.375525E1,8.870588E1,8.660254E-1,-1.5755139E1,-8.998449E0,-7.4289984E-1,-1.0831394E1,7.924737E0,2.6612158E0,-7.5756707E0,4.4335507E-2,-8.641094E0,-9.7272396E-1,-2.0494484E1,-6.4294963E0,-5.227318E-1,-5.4673443E0,-4.007437E-1,-3.3921528E0,8.929263E0,4.8521204E0,1.0017685E1,8.340778E-1,-5.7224283E0,3.8852136E0,-3.1510727E0,1.6721182E0,-2.8993404E0,2.5508296E0,1.2173649E0,-3.607994E0,-2.7269235E0,1.8385113E0,1.1074264E1,6.2234855E0,-1.7972409E0,3.3824213E0,1.0136079E1,3.5064704E0,2.4108186E0,6.7397614E0,8.253655E0,-1.7961124E0],"split_indices":[1,1,2,8,6,7,7,0,6,2,2,3,2,8,1,0,0,3,8,3,0,10,1,2,10,0,0,0,7,3,3,8,10,0,0,5,5,0,10,3,1,0,5,0,3,3,3,7,6,0,5,7,7,7,8,0,0,0,0,0,0,0,0,0,0,0,0,0,0,0,0,0,0,0,0,0,0,0,0,0,0,0,0,0,0,0,0,0,0,0,0,0,0,0,0],"split_type":[0,0,0,0,0,0,0,0,0,0,0,0,0,0,0,0,0,0,0,0,0,0,0,0,0,0,0,0,0,0,0,0,0,0,0,0,0,0,0,0,0,0,0,0,0,0,0,0,0,0,0,0,0,0,0,0,0,0,0,0,0,0,0,0,0,0,0,0,0,0,0,0,0,0,0,0,0,0,0,0,0,0,0,0,0,0,0,0,0,0,0,0,0,0,0],"sum_hessian":[2.52E3,8.16E2,1.704E3,1.35E2,6.81E2,1.243E3,4.61E2,1E1,1.25E2,9.4E1,5.87E2,1.92E2,1.051E3,8E1,3.81E2,5E0,5E0,1.1E2,1.5E1,8.5E1,9E0,2.64E2,3.23E2,1.4E2,5.2E1,3.08E2,7.43E2,8E0,7.2E1,9.8E1,2.83E2,9E1,2E1,6E0,9E0,6.2E1,2.3E1,8.1E1,1.83E2,1.22E2,2.01E2,2.2E1,1.18E2,1.9E1,3.3E1,2.25E2,8.3E1,1.02E2,6.41E2,5E0,6.7E1,8.8E1,1E1,1.49E2,1.34E2,3.2E1,5.8E1,1.3E1,7E0,2.6E1,3.6E1,7E0,1.6E1,1.3E1,6.8E1,1.8E1,1.65E2,2.5E1,9.7E1,1.2E2,8.1E1,4.2E1,7.6E1,1.4E1,5E0,2.2E1,1.1E1,1.99E2,2.6E1,2.1E1,6.2E1,4.2E1,6E1,4.2E1,5.99E2,6.2E1,5E0,5.5E1,3.3E1,5E0,5E0,9.3E1,5.6E1,1.23E2,1.1E1],"tree_param":{"num_deleted":"0","num_feature":"12","num_nodes":"95","size_leaf_vector":"1"}},{"base_weights":[6.8771636E-1,-1.02579506E2,3.4114643E1,-3.0394528E2,-8.723229E1,6.3344297E0,7.855435E1,-1.8695023E2,-4.3498682E2,4.5804276E1,-1.0783062E2,8.474905E1,-7.138379E0,5.107792E0,9.660023E1,-2.1195518E1,-2.7159513E1,-2.8415516E1,-2.9873694E2,6.952223E1,-8.668517E0,-1.5019519E2,-5.467853E1,1.3161945E2,7.2307982E0,-3.8702858E1,9.075788E0,1.3451198E2,-2.6206617E1,1.2099542E2,5.759275E1,-9.4000305E1,4.994593E0,-2.1647215E1,-4.6177764E0,8.5787674E1,-6.1839485E0,-6.737084E1,-1.9418051E2,-4.7363064E1,-1.1289446E1,1.6534395E2,1.02369934E2,8.636115E1,-8.744514E1,-1.52431345E1,-6.4946945E1,9.844953E0,6.523858E0,9.840667E0,-1.7659657E-1,-6.0036785E1,3.150892E1,2.0115228E2,1.0652347E2,4.4552834E1,1.6377713E2,-6.5730673E-1,-7.9585547E0,5.325973E0,-5.3558044E0,-6.1715217E0,-1.9376189E0,-3.85537E0,-1.1646309E1,2.8801234E0,-2.660985E0,1.1501718E1,6.1892743E0,-1.0702018E0,6.8170023E0,9.892004E0,1.8870777E0,-5.5433235E0,1.4302417E0,-3.151025E-3,-3.678122E0,-1.6064608E0,-8.602594E0,3.16689E0,-1.061085E-1,-4.3653946E0,-1.4464593E0,-7.2086067E0,3.111803E0,3.194137E0,1.0832751E1,4.265842E0,7.643295E0,4.170373E0,3.5482666E-1,1.1759444E1,-2.671862E0],"categories":[],"categories_nodes":[],"categories_segments":[],"categories_sizes":[],"default_left":[0,0,0,0,0,0,0,0,0,0,0,0,0,0,0,0,0,0,0,0,0,0,0,0,0,0,0,0,0,0,0,0,0,0,0,0,0,0,0,0,0,0,0,0,0,0,0,0,0,0,0,0,0,0,0,0,0,0,0,0,0,0,0,0,0,0,0,0,0,0,0,0,0,0,0,0,0,0,0,0,0,0,0,0,0,0,0,0,0,0,0,0,0],"id":3,"left_children":[1,3,5,7,9,11,13,15,17,19,21,23,25,27,29,-1,31,-1,33,35,-1,37,39,41,43,45,47,49,51,53,55,57,-1,-1,-1,59,-1,61,63,65,-1,67,69,71,73,75,77,-1,79,-1,-1,81,83,85,87,89,91,-1,-1,-1,-1,-1,-1,-1,-1,-1,-1,-1,-1,-1,-1,-1,-1,-1,-1,-1,-1,-1,-1,-1,-1,-1,-1,-1,-1,-1,-1,-1,-1,-1,-1,-1,-1],"loss_changes":[8.850728E6,1.91113E6,2.3908065E6,5.9319E5,1.6052985E6,1.2609756E6,9.869255E5,9.350425E5,1.93444E5,4.227142E5,1.1311605E6,6.348639E5,5.2187E5,6.032639E5,5.620675E5,0E0,1.452647E5,0E0,2.923375E5,2.3686662E5,0E0,1.01059E6,2.7217475E5,9.056725E4,5.0949838E5,2.1202694E5,3.2175125E5,2.5012388E5,2.3619772E5,4.042715E5,3.139177E5,5.585293E4,0E0,0E0,0E0,2.793589E5,0E0,1.5403019E5,8.121105E5,1.3707947E5,0E0,1.03223E5,2.5941131E5,1.9305188E5,8.743894E4,1.6288203E5,5.673871E5,0E0,3.2728966E5,0E0,0E0,6.1936344E4,2.5188245E5,1.031745E5,2.9454025E5,3.0211203E5,4.003775E5,0E0,0E0,0E0,0E0,0E0,0E0,0E0,0E0,0E0,0E0,0E0,0E0,0E0,0E0,0E0,0E0,0E0,0E0,0E0,0E0,0E0,0E0,0E0,0E0,0E0,0E0,0E0,0E0,0E0,0E0,0E0,0E0,0E0,0E0,0E0,0E0],"parents":[2147483647,0,0,1,1,2,2,3,3,4,4,5,5,6,6,7,7,8,8,9,9,10,10,11,11,12,12,13,13,14,14,16,16,18,18,19,19,21,21,22,22,23,23,24,24,25,25,26,26,27,27,28,28,29,29,30,30,31,31,35,35,37,37,38,38,39,39,41,41,42,42,43,43,44,44,45,45,46,46,48,48,51,51,52,52,53,53,54,54,55,55,56,56],"right_children":[2,4,6,8,10,12,14,16,18,20,22,24,26,28,30,-1,32,-1,34,36,-1,38,40,42,44,46,48,50,52,54,56,58,-1,-1,-1,60,-1,62,64,66,-1,68,70,72,74,76,78,-1,80,-1,-1,82,84,86,88,90,92,-1,-1,-1,-1,-1,-1,-1,-1,-1,-1,-1,-1,-1,-1,-1,-1,-1,-1,-1,-1,-1,-1,-1,-1,-1,-1,-1,-1,-1,-1,-1,-1,-1,-1,-1,-1],"split_conditions":[3.6114044E2,2.1421942E2,4.3630176E2,0E0,4.417157E1,3.824683E1,3.5271542E2,3.4808347E2,5.9455883E1,4.2259085E2,3.571784E2,4.3293408E2,3.876914E2,6.64916E1,-2.5881904E-1,-2.1195518E1,2.8462946E2,-2.8415516E1,3.638115E2,4.2210153E2,-8.668517E0,6.123234E-17,4.6088782E2,9.843137E0,4.3388373E-1,5E-1,3.8887036E2,-1.8369701E-16,8.882843E1,5.1107845E1,5.171089E2,5E-1,4.994593E0,-2.1647215E1,-4.6177764E0,1E0,-6.1839485E0,3.0422345E2,1.2246469E-16,4.9789215E1,-1.1289446E1,3.8954443E2,1.2246469E-16,-7.818315E-1,4.7219592E2,8.976471E1,5E-1,9.844953E0,-7.818315E-1,9.840667E0,-1.7659657E-1,3.174498E2,2.1421942E2,1.5294118E1,4.5294943E2,6.753432E1,8.660254E-1,-6.5730673E-1,-7.9585547E0,5.325973E0,-5.3558044E0,-6.1715217E0,-1.9376189E0,-3.85537E0,-1.1646309E1,2.8801234E0,-2.660985E0,1.1501718E1,6.1892743E0,-1.0702018E0,6.8170023E0,9.892004E0,1.8870777E0,-5.5433235E0,1.4302417E0,-3.151025E-3,-3.678122E0,-1.6064608E0,-8.602594E0,3.16689E0,-1.061085E-1,-4.3653946E0,-1.4464593E0,-7.2086067E0,3.111803E0,3.194137E0,1.0832751E1,4.265842E0,7.643295E0,4.170373E0,3.5482666E-1,1.1759444E1,-2.671862E0],"split_indices":[1,1,1,10,6,7,3,3,6,3,2,3,2,7,9,0,2,0,3,2,0,9,2,6,10,9,2,9,7,6,3,9,0,0,0,11,0,1,8,7,0,3,8,10,3,7,8,0,10,0,0,3,3,7,3,7,8,0,0,0,0,0,0,0,0,0,0,0,0,0,0,0,0,0,0,0,0,0,0,0,0,0,0,0,0,0,0,0,0,0,0,0,0],"split_type":[0,0,0,0,0,0,0,0,0,0,0,0,0,0,0,0,0,0,0,0,0,0,0,0,0,0,0,0,0,0,0,0,0,0,0,0,0,0,0,0,0,0,0,0,0,0,0,0,0,0,0,0,0,0,0,0,0,0,0,0,0,0,0,0,0,0,0,0,0,0,0,0,0,0,0,0,0,0,0,0,0,0,0,0,0,0,0,0,0,0,0,0,0],"sum_hessian":[2.562E3,6.26E2,1.936E3,4.3E1,5.83E2,1.192E3,7.44E2,2.4E1,1.9E1,7.8E1,5.05E2,1.74E2,1.018E3,1.47E2,5.97E2,9E0,1.5E1,8E0,1.1E1,7.1E1,7E0,2.8E2,2.25E2,1.08E2,6.6E1,3.45E2,6.73E2,2.8E1,1.19E2,3.66E2,2.31E2,1E1,5E0,6E0,5E0,6.6E1,5E0,9.8E1,1.82E2,2.17E2,8E0,4.8E1,6E1,3.6E1,3E1,1.83E2,1.62E2,8E0,6.65E2,1.9E1,9E0,7.5E1,4.4E1,5.4E1,3.12E2,2.07E2,2.4E1,5E0,5E0,6E1,6E0,3.2E1,6.6E1,4.6E1,1.36E2,1.1E1,2.06E2,1.7E1,3.1E1,1.3E1,4.7E1,1E1,2.6E1,2.5E1,5E0,1.46E2,3.7E1,1.25E2,3.7E1,8.7E1,5.78E2,3.9E1,3.6E1,6E0,3.8E1,6E0,4.8E1,2.16E2,9.6E1,1.01E2,1.06E2,1.8E1,6E0],"tree_param":{"num_deleted":"0","num_feature":"12","num_nodes":"93","size_leaf_vector":"1"}},{"base_weights":[2.3025005E0,-7.609418E1,3.576165E1,6.0494987E1,-9.200494E1,1.5291883E1,9.145515E1,1.5210411E2,-2.1866455E1,-4.0507694E1,-1.27126236E2,1.0061214E2,4.1241345E0,1.09960884E2,5.608469E0,2.6907226E-1,1.7416872E2,7.318551E0,-7.070787E1,-4.8264957E1,5.194796E1,-3.9479843E2,-1.1365596E2,1.4117522E2,1.8306585E1,1.7461893E1,-2.789832E1,-9.000024E1,1.1702019E2,5.4009914E1,-1.0215431E2,1.836618E2,5.041145E0,4.314242E0,-1.0743434E2,-1.3780028E2,-3.929612E1,1.0445969E2,-3.7742848E0,-2.3519842E1,-7.6292863E0,-4.2189507E1,-1.42975E2,1.7033995E2,2.8700039E1,-2.4026917E1,9.7258385E1,1.0643319E1,9.230821E1,-1.2147376E2,-1.9437902E1,-6.7747893E0,-3.370095E-1,1.8874901E2,1.00551796E2,2.3875435E1,8.627494E0,-1.6807932E1,-2.2475742E2,5.476215E0,9.94491E0,-8.543957E0,-1.5888375E0,-3.1817486E0,-1.064569E1,-1.7532805E0,-8.6033125E0,7.7973747E0,-3.663959E-1,-4.9116807E0,2.835712E-3,-8.232776E0,-4.162632E0,1.8446172E0,9.131477E0,6.528497E0,-1.9415308E0,4.1493325E0,-3.0074904E0,-1.7813902E0,8.3339405E0,-2.3502479E0,1.1812606E0,-1.6972601E0,5.4854712E0,3.1519427E0,-1.0609879E1,7.4544206E0,-1.5113294E0,5.378246E0,1.0356123E1,3.830396E0,8.1291065E0,-3.16312E0,3.0270462E0,4.4373746E0,-6.025346E0,-1.5810634E1,-4.7912974E0],"categories":[],"categories_nodes":[],"categories_segments":[],"categories_sizes":[],"default_left":[0,0,0,0,0,0,0,0,0,0,0,0,0,0,0,0,0,0,0,0,0,0,0,0,0,0,0,0,0,0,0,0,0,0,0,0,0,0,0,0,0,0,0,0,0,0,0,0,0,0,0,0,0,0,0,0,0,0,0,0,0,0,0,0,0,0,0,0,0,0,0,0,0,0,0,0,0,0,0,0,0,0,0,0,0,0,0,0,0,0,0,0,0,0,0,0,0,0,0],"id":4,"left_children":[1,3,5,7,9,11,13,15,17,19,21,23,25,27,29,-1,31,-1,33,35,37,39,41,43,45,47,49,51,53,55,57,59,-1,-1,61,63,65,67,-1,-1,-1,69,71,73,75,77,79,81,83,85,87,-1,-1,89,91,93,-1,95,97,-1,-1,-1,-1,-1,-1,-1,-1,-1,-1,-1,-1,-1,-1,-1,-1,-1,-1,-1,-1,-1,-1,-1,-1,-1,-1,-1,-1,-1,-1,-1,-1,-1,-1,-1,-1,-1,-1,-1,-1],"loss_changes":[6.6732255E6,1.659403E6,2.0312695E6,6.069439E5,1.228333E6,1.2430245E6,7.6033775E5,1.2206506E5,3.6367116E5,2.0188928E5,1.4153535E6,5.0152312E5,4.9379556E5,5.666995E5,4.5407775E5,0E0,4.431375E3,0E0,2.0530883E5,2.009455E5,1.5510686E5,2.76069E5,8.048415E5,3.2640238E5,1.7280175E5,4.1544884E5,2.667984E5,5.2103977E4,4.310515E5,2.1018903E5,2.7871888E5,9.8134375E3,0E0,0E0,1.28952E5,1.1455234E5,1.2594178E5,9.324881E4,0E0,0E0,0E0,2.699277E5,3.410455E5,1.24442E5,1.564248E5,1.3642108E5,1.7200177E5,5.616476E5,1.5312506E5,4.8210288E5,5.7358406E5,0E0,0E0,8.210375E4,4.5091775E5,1.6038231E5,0E0,1.9677969E5,9.93635E4,0E0,0E0,0E0,0E0,0E0,0E0,0E0,0E0,0E0,0E0,0E0,0E0,0E0,0E0,0E0,0E0,0E0,0E0,0E0,0E0,0E0,0E0,0E0,0E0,0E0,0E0,0E0,0E0,0E0,0E0,0E0,0E0,0E0,0E0,0E0,0E0,0E0,0E0,0E0,0E0],"parents":[2147483647,0,0,1,1,2,2,3,3,4,4,5,5,6,6,7,7,8,8,9,9,10,10,11,11,12,12,13,13,14,14,16,16,18,18,19,19,20,20,21,21,22,22,23,23,24,24,25,25,26,26,27,27,28,28,29,29,30,30,31,31,34,34,35,35,36,36,37,37,41,41,42,42,43,43,44,44,45,45,46,46,47,47,48,48,49,49,50,50,53,53,54,54,55,55,57,57,58,58],"right_children":[2,4,6,8,10,12,14,16,18,20,22,24,26,28,30,-1,32,-1,34,36,38,40,42,44,46,48,50,52,54,56,58,60,-1,-1,62,64,66,68,-1,-1,-1,70,72,74,76,78,80,82,84,86,88,-1,-1,90,92,94,-1,96,98,-1,-1,-1,-1,-1,-1,-1,-1,-1,-1,-1,-1,-1,-1,-1,-1,-1,-1,-1,-1,-1,-1,-1,-1,-1,-1,-1,-1,-1,-1,-1,-1,-1,-1,-1,-1,-1,-1,-1,-1],"split_conditions":[3.7709424E2,4.417157E1,4.5395856E2,6.234898E-1,6.123234E-17,1.9014706E1,8.334314E1,-2.5881904E-1,-7.0710677E-1,4.363427E2,2.0653616E2,4.3293408E2,5E-1,-9.659258E-1,8.660254E-1,2.6907226E-1,3.388166E2,7.318551E0,4.632353E0,2.1421942E2,6.234898E-1,1E0,0E0,1E0,4.7219592E2,9.260784E1,4.5166668E1,4.675873E2,4.6651962E1,9.172059E1,8.952941E1,2.6166846E2,5.041145E0,4.314242E0,3.274522E2,1.9494547E2,9.6916664E1,4.5525E2,-3.7742848E0,-2.3519842E1,-7.6292863E0,3.9436804E2,3.5362518E2,4.336989E0,3.7875583E2,4.764706E0,4.642157E0,3.720578E2,2.6881265E2,1.3936275E1,3.824683E1,-6.7747893E0,-3.370095E-1,1.8813726E1,4.7374564E2,-7.0710677E-1,8.627494E0,6.234898E-1,7.776901E1,5.476215E0,9.94491E0,-8.543957E0,-1.5888375E0,-3.1817486E0,-1.064569E1,-1.7532805E0,-8.6033125E0,7.7973747E0,-3.663959E-1,-4.9116807E0,2.835712E-3,-8.232776E0,-4.162632E0,1.8446172E0,9.131477E0,6.528497E0,-1.9415308E0,4.1493325E0,-3.0074904E0,-1.7813902E0,8.3339405E0,-2.3502479E0,1.1812606E0,-1.6972601E0,5.4854712E0,3.1519427E0,-1.0609879E1,7.4544206E0,-1.5113294E0,5.378246E0,1.0356123E1,3.830396E0,8.1291065E0,-3.16312E0,3.0270462E0,4.4373746E0,-6.025346E0,-1.5810634E1,-4.7912974E0],"split_indices":[2,4,2,11,9,6,4,8,9,3,2,3,8,8,8,0,2,0,7,2,11,8,8,11,3,7,5,2,6,6,6,2,0,0,2,2,6,3,0,0,0,3,2,7,3,6,5,3,3,7,7,0,0,7,3,9,0,11,7,0,0,0,0,0,0,0,0,0,0,0,0,0,0,0,0,0,0,0,0,0,0,0,0,0,0,0,0,0,0,0,0,0,0,0,0,0,0,0,0],"split_type":[0,0,0,0,0,0,0,0,0,0,0,0,0,0,0,0,0,0,0,0,0,0,0,0,0,0,0,0,0,0,0,0,0,0,0,0,0,0,0,0,0,0,0,0,0,0,0,0,0,0,0,0,0,0,0,0,0,0,0,0,0,0,0,0,0,0,0,0,0,0,0,0,0,0,0,0,0,0,0,0,0,0,0,0,0,0,0,0,0,0,0,0,0,0,0,0,0,0,0],"sum_hessian":[2.542E3,7.6E2,1.782E3,7.9E1,6.81E2,1.304E3,4.78E2,3.7E1,4.2E1,2.77E2,4.04E2,1.5E2,1.154E3,3.93E2,8.5E1,5E0,3.2E1,9E0,3.3E1,2.56E2,2.1E1,1.8E1,3.86E2,1E2,5E1,8.15E2,3.39E2,1.3E1,3.8E2,5.9E1,2.6E1,2.7E1,5E0,6E0,2.7E1,2.2E1,2.34E2,1.5E1,6E0,1.3E1,5E0,1.13E2,2.73E2,7.9E1,2.1E1,3.3E1,1.7E1,7.48E2,6.7E1,2.7E1,3.12E2,8E0,5E0,6.9E1,3.11E2,4.8E1,1.1E1,1.6E1,1E1,6E0,2.1E1,1.4E1,1.3E1,1.2E1,1E1,2.28E2,6E0,1E1,5E0,4.8E1,6.5E1,1.99E2,7.4E1,7E0,7.2E1,8E0,1.3E1,8E0,2.5E1,6E0,1.1E1,1.37E2,6.11E2,8E0,5.9E1,9E0,1.8E1,1.8E1,2.94E2,1.4E1,5.5E1,2.26E2,8.5E1,1.4E1,3.4E1,8E0,8E0,5E0,5E0],"tree_param":{"num_deleted":"0","num_feature":"12","num_nodes":"99","size_leaf_vector":"1"}},{"base_weights":[1.0944237E0,-9.622363E1,3.1899628E1,-2.1547667E2,-6.4811134E1,1.3465201E1,8.976271E1,-1.382235E2,-2.9056854E2,4.4331905E1,-8.254548E1,8.3442444E1,1.3472619E0,1.8101263E2,7.3341194E1,-2.425145E2,-6.247529E1,-3.4571188E2,-1.5196255E2,6.1946976E1,-6.0261283E0,-1.2386853E2,-3.355423E1,1.1099211E2,3.5474575E1,-1.4314203E1,4.1157314E1,9.528079E1,1.9350342E2,1.3621365E0,8.8870224E1,-1.08294655E2,-2.7386862E1,-1.0998724E2,3.0216585E1,-1.2243615E2,-4.325884E2,-3.498518E1,-1.6152147E1,8.633097E1,-3.7955651E0,-1.0404928E2,-2.7384317E2,-2.7905388E0,-6.1852573E1,1.8654373E2,8.4497894E1,7.997781E1,-2.8393953E1,-4.8042884E0,-4.7386314E1,3.2753067E1,1.4656302E2,2.5641427E0,6.169097E0,2.0201065E2,4.091761E0,-3.1309534E1,1.08912224E2,4.945655E1,1.1744362E2,-1.3830077E1,-1.6872803E0,-7.963352E0,3.9102376E-2,3.4405198E0,-1.6346779E0,-1.8354605E1,2.713035E0,-1.5678775E1,-2.8159983E1,2.1042347E0,-4.421347E0,6.644015E0,8.904416E-1,-1.07192335E1,-3.7400455E0,-2.1874176E1,-5.1162014E0,-3.2747014E0,3.3469894E0,-6.861023E0,-1.7626829E0,6.1924205E0,1.0693264E1,6.080352E0,1.8451836E0,1.14709015E1,1.9803265E0,-4.3715687E0,2.6104438E0,-2.59432E0,5.613447E-1,-1.3947357E0,-8.375644E0,-7.5297837E0,1.8589709E0,5.525825E0,1.0692031E1,1.1799358E1,8.654106E0,-3.8983467E0,9.0644115E-1,1.3087331E0,7.58266E0,1.328604E0,4.505758E0,6.378877E0,-4.6420035E-1],"categories":[],"categories_nodes":[],"categories_segments":[],"categories_sizes":[],"default_left":[0,0,0,0,0,0,0,0,0,0,0,0,0,0,0,0,0,0,0,0,0,0,0,0,0,0,0,0,0,0,0,0,0,0,0,0,0,0,0,0,0,0,0,0,0,0,0,0,0,0,0,0,0,0,0,0,0,0,0,0,0,0,0,0,0,0,0,0,0,0,0,0,0,0,0,0,0,0,0,0,0,0,0,0,0,0,0,0,0,0,0,0,0,0,0,0,0,0,0,0,0,0,0,0,0,0,0,0,0],"id":5,"left_children":[1,3,5,7,9,11,13,15,17,19,21,23,25,27,29,31,33,35,37,39,-1,41,43,45,47,49,51,53,55,57,59,61,-1,63,65,67,69,71,-1,73,-1,75,77,79,81,83,85,87,89,91,93,95,97,-1,-1,99,-1,101,103,105,107,-1,-1,-1,-1,-1,-1,-1,-1,-1,-1,-1,-1,-1,-1,-1,-1,-1,-1,-1,-1,-1,-1,-1,-1,-1,-1,-1,-1,-1,-1,-1,-1,-1,-1,-1,-1,-1,-1,-1,-1,-1,-1,-1,-1,-1,-1,-1,-1],"loss_changes":[7.6806915E6,2.293565E6,2.0745264E6,7.02333E5,9.50162E5,1.2523455E6,6.90976E5,4.9830888E5,4.365795E5,2.0783083E5,8.4812875E5,2.8413475E5,7.861814E5,5.7565E4,4.4697575E5,1.046725E6,1.7508634E5,8.19864E5,3.889132E5,2.1833128E5,0E0,6.49173E5,1.6870989E5,2.6044238E5,2.3250689E5,2.844013E5,3.105462E5,7.255461E3,4.13895E4,2.5641431E5,3.64689E5,2.4157725E5,0E0,1.4206631E5,3.6244457E4,6.25169E5,3.207285E5,5.7269797E4,0E0,1.698601E5,0E0,6.390425E5,6.8493475E5,4.1538344E5,1.9762034E5,3.3432E4,1.7917925E5,2.8047516E5,1.6636005E5,5.31953E5,4.682823E5,2.742159E5,3.9387812E4,0E0,0E0,1.415575E4,0E0,1.3059268E5,5.612958E4,1.27856875E5,2.452035E5,0E0,0E0,0E0,0E0,0E0,0E0,0E0,0E0,0E0,0E0,0E0,0E0,0E0,0E0,0E0,0E0,0E0,0E0,0E0,0E0,0E0,0E0,0E0,0E0,0E0,0E0,0E0,0E0,0E0,0E0,0E0,0E0,0E0,0E0,0E0,0E0,0E0,0E0,0E0,0E0,0E0,0E0,0E0,0E0,0E0,0E0,0E0,0E0],"parents":[2147483647,0,0,1,1,2,2,3,3,4,4,5,5,6,6,7,7,8,8,9,9,10,10,11,11,12,12,13,13,14,14,15,15,16,16,17,17,18,18,19,19,21,21,22,22,23,23,24,24,25,25,26,26,27,27,28,28,29,29,30,30,31,31,33,33,34,34,35,35,36,36,37,37,39,39,41,41,42,42,43,43,44,44,45,45,46,46,47,47,48,48,49,49,50,50,51,51,52,52,55,55,57,57,58,58,59,59,60,60],"right_children":[2,4,6,8,10,12,14,16,18,20,22,24,26,28,30,32,34,36,38,40,-1,42,44,46,48,50,52,54,56,58,60,62,-1,64,66,68,70,72,-1,74,-1,76,78,80,82,84,86,88,90,92,94,96,98,-1,-1,100,-1,102,104,106,108,-1,-1,-1,-1,-1,-1,-1,-1,-1,-1,-1,-1,-1,-1,-1,-1,-1,-1,-1,-1,-1,-1,-1,-1,-1,-1,-1,-1,-1,-1,-1,-1,-1,-1,-1,-1,-1,-1,-1,-1,-1,-1,-1,-1,-1,-1,-1,-1],"split_conditions":[3.6114044E2,2.7342596E2,4.5373026E2,6.678432E1,4.6651962E1,3.824683E1,5.7588234E1,5.2911766E1,9.192647E1,4.2210153E2,3.571784E2,4.3293408E2,4.343128E2,1.5294118E1,3.5271542E2,3.1671568E1,3.5267313E2,7.650609E1,5E-1,4.171622E2,-6.0261283E0,9.339216E1,8.1710785E1,6.5686274E0,6.234898E-1,8.706373E1,5.0796548E2,4.1573206E2,6.5004906E1,9.172059E1,8.162255E1,7.740196E0,-2.7386862E1,2.4572833E2,2.5881904E-1,6.9088234E1,2.5881904E-1,9.092157E1,-1.6152147E1,6.234898E-1,-3.7955651E0,6.3215687E1,7.978432E1,3.976191E2,8.6289215E1,6.234898E-1,6.234898E-1,-2.5881904E-1,4.7044977E2,6.577268E1,4.3902747E2,2.8002853E2,5E-1,2.5641427E0,6.169097E0,4.592843E2,4.091761E0,8.246568E1,4.117151E2,4.870971E2,8.896801E1,-1.3830077E1,-1.6872803E0,-7.963352E0,3.9102376E-2,3.4405198E0,-1.6346779E0,-1.8354605E1,2.713035E0,-1.5678775E1,-2.8159983E1,2.1042347E0,-4.421347E0,6.644015E0,8.904416E-1,-1.07192335E1,-3.7400455E0,-2.1874176E1,-5.1162014E0,-3.2747014E0,3.3469894E0,-6.861023E0,-1.7626829E0,6.1924205E0,1.0693264E1,6.080352E0,1.8451836E0,1.14709015E1,1.9803265E0,-4.3715687E0,2.6104438E0,-2.59432E0,5.613447E-1,-1.3947357E0,-8.375644E0,-7.5297837E0,1.8589709E0,5.525825E0,1.0692031E1,1.1799358E1,8.654106E0,-3.8983467E0,9.0644115E-1,1.3087331E0,7.58266E0,1.328604E0,4.505758E0,6.378877E0,-4.6420035E-1],"split_indices":[1,1,1,7,6,7,7,6,5,2,2,3,2,7,3,5,2,6,9,3,0,4,4,5,11,4,3,3,6,7,7,4,0,1,9,7,9,6,0,11,0,6,7,3,4,11,11,9,3,6,3,3,9,0,0,2,0,6,2,2,5,0,0,0,0,0,0,0,0,0,0,0,0,0,0,0,0,0,0,0,0,0,0,0,0,0,0,0,0,0,0,0,0,0,0,0,0,0,0,0,0,0,0,0,0,0,0,0,0],"split_type":[0,0,0,0,0,0,0,0,0,0,0,0,0,0,0,0,0,0,0,0,0,0,0,0,0,0,0,0,0,0,0,0,0,0,0,0,0,0,0,0,0,0,0,0,0,0,0,0,0,0,0,0,0,0,0,0,0,0,0,0,0,0,0,0,0,0,0,0,0,0,0,0,0,0,0,0,0,0,0,0,0,0,0,0,0,0,0,0,0,0,0,0,0,0,0,0,0,0,0,0,0,0,0,0,0,0,0,0,0],"sum_hessian":[2.56E3,6.15E2,1.945E3,1.27E2,4.88E2,1.476E3,4.69E2,6.4E1,6.3E1,6.8E1,4.2E2,2.17E2,1.259E3,7E1,3.99E2,2.6E1,3.8E1,4.4E1,1.9E1,6.2E1,6E0,2.27E2,1.93E2,1.37E2,8E1,9.04E2,3.55E2,1E1,6E1,7.1E1,3.28E2,1.9E1,7E0,2.5E1,1.3E1,1.3E1,3.1E1,1.2E1,7E0,5.3E1,9E0,2.02E2,2.5E1,9.3E1,1E2,3.4E1,1.03E2,4.7E1,3.3E1,7.03E2,2.01E2,3.3E2,2.5E1,5E0,5E0,5.5E1,5E0,5.5E1,1.6E1,1.39E2,1.89E2,5E0,1.4E1,1.7E1,8E0,8E0,5E0,5E0,8E0,1.8E1,1.3E1,5E0,7E0,3.1E1,2.2E1,4.1E1,1.61E2,1.2E1,1.3E1,4.9E1,4.4E1,2.5E1,7.5E1,1.2E1,2.2E1,5.7E1,4.6E1,9E0,3.8E1,1.9E1,1.4E1,1.78E2,5.25E2,1.74E2,2.7E1,7E0,3.23E2,1.8E1,7E0,2.2E1,3.3E1,2.8E1,2.7E1,6E0,1E1,9E1,4.9E1,1.75E2,1.4E1],"tree_param":{"num_deleted":"0","num_feature":"12","num_nodes":"109","size_leaf_vector":"1"}},{"base_weights":[1.1512676E0,-1.2860397E2,2.0784037E1,-1.9713171E2,-8.473352E1,2.4689138E0,7.839984E1,-6.451787E1,-2.2966386E2,-7.396297E1,-1.9017223E1,8.290387E1,-1.0985072E1,1.7465724E2,6.326154E1,4.5946304E1,-1.8702132E2,-1.8269334E2,-3.2963522E2,4.6022755E1,-9.295567E1,1.4279753E2,4.5615734E1,-2.7259764E1,3.388344E1,3.51064E0,1.8308685E2,3.9705845E1,1.1732356E2,5.781599E0,-3.891877E0,-1.2286143E1,-5.0794077E0,-2.4530287E2,-1.18568695E2,-4.4894446E2,-1.97948E2,1.430996E2,-4.7643806E1,-1.4368633E2,-5.266398E1,1.5154256E2,-3.894112E-1,-1.886747E0,8.003692E1,-2.2576738E1,-1.297933E2,-5.5251003E1,4.411994E1,9.767417E0,5.903162E0,2.0845282E1,8.851059E1,1.4746843E2,7.5864334E1,-6.664435E0,-1.641224E1,-2.7156932E0,-9.346998E0,-1.2684026E1,-2.5731491E1,-3.4534523E0,-1.4062319E1,4.027911E0,8.444139E0,7.357648E0,-9.693488E0,-5.8706164E0,-1.7616316E1,-2.0914073E0,-1.0591273E1,8.814115E0,5.667171E0,-2.1125326E0,7.985316E0,6.1524563E0,2.2872453E0,3.798817E-1,-1.8039995E0,-1.0052524E1,-1.7692379E0,-2.782206E-1,-6.107042E0,-5.1182723E-1,2.8387666E0,4.081533E0,6.8601705E-2,7.628856E0,3.145019E0,5.0906854E0,8.31838E0,4.752296E0,-3.1540945E0],"categories":[],"categories_nodes":[],"categories_segments":[],"categories_sizes":[],"default_left":[0,0,0,0,0,0,0,0,0,0,0,0,0,0,0,0,0,0,0,0,0,0,0,0,0,0,0,0,0,0,0,0,0,0,0,0,0,0,0,0,0,0,0,0,0,0,0,0,0,0,0,0,0,0,0,0,0,0,0,0,0,0,0,0,0,0,0,0,0,0,0,0,0,0,0,0,0,0,0,0,0,0,0,0,0,0,0,0,0,0,0,0,0],"id":6,"left_children":[1,3,5,7,9,11,13,15,17,19,-1,21,23,25,27,29,31,33,35,37,39,41,43,45,47,-1,49,51,53,-1,-1,-1,-1,55,57,59,61,63,65,67,69,71,-1,73,75,77,79,81,83,-1,-1,85,87,89,91,-1,-1,-1,-1,-1,-1,-1,-1,-1,-1,-1,-1,-1,-1,-1,-1,-1,-1,-1,-1,-1,-1,-1,-1,-1,-1,-1,-1,-1,-1,-1,-1,-1,-1,-1,-1,-1,-1],"loss_changes":[6.493577E6,9.90393E5,2.3361008E6,5.460005E5,6.27705E5,1.8200471E6,7.67058E5,3.7397756E5,4.280805E5,4.6005338E5,0E0,5.316981E5,1.0531715E6,5.051E4,5.849416E5,1.383937E5,4.01985E4,2.6396E5,4.1383575E5,2.6142725E5,3.4602938E5,1.22347375E5,2.4542253E5,5.0507125E5,3.528078E5,0E0,2.952625E4,2.9638112E5,1.6375975E5,0E0,0E0,0E0,0E0,2.906665E5,1.5676344E5,7.458725E4,1.6304144E5,8.945344E3,4.5579825E5,3.75203E5,1.6012988E5,6.2208625E4,0E0,4.241777E5,1.22677125E5,4.13026E5,3.0231738E5,1.322487E5,2.3791212E5,0E0,0E0,2.7804653E5,1.3804944E5,5.20615E4,1.685766E5,0E0,0E0,0E0,0E0,0E0,0E0,0E0,0E0,0E0,0E0,0E0,0E0,0E0,0E0,0E0,0E0,0E0,0E0,0E0,0E0,0E0,0E0,0E0,0E0,0E0,0E0,0E0,0E0,0E0,0E0,0E0,0E0,0E0,0E0,0E0,0E0,0E0,0E0],"parents":[2147483647,0,0,1,1,2,2,3,3,4,4,5,5,6,6,7,7,8,8,9,9,11,11,12,12,13,13,14,14,15,15,16,16,17,17,18,18,19,19,20,20,21,21,22,22,23,23,24,24,26,26,27,27,28,28,33,33,34,34,35,35,36,36,37,37,38,38,39,39,40,40,41,41,43,43,44,44,45,45,46,46,47,47,48,48,51,51,52,52,53,53,54,54],"right_children":[2,4,6,8,10,12,14,16,18,20,-1,22,24,26,28,30,32,34,36,38,40,42,44,46,48,-1,50,52,54,-1,-1,-1,-1,56,58,60,62,64,66,68,70,72,-1,74,76,78,80,82,84,-1,-1,86,88,90,92,-1,-1,-1,-1,-1,-1,-1,-1,-1,-1,-1,-1,-1,-1,-1,-1,-1,-1,-1,-1,-1,-1,-1,-1,-1,-1,-1,-1,-1,-1,-1,-1,-1,-1,-1,-1,-1,-1],"split_conditions":[3.2733664E2,2.7342596E2,4.4727243E2,5E-1,9.6916664E1,3.824683E1,3.895098E1,-4.3388373E-1,7.318627E1,4.417157E1,-1.9017223E1,0E0,4.3039294E2,4.238687E2,8.882843E1,8.05E1,3.7009265E2,8.02451E1,2.6881265E2,3.2487598E2,3.2866055E2,3.647059E1,-2.5881904E-1,9.42647E1,-9.659258E-1,3.51064E0,1E0,4.839841E2,4.3388373E-1,5.781599E0,-3.891877E0,-1.2286143E1,-5.0794077E0,0E0,2.80896E2,6.234898E-1,9.2210785E1,1.2627451E1,9.735294E0,3.22661E2,4.4605493E2,1.1749751E1,-3.894112E-1,4.495388E2,7.0710677E-1,-4.3388373E-1,8.1833336E1,4.5185074E2,3.8229205E2,9.767417E0,5.903162E0,6.7911766E1,6.2490196E1,4.495388E2,8.843627E1,-6.664435E0,-1.641224E1,-2.7156932E0,-9.346998E0,-1.2684026E1,-2.5731491E1,-3.4534523E0,-1.4062319E1,4.027911E0,8.444139E0,7.357648E0,-9.693488E0,-5.8706164E0,-1.7616316E1,-2.0914073E0,-1.0591273E1,8.814115E0,5.667171E0,-2.1125326E0,7.985316E0,6.1524563E0,2.2872453E0,3.798817E-1,-1.8039995E0,-1.0052524E1,-1.7692379E0,-2.782206E-1,-6.107042E0,-5.1182723E-1,2.8387666E0,4.081533E0,6.8601705E-2,7.628856E0,3.145019E0,5.0906854E0,8.31838E0,4.752296E0,-3.1540945E0],"split_indices":[1,1,1,8,4,7,4,10,7,5,0,10,2,0,7,4,2,5,0,2,2,7,8,4,8,0,11,2,10,0,0,0,0,10,2,11,4,7,7,2,2,7,0,2,8,10,7,2,0,0,0,7,4,2,5,0,0,0,0,0,0,0,0,0,0,0,0,0,0,0,0,0,0,0,0,0,0,0,0,0,0,0,0,0,0,0,0,0,0,0,0,0,0],"split_type":[0,0,0,0,0,0,0,0,0,0,0,0,0,0,0,0,0,0,0,0,0,0,0,0,0,0,0,0,0,0,0,0,0,0,0,0,0,0,0,0,0,0,0,0,0,0,0,0,0,0,0,0,0,0,0,0,0,0,0,0,0,0,0,0,0,0,0,0,0,0,0,0,0,0,0,0,0,0,0,0,0,0,0,0,0,0,0,0,0,0,0,0,0],"sum_hessian":[2.547E3,3.34E2,2.213E3,1.29E2,2.05E2,1.68E3,5.33E2,2.6E1,1.03E2,1.99E2,6E0,2.4E2,1.44E3,7.1E1,4.62E2,1.4E1,1.2E1,7.2E1,3.1E1,2.7E1,1.72E2,9.1E1,1.49E2,1.057E3,3.83E2,6E0,6.5E1,3.23E2,1.39E2,9E0,5E0,6E0,6E0,3.5E1,3.7E1,1.5E1,1.6E1,1.3E1,1.4E1,7.5E1,9.7E1,8.6E1,5E0,6.3E1,8.6E1,1.012E3,4.5E1,3.9E1,3.44E2,5.3E1,1.2E1,2.34E2,8.9E1,7.9E1,6E1,1.6E1,1.9E1,2E1,1.7E1,5E0,1E1,7E0,9E0,5E0,8E0,6E0,8E0,6.8E1,7E0,9.2E1,5E0,5E1,3.6E1,5.1E1,1.2E1,3.7E1,4.9E1,3.13E2,6.99E2,2.5E1,2E1,2.3E1,1.6E1,6.5E1,2.79E2,5.6E1,1.78E2,2.4E1,6.5E1,2.5E1,5.4E1,5.3E1,7E0],"tree_param":{"num_deleted":"0","num_feature":"12","num_nodes":"93","size_leaf_vector":"1"}},{"base_weights":[7.6741743E-1,-8.9713684E1,2.9303423E1,-1.9103078E2,-6.425361E1,8.184911E0,7.406141E1,-2.6810455E2,-1.492231E2,-1.038759E2,-1.5814176E1,7.500875E1,-3.750859E0,1.542346E2,6.1499218E1,-3.393044E2,-1.7281448E2,3.288526E1,-1.7497404E2,-7.6273315E1,-2.305218E2,1.5681897E2,-2.551174E1,1.13980804E2,-2.890718E0,-2.6850216E1,1.2243817E1,6.2667267E1,1.7323088E2,5.0065144E1,1.320265E2,-2.3796478E2,-2.3524609E1,-2.5887985E2,-1.942397E0,-1.3861398E0,4.4014554E0,-5.405447E1,-2.2709558E2,-4.8366817E1,-1.7758743E2,-2.997472E2,-2.1080555E1,3.8331418E0,1.0155361E1,-3.6346576E0,-7.384991E1,1.3245245E2,3.586897E1,2.4319433E1,-1.1988901E2,-5.009045E1,2.6729705E0,1.7764115E0,4.9187405E1,6.9158607E0,-5.764525E-1,1.3214096E2,2.0722328E2,-6.257614E1,5.7103672E1,1.4730617E2,1.7985895E-1,-1.6708958E1,-1.8965034E0,-5.9328637E0,-1.8965477E1,3.3470426E0,-7.6142387E0,-8.625129E0,-2.1410366E1,-1.0811098E0,-7.8126473E0,-4.3131003E0,-1.2577059E1,-1.0801224E1,-2.828806E1,1.5419605E0,-2.8698905E0,-2.440048E0,1.960049E0,-6.5398607E0,1.9149634E0,5.806399E0,9.923438E0,9.099101E0,-1.2182349E0,5.0329995E0,1.7096488E-1,-7.0439644E0,-3.59519E0,-1.8510818E0,-9.100282E0,2.7717588E0,-1.1481054E0,1.0910382E0,-1.0492865E0,-3.6316967E0,3.2310784E0,1.4824115E0,7.439316E0,1.2183391E1,7.861805E0,3.5466115E0,-4.734403E0,3.475631E0,1.7684667E-1,3.174334E0,8.726653E0],"categories":[],"categories_nodes":[],"categories_segments":[],"categories_sizes":[],"default_left":[0,0,0,0,0,0,0,0,0,0,0,0,0,0,0,0,0,0,0,0,0,0,0,0,0,0,0,0,0,0,0,0,0,0,0,0,0,0,0,0,0,0,0,0,0,0,0,0,0,0,0,0,0,0,0,0,0,0,0,0,0,0,0,0,0,0,0,0,0,0,0,0,0,0,0,0,0,0,0,0,0,0,0,0,0,0,0,0,0,0,0,0,0,0,0,0,0,0,0,0,0,0,0,0,0,0,0,0,0],"id":7,"left_children":[1,3,5,7,9,11,13,15,17,19,21,23,25,27,29,31,33,35,37,39,41,43,45,47,49,51,53,55,57,59,61,63,-1,65,-1,-1,-1,67,69,71,73,75,77,-1,-1,79,81,83,85,87,89,91,93,95,97,-1,-1,99,101,103,105,107,-1,-1,-1,-1,-1,-1,-1,-1,-1,-1,-1,-1,-1,-1,-1,-1,-1,-1,-1,-1,-1,-1,-1,-1,-1,-1,-1,-1,-1,-1,-1,-1,-1,-1,-1,-1,-1,-1,-1,-1,-1,-1,-1,-1,-1,-1,-1],"loss_changes":[6.622792E6,1.574117E6,1.8425686E6,3.562905E5,9.445511E5,1.057898E6,6.1996275E5,2.26267E5,3.9030425E5,9.29736E5,3.773166E5,6.10557E5,4.163498E5,1.3523325E5,4.3044812E5,1.937425E5,2.2051088E5,3.921022E4,4.4147725E5,6.247081E5,6.895845E5,2.8924688E4,2.2391345E5,1.8857475E5,2.19406E5,3.164426E5,2.5745206E5,9.141449E4,6.8958875E4,3.7461675E5,1.4663188E5,2.7598038E5,0E0,1.5758594E5,0E0,0E0,0E0,2.8356697E5,4.750375E5,5.0731478E5,3.0245288E5,6.794745E5,2.6285344E4,0E0,0E0,2.8631897E5,4.265338E5,9.33105E4,2.4207464E5,8.8994984E4,2.9428594E3,4.3802544E5,2.7719903E5,2.3770923E5,2.8108384E5,0E0,0E0,5.3575875E4,2.723E4,1.2676068E5,2.9288238E5,1.4179912E5,0E0,0E0,0E0,0E0,0E0,0E0,0E0,0E0,0E0,0E0,0E0,0E0,0E0,0E0,0E0,0E0,0E0,0E0,0E0,0E0,0E0,0E0,0E0,0E0,0E0,0E0,0E0,0E0,0E0,0E0,0E0,0E0,0E0,0E0,0E0,0E0,0E0,0E0,0E0,0E0,0E0,0E0,0E0,0E0,0E0,0E0,0E0],"parents":[2147483647,0,0,1,1,2,2,3,3,4,4,5,5,6,6,7,7,8,8,9,9,10,10,11,11,12,12,13,13,14,14,15,15,16,16,17,17,18,18,19,19,20,20,21,21,22,22,23,23,24,24,25,25,26,26,27,27,28,28,29,29,30,30,31,31,33,33,37,37,38,38,39,39,40,40,41,41,42,42,45,45,46,46,47,47,48,48,49,49,50,50,51,51,52,52,53,53,54,54,57,57,58,58,59,59,60,60,61,61],"right_children":[2,4,6,8,10,12,14,16,18,20,22,24,26,28,30,32,34,36,38,40,42,44,46,48,50,52,54,56,58,60,62,64,-1,66,-1,-1,-1,68,70,72,74,76,78,-1,-1,80,82,84,86,88,90,92,94,96,98,-1,-1,100,102,104,106,108,-1,-1,-1,-1,-1,-1,-1,-1,-1,-1,-1,-1,-1,-1,-1,-1,-1,-1,-1,-1,-1,-1,-1,-1,-1,-1,-1,-1,-1,-1,-1,-1,-1,-1,-1,-1,-1,-1,-1,-1,-1,-1,-1,-1,-1,-1,-1],"split_conditions":[3.6114044E2,2.7342596E2,4.4191888E2,2.4889401E2,3.571784E2,4.256891E1,3.8651962E1,9.659258E-1,3.252048E2,9.081863E1,1.6186274E1,4.3293408E2,3.9119797E2,-8.660254E-1,4.9498807E2,0E0,3.0165018E2,2.761802E2,5E-1,1E0,3.8831012E2,5.2990193E0,8.509314E1,1E0,9.749279E-1,8.2995094E1,4.318869E2,4.194913E2,4.3388373E-1,-9.659258E-1,9.749279E-1,8.9382355E1,-2.3524609E1,2.6166846E2,-1.942397E0,-1.3861398E0,4.4014554E0,-4.3388373E-1,1E0,3.4718216E2,3.0290353E2,4.031552E2,9.27451E1,3.8331418E0,1.0155361E1,3.976191E2,7.818315E-1,4.459831E2,3.8565344E2,-7.818315E-1,4.5200235E2,8.660254E-1,8.706373E1,4.3388373E-1,-7.0710677E-1,6.9158607E0,-5.764525E-1,4.1443967E2,4.615235E2,5.457843E1,8.334314E1,4.6936597E2,1.7985895E-1,-1.6708958E1,-1.8965034E0,-5.9328637E0,-1.8965477E1,3.3470426E0,-7.6142387E0,-8.625129E0,-2.1410366E1,-1.0811098E0,-7.8126473E0,-4.3131003E0,-1.2577059E1,-1.0801224E1,-2.828806E1,1.5419605E0,-2.8698905E0,-2.440048E0,1.960049E0,-6.5398607E0,1.9149634E0,5.806399E0,9.923438E0,9.099101E0,-1.2182349E0,5.0329995E0,1.7096488E-1,-7.0439644E0,-3.59519E0,-1.8510818E0,-9.100282E0,2.7717588E0,-1.1481054E0,1.0910382E0,-1.0492865E0,-3.6316967E0,3.2310784E0,1.4824115E0,7.439316E0,1.2183391E1,7.861805E0,3.5466115E0,-4.734403E0,3.475631E0,1.7684667E-1,3.174334E0,8.726653E0],"split_indices":[1,1,2,2,2,4,5,8,3,4,5,3,3,8,3,10,3,3,8,11,0,5,5,11,10,4,1,1,10,8,10,5,0,3,0,0,0,10,11,2,2,3,4,0,0,3,10,1,3,10,3,8,4,10,8,0,0,1,1,5,4,2,0,0,0,0,0,0,0,0,0,0,0,0,0,0,0,0,0,0,0,0,0,0,0,0,0,0,0,0,0,0,0,0,0,0,0,0,0,0,0,0,0,0,0,0,0,0,0],"split_type":[0,0,0,0,0,0,0,0,0,0,0,0,0,0,0,0,0,0,0,0,0,0,0,0,0,0,0,0,0,0,0,0,0,0,0,0,0,0,0,0,0,0,0,0,0,0,0,0,0,0,0,0,0,0,0,0,0,0,0,0,0,0,0,0,0,0,0,0,0,0,0,0,0,0,0,0,0,0,0,0,0,0,0,0,0,0,0,0,0,0,0,0,0,0,0,0,0,0,0,0,0,0,0,0,0,0,0,0,0],"sum_hessian":[2.563E3,6.14E2,1.949E3,1.22E2,4.92E2,1.325E3,6.24E2,4.1E1,8.1E1,2.7E2,2.22E2,2E2,1.125E3,8.3E1,5.41E2,2.2E1,1.9E1,1E1,7.1E1,2.23E2,4.7E1,1.1E1,2.11E2,1.33E2,6.7E1,4.6E2,6.65E2,1.5E1,6.8E1,4.67E2,7.4E1,1.4E1,8E0,1.1E1,8E0,5E0,5E0,2.2E1,4.9E1,1.76E2,4.7E1,3.5E1,1.2E1,5E0,6E0,1.46E2,6.5E1,1.07E2,2.6E1,5.5E1,1.2E1,2.57E2,2.03E2,5.19E2,1.46E2,7E0,8E0,3.3E1,3.5E1,2.7E1,4.4E2,6.6E1,8E0,9E0,5E0,6E0,5E0,1E1,1.2E1,4E1,9E0,1.42E2,3.4E1,2.2E1,2.5E1,2.8E1,7E0,5E0,7E0,7.1E1,7.5E1,4.3E1,2.2E1,8.8E1,1.9E1,7E0,1.9E1,1.1E1,4.4E1,7E0,5E0,2.35E2,2.2E1,6.6E1,1.37E2,2.76E2,2.43E2,1.6E1,1.3E2,5E0,2.8E1,1.8E1,1.7E1,5E0,2.2E1,3.57E2,8.3E1,1.7E1,4.9E1],"tree_param":{"num_deleted":"0","num_feature":"12","num_nodes":"109","size_leaf_vector":"1"}},{"base_weights":[5.5896866E-1,-6.6514E1,2.8275743E1,-2.616553E0,-9.680919E1,3.5407481E0,6.780358E1,1.0891587E2,-1.7266277E1,-1.7044182E2,-6.99529E1,7.68403E1,-8.653747E0,-4.2253385E0,8.172007E1,8.200442E0,5.022805E1,-1.0918793E2,-1.5999528E0,-4.1816513E1,-1.8752731E2,-3.533561E1,-1.0936787E2,1.02408264E2,1.3778487E0,-5.482013E1,5.4168854E0,4.538766E1,-6.3299965E1,3.1165442E1,1.00738884E2,1.375944E-1,3.684047E0,-1.6308803E2,-2.20041E1,-3.8406418E1,3.5222816E1,4.154293E0,-6.878338E0,-4.0867004E2,-1.5863597E2,-2.0455797E1,-2.8777643E2,-6.3233856E1,-2.1848581E2,1.5260301E2,6.937448E1,7.7136475E1,-7.444163E1,-1.706926E1,-1.2568645E2,3.9170364E1,-8.407543E0,-3.4459004E0,5.6625317E1,5.1502975E1,-9.903092E1,7.3684015E0,1.6319904E1,1.0908937E2,-7.831393E0,-9.942364E0,-4.4525332E0,1.2667276E0,-2.738504E0,9.041012E-1,-3.5154912E0,-7.670807E-1,2.7688053E0,-1.4216858E1,-2.5315945E1,-8.999003E0,4.5696363E0,-3.5469358E0,2.0415E0,-1.5412668E0,-2.4837408E1,-5.6239614E0,-1.9072388E0,-1.9874765E1,-6.642711E0,1.7131783E0,8.309826E0,4.6205797E0,-9.2323524E-1,-4.526627E-1,5.6111293E0,-1.3370109E0,-5.0865855E0,-5.3058357E0,-2.646261E-1,-7.1882625E0,1.3435844E0,2.6043527E0,-1.3818272E0,-1.2662497E0,1.1886286E0,1.1908731E0,4.1685023E0,1.0706029E1,-3.8442802E0,-3.3181126E0,-5.902039E0,-2.247388E0,2.1121783E0,7.6562285E0,4.845389E0,5.156631E0,-1.929603E0],"categories":[],"categories_nodes":[],"categories_segments":[],"categories_sizes":[],"default_left":[0,0,0,0,0,0,0,0,0,0,0,0,0,0,0,0,0,0,0,0,0,0,0,0,0,0,0,0,0,0,0,0,0,0,0,0,0,0,0,0,0,0,0,0,0,0,0,0,0,0,0,0,0,0,0,0,0,0,0,0,0,0,0,0,0,0,0,0,0,0,0,0,0,0,0,0,0,0,0,0,0,0,0,0,0,0,0,0,0,0,0,0,0,0,0,0,0,0,0,0,0,0,0,0,0,0,0,0,0],"id":8,"left_children":[1,3,5,7,9,11,13,15,17,19,21,23,25,27,29,-1,31,33,35,37,39,41,43,45,47,49,51,53,55,57,59,-1,-1,61,63,65,67,-1,-1,69,71,73,75,77,79,81,83,85,87,89,91,93,95,-1,97,99,101,-1,103,105,107,-1,-1,-1,-1,-1,-1,-1,-1,-1,-1,-1,-1,-1,-1,-1,-1,-1,-1,-1,-1,-1,-1,-1,-1,-1,-1,-1,-1,-1,-1,-1,-1,-1,-1,-1,-1,-1,-1,-1,-1,-1,-1,-1,-1,-1,-1,-1,-1],"loss_changes":[4.723855E6,1.4380248E6,1.7576945E6,3.9401206E5,9.847125E5,9.901647E5,6.9400675E5,8.227269E4,3.0655006E5,2.8661725E5,5.0232775E5,3.0469725E5,6.174126E5,3.340631E5,5.5451075E5,0E0,1.6491395E4,1.420686E5,2.4937592E5,2.1474566E5,6.8902875E5,7.415806E5,8.570464E5,1.850495E5,2.4124556E5,5.9174925E5,3.4050025E5,8.3542E4,2.1841012E5,2.7359294E5,3.825495E5,0E0,0E0,3.2566625E4,2.1554783E4,1.6707653E5,9.4605195E4,0E0,0E0,1.378825E4,5.8214175E5,5.876438E5,5.752854E5,1.4766356E5,7.289105E5,6.8283375E4,1.4943369E5,6.4531594E4,2.4604117E4,1.5253578E5,2.16246E5,1.843819E5,2.8260425E5,0E0,4.801753E4,2.8789362E5,1.6989188E4,0E0,2.2902283E5,1.94876E5,1.0978678E5,0E0,0E0,0E0,0E0,0E0,0E0,0E0,0E0,0E0,0E0,0E0,0E0,0E0,0E0,0E0,0E0,0E0,0E0,0E0,0E0,0E0,0E0,0E0,0E0,0E0,0E0,0E0,0E0,0E0,0E0,0E0,0E0,0E0,0E0,0E0,0E0,0E0,0E0,0E0,0E0,0E0,0E0,0E0,0E0,0E0,0E0,0E0,0E0],"parents":[2147483647,0,0,1,1,2,2,3,3,4,4,5,5,6,6,7,7,8,8,9,9,10,10,11,11,12,12,13,13,14,14,16,16,17,17,18,18,19,19,20,20,21,21,22,22,23,23,24,24,25,25,26,26,27,27,28,28,29,29,30,30,33,33,34,34,35,35,36,36,39,39,40,40,41,41,42,42,43,43,44,44,45,45,46,46,47,47,48,48,49,49,50,50,51,51,52,52,54,54,55,55,56,56,58,58,59,59,60,60],"right_children":[2,4,6,8,10,12,14,16,18,20,22,24,26,28,30,-1,32,34,36,38,40,42,44,46,48,50,52,54,56,58,60,-1,-1,62,64,66,68,-1,-1,70,72,74,76,78,80,82,84,86,88,90,92,94,96,-1,98,100,102,-1,104,106,108,-1,-1,-1,-1,-1,-1,-1,-1,-1,-1,-1,-1,-1,-1,-1,-1,-1,-1,-1,-1,-1,-1,-1,-1,-1,-1,-1,-1,-1,-1,-1,-1,-1,-1,-1,-1,-1,-1,-1,-1,-1,-1,-1,-1,-1,-1,-1,-1],"split_conditions":[3.7533887E2,0E0,4.355534E2,3.685294E1,2.8462946E2,3.4936275E1,-8.660254E-1,3.562781E2,3.6910428E2,2.7941177E1,8.334314E1,4.35015E2,3.5661264E2,-1.8369701E-16,3.992547E2,8.200442E0,4.0741928E2,-4.3388373E-1,5E-1,6.234898E-1,5.3436275E1,3.7172577E2,5E-1,2.5881904E-1,4.3388373E-1,-1.8369701E-16,-4.3388373E-1,3.7758414E2,4.5294943E2,3.3549694E1,9.0415825E1,1.375944E-1,3.684047E0,3.5362518E2,3.5159464E2,-4.3388373E-1,3.8707184E2,4.154293E0,-6.878338E0,2.4889401E2,9.749279E-1,3.8328497E2,3.969154E2,3.2866055E2,-2.2252093E-1,3.8984732E2,1E0,4.642157E0,3.9841544E2,2.5881904E-1,1E0,8.896801E1,4.3630176E2,-3.4459004E0,4.6249615E2,5.7951145E1,4.450068E2,7.3684015E0,7.664706E1,5.657843E1,-4.3388373E-1,-9.942364E0,-4.4525332E0,1.2667276E0,-2.738504E0,9.041012E-1,-3.5154912E0,-7.670807E-1,2.7688053E0,-1.4216858E1,-2.5315945E1,-8.999003E0,4.5696363E0,-3.5469358E0,2.0415E0,-1.5412668E0,-2.4837408E1,-5.6239614E0,-1.9072388E0,-1.9874765E1,-6.642711E0,1.7131783E0,8.309826E0,4.6205797E0,-9.2323524E-1,-4.526627E-1,5.6111293E0,-1.3370109E0,-5.0865855E0,-5.3058357E0,-2.646261E-1,-7.1882625E0,1.3435844E0,2.6043527E0,-1.3818272E0,-1.2662497E0,1.1886286E0,1.1908731E0,4.1685023E0,1.0706029E1,-3.8442802E0,-3.3181126E0,-5.902039E0,-2.247388E0,2.1121783E0,7.6562285E0,4.845389E0,5.156631E0,-1.929603E0],"split_indices":[0,8,2,6,0,6,8,0,3,6,5,3,2,9,3,0,3,10,9,11,6,0,9,9,10,9,10,0,3,5,5,0,0,2,3,10,3,0,0,0,10,3,3,2,11,0,11,5,2,8,11,5,0,0,3,5,2,0,6,6,10,0,0,0,0,0,0,0,0,0,0,0,0,0,0,0,0,0,0,0,0,0,0,0,0,0,0,0,0,0,0,0,0,0,0,0,0,0,0,0,0,0,0,0,0,0,0,0,0],"split_type":[0,0,0,0,0,0,0,0,0,0,0,0,0,0,0,0,0,0,0,0,0,0,0,0,0,0,0,0,0,0,0,0,0,0,0,0,0,0,0,0,0,0,0,0,0,0,0,0,0,0,0,0,0,0,0,0,0,0,0,0,0,0,0,0,0,0,0,0,0,0,0,0,0,0,0,0,0,0,0,0,0,0,0,0,0,0,0,0,0,0,0,0,0,0,0,0,0,0,0,0,0,0,0,0,0,0,0,0,0],"sum_hessian":[2.539E3,7.42E2,1.797E3,2.39E2,5.03E2,1.106E3,6.91E2,2.7E1,2.12E2,1.33E2,3.7E2,1.57E2,9.49E2,1.12E2,5.79E2,1.3E1,1.4E1,3E1,1.82E2,1.6E1,1.17E2,1.98E2,1.72E2,1.17E2,4E1,2.21E2,7.28E2,6.1E1,5.1E1,1.59E2,4.2E2,5E0,9E0,1.8E1,1.2E1,9.1E1,9.1E1,7E0,9E0,1.2E1,1.05E2,1.88E2,1E1,1.22E2,5E1,4.5E1,7.2E1,2E1,2E1,1.45E2,7.6E1,2.11E2,5.17E2,5E0,5.6E1,1.2E1,3.9E1,1.7E1,1.42E2,3.9E2,3E1,1.1E1,7E0,5E0,7E0,3.3E1,5.8E1,2.6E1,6.5E1,7E0,5E0,9.7E1,8E0,1.03E2,8.5E1,5E0,5E0,4E1,8.2E1,1.5E1,3.5E1,5E0,4E1,5.7E1,1.5E1,6E0,1.4E1,8E0,1.2E1,1.6E1,1.29E2,6.8E1,8E0,1.77E2,3.4E1,3.39E2,1.78E2,2.6E1,3E1,5E0,7E0,1.6E1,2.3E1,4.2E1,1E2,8.2E1,3.08E2,6E0,2.4E1],"tree_param":{"num_deleted":"0","num_feature":"12","num_nodes":"109","size_leaf_vector":"1"}},{"base_weights":[1.4517583E0,-8.695166E1,2.9068521E1,-1.8243466E2,-6.078212E1,9.941453E1,1.9286785E1,-1.5540901E2,-3.6358405E2,-5.2959103E1,-2.8139984E2,6.8163795E1,1.4317058E2,-1.3019273E0,5.199791E1,-3.5524023E2,-1.26169945E2,-2.665415E1,-1.0428319E1,1.00033264E2,-6.3130608E1,-2.165283E1,-7.354507E0,1.11586136E2,9.12962E0,1.1455185E2,1.6476627E2,7.1620264E0,-3.216732E1,-9.28534E0,6.4407E1,-1.1519298E1,-2.2358397E1,-1.4028017E2,1.6821728E0,1.3426881E2,1.0774419E0,-8.94437E1,-3.4752373E1,1.6381438E2,8.340375E1,8.7608E0,-9.1530695E0,1.7530254E0,1.2587974E2,9.163062E0,1.2508151E2,-1.744575E1,2.208686E1,-1.7281807E1,-1.2428095E2,1.4785724E2,-2.9827444E1,-1.7670876E1,7.63673E1,2.152437E0,-7.6709747E0,1.3644491E-1,8.896343E0,-3.6370656E0,-9.007348E0,-9.497647E-1,-5.3742704E0,3.9282417E0,8.98068E0,-3.471001E-1,5.0814695E0,-3.1582263E0,3.1619709E0,1.75782E0,7.2311854E0,3.4637878E0,8.697485E0,-1.8081255E0,1.875129E0,2.2258835E0,1.7177966E-1,-7.6024384E0,-6.455762E-1,-1.6041765E1,-3.7069187E0,4.786449E0,8.942438E0,-2.905569E0,-2.0903964E-1,3.7405841E0,-1.9048389E0,4.305148E0,2.2747448E-2],"categories":[],"categories_nodes":[],"categories_segments":[],"categories_sizes":[],"default_left":[0,0,0,0,0,0,0,0,0,0,0,0,0,0,0,0,0,0,0,0,0,0,0,0,0,0,0,0,0,0,0,0,0,0,0,0,0,0,0,0,0,0,0,0,0,0,0,0,0,0,0,0,0,0,0,0,0,0,0,0,0,0,0,0,0,0,0,0,0,0,0,0,0,0,0,0,0,0,0,0,0,0,0,0,0,0,0,0,0],"id":9,"left_children":[1,3,5,7,9,11,13,15,17,19,21,23,25,27,29,31,33,-1,-1,35,37,-1,-1,39,41,43,45,47,49,51,53,-1,-1,55,-1,57,-1,59,61,63,65,-1,67,-1,69,-1,71,73,75,77,79,81,83,85,87,-1,-1,-1,-1,-1,-1,-1,-1,-1,-1,-1,-1,-1,-1,-1,-1,-1,-1,-1,-1,-1,-1,-1,-1,-1,-1,-1,-1,-1,-1,-1,-1,-1,-1],"loss_changes":[6.174422E6,1.493132E6,1.324051E6,5.749865E5,8.031391E5,3.1156075E5,1.1402742E6,6.212195E5,3.09148E5,7.205904E5,2.6214738E5,3.5528206E5,4.1047875E4,2.719259E5,4.979505E5,5.7597125E4,2.324855E5,0E0,0E0,7.5012875E4,3.1871512E5,0E0,0E0,1.0406594E5,1.838107E5,3.6091625E4,1.594675E4,3.004429E5,3.0497762E5,3.6271075E5,5.3538725E5,0E0,0E0,2.3063575E5,0E0,1.1435191E5,0E0,3.2470688E5,2.3747217E5,2.2228562E4,8.9631875E4,0E0,2.1904577E5,0E0,6.1217625E4,0E0,4.2467688E4,3.191486E5,2.1278902E5,1.1228045E5,2.8170234E5,3.8534688E3,7.1564266E4,1.3507919E5,3.5100425E5,0E0,0E0,0E0,0E0,0E0,0E0,0E0,0E0,0E0,0E0,0E0,0E0,0E0,0E0,0E0,0E0,0E0,0E0,0E0,0E0,0E0,0E0,0E0,0E0,0E0,0E0,0E0,0E0,0E0,0E0,0E0,0E0,0E0,0E0],"parents":[2147483647,0,0,1,1,2,2,3,3,4,4,5,5,6,6,7,7,8,8,9,9,10,10,11,11,12,12,13,13,14,14,15,15,16,16,19,19,20,20,23,23,24,24,25,25,26,26,27,27,28,28,29,29,30,30,33,33,35,35,37,37,38,38,39,39,40,40,42,42,44,44,46,46,47,47,48,48,49,49,50,50,51,51,52,52,53,53,54,54],"right_children":[2,4,6,8,10,12,14,16,18,20,22,24,26,28,30,32,34,-1,-1,36,38,-1,-1,40,42,44,46,48,50,52,54,-1,-1,56,-1,58,-1,60,62,64,66,-1,68,-1,70,-1,72,74,76,78,80,82,84,86,88,-1,-1,-1,-1,-1,-1,-1,-1,-1,-1,-1,-1,-1,-1,-1,-1,-1,-1,-1,-1,-1,-1,-1,-1,-1,-1,-1,-1,-1,-1,-1,-1,-1,-1],"split_conditions":[3.6034402E2,2.7342596E2,3.1881243E1,9.2210785E1,9.6539215E1,4.295727E2,4.343128E2,1.7878894E2,9.659258E-1,2.282353E1,3.1655978E2,4.3293408E2,4.3388373E-1,8.706373E1,-8.660254E-1,3.1505457E2,3.3332288E2,-2.665415E1,-1.0428319E1,8.660254E-1,3.571784E2,-2.165283E1,-7.354507E0,6.5882354E0,-7.818315E-1,4.1063248E2,6.234898E-1,3.856957E2,4.3902747E2,-4.3388373E-1,3.5271542E2,-1.1519298E1,-2.2358397E1,-2.5881904E-1,1.6821728E0,3.1358667E2,1.0774419E0,9.081863E1,4.2259085E2,4.544118E0,-2.5881904E-1,8.7608E0,4.675873E2,1.7530254E0,4.238687E2,9.163062E0,2.0029411E1,8.257353E1,0E0,2.5596962E2,4.4504562E2,4.6855142E2,4.1390457E2,-2.5881904E-1,8.660254E-1,2.152437E0,-7.6709747E0,1.3644491E-1,8.896343E0,-3.6370656E0,-9.007348E0,-9.497647E-1,-5.3742704E0,3.9282417E0,8.98068E0,-3.471001E-1,5.0814695E0,-3.1582263E0,3.1619709E0,1.75782E0,7.2311854E0,3.4637878E0,8.697485E0,-1.8081255E0,1.875129E0,2.2258835E0,1.7177966E-1,-7.6024384E0,-6.455762E-1,-1.6041765E1,-3.7069187E0,4.786449E0,8.942438E0,-2.905569E0,-2.0903964E-1,3.7405841E0,-1.9048389E0,4.305148E0,2.2747448E-2],"split_indices":[1,1,4,6,4,1,2,2,8,6,1,3,10,4,8,3,0,0,0,8,2,0,0,4,10,2,11,2,3,10,3,0,0,8,0,1,0,4,2,6,8,0,3,0,0,0,6,4,10,2,3,3,1,8,8,0,0,0,0,0,0,0,0,0,0,0,0,0,0,0,0,0,0,0,0,0,0,0,0,0,0,0,0,0,0,0,0,0,0],"split_type":[0,0,0,0,0,0,0,0,0,0,0,0,0,0,0,0,0,0,0,0,0,0,0,0,0,0,0,0,0,0,0,0,0,0,0,0,0,0,0,0,0,0,0,0,0,0,0,0,0,0,0,0,0,0,0,0,0,0,0,0,0,0,0,0,0,0,0,0,0,0,0,0,0,0,0,0,0,0,0,0,0,0,0,0,0,0,0,0,0],"sum_hessian":[2.527E3,6.01E2,1.926E3,1.28E2,4.73E2,2.34E2,1.692E3,1.13E2,1.5E1,4.58E2,1.5E1,1.38E2,9.6E1,1.039E3,6.53E2,1.3E1,1E2,6E0,9E0,2.8E1,4.3E2,6E0,9E0,7.9E1,5.9E1,4.4E1,5.2E1,8.16E2,2.23E2,1.1E2,5.43E2,7E0,6E0,9.2E1,8E0,1.9E1,9E0,2.22E2,2.08E2,2.6E1,5.3E1,5E0,5.4E1,6E0,3.8E1,3.3E1,1.9E1,3.08E2,5.08E2,1.93E2,3E1,1.2E1,9.8E1,6.9E1,4.74E2,6E0,8.6E1,5E0,1.4E1,1.89E2,3.3E1,1.72E2,3.6E1,5E0,2.1E1,9E0,4.4E1,3.1E1,2.3E1,7E0,3.1E1,1E1,9E0,2.3E2,7.8E1,2.3E2,2.78E2,5E0,1.88E2,5E0,2.5E1,6E0,6E0,4.6E1,5.2E1,1.2E1,5.7E1,4.2E2,5.4E1],"tree_param":{"num_deleted":"0","num_feature":"12","num_nodes":"89","size_leaf_vector":"1"}},{"base_weights":[-3.193801E0,-6.456707E1,2.7845291E1,-1.5551427E2,-4.7870712E1,1.2790688E1,7.337886E1,-1.2921051E2,-3.4855576E2,-2.6650928E1,-1.06872925E2,7.283564E1,-9.5137763E-1,3.912726E1,9.4447586E1,-2.9447745E2,-1.01749306E2,-2.551183E1,-9.203224E0,7.266407E1,-3.5437664E1,-9.339619E1,-2.8109857E2,9.134435E0,5.9933693E1,-5.210087E1,7.052569E0,1.3246014E2,2.3963846E1,1.2052928E2,7.350525E1,-7.469838E0,-1.9535362E1,-1.3523427E2,-5.1488674E1,1.0831917E2,-3.702866E0,-2.682431E1,-9.140754E1,-1.5895454E2,-5.982466E1,-2.418691E1,-4.698453E0,7.164671E1,-7.4558134E0,-1.2295352E2,-2.3946323E1,-1.3582209E1,2.63598E1,3.0395082E-1,1.692676E2,-7.268376E1,3.723553E1,7.948727E1,1.3262984E2,1.0311374E2,3.379888E1,-4.9723306E0,-1.2848147E1,4.6772017E0,-3.913101E0,6.4020576E0,-4.1636536E-1,-1.7383549E0,8.949564E-1,-8.877124E0,-2.5545926E0,-1.0659476E1,-2.126593E0,8.825655E-1,-4.0421205E0,5.907868E0,2.5031652E0,3.3070982E0,-2.7463288E0,-4.2570786E0,-1.41815405E1,-2.3389497E0,5.024478E-1,-1.5333066E0,1.3507098E0,1.870027E0,-7.9938245E-1,5.8785567E0,1.0107272E1,-6.43662E0,-1.0283239E0,4.544498E0,1.1994473E-1,5.219751E0,-1.4611815E0,9.988192E0,6.1024985E0,6.4710283E0,1.0265508E0,-3.9371145E0,2.8260326E0],"categories":[],"categories_nodes":[],"categories_segments":[],"categories_sizes":[],"default_left":[0,0,0,0,0,0,0,0,0,0,0,0,0,0,0,0,0,0,0,0,0,0,0,0,0,0,0,0,0,0,0,0,0,0,0,0,0,0,0,0,0,0,0,0,0,0,0,0,0,0,0,0,0,0,0,0,0,0,0,0,0,0,0,0,0,0,0,0,0,0,0,0,0,0,0,0,0,0,0,0,0,0,0,0,0,0,0,0,0,0,0,0,0,0,0,0,0],"id":10,"left_children":[1,3,5,7,9,11,13,15,17,19,21,23,25,27,29,31,33,-1,-1,35,37,39,41,-1,43,45,47,49,51,53,55,-1,-1,57,59,61,-1,63,65,67,69,-1,-1,71,73,75,77,79,81,-1,83,85,87,89,91,93,95,-1,-1,-1,-1,-1,-1,-1,-1,-1,-1,-1,-1,-1,-1,-1,-1,-1,-1,-1,-1,-1,-1,-1,-1,-1,-1,-1,-1,-1,-1,-1,-1,-1,-1,-1,-1,-1,-1,-1,-1],"loss_changes":[4.7699425E6,1.2695825E6,1.1390224E6,6.150185E5,8.885724E5,1.03232875E6,2.943275E5,4.9645538E5,3.0494038E5,4.6071506E5,4.15132E5,3.1926162E5,4.175483E5,2.2183405E5,1.30405E5,1.64953E5,1.6299881E5,0E0,0E0,2.3297398E5,2.3038494E5,3.7782612E5,4.47444E5,0E0,1.6630088E5,2.7232675E5,3.517485E5,1.0129234E5,1.7971225E5,4.5059125E4,1.6579412E5,0E0,0E0,2.3579325E5,1.7040584E5,8.159569E4,0E0,1.498201E5,2.1315188E5,3.6344375E5,1.9358106E5,0E0,0E0,1.737585E5,1.1543158E5,2.1275969E5,7.809405E4,2.969728E5,2.1380156E5,0E0,5.0959375E3,4.6996242E4,2.2780769E5,7.8875125E4,3.5959625E4,1.75472E5,1.6554783E5,0E0,0E0,0E0,0E0,0E0,0E0,0E0,0E0,0E0,0E0,0E0,0E0,0E0,0E0,0E0,0E0,0E0,0E0,0E0,0E0,0E0,0E0,0E0,0E0,0E0,0E0,0E0,0E0,0E0,0E0,0E0,0E0,0E0,0E0,0E0,0E0,0E0,0E0,0E0,0E0],"parents":[2147483647,0,0,1,1,2,2,3,3,4,4,5,5,6,6,7,7,8,8,9,9,10,10,11,11,12,12,13,13,14,14,15,15,16,16,19,19,20,20,21,21,22,22,24,24,25,25,26,26,27,27,28,28,29,29,30,30,33,33,34,34,35,35,37,37,38,38,39,39,40,40,43,43,44,44,45,45,46,46,47,47,48,48,50,50,51,51,52,52,53,53,54,54,55,55,56,56],"right_children":[2,4,6,8,10,12,14,16,18,20,22,24,26,28,30,32,34,-1,-1,36,38,40,42,-1,44,46,48,50,52,54,56,-1,-1,58,60,62,-1,64,66,68,70,-1,-1,72,74,76,78,80,82,-1,84,86,88,90,92,94,96,-1,-1,-1,-1,-1,-1,-1,-1,-1,-1,-1,-1,-1,-1,-1,-1,-1,-1,-1,-1,-1,-1,-1,-1,-1,-1,-1,-1,-1,-1,-1,-1,-1,-1,-1,-1,-1,-1,-1,-1],"split_conditions":[3.8120233E2,2.7342596E2,4.5617694E2,9.2210785E1,8.7960785E1,5.045098E1,4.3974915E2,1.7878894E2,9.659258E-1,2.282353E1,9.6916664E1,3.6497214E2,3.5362518E2,4.0362743E1,6.9067795E1,1.5850081E2,2.7342596E2,-2.551183E1,-9.203224E0,1E0,1E0,3.318241E2,3.1655978E2,9.134435E0,1E0,8.057843E1,4.1884656E2,4.877451E0,3.9066537E2,4.5373026E2,4.3388373E-1,-7.469838E0,-1.9535362E1,8.432353E1,2.1862745E1,9.659258E-1,-3.702866E0,9.749279E-1,6.2990196E1,9.339216E1,8.706373E1,-2.418691E1,-4.698453E0,3.9350864E2,9.892157E0,9.749279E-1,8.856373E1,4.2961353E2,8.670588E1,3.0395082E-1,1.1862745E1,6.670588E1,0E0,4.6486298E2,4.5997736E2,4.9327942E2,4.591606E2,-4.9723306E0,-1.2848147E1,4.6772017E0,-3.913101E0,6.4020576E0,-4.1636536E-1,-1.7383549E0,8.949564E-1,-8.877124E0,-2.5545926E0,-1.0659476E1,-2.126593E0,8.825655E-1,-4.0421205E0,5.907868E0,2.5031652E0,3.3070982E0,-2.7463288E0,-4.2570786E0,-1.41815405E1,-2.3389497E0,5.024478E-1,-1.5333066E0,1.3507098E0,1.870027E0,-7.9938245E-1,5.8785567E0,1.0107272E1,-6.43662E0,-1.0283239E0,4.544498E0,1.1994473E-1,5.219751E0,-1.4611815E0,9.988192E0,6.1024985E0,6.4710283E0,1.0265508E0,-3.9371145E0,2.8260326E0],"split_indices":[1,1,2,6,4,4,0,2,8,6,4,2,2,6,4,2,0,0,0,11,11,0,1,0,11,6,0,5,0,0,10,0,0,6,6,8,0,10,6,4,5,0,0,0,4,10,5,2,4,0,6,6,10,1,1,1,1,0,0,0,0,0,0,0,0,0,0,0,0,0,0,0,0,0,0,0,0,0,0,0,0,0,0,0,0,0,0,0,0,0,0,0,0,0,0,0,0],"split_type":[0,0,0,0,0,0,0,0,0,0,0,0,0,0,0,0,0,0,0,0,0,0,0,0,0,0,0,0,0,0,0,0,0,0,0,0,0,0,0,0,0,0,0,0,0,0,0,0,0,0,0,0,0,0,0,0,0,0,0,0,0,0,0,0,0,0,0,0,0,0,0,0,0,0,0,0,0,0,0,0,0,0,0,0,0,0,0,0,0,0,0,0,0,0,0,0,0],"sum_hessian":[2.502E3,8.4E2,1.662E3,1.29E2,7.11E2,1.25E3,4.12E2,1.15E2,1.4E1,5.24E2,1.87E2,2.32E2,1.018E3,1.58E2,2.54E2,1.5E1,1E2,6E0,8E0,4.2E1,4.82E2,1.75E2,1.2E1,2.3E1,2.09E2,1.37E2,8.81E2,2.1E1,1.37E2,1.11E2,1.43E2,7E0,8E0,5.9E1,4.1E1,3.4E1,8E0,4.19E2,6.3E1,5.8E1,1.17E2,5E0,7E0,1.78E2,3.1E1,3.8E1,9.9E1,4.26E2,4.55E2,5E0,1.6E1,1.6E1,1.21E2,2.7E1,8.4E1,8.1E1,6.2E1,4.7E1,1.2E1,6E0,3.5E1,2.9E1,5E0,3.56E2,6.3E1,1.9E1,4.4E1,3.9E1,1.9E1,2.5E1,9.2E1,5.5E1,1.23E2,1.2E1,1.9E1,3.2E1,6E0,5.9E1,4E1,3E2,1.26E2,3.61E2,9.4E1,8E0,8E0,7E0,9E0,4.7E1,7.4E1,2.2E1,5E0,9E0,7.5E1,6.1E1,2E1,1E1,5.2E1],"tree_param":{"num_deleted":"0","num_feature":"12","num_nodes":"97","size_leaf_vector":"1"}},{"base_weights":[-1.8267215E0,-7.965933E1,2.3508411E1,-1.4649147E2,-6.2589836E1,6.465634E0,6.823327E1,-1.09957794E2,-2.971739E2,3.1279716E1,-7.7003654E1,6.932379E1,-4.6198435E0,1.2008696E2,4.8288174E1,-1.8492921E2,-6.5124886E1,-2.4439766E1,-1.895124E2,-5.0452113E0,4.838458E1,-6.986317E1,-2.5828375E2,9.6625015E1,2.16201E1,1.187402E1,-4.0197456E1,1.3384787E2,7.4318954E1,-1.1798549E1,6.651816E1,-2.2832037E1,-2.8964774E2,1.8092724E1,-1.1311096E2,-4.933794E0,-2.3007997E2,7.336756E0,2.3309248E1,-1.4755896E2,-6.030211E1,-1.9845846E1,-6.7701087E0,1.566899E2,7.5019646E1,-2.7631504E1,1.0409625E2,-3.8186657E1,2.2257668E1,-2.5899002E2,-2.8407131E1,1.5511871E2,9.7930466E1,-2.6026027E0,1.0133156E2,-5.9872513E0,1.6726041E0,-9.996018E1,7.395717E1,-9.8157E0,6.694997E0,-8.355813E0,-1.9401678E1,-8.729168E-1,4.1622767E0,-2.9398575E0,-1.0876582E1,-5.360107E0,-1.5729724E1,-2.0061145E0,3.071898E0,-1.9383108E1,-5.0338697E0,-1.2785475E0,-4.313536E0,4.427559E0,9.271179E0,-2.9307199E0,4.213627E0,-2.6101055E0,5.240281E0,2.0048046E0,1.025848E1,-8.627578E0,-1.1476682E0,-5.1536137E-1,1.8384532E0,-2.1756422E1,-5.99868E0,1.3122067E0,-2.2171762E0,8.133263E0,3.9086998E0,6.2156544E0,-1.815898E0,6.1839404E0,2.212959E0,-2.0742593E0,2.0389574E0,-5.9393015E0,-2.9091184E0,3.1983576E0,7.9451127E0],"categories":[],"categories_nodes":[],"categories_segments":[],"categories_sizes":[],"default_left":[0,0,0,0,0,0,0,0,0,0,0,0,0,0,0,0,0,0,0,0,0,0,0,0,0,0,0,0,0,0,0,0,0,0,0,0,0,0,0,0,0,0,0,0,0,0,0,0,0,0,0,0,0,0,0,0,0,0,0,0,0,0,0,0,0,0,0,0,0,0,0,0,0,0,0,0,0,0,0,0,0,0,0,0,0,0,0,0,0,0,0,0,0,0,0,0,0,0,0,0,0,0,0],"id":11,"left_children":[1,3,5,7,9,11,13,15,17,19,21,23,25,27,29,31,33,-1,35,-1,37,39,41,43,45,47,49,51,53,55,57,59,61,63,65,-1,67,-1,69,71,73,-1,-1,75,77,79,81,83,85,87,89,91,93,-1,95,-1,97,99,101,-1,-1,-1,-1,-1,-1,-1,-1,-1,-1,-1,-1,-1,-1,-1,-1,-1,-1,-1,-1,-1,-1,-1,-1,-1,-1,-1,-1,-1,-1,-1,-1,-1,-1,-1,-1,-1,-1,-1,-1,-1,-1,-1,-1],"loss_changes":[5.0026155E6,7.0152325E5,1.4584708E6,6.609105E5,6.762166E5,9.6680594E5,5.40256E5,3.3413375E5,4.024255E5,1.5636316E5,5.4111625E5,2.6879188E5,6.929186E5,8.1984E4,4.2032094E5,6.383894E5,2.6561294E5,0E0,3.9909062E4,0E0,1.4453305E5,3.0085112E5,2.1877075E5,1.5952162E5,3.1566438E5,4.2033694E5,9.57398E5,6.9587125E4,1.28169375E5,1.3108681E5,3.7148962E5,4.6133534E5,2.12371E5,5.9366203E4,2.2538462E5,0E0,8.046719E4,0E0,1.2097672E5,4.6746112E5,3.3419888E5,0E0,0E0,5.0120938E4,1.2735569E5,1.6491478E5,1.7934156E5,2.8052775E5,3.165256E5,4.12977E5,3.112217E5,2.6745125E4,1.603639E5,0E0,3.2771625E4,0E0,1.3839955E5,3.2955781E3,2.2911938E5,0E0,0E0,0E0,0E0,0E0,0E0,0E0,0E0,0E0,0E0,0E0,0E0,0E0,0E0,0E0,0E0,0E0,0E0,0E0,0E0,0E0,0E0,0E0,0E0,0E0,0E0,0E0,0E0,0E0,0E0,0E0,0E0,0E0,0E0,0E0,0E0,0E0,0E0,0E0,0E0,0E0,0E0,0E0,0E0],"parents":[2147483647,0,0,1,1,2,2,3,3,4,4,5,5,6,6,7,7,8,8,9,9,10,10,11,11,12,12,13,13,14,14,15,15,16,16,18,18,20,20,21,21,22,22,23,23,24,24,25,25,26,26,27,27,28,28,29,29,30,30,31,31,32,32,33,33,34,34,36,36,38,38,39,39,40,40,43,43,44,44,45,45,46,46,47,47,48,48,49,49,50,50,51,51,52,52,54,54,56,56,57,57,58,58],"right_children":[2,4,6,8,10,12,14,16,18,20,22,24,26,28,30,32,34,-1,36,-1,38,40,42,44,46,48,50,52,54,56,58,60,62,64,66,-1,68,-1,70,72,74,-1,-1,76,78,80,82,84,86,88,90,92,94,-1,96,-1,98,100,102,-1,-1,-1,-1,-1,-1,-1,-1,-1,-1,-1,-1,-1,-1,-1,-1,-1,-1,-1,-1,-1,-1,-1,-1,-1,-1,-1,-1,-1,-1,-1,-1,-1,-1,-1,-1,-1,-1,-1,-1,-1,-1,-1,-1],"split_conditions":[3.6114044E2,2.7342596E2,4.4839008E2,8.913725E1,4.6651962E1,3.824683E1,6.2794117E1,6.2759804E1,9.659258E-1,2.7342596E2,9.6539215E1,4.3293408E2,5E-1,7.0710677E-1,3.5271542E2,2.1862745E1,7.650609E1,-2.4439766E1,3.3381204E2,-5.0452113E0,3.0960147E2,5.7063896E1,3.1655978E2,6.5882354E0,4.7219592E2,3.7105927E2,5.457843E1,6.234898E-1,3.907208E2,2.1421942E2,-8.660254E-1,1.0965686E1,2.4889401E2,8.6916664E1,5E-1,-4.933794E0,2.6166846E2,7.336756E0,3.244636E2,5.1107845E1,7.360784E1,-1.9845846E1,-6.7701087E0,6.234898E-1,4.336989E0,2.712745E1,-8.660254E-1,7.228432E1,-8.660254E-1,6.3788925E1,6.3612743E1,5.0147104E2,7.0666664E1,-2.6026027E0,4.7219592E2,-5.9872513E0,8.375525E1,7.237745E1,9.440196E1,-9.8157E0,6.694997E0,-8.355813E0,-1.9401678E1,-8.729168E-1,4.1622767E0,-2.9398575E0,-1.0876582E1,-5.360107E0,-1.5729724E1,-2.0061145E0,3.071898E0,-1.9383108E1,-5.0338697E0,-1.2785475E0,-4.313536E0,4.427559E0,9.271179E0,-2.9307199E0,4.213627E0,-2.6101055E0,5.240281E0,2.0048046E0,1.025848E1,-8.627578E0,-1.1476682E0,-5.1536137E-1,1.8384532E0,-2.1756422E1,-5.99868E0,1.3122067E0,-2.2171762E0,8.133263E0,3.9086998E0,6.2156544E0,-1.815898E0,6.1839404E0,2.212959E0,-2.0742593E0,2.0389574E0,-5.9393015E0,-2.9091184E0,3.1983576E0,7.9451127E0],"split_indices":[1,1,1,6,6,7,4,6,8,0,4,3,8,9,3,6,6,0,3,0,0,6,1,4,3,3,6,11,3,3,8,4,0,4,9,0,0,0,1,4,7,0,0,11,7,7,8,7,8,4,7,1,6,0,0,0,6,6,7,0,0,0,0,0,0,0,0,0,0,0,0,0,0,0,0,0,0,0,0,0,0,0,0,0,0,0,0,0,0,0,0,0,0,0,0,0,0,0,0,0,0,0,0],"split_type":[0,0,0,0,0,0,0,0,0,0,0,0,0,0,0,0,0,0,0,0,0,0,0,0,0,0,0,0,0,0,0,0,0,0,0,0,0,0,0,0,0,0,0,0,0,0,0,0,0,0,0,0,0,0,0,0,0,0,0,0,0,0,0,0,0,0,0,0,0,0,0,0,0,0,0,0,0,0,0,0,0,0,0,0,0,0,0,0,0,0,0,0,0,0,0,0,0,0,0,0,0,0,0],"sum_hessian":[2.535E3,6.22E2,1.913E3,1.25E2,4.97E2,1.386E3,5.27E2,1.02E2,2.3E1,6.6E1,4.31E2,2.07E2,1.179E3,1.45E2,3.82E2,3.7E1,6.5E1,7E0,1.6E1,7E0,5.9E1,4.16E2,1.5E1,1.31E2,7.6E1,8.06E2,3.73E2,1.1E2,3.5E1,8.9E1,2.93E2,1.5E1,2.2E1,2.4E1,4.1E1,6E0,1E1,1.1E1,4.8E1,4.4E1,3.72E2,6E0,9E0,3.3E1,9.8E1,4.8E1,2.8E1,1.38E2,6.68E2,1.8E1,3.55E2,6.7E1,4.3E1,6E0,2.9E1,9E0,8E1,1.2E1,2.81E2,7E0,8E0,1.1E1,1.1E1,1.6E1,8E0,2.8E1,1.3E1,5E0,5E0,1.8E1,3E1,6E0,3.8E1,1.6E2,2.12E2,1.1E1,2.2E1,6E0,9.2E1,4.1E1,7E0,1.8E1,1E1,1.3E1,1.25E2,2.06E2,4.62E2,7E0,1.1E1,8E1,2.75E2,6E1,7E0,3.6E1,7E0,2E1,9E0,3.8E1,4.2E1,7E0,5E0,2.53E2,2.8E1],"tree_param":{"num_deleted":"0","num_feature":"12","num_nodes":"103","size_leaf_vector":"1"}},{"base_weights":[1.8665932E0,-7.762203E1,2.3976976E1,-2.9443695E1,-1.1935274E2,5.0701523E0,5.6906837E1,-9.8768635E0,-1.3583351E2,-1.11712975E2,-2.349862E1,7.778861E1,-8.026521E0,-8.213251E0,7.141639E1,-1.9563443E2,8.8692343E-1,-1.8012285E2,-2.686832E0,-1.8737773E2,-8.361174E1,6.573616E1,8.423823E0,-4.8210926E0,-1.2736743E2,3.5554672E1,-5.186008E1,1.2951538E2,6.3392406E1,-1.5339266E1,-3.620009E0,1.0377876E2,-1.8409767E1,-1.2401824E2,-1.7336767E1,-3.1923969E0,2.9452705E0,-2.303325E2,-5.1287266E1,-1.1825563E1,-1.0004577E2,1.2128625E2,5.5012268E1,-7.204593E1,-1.2993497E0,-1.598794E1,-4.8005608E1,8.6441635E1,1.7893238E1,-7.727852E1,2.743994E1,1.3976155E2,7.927889E-1,4.4214466E1,8.464259E1,2.748528E0,7.609779E0,-1.2168784E1,-2.3211962E-2,-9.925643E0,-2.285321E0,-7.2788467E0,-1.7832981E1,8.7398225E-1,-1.0733667E1,-3.4729612E0,4.128099E0,-2.8886163E0,-6.898346E0,7.700744E0,1.935255E0,4.122308E0,1.3223809E0,-1.0807535E1,-3.8902304E-1,2.0929411E-1,-1.4146959E0,2.343082E0,-4.454164E0,-4.4129273E-1,6.9608583E0,-2.8535593E0,2.2521732E0,-2.0644526E0,-5.5145946E0,8.567035E0,-4.5207324E0,7.413591E0,3.9058952E0,3.5974534E0,9.95261E-1,4.6118045E0,-5.226844E0],"categories":[],"categories_nodes":[],"categories_segments":[],"categories_sizes":[],"default_left":[0,0,0,0,0,0,0,0,0,0,0,0,0,0,0,0,0,0,0,0,0,0,0,0,0,0,0,0,0,0,0,0,0,0,0,0,0,0,0,0,0,0,0,0,0,0,0,0,0,0,0,0,0,0,0,0,0,0,0,0,0,0,0,0,0,0,0,0,0,0,0,0,0,0,0,0,0,0,0,0,0,0,0,0,0,0,0,0,0,0,0,0,0],"id":12,"left_children":[1,3,5,7,9,11,13,15,17,19,-1,21,23,25,27,29,31,33,35,37,39,41,-1,43,45,47,49,51,53,-1,-1,55,57,59,-1,-1,-1,61,63,65,67,69,71,73,75,-1,77,79,81,83,85,87,-1,89,91,-1,-1,-1,-1,-1,-1,-1,-1,-1,-1,-1,-1,-1,-1,-1,-1,-1,-1,-1,-1,-1,-1,-1,-1,-1,-1,-1,-1,-1,-1,-1,-1,-1,-1,-1,-1,-1,-1],"loss_changes":[4.465966E6,1.1082868E6,1.2374325E6,5.3572544E5,7.403205E5,1.2044268E6,6.856185E5,4.3807362E5,2.3537688E5,6.030515E5,0E0,1.9985288E5,4.0945422E5,2.5591953E5,2.682185E5,1.421219E5,4.1489728E5,2.3738325E5,4.5199027E4,4.4412625E5,2.5126925E5,9.577281E4,0E0,2.4730134E5,4.1213184E5,5.865821E4,1.3717625E5,8.0453375E4,2.093855E5,0E0,0E0,6.959653E4,7.1039794E5,1.3091369E5,0E0,0E0,0E0,5.7973675E5,2.2848323E5,2.287692E5,2.7094162E5,6.699428E4,1.1221991E5,4.7986578E5,1.4730388E5,0E0,8.601426E4,8.6714195E4,1.0636984E5,5.602578E4,3.0380897E5,2.2494E4,0E0,1.85314E5,3.6446462E5,0E0,0E0,0E0,0E0,0E0,0E0,0E0,0E0,0E0,0E0,0E0,0E0,0E0,0E0,0E0,0E0,0E0,0E0,0E0,0E0,0E0,0E0,0E0,0E0,0E0,0E0,0E0,0E0,0E0,0E0,0E0,0E0,0E0,0E0,0E0,0E0,0E0,0E0],"parents":[2147483647,0,0,1,1,2,2,3,3,4,4,5,5,6,6,7,7,8,8,9,9,11,11,12,12,13,13,14,14,15,15,16,16,17,17,18,18,19,19,20,20,21,21,23,23,24,24,25,25,26,26,27,27,28,28,31,31,32,32,33,33,37,37,38,38,39,39,40,40,41,41,42,42,43,43,44,44,46,46,47,47,48,48,49,49,50,50,51,51,53,53,54,54],"right_children":[2,4,6,8,10,12,14,16,18,20,-1,22,24,26,28,30,32,34,36,38,40,42,-1,44,46,48,50,52,54,-1,-1,56,58,60,-1,-1,-1,62,64,66,68,70,72,74,76,-1,78,80,82,84,86,88,-1,90,92,-1,-1,-1,-1,-1,-1,-1,-1,-1,-1,-1,-1,-1,-1,-1,-1,-1,-1,-1,-1,-1,-1,-1,-1,-1,-1,-1,-1,-1,-1,-1,-1,-1,-1,-1,-1,-1,-1],"split_conditions":[3.563467E2,8.162255E1,4.3683878E2,1E0,9.777311E1,3.824683E1,-8.660254E-1,1.7878894E2,3.351789E2,2.7342596E2,-2.349862E1,4.4543814E2,9.565196E1,-1.8369701E-16,3.3549694E1,6.234898E-1,2.282353E1,7.901961E1,7.4696075E1,9.192647E1,7.413725E1,3.6059027E2,8.423823E0,5.045098E1,8.057843E1,4.7911766E1,4.3630176E2,8.660254E-1,8.465686E1,-1.5339266E1,-3.620009E0,8.660254E-1,3.2980392E1,6.127941E1,-1.7336767E1,-3.1923969E0,2.9452705E0,8.477941E1,5E-1,3.5571606E2,6.123234E-17,2.4161764E1,9.735294E0,3.6820456E2,8.843627E1,-1.598794E1,7.9039215E1,2.2559914E1,6.2137257E1,4.4747046E2,5.797549E1,1E0,7.927889E-1,7.26738E1,9.106138E1,2.748528E0,7.609779E0,-1.2168784E1,-2.3211962E-2,-9.925643E0,-2.285321E0,-7.2788467E0,-1.7832981E1,8.7398225E-1,-1.0733667E1,-3.4729612E0,4.128099E0,-2.8886163E0,-6.898346E0,7.700744E0,1.935255E0,4.122308E0,1.3223809E0,-1.0807535E1,-3.8902304E-1,2.0929411E-1,-1.4146959E0,2.343082E0,-4.454164E0,-4.4129273E-1,6.9608583E0,-2.8535593E0,2.2521732E0,-2.0644526E0,-5.5145946E0,8.567035E0,-4.5207324E0,7.413591E0,3.9058952E0,3.5974534E0,9.95261E-1,4.6118045E0,-5.226844E0],"split_indices":[1,4,2,11,5,7,8,1,1,1,0,1,4,9,5,11,6,4,4,5,6,2,0,7,6,4,1,9,7,0,0,9,6,7,0,0,0,6,9,2,9,6,7,2,4,0,7,7,5,2,4,11,0,7,4,0,0,0,0,0,0,0,0,0,0,0,0,0,0,0,0,0,0,0,0,0,0,0,0,0,0,0,0,0,0,0,0,0,0,0,0,0,0],"split_type":[0,0,0,0,0,0,0,0,0,0,0,0,0,0,0,0,0,0,0,0,0,0,0,0,0,0,0,0,0,0,0,0,0,0,0,0,0,0,0,0,0,0,0,0,0,0,0,0,0,0,0,0,0,0,0,0,0,0,0,0,0,0,0,0,0,0,0,0,0,0,0,0,0,0,0,0,0,0,0,0,0,0,0,0,0,0,0,0,0,0,0,0,0],"sum_hessian":[2.539E3,5.52E2,1.987E3,2.57E2,2.95E2,1.263E3,7.24E2,2.18E2,3.9E1,2.9E2,5E0,1.92E2,1.071E3,1.32E2,5.92E2,1.1E1,2.07E2,2.9E1,1E1,7.7E1,2.13E2,1.71E2,2.1E1,1.044E3,2.7E1,6.6E1,6.6E1,7E1,5.22E2,5E0,6E0,3.2E1,1.75E2,2.3E1,6E0,5E0,5E0,5.8E1,1.9E1,4E1,1.73E2,2.6E1,1.45E2,5.1E1,9.93E2,7E0,2E1,1.6E1,5E1,5E1,1.6E1,6.4E1,6E0,2.76E2,2.46E2,1.7E1,1.5E1,1.2E1,1.63E2,1.1E1,1.2E1,3.6E1,2.2E1,1.4E1,5E0,2.5E1,1.5E1,8.3E1,9E1,1.8E1,8E0,7.3E1,7.2E1,1.5E1,3.6E1,8.26E2,1.67E2,6E0,1.4E1,6E0,1E1,1.3E1,3.7E1,2.5E1,2.5E1,7E0,9E0,5.5E1,9E0,1.28E2,1.48E2,2.37E2,9E0],"tree_param":{"num_deleted":"0","num_feature":"12","num_nodes":"93","size_leaf_vector":"1"}},{"base_weights":[-2.8734443E-1,-5.898306E1,2.6134195E1,-1.468598E2,-4.19283E1,1.2532198E1,6.3841602E1,-1.23525826E2,-2.8258826E2,6.881317E1,-4.820993E1,6.4110886E1,3.7374287E0,1.3893387E2,5.1071873E1,-1.4889662E2,-1.4116881E1,-1.7693052E1,-7.462608E0,9.520995E0,7.5590415E0,-3.9188995E1,-1.0697042E2,1.1347275E2,4.065412E1,-2.5818195E1,1.5000964E1,1.653808E2,1.1156343E2,1.8161243E1,8.150945E1,-3.6082554E1,-1.8486319E2,-6.447217E0,4.8058884E1,4.986664E0,-3.9220287E1,-9.780556E1,-3.0221245E1,-2.0267676E2,-6.690338E1,1.347981E2,4.0503464E1,7.288472E1,-3.559046E1,-4.1917545E1,3.1994682E1,1.7812809E1,-1.4412923E2,5.1014237E0,1.7607254E2,3.8573308E0,6.1808486E0,1.11527695E2,6.1128526E0,4.9147255E1,1.0959933E2,-5.797214E0,7.116658E-1,-2.0946698E0,-1.0737485E1,5.989659E0,-6.531608E-1,7.3367494E-1,-3.3822267E0,-1.7240256E0,-8.188058E0,2.8031113E0,-2.1060767E0,-1.7575552E1,-3.5625749E0,-2.2936404E0,-8.372951E0,7.2554665E0,2.830281E0,9.046226E0,-5.248401E0,6.7227683E0,2.3761897E0,1.0651897E0,-4.53551E0,-6.5347533E0,-1.7265049E0,9.537735E0,8.056577E-1,1.087457E1,8.0000895E-1,-2.3330226E0,-1.0569288E1,1.0428041E1,6.3766723E0,-4.2570433E-1,7.8540874E0,-4.253506E0,6.7419446E-1,4.5224013E0,-1.2245759E0,6.4689674E0,3.907543E0],"categories":[],"categories_nodes":[],"categories_segments":[],"categories_sizes":[],"default_left":[0,0,0,0,0,0,0,0,0,0,0,0,0,0,0,0,0,0,0,0,0,0,0,0,0,0,0,0,0,0,0,0,0,0,0,0,0,0,0,0,0,0,0,0,0,0,0,0,0,0,0,0,0,0,0,0,0,0,0,0,0,0,0,0,0,0,0,0,0,0,0,0,0,0,0,0,0,0,0,0,0,0,0,0,0,0,0,0,0,0,0,0,0,0,0,0,0,0,0],"id":13,"left_children":[1,3,5,7,9,11,13,15,17,19,21,23,25,27,29,31,33,-1,-1,35,-1,37,39,41,43,45,47,49,51,53,55,57,59,-1,61,-1,63,65,67,69,71,73,75,77,79,81,83,85,87,-1,89,-1,-1,91,93,95,97,-1,-1,-1,-1,-1,-1,-1,-1,-1,-1,-1,-1,-1,-1,-1,-1,-1,-1,-1,-1,-1,-1,-1,-1,-1,-1,-1,-1,-1,-1,-1,-1,-1,-1,-1,-1,-1,-1,-1,-1,-1,-1],"loss_changes":[3.9468595E6,1.1778098E6,8.99325E5,3.704395E5,4.6452275E5,5.853804E5,4.3877762E5,3.059945E5,1.18193375E5,1.743598E5,3.2868025E5,2.13051E5,3.6790872E5,3.002075E4,3.98196E5,3.584855E5,1.6327367E5,0E0,0E0,1.0065298E5,0E0,2.8404106E5,3.046908E5,8.788844E4,3.1960347E5,2.8522075E5,3.6051425E5,3.682875E3,5.3776875E3,2.1641519E5,1.8277088E5,9.4081625E4,2.8153275E5,0E0,6.734381E4,0E0,2.3976229E4,2.950518E5,4.9008912E5,4.44366E5,1.1918141E5,2.8853812E4,3.2540775E5,1.3568744E5,1.24243266E5,1.5221612E5,1.6583622E5,2.81346E5,8.188659E4,0E0,1.4368625E4,0E0,0E0,1.2165684E5,1.1674337E5,3.0027294E5,5.8293875E4,0E0,0E0,0E0,0E0,0E0,0E0,0E0,0E0,0E0,0E0,0E0,0E0,0E0,0E0,0E0,0E0,0E0,0E0,0E0,0E0,0E0,0E0,0E0,0E0,0E0,0E0,0E0,0E0,0E0,0E0,0E0,0E0,0E0,0E0,0E0,0E0,0E0,0E0,0E0,0E0,0E0,0E0],"parents":[2147483647,0,0,1,1,2,2,3,3,4,4,5,5,6,6,7,7,8,8,9,9,10,10,11,11,12,12,13,13,14,14,15,15,16,16,19,19,21,21,22,22,23,23,24,24,25,25,26,26,27,27,28,28,29,29,30,30,31,31,32,32,34,34,36,36,37,37,38,38,39,39,40,40,41,41,42,42,43,43,44,44,45,45,46,46,47,47,48,48,50,50,53,53,54,54,55,55,56,56],"right_children":[2,4,6,8,10,12,14,16,18,20,22,24,26,28,30,32,34,-1,-1,36,-1,38,40,42,44,46,48,50,52,54,56,58,60,-1,62,-1,64,66,68,70,72,74,76,78,80,82,84,86,88,-1,90,-1,-1,92,94,96,98,-1,-1,-1,-1,-1,-1,-1,-1,-1,-1,-1,-1,-1,-1,-1,-1,-1,-1,-1,-1,-1,-1,-1,-1,-1,-1,-1,-1,-1,-1,-1,-1,-1,-1,-1,-1,-1,-1,-1,-1,-1,-1],"split_conditions":[3.7758612E2,2.7342596E2,4.5373026E2,9.2210785E1,2.282353E1,3.2980392E1,4.7911766E1,9.002451E1,2.6881265E2,8.660254E-1,1E0,-1.8369701E-16,3.876914E2,4.6249615E2,4.2344116E2,6.123234E-17,8.375525E1,-1.7693052E1,-7.462608E0,3.2220224E2,7.5590415E0,3.0290353E2,3.252048E2,1E0,4.4350797E2,4.459831E2,9.565196E1,4.5617444E2,1.4725491E1,-7.818315E-1,4.7374564E2,2.1421942E2,2.1862745E1,-6.447217E0,3.4932303E2,4.986664E0,1.0862745E1,8.257353E1,3.1851883E2,8.2338234E1,4.3776614E2,4.3770203E2,9.063725E0,-2.2252093E-1,4.3388373E-1,5.6186275E1,5.564216E1,3.8887036E2,4.2119717E2,5.1014237E0,3.1593138E1,3.8573308E0,6.1808486E0,7.1553925E1,-4.3388373E-1,4.635348E2,4.3388373E-1,-5.797214E0,7.116658E-1,-2.0946698E0,-1.0737485E1,5.989659E0,-6.531608E-1,7.3367494E-1,-3.3822267E0,-1.7240256E0,-8.188058E0,2.8031113E0,-2.1060767E0,-1.7575552E1,-3.5625749E0,-2.2936404E0,-8.372951E0,7.2554665E0,2.830281E0,9.046226E0,-5.248401E0,6.7227683E0,2.3761897E0,1.0651897E0,-4.53551E0,-6.5347533E0,-1.7265049E0,9.537735E0,8.056577E-1,1.087457E1,8.0000895E-1,-2.3330226E0,-1.0569288E1,1.0428041E1,6.3766723E0,-4.2570433E-1,7.8540874E0,-4.253506E0,6.7419446E-1,4.5224013E0,-1.2245759E0,6.4689674E0,3.907543E0],"split_indices":[1,1,1,6,6,6,5,5,0,9,11,9,2,2,3,9,6,0,0,1,0,0,3,11,3,0,6,0,5,10,2,2,6,0,3,0,5,5,0,6,3,0,5,11,10,5,6,2,1,0,6,0,0,6,10,3,10,0,0,0,0,0,0,0,0,0,0,0,0,0,0,0,0,0,0,0,0,0,0,0,0,0,0,0,0,0,0,0,0,0,0,0,0,0,0,0,0,0,0],"split_type":[0,0,0,0,0,0,0,0,0,0,0,0,0,0,0,0,0,0,0,0,0,0,0,0,0,0,0,0,0,0,0,0,0,0,0,0,0,0,0,0,0,0,0,0,0,0,0,0,0,0,0,0,0,0,0,0,0,0,0,0,0,0,0,0,0,0,0,0,0,0,0,0,0,0,0,0,0,0,0,0,0,0,0,0,0,0,0,0,0,0,0,0,0,0,0,0,0,0,0],"sum_hessian":[2.543E3,7.89E2,1.754E3,1.27E2,6.62E2,1.29E3,4.64E2,1.1E2,1.7E1,3.5E1,6.27E2,1.87E2,1.103E3,6.6E1,3.98E2,8.9E1,2.1E1,1E1,7E0,2.1E1,1.4E1,5.45E2,8.2E1,5.9E1,1.28E2,3.04E2,7.99E2,3.1E1,3.5E1,1.92E2,2.06E2,2.2E1,6.7E1,7E0,1.4E1,7E0,1.4E1,7.1E1,4.74E2,2.3E1,5.9E1,4.5E1,1.4E1,9E1,3.8E1,2.38E2,6.6E1,7.86E2,1.3E1,6E0,2.5E1,1.1E1,2.4E1,2.1E1,1.71E2,9.7E1,1.09E2,8E0,1.4E1,1.2E1,5.5E1,6E0,8E0,5E0,9E0,3.7E1,3.4E1,5.7E1,4.17E2,1E1,1.3E1,5E1,9E0,3.9E1,6E0,7E0,7E0,2.5E1,6.5E1,1.9E1,1.9E1,1.7E1,2.21E2,5E0,6.1E1,6E0,7.8E2,6E0,7E0,1.3E1,1.2E1,6E0,1.5E1,1.2E1,1.59E2,6.2E1,3.5E1,6.5E1,4.4E1],"tree_param":{"num_deleted":"0","num_feature":"12","num_nodes":"99","size_leaf_vector":"1"}},{"base_weights":[-1.0752639E0,-9.9436806E1,1.3961904E1,1.9004852E1,-1.1145895E2,-7.806999E0,4.1515694E1,1.314176E2,-8.790743E1,-1.6620158E2,-8.381181E1,3.0378565E1,-2.4283281E1,8.519219E0,6.061621E1,7.483143E0,3.802419E0,-1.4566997E2,2.1126096E0,-1.3211794E2,-2.9933368E2,-1.4825813E2,-6.1649746E1,1.0737685E1,1.0104892E2,2.6764011E1,-3.1688604E1,1.062414E2,-3.0393581E0,8.400796E1,4.7657444E1,-1.0818756E1,-3.2120628E0,-1.6671219E2,1.1989931E1,-2.0876762E2,-1.845065E1,-3.5956757E1,-2.6810135E2,-1.4294868E1,-5.2268173E1,1.4816595E2,1.203231E0,6.4203766E1,1.9116698E2,5.564792E1,-7.7398796E0,-5.654486E1,-1.9491478E1,-2.608359E-1,1.3158087E2,-9.494235E0,1.1089226E0,4.968632E1,1.0668366E2,1.5624442E1,7.570649E1,-1.622373E1,-6.6670146E0,3.8205476E0,-3.5011292E0,-4.468875E0,-1.4667323E1,-8.040369E0,2.699146E-1,-1.766588E1,-8.112713E0,-5.071968E0,2.687588E-1,9.217249E0,1.9518623E0,7.4171656E-1,-3.847658E0,4.9260645E0,5.0240856E-1,1.0600355E1,5.6615696E0,4.208314E0,-1.0715909E0,3.6502645E0,-1.5886216E0,-6.162721E0,-3.754557E-1,-5.6781306E0,-7.1935225E-1,7.0889688E0,3.2720265E0,6.334099E-1,-2.526331E0,7.3267403E0,1.322528E0,6.83751E0,4.083749E0,1.4014653E0,-2.2861032E0,1.7678918E0,4.7396994E0],"categories":[],"categories_nodes":[],"categories_segments":[],"categories_sizes":[],"default_left":[0,0,0,0,0,0,0,0,0,0,0,0,0,0,0,0,0,0,0,0,0,0,0,0,0,0,0,0,0,0,0,0,0,0,0,0,0,0,0,0,0,0,0,0,0,0,0,0,0,0,0,0,0,0,0,0,0,0,0,0,0,0,0,0,0,0,0,0,0,0,0,0,0,0,0,0,0,0,0,0,0,0,0,0,0,0,0,0,0,0,0,0,0,0,0,0,0],"id":14,"left_children":[1,3,5,7,9,11,13,15,17,19,21,23,25,27,29,-1,-1,31,-1,33,35,37,39,41,43,45,47,49,51,53,55,-1,-1,57,59,61,-1,63,65,-1,67,69,71,73,75,77,79,81,83,-1,85,-1,87,89,91,93,95,-1,-1,-1,-1,-1,-1,-1,-1,-1,-1,-1,-1,-1,-1,-1,-1,-1,-1,-1,-1,-1,-1,-1,-1,-1,-1,-1,-1,-1,-1,-1,-1,-1,-1,-1,-1,-1,-1,-1,-1],"loss_changes":[3.77009E6,4.8341325E5,1.3265201E6,3.9614266E5,4.506825E5,7.7837406E5,6.146004E5,4.7594062E3,1.3397716E5,4.2324775E5,2.8506138E5,5.1663828E5,3.274594E5,4.0583425E5,1.8331675E5,0E0,0E0,5.516086E4,0E0,4.1579462E5,4.9115875E4,6.901746E5,3.1111106E5,3.8372572E5,2.5665431E5,1.1006229E5,2.2778731E5,1.0802209E5,2.4980744E5,1.6512412E5,3.58206E5,0E0,0E0,3.094325E5,9.5167734E4,8.481984E4,0E0,1.4545331E5,1.681185E5,0E0,4.257137E5,6.779656E4,2.941087E5,1.0864984E5,1.33179375E4,1.3370136E5,1.0128157E5,8.103074E5,2.422847E5,0E0,1.1611625E4,0E0,1.8924703E5,1.9638777E5,8.731125E4,1.4434688E5,1.6067825E5,0E0,0E0,0E0,0E0,0E0,0E0,0E0,0E0,0E0,0E0,0E0,0E0,0E0,0E0,0E0,0E0,0E0,0E0,0E0,0E0,0E0,0E0,0E0,0E0,0E0,0E0,0E0,0E0,0E0,0E0,0E0,0E0,0E0,0E0,0E0,0E0,0E0,0E0,0E0,0E0],"parents":[2147483647,0,0,1,1,2,2,3,3,4,4,5,5,6,6,7,7,8,8,9,9,10,10,11,11,12,12,13,13,14,14,17,17,19,19,20,20,21,21,22,22,23,23,24,24,25,25,26,26,27,27,28,28,29,29,30,30,33,33,34,34,35,35,37,37,38,38,40,40,41,41,42,42,43,43,44,44,45,45,46,46,47,47,48,48,50,50,52,52,53,53,54,54,55,55,56,56],"right_children":[2,4,6,8,10,12,14,16,18,20,22,24,26,28,30,-1,-1,32,-1,34,36,38,40,42,44,46,48,50,52,54,56,-1,-1,58,60,62,-1,64,66,-1,68,70,72,74,76,78,80,82,84,-1,86,-1,88,90,92,94,96,-1,-1,-1,-1,-1,-1,-1,-1,-1,-1,-1,-1,-1,-1,-1,-1,-1,-1,-1,-1,-1,-1,-1,-1,-1,-1,-1,-1,-1,-1,-1,-1,-1,-1,-1,-1,-1,-1,-1,-1],"split_conditions":[3.2733664E2,2.282353E1,4.2290823E2,6.234898E-1,2.7342596E2,-4.3388373E-1,3.9350864E2,6.901961E0,9.659258E-1,8.72402E1,-2.2252093E-1,4.3111948E2,2.937255E1,4.012255E1,7.157353E1,7.483143E0,3.802419E0,2.3975748E2,2.1126096E0,4.1573206E2,2.3106087E2,2.5881904E-1,3.2980392E1,6.560319E0,4.3071057E2,4.3293408E2,3.8565344E2,4.238687E2,3.5411212E2,4.4494727E2,8.465686E1,-1.0818756E1,-3.2120628E0,4.9789215E1,2.5596962E2,6.234898E-1,-1.845065E1,2.4572833E2,3.571784E2,-1.4294868E1,3.274522E2,4.8137255E0,9.002451E1,7.195233E1,3.9532254E2,1E0,-1.8369701E-16,7.9367645E1,3.4088373E2,-2.608359E-1,3.685294E1,-9.494235E0,-1.8369701E-16,4.1013657E2,6.123234E-17,9.749279E-1,4.2259085E2,-1.622373E1,-6.6670146E0,3.8205476E0,-3.5011292E0,-4.468875E0,-1.4667323E1,-8.040369E0,2.699146E-1,-1.766588E1,-8.112713E0,-5.071968E0,2.687588E-1,9.217249E0,1.9518623E0,7.4171656E-1,-3.847658E0,4.9260645E0,5.0240856E-1,1.0600355E1,5.6615696E0,4.208314E0,-1.0715909E0,3.6502645E0,-1.5886216E0,-6.162721E0,-3.754557E-1,-5.6781306E0,-7.1935225E-1,7.0889688E0,3.2720265E0,6.334099E-1,-2.526331E0,7.3267403E0,1.322528E0,6.83751E0,4.083749E0,1.4014653E0,-2.2861032E0,1.7678918E0,4.7396994E0],"split_indices":[1,6,1,11,0,10,3,7,9,6,11,3,6,7,7,0,0,0,0,3,1,9,6,6,2,3,3,0,0,1,7,0,0,6,1,11,0,2,2,0,2,7,7,6,0,11,9,6,1,0,6,0,9,3,9,10,3,0,0,0,0,0,0,0,0,0,0,0,0,0,0,0,0,0,0,0,0,0,0,0,0,0,0,0,0,0,0,0,0,0,0,0,0,0,0,0,0],"split_type":[0,0,0,0,0,0,0,0,0,0,0,0,0,0,0,0,0,0,0,0,0,0,0,0,0,0,0,0,0,0,0,0,0,0,0,0,0,0,0,0,0,0,0,0,0,0,0,0,0,0,0,0,0,0,0,0,0,0,0,0,0,0,0,0,0,0,0,0,0,0,0,0,0,0,0,0,0,0,0,0,0,0,0,0,0,0,0,0,0,0,0,0,0,0,0,0,0],"sum_hessian":[2.547E3,3.37E2,2.21E3,3.1E1,3.06E2,1.235E3,9.75E2,1.5E1,1.6E1,1.01E2,2.05E2,3.72E2,8.63E2,3.58E2,6.17E2,1E1,5E0,1.1E1,5E0,8.2E1,1.9E1,5.1E1,1.54E2,2.92E2,8E1,1.09E2,7.54E2,3.7E1,3.21E2,2.18E2,3.99E2,5E0,6E0,6.6E1,1.6E1,1E1,9E0,2.7E1,2.4E1,5E0,1.49E2,1.8E1,2.74E2,5.8E1,2.2E1,5.9E1,5E1,2.47E2,5.07E2,7E0,3E1,6E0,3.15E2,8.8E1,1.3E2,1.87E2,2.12E2,1E1,5.6E1,9E0,7E0,5E0,5E0,6E0,2.1E1,1.2E1,1.2E1,8E1,6.9E1,1.3E1,5E0,2.34E2,4E1,3.5E1,2.3E1,1.6E1,6E0,4.3E1,1.6E1,1.1E1,3.9E1,1.04E2,1.43E2,2.5E1,4.82E2,2.5E1,5E0,2.58E2,5.7E1,1.6E1,7.2E1,5.7E1,7.3E1,1.56E2,3.1E1,6.9E1,1.43E2],"tree_param":{"num_deleted":"0","num_feature":"12","num_nodes":"97","size_leaf_vector":"1"}},{"base_weights":[-2.4074712E0,-6.0160755E1,1.4336312E1,-1.4959382E1,-9.450088E1,-2.5799953E1,2.7445663E1,6.12704E1,-2.940858E1,-2.7779315E2,-8.351751E1,6.3455877E0,-7.058318E1,4.548377E1,6.387427E0,-3.613452E1,1.04309456E2,-4.8628334E1,8.902318E0,-1.7957245E1,-2.7607777E0,-1.7923555E2,-6.2544525E1,1.409034E2,-2.715181E0,-4.520563E1,-1.7349852E2,2.9927128E1,8.878332E1,4.6743084E1,-6.082762E0,-3.2907784E0,-4.6722093E-1,1.2968965E2,1.8153985E0,-5.6401516E1,6.717817E0,7.8635796E1,-1.9984064E1,-3.0720438E2,-7.024988E1,-1.4991003E2,-4.1561172E1,1.7784204E0,9.529926E0,-5.906574E1,1.7119764E1,-2.4383505E1,-1.1657721E2,-1.1847928E2,-1.8937653E1,8.686548E1,1.8890764E1,6.457001E1,1.21520035E2,-1.8208143E1,6.872102E1,-4.8648415E1,1.409034E1,7.8285418E0,2.8692966E0,-1.0656036E1,-2.4366848E0,-2.56487E0,6.1226134E0,-3.9504776E0,3.4009108E-1,-1.9362225E1,-4.435055E0,1.4418722E0,-8.893609E0,-1.2556893E0,-9.955407E0,3.1539035E0,-2.8140914E0,-1.5866307E0,-7.4662743E0,-1.4364126E0,3.0065892E0,-2.2535338E0,5.284288E0,-8.275257E0,-1.6887951E0,-1.0795035E1,-2.9975178E0,4.766062E0,-2.792051E0,3.5563111E0,4.8031068E-1,3.689186E0,-2.391737E0,7.6606307E0,4.957038E0,2.7279794E0,-3.2545288E0,5.163269E0,-2.337019E-1,-1.0062796E0,-3.8466644E0,-2.0898075E0,1.5262259E0],"categories":[],"categories_nodes":[],"categories_segments":[],"categories_sizes":[],"default_left":[0,0,0,0,0,0,0,0,0,0,0,0,0,0,0,0,0,0,0,0,0,0,0,0,0,0,0,0,0,0,0,0,0,0,0,0,0,0,0,0,0,0,0,0,0,0,0,0,0,0,0,0,0,0,0,0,0,0,0,0,0,0,0,0,0,0,0,0,0,0,0,0,0,0,0,0,0,0,0,0,0,0,0,0,0,0,0,0,0,0,0,0,0,0,0,0,0,0,0,0,0],"id":15,"left_children":[1,3,5,7,9,11,13,15,17,19,21,23,25,27,29,31,33,35,37,-1,-1,39,41,43,45,47,49,51,53,55,57,-1,-1,59,-1,61,-1,63,65,67,69,71,73,-1,-1,75,77,79,81,83,-1,85,87,89,91,93,95,97,99,-1,-1,-1,-1,-1,-1,-1,-1,-1,-1,-1,-1,-1,-1,-1,-1,-1,-1,-1,-1,-1,-1,-1,-1,-1,-1,-1,-1,-1,-1,-1,-1,-1,-1,-1,-1,-1,-1,-1,-1,-1,-1],"loss_changes":[2.4696395E6,8.8955025E5,1.0425059E6,2.7606206E5,6.3305575E5,7.0296994E5,5.668214E5,1.7146466E5,1.5506533E5,3.0605562E5,6.09081E5,3.4786762E5,5.249299E5,5.3890175E5,3.4752584E5,9.714533E3,4.3599562E4,2.0670238E5,1.4459603E5,0E0,0E0,7.454534E5,4.612217E5,8.74215E4,3.0056172E5,2.4235119E5,4.0679388E5,3.7098512E5,1.6017975E5,2.3393788E5,4.5407262E5,0E0,0E0,2.9865812E4,0E0,1.5181644E5,0E0,1.2584607E5,8.117818E4,4.02829E5,3.3572844E5,2.958245E5,3.224036E5,0E0,0E0,1.679391E5,3.9416172E5,3.51866E5,1.4428803E5,1.7519412E5,0E0,1.2116906E5,2.408301E5,1.319545E5,4.7909125E4,1.4683658E5,3.0980956E5,1.355919E5,3.3099772E5,0E0,0E0,0E0,0E0,0E0,0E0,0E0,0E0,0E0,0E0,0E0,0E0,0E0,0E0,0E0,0E0,0E0,0E0,0E0,0E0,0E0,0E0,0E0,0E0,0E0,0E0,0E0,0E0,0E0,0E0,0E0,0E0,0E0,0E0,0E0,0E0,0E0,0E0,0E0,0E0,0E0,0E0],"parents":[2147483647,0,0,1,1,2,2,3,3,4,4,5,5,6,6,7,7,8,8,9,9,10,10,11,11,12,12,13,13,14,14,15,15,16,16,17,17,18,18,21,21,22,22,23,23,24,24,25,25,26,26,27,27,28,28,29,29,30,30,33,33,35,35,37,37,38,38,39,39,40,40,41,41,42,42,45,45,46,46,47,47,48,48,49,49,51,51,52,52,53,53,54,54,55,55,56,56,57,57,58,58],"right_children":[2,4,6,8,10,12,14,16,18,20,22,24,26,28,30,32,34,36,38,-1,-1,40,42,44,46,48,50,52,54,56,58,-1,-1,60,-1,62,-1,64,66,68,70,72,74,-1,-1,76,78,80,82,84,-1,86,88,90,92,94,96,98,100,-1,-1,-1,-1,-1,-1,-1,-1,-1,-1,-1,-1,-1,-1,-1,-1,-1,-1,-1,-1,-1,-1,-1,-1,-1,-1,-1,-1,-1,-1,-1,-1,-1,-1,-1,-1,-1,-1,-1,-1,-1,-1],"split_conditions":[3.571784E2,6.123234E-17,3.811751E2,5.867905E1,1.9494547E2,1.2246469E-16,-1.8369701E-16,2.6881265E2,8.7960785E1,1E0,-2.2252093E-1,7.3872547E0,8.75049E1,4.4608786E2,-4.3388373E-1,4.3388373E-1,6.234898E-1,4.3374078E2,9.018627E1,-1.7957245E1,-2.7607777E0,0E0,2.7342596E2,4.637255E0,3.8707184E2,4.3192285E2,4.3833554E2,6.9088234E1,6.234898E-1,3.926213E2,-7.0710677E-1,-3.2907784E0,-4.6722093E-1,3.325584E2,1.8153985E0,2.6881265E2,6.717817E0,2.3106087E2,9.106138E1,3.861425E2,3.274522E2,1.9494547E2,4.417157E1,1.7784204E0,9.529926E0,8.2338234E1,-8.660254E-1,4.171622E2,4.615235E2,-4.3388373E-1,-1.8937653E1,4.3685217E2,-7.818315E-1,5E-1,4.5864758E2,3.6521057E2,7.04902E1,4.6249615E2,3.907208E2,7.8285418E0,2.8692966E0,-1.0656036E1,-2.4366848E0,-2.56487E0,6.1226134E0,-3.9504776E0,3.4009108E-1,-1.9362225E1,-4.435055E0,1.4418722E0,-8.893609E0,-1.2556893E0,-9.955407E0,3.1539035E0,-2.8140914E0,-1.5866307E0,-7.4662743E0,-1.4364126E0,3.0065892E0,-2.2535338E0,5.284288E0,-8.275257E0,-1.6887951E0,-1.0795035E1,-2.9975178E0,4.766062E0,-2.792051E0,3.5563111E0,4.8031068E-1,3.689186E0,-2.391737E0,7.6606307E0,4.957038E0,2.7279794E0,-3.2545288E0,5.163269E0,-2.337019E-1,-1.0062796E0,-3.8466644E0,-2.0898075E0,1.5262259E0],"split_indices":[2,9,0,7,2,8,9,2,7,8,11,6,6,3,10,10,11,3,7,0,0,10,0,6,3,3,2,7,11,3,8,0,0,2,0,0,0,3,7,0,2,0,6,0,0,7,8,3,3,10,0,3,10,8,2,3,6,3,3,0,0,0,0,0,0,0,0,0,0,0,0,0,0,0,0,0,0,0,0,0,0,0,0,0,0,0,0,0,0,0,0,0,0,0,0,0,0,0,0,0,0],"split_type":[0,0,0,0,0,0,0,0,0,0,0,0,0,0,0,0,0,0,0,0,0,0,0,0,0,0,0,0,0,0,0,0,0,0,0,0,0,0,0,0,0,0,0,0,0,0,0,0,0,0,0,0,0,0,0,0,0,0,0,0,0,0,0,0,0,0,0,0,0,0,0,0,0,0,0,0,0,0,0,0,0,0,0,0,0,0,0,0,0,0,0,0,0,0,0,0,0,0,0,0,0],"sum_hessian":[2.552E3,5.73E2,1.979E3,2.48E2,3.25E2,4.87E2,1.492E3,3.9E1,2.09E2,1.7E1,3.08E2,2.84E2,2.03E2,8.03E2,6.89E2,1.2E1,2.7E1,1.39E2,7E1,1.2E1,5E0,5.4E1,2.54E2,1.7E1,2.67E2,1.64E2,3.9E1,5.92E2,2.11E2,1.62E2,5.27E2,5E0,7E0,1.9E1,8E0,1.34E2,5E0,2E1,5E1,2.4E1,3E1,4.8E1,2.06E2,6E0,1.1E1,6.9E1,1.98E2,1.28E2,3.6E1,3.2E1,7E0,9.5E1,4.97E2,1.23E2,8.8E1,4.1E1,1.21E2,1.69E2,3.58E2,1.3E1,6E0,5E0,1.29E2,5E0,1.5E1,1.5E1,3.5E1,1.7E1,7E0,1.6E1,1.4E1,1.4E1,3.4E1,2.5E1,1.81E2,5.4E1,1.5E1,9.6E1,1.02E2,1.11E2,1.7E1,2.2E1,1.4E1,1.1E1,2.1E1,9E1,5E0,7.4E1,4.23E2,1.14E2,9E0,3.4E1,5.4E1,1.6E1,2.5E1,8.2E1,3.9E1,8.5E1,8.4E1,8.1E1,2.77E2],"tree_param":{"num_deleted":"0","num_feature":"12","num_nodes":"101","size_leaf_vector":"1"}},{"base_weights":[-4.435313E0,-5.0389412E1,1.8558102E1,-8.4131165E1,-2.6224207E1,6.563905E0,5.288717E1,-4.0335663E1,-1.1203566E2,2.0938051E1,-3.9843533E1,5.817316E1,-2.6739676E0,-6.639997E1,5.793387E1,-2.0880028E2,-2.3970495E1,-7.078728E1,-1.7920941E2,-2.5821846E1,7.171609E1,-8.235471E1,-2.651267E1,1.6630356E1,8.499278E1,-2.737998E1,7.3240237E0,1.6510603E-1,-5.0767264E0,1.0658911E2,4.7581512E1,-1.7775992E0,-1.880533E1,5.7176986E0,-1.2347299E2,-1.0997614E2,-1.1416974E1,-3.1412976E2,-1.289988E2,-1.2740506E1,-5.96472E0,-5.137831E0,1.3549995E2,-1.8131435E2,-3.706385E1,-1.1530727E2,-1.6958065E1,1.2122556E2,-4.4727898E1,1.3831218E2,6.602354E1,-9.874888E1,-1.85879E1,1.6364212E1,-4.2656357E1,6.49098E1,1.2482614E2,1.8997011E1,7.8475624E1,2.9579544E0,-2.9268405E0,-9.260766E0,-1.6613703E0,-6.759376E0,1.5175382E0,4.934342E0,-2.8148794E0,-1.1484497E1,-2.1131037E1,-1.5887386E0,-1.0120454E1,1.1223652E-1,-3.7956486E0,-4.343681E0,2.313095E0,8.123189E0,2.5223166E-1,-1.7173367E1,-8.938655E-1,-3.9367166E-1,-9.548786E0,-7.558555E-1,-9.47494E0,-2.9743063E-1,-4.546603E0,-5.361418E-1,7.5190277E0,-1.2486995E0,-4.799136E0,2.2892814E0,8.283337E0,1.9442953E0,5.421342E0,-2.124335E0,-1.3462241E1,-7.072794E-1,-1.0620792E1,3.8154118E0,4.038856E-1,1.8882239E0,-3.0512764E0,4.181849E0,3.7335363E-1,7.2596955E0,4.5375185E0,-3.6945114E-1,2.8447213E0,9.304388E0,3.323658E0],"categories":[],"categories_nodes":[],"categories_segments":[],"categories_sizes":[],"default_left":[0,0,0,0,0,0,0,0,0,0,0,0,0,0,0,0,0,0,0,0,0,0,0,0,0,0,0,0,0,0,0,0,0,0,0,0,0,0,0,0,0,0,0,0,0,0,0,0,0,0,0,0,0,0,0,0,0,0,0,0,0,0,0,0,0,0,0,0,0,0,0,0,0,0,0,0,0,0,0,0,0,0,0,0,0,0,0,0,0,0,0,0,0,0,0,0,0,0,0,0,0,0,0,0,0,0,0,0,0],"id":16,"left_children":[1,3,5,7,9,11,13,15,17,19,21,23,25,27,29,31,33,35,37,39,41,43,45,47,49,51,53,-1,-1,55,57,-1,-1,59,61,63,65,67,69,71,-1,73,75,77,79,81,83,85,87,89,91,93,95,97,99,101,103,105,107,-1,-1,-1,-1,-1,-1,-1,-1,-1,-1,-1,-1,-1,-1,-1,-1,-1,-1,-1,-1,-1,-1,-1,-1,-1,-1,-1,-1,-1,-1,-1,-1,-1,-1,-1,-1,-1,-1,-1,-1,-1,-1,-1,-1,-1,-1,-1,-1,-1,-1],"loss_changes":[2.6457122E6,6.78622E5,6.868568E5,4.2075375E5,3.1428734E5,5.903896E5,2.6391288E5,3.72674E5,5.747005E5,2.6303778E5,2.1258906E5,2.0803894E5,2.5981058E5,4.4426234E4,2.03947E5,3.3441397E5,3.7292797E5,3.0817738E5,5.01388E5,6.93862E4,2.6051734E5,3.9663506E5,2.4406664E5,4.8676325E5,1.0615056E5,1.8827948E5,3.3911766E5,0E0,0E0,4.660625E4,3.022833E5,0E0,0E0,3.3998038E5,1.5541119E5,2.871403E5,2.7239403E5,9.524325E4,4.2177962E5,4.9403797E4,0E0,1.09052945E5,1.0117331E5,7.3587394E5,2.815198E5,2.0524622E5,2.1364006E5,1.0934122E5,4.6190008E4,6.579331E4,9.4731375E4,3.0508106E5,2.3031572E5,3.1479625E5,1.721923E5,2.5184133E4,2.0808312E4,1.804186E5,2.0072069E5,0E0,0E0,0E0,0E0,0E0,0E0,0E0,0E0,0E0,0E0,0E0,0E0,0E0,0E0,0E0,0E0,0E0,0E0,0E0,0E0,0E0,0E0,0E0,0E0,0E0,0E0,0E0,0E0,0E0,0E0,0E0,0E0,0E0,0E0,0E0,0E0,0E0,0E0,0E0,0E0,0E0,0E0,0E0,0E0,0E0,0E0,0E0,0E0,0E0,0E0],"parents":[2147483647,0,0,1,1,2,2,3,3,4,4,5,5,6,6,7,7,8,8,9,9,10,10,11,11,12,12,13,13,14,14,15,15,16,16,17,17,18,18,19,19,20,20,21,21,22,22,23,23,24,24,25,25,26,26,29,29,30,30,33,33,34,34,35,35,36,36,37,37,38,38,39,39,41,41,42,42,43,43,44,44,45,45,46,46,47,47,48,48,49,49,50,50,51,51,52,52,53,53,54,54,55,55,56,56,57,57,58,58],"right_children":[2,4,6,8,10,12,14,16,18,20,22,24,26,28,30,32,34,36,38,40,42,44,46,48,50,52,54,-1,-1,56,58,-1,-1,60,62,64,66,68,70,72,-1,74,76,78,80,82,84,86,88,90,92,94,96,98,100,102,104,106,108,-1,-1,-1,-1,-1,-1,-1,-1,-1,-1,-1,-1,-1,-1,-1,-1,-1,-1,-1,-1,-1,-1,-1,-1,-1,-1,-1,-1,-1,-1,-1,-1,-1,-1,-1,-1,-1,-1,-1,-1,-1,-1,-1,-1,-1,-1,-1,-1,-1,-1],"split_conditions":[3.8120233E2,3.2733664E2,4.5617694E2,8.0039215E1,6.2794117E1,3.824683E1,-9.659258E-1,2.0653616E2,5E-1,8.660254E-1,-2.2252093E-1,-2.5881904E-1,3.876914E2,0E0,5.6186275E1,-4.3388373E-1,3.1358667E2,3.2487598E2,3.4106192E2,9.659258E-1,3.8565344E2,7.536275E1,3.1051773E2,-4.3388373E-1,-2.2252093E-1,5.9808823E1,4.6249615E2,1.6510603E-1,-5.0767264E0,6.5882354E0,4.5408542E2,-1.7775992E0,-1.880533E1,6.234898E-1,6.1588234E1,7.818315E-1,3.4932303E2,9.122549E1,7.0710677E-1,7.157353E1,-5.96472E0,-2.2252093E-1,4.151391E2,3.983492E2,9.358957E1,-2.5881904E-1,8.924465E1,3.8361407E2,1.0965686E1,3.863298E2,1.9686275E1,7.818315E-1,3.8707184E2,3.977664E2,-4.3388373E-1,-2.5881904E-1,4.7044977E2,8.72402E1,-7.818315E-1,2.9579544E0,-2.9268405E0,-9.260766E0,-1.6613703E0,-6.759376E0,1.5175382E0,4.934342E0,-2.8148794E0,-1.1484497E1,-2.1131037E1,-1.5887386E0,-1.0120454E1,1.1223652E-1,-3.7956486E0,-4.343681E0,2.313095E0,8.123189E0,2.5223166E-1,-1.7173367E1,-8.938655E-1,-3.9367166E-1,-9.548786E0,-7.558555E-1,-9.47494E0,-2.9743063E-1,-4.546603E0,-5.361418E-1,7.5190277E0,-1.2486995E0,-4.799136E0,2.2892814E0,8.283337E0,1.9442953E0,5.421342E0,-2.124335E0,-1.3462241E1,-7.072794E-1,-1.0620792E1,3.8154118E0,4.038856E-1,1.8882239E0,-3.0512764E0,4.181849E0,3.7335363E-1,7.2596955E0,4.5375185E0,-3.6945114E-1,2.8447213E0,9.304388E0,3.323658E0],"split_indices":[1,1,2,4,4,7,8,1,9,9,11,8,2,10,7,10,1,2,3,8,3,4,3,10,11,7,3,0,0,4,3,0,0,11,4,10,3,4,8,7,0,11,3,3,4,9,7,2,4,3,7,10,2,2,10,9,1,7,10,0,0,0,0,0,0,0,0,0,0,0,0,0,0,0,0,0,0,0,0,0,0,0,0,0,0,0,0,0,0,0,0,0,0,0,0,0,0,0,0,0,0,0,0,0,0,0,0,0,0],"split_type":[0,0,0,0,0,0,0,0,0,0,0,0,0,0,0,0,0,0,0,0,0,0,0,0,0,0,0,0,0,0,0,0,0,0,0,0,0,0,0,0,0,0,0,0,0,0,0,0,0,0,0,0,0,0,0,0,0,0,0,0,0,0,0,0,0,0,0,0,0,0,0,0,0,0,0,0,0,0,0,0,0,0,0,0,0,0,0,0,0,0,0,0,0,0,0,0,0,0,0,0,0,0,0,0,0,0,0,0,0],"sum_hessian":[2.502E3,8.34E2,1.668E3,3.47E2,4.87E2,1.237E3,4.31E2,1.36E2,2.11E2,1.09E2,3.78E2,1.87E2,1.05E3,1.7E1,4.14E2,1.1E1,1.25E2,1.32E2,7.9E1,5.7E1,5.2E1,8.9E1,2.89E2,7.4E1,1.13E2,3.02E2,7.48E2,6E0,1.1E1,7.1E1,3.43E2,6E0,5E0,9.7E1,2.8E1,7.9E1,5.3E1,2E1,5.9E1,5.1E1,6E0,2.4E1,2.8E1,2.7E1,6.2E1,2.7E1,2.62E2,2.7E1,4.7E1,2.8E1,8.5E1,3.2E1,2.7E2,6.34E2,1.14E2,2.3E1,4.8E1,1.79E2,1.64E2,5.3E1,4.4E1,1.6E1,1.2E1,6.7E1,1.2E1,1.5E1,3.8E1,1.3E1,7E0,2.6E1,3.3E1,4.2E1,9E0,9E0,1.5E1,2.3E1,5E0,1.3E1,1.4E1,5.3E1,9E0,1.2E1,1.5E1,2.29E2,3.3E1,5E0,2.2E1,3.5E1,1.2E1,7E0,2.1E1,5.3E1,3.2E1,2.5E1,7E0,2.65E2,5E0,7.6E1,5.58E2,2.1E1,9.3E1,1.7E1,6E0,2.8E1,2E1,1.06E2,7.3E1,1.5E1,1.49E2],"tree_param":{"num_deleted":"0","num_feature":"12","num_nodes":"109","size_leaf_vector":"1"}},{"base_weights":[2.6363486E-1,-5.646028E1,1.7038166E1,-9.8206795E1,-2.9066553E1,-3.3246977E0,4.1644295E1,-9.340394E0,-1.138131E2,6.580398E1,-3.921459E1,2.366602E1,-1.4929274E1,1.238222E1,5.2996567E1,6.5102486E1,-1.01816475E2,-2.3946562E2,-8.828968E1,-2.604847E1,1.108703E2,-8.8764366E1,1.447382E0,4.3654263E1,-4.57873E1,-1.0424286E2,-1.2444721E1,5.8182087E1,1.8907548E0,9.693046E1,4.274175E1,1.3004726E2,-2.4279037E0,-6.76021E1,-7.377838E0,-4.2849116E0,-2.871465E2,-1.3308896E1,-1.2670589E2,1.4323877E0,-4.2767997E0,7.980207E0,6.8133965E1,-1.5721808E2,-6.575748E1,-1.6918106E1,6.990927E1,1.20025215E2,3.2643974E1,-1.7871046E2,2.4395329E1,-1.3903539E1,-9.875835E0,-5.3444588E1,-7.9813085E0,-5.7034984E0,8.197307E1,-7.7442985E0,8.313437E0,1.8321747E-1,1.0272598E2,6.325808E1,1.9335487E1,3.7025583E0,7.7887964E0,-4.943768E0,-1.2522571E0,-1.813872E1,-7.249003E0,-3.5459638E0,3.7732437E-2,1.4117337E0,-7.712978E0,-9.961993E-1,5.9639964E0,-1.1904647E0,-1.0868377E1,6.509288E-1,-4.2461586E0,-3.3377378E0,3.3190493E-2,-3.1048834E0,5.1392074E0,8.89324E-1,7.454979E0,-1.2170401E0,2.50442E0,-1.234266E0,-1.0798874E1,3.1618507E0,-1.4275254E0,-3.8248901E0,4.584321E0,-3.3480785E0,-3.2817376E-1,1.1957916E0,-7.481343E-1,7.2847695E0,2.6874187E0,8.4747183E-1,-3.0181406E0,6.2895813E0,3.6334598E0,2.0296628E0,5.242927E0,-6.575783E-2,2.8405626E0],"categories":[],"categories_nodes":[],"categories_segments":[],"categories_sizes":[],"default_left":[0,0,0,0,0,0,0,0,0,0,0,0,0,0,0,0,0,0,0,0,0,0,0,0,0,0,0,0,0,0,0,0,0,0,0,0,0,0,0,0,0,0,0,0,0,0,0,0,0,0,0,0,0,0,0,0,0,0,0,0,0,0,0,0,0,0,0,0,0,0,0,0,0,0,0,0,0,0,0,0,0,0,0,0,0,0,0,0,0,0,0,0,0,0,0,0,0,0,0,0,0,0,0,0,0,0,0],"id":17,"left_children":[1,3,5,7,9,11,13,15,17,19,21,23,25,27,29,31,33,35,37,39,41,43,45,47,49,51,53,55,57,59,61,63,-1,65,-1,-1,67,69,71,-1,-1,-1,73,75,77,79,81,83,85,87,89,-1,91,93,95,-1,97,-1,99,-1,101,103,105,-1,-1,-1,-1,-1,-1,-1,-1,-1,-1,-1,-1,-1,-1,-1,-1,-1,-1,-1,-1,-1,-1,-1,-1,-1,-1,-1,-1,-1,-1,-1,-1,-1,-1,-1,-1,-1,-1,-1,-1,-1,-1,-1,-1],"loss_changes":[2.393072E6,6.5355475E5,9.726827E5,3.1374575E5,3.3761466E5,3.3330088E5,2.9133325E5,2.4757869E5,5.977915E5,1.4363786E5,6.347965E5,4.4623856E5,1.6378788E5,1.18569375E5,2.8103088E5,1.5395619E5,1.50429375E4,2.0997125E5,4.6493712E5,4.1501016E4,3.7005E4,2.1327625E5,2.1996448E5,2.054424E5,6.760557E5,3.2529747E5,1.322418E5,1.9785756E5,2.0467225E5,6.39355E4,2.4607706E5,7.170797E3,0E0,1.2151102E4,0E0,0E0,2.0539588E5,4.5432086E4,4.6117012E5,0E0,0E0,0E0,6.5439797E4,2.75657E5,1.6417094E5,1.209698E5,1.6695608E5,8.9479625E4,2.189224E5,1.3814588E5,1.0052118E5,0E0,1.01740164E5,4.454525E4,1.4621628E5,0E0,6.588944E4,0E0,1.1667094E5,0E0,6.848625E4,2.5407438E5,1.8736375E5,0E0,0E0,0E0,0E0,0E0,0E0,0E0,0E0,0E0,0E0,0E0,0E0,0E0,0E0,0E0,0E0,0E0,0E0,0E0,0E0,0E0,0E0,0E0,0E0,0E0,0E0,0E0,0E0,0E0,0E0,0E0,0E0,0E0,0E0,0E0,0E0,0E0,0E0,0E0,0E0,0E0,0E0,0E0,0E0],"parents":[2147483647,0,0,1,1,2,2,3,3,4,4,5,5,6,6,7,7,8,8,9,9,10,10,11,11,12,12,13,13,14,14,15,15,16,16,17,17,18,18,19,19,20,20,21,21,22,22,23,23,24,24,25,25,26,26,27,27,28,28,29,29,30,30,31,31,33,33,36,36,37,37,38,38,42,42,43,43,44,44,45,45,46,46,47,47,48,48,49,49,50,50,52,52,53,53,54,54,56,56,58,58,60,60,61,61,62,62],"right_children":[2,4,6,8,10,12,14,16,18,20,22,24,26,28,30,32,34,36,38,40,42,44,46,48,50,52,54,56,58,60,62,64,-1,66,-1,-1,68,70,72,-1,-1,-1,74,76,78,80,82,84,86,88,90,-1,92,94,96,-1,98,-1,100,-1,102,104,106,-1,-1,-1,-1,-1,-1,-1,-1,-1,-1,-1,-1,-1,-1,-1,-1,-1,-1,-1,-1,-1,-1,-1,-1,-1,-1,-1,-1,-1,-1,-1,-1,-1,-1,-1,-1,-1,-1,-1,-1,-1,-1,-1,-1],"split_conditions":[3.571784E2,3.2733664E2,4.2290823E2,4.417157E1,3.647059E1,-4.3388373E-1,4.239605E2,6.234898E-1,6.2759804E1,3.7291223E2,8.284314E1,8.522059E1,2.6166846E2,4.417157E1,6.0338234E1,3.1146133E2,-4.3388373E-1,-4.3388373E-1,8.522059E1,8.660254E-1,4.0366937E2,5.7588234E1,9.659258E-1,1.1985294E1,3.5545245E2,5.045098E1,-9.659258E-1,-2.5881904E-1,4.417157E1,-8.660254E-1,4.3388373E-1,2.9871063E2,-2.4279037E0,2.3106087E2,