{"learner":{"attributes":{"best_iteration":"26","best_score":"2.9062022759364203","scikit_learn":"{\"_estimator_type\": \"regressor\"}"},"feature_names":["aux_GPRS050_M010_MED_t0","aux_GPRS050_M010_MED_t1","aux_GPRS050_M010_MED_t3","aux_GPRS050_M010_MED_t6","hora_sin","hora_cos","dia_sem_sin","dia_sem_cos"],"feature_types":["float","float","float","float","float","float","float","float"],"gradient_booster":{"model":{"gbtree_model_param":{"num_parallel_tree":"1","num_trees":"57"},"iteration_indptr":[0,1,2,3,4,5,6,7,8,9,10,11,12,13,14,15,16,17,18,19,20,21,22,23,24,25,26,27,28,29,30,31,32,33,34,35,36,37,38,39,40,41,42,43,44,45,46,47,48,49,50,51,52,53,54,55,56,57],"tree_info":[0,0,0,0,0,0,0,0,0,0,0,0,0,0,0,0,0,0,0,0,0,0,0,0,0,0,0,0,0,0,0,0,0,0,0,0,0,0,0,0,0,0,0,0,0,0,0,0,0,0,0,0,0,0,0,0,0],"trees":[{"base_weights":[-7.6351084E-2,5.5039873E0,-2.1036743E1,7.500791E0,-1.80799E0,-1.8370575E1,-1.1429677E0,1.1770185E1,5.932567E0,-1.044865E1,3.7303665E0,-1.4599893E1,-1.0022959E0,1.2201013E1,5.0109446E-1,4.2128205E0,8.598936E0,-1.3198454E1,1.9737563E0,-4.48107E-1,4.581755E0,-7.826446E-1,-3.354707E-1,6.180429E-1,3.1306347E-1,-3.2812485E-1,4.435678E0,-3.7337986E-1,9.031942E0,-1.4357297E1,-2.2551334E-1,2.5020927E-1,-1.6946258E-1,5.548219E-1,2.1507328E0,1.5055875E-1,3.045485E-1,3.7439322E-1,5.159951E-1,-6.211297E-1,-1.1002339E0,1.5290155E-1,-1.3309263E-1],"categories":[],"categories_nodes":[],"categories_segments":[],"categories_sizes":[],"default_left":[0,0,0,0,0,0,0,0,0,0,0,0,0,0,0,0,0,0,0,0,0,0,0,0,0,0,0,0,0,0,0,0,0,0,0,0,0,0,0,0,0,0,0],"id":0,"left_children":[1,3,5,7,9,11,-1,13,15,17,19,21,-1,23,-1,25,27,29,31,-1,33,-1,-1,-1,-1,-1,35,-1,37,39,-1,-1,-1,-1,41,-1,-1,-1,-1,-1,-1,-1,-1],"loss_changes":[1.3685069E5,1.3505072E4,7.7133594E2,4.7892344E3,9.562806E3,3.6717188E2,0E0,2.1625E1,2.4065527E3,2.6915889E3,1.3589873E3,1.9185449E2,0E0,6.4109375E1,0E0,8.1173975E2,1.5146406E3,5.7772656E2,2.6090515E2,0E0,1.796104E3,0E0,0E0,0E0,0E0,0E0,7.352988E2,0E0,3.2465234E2,5.517451E2,0E0,0E0,0E0,0E0,3.793278E2,0E0,0E0,0E0,0E0,0E0,0E0,0E0,0E0],"parents":[2147483647,0,0,1,1,2,2,3,3,4,4,5,5,7,7,8,8,9,9,10,10,11,11,13,13,15,15,16,16,17,17,18,18,20,20,26,26,28,28,29,29,34,34],"right_children":[2,4,6,8,10,12,-1,14,16,18,20,22,-1,24,-1,26,28,30,32,-1,34,-1,-1,-1,-1,-1,36,-1,38,40,-1,-1,-1,-1,42,-1,-1,-1,-1,-1,-1,-1,-1],"split_conditions":[8.660254E-1,5E-1,9.659258E-1,-4.3388373E-1,1.454045E2,1.5128615E2,-1.1429677E0,2.1894089E2,-2.5881904E-1,1.6809763E2,1.1502028E2,1.4731213E2,-1.0022959E0,2.4049435E2,5.0109446E-1,7.669798E1,8.280533E1,1.5402208E2,2.0446774E2,-4.48107E-1,1.780431E2,-7.826446E-1,-3.354707E-1,6.180429E-1,3.1306347E-1,-3.2812485E-1,-7.0710677E-1,-3.7337986E-1,6.123234E-17,9.749279E-1,-2.2551334E-1,2.5020927E-1,-1.6946258E-1,5.548219E-1,2.2711105E2,1.5055875E-1,3.045485E-1,3.7439322E-1,5.159951E-1,-6.211297E-1,-1.1002339E0,1.5290155E-1,-1.3309263E-1],"split_indices":[5,5,5,6,1,2,0,2,5,2,2,2,0,1,0,3,3,0,2,0,1,0,0,0,0,0,5,0,5,6,0,0,0,0,3,0,0,0,0,0,0,0,0],"split_type":[0,0,0,0,0,0,0,0,0,0,0,0,0,0,0,0,0,0,0,0,0,0,0,0,0,0,0,0,0,0,0,0,0,0,0,0,0,0,0,0,0,0,0],"sum_hessian":[1.168E3,9.23E2,2.45E2,7.25E2,1.98E2,1.04E2,1.41E2,1.93E2,5.32E2,7.7E1,1.21E2,3.5E1,6.9E1,1.5E2,4.3E1,3.25E2,2.07E2,6.3E1,1.4E1,7E0,1.14E2,3E1,5E0,1.45E2,5E0,6E0,3.19E2,5E0,2.02E2,5.5E1,8E0,9E0,5E0,3E1,8.4E1,1.73E2,1.46E2,9.5E1,1.07E2,4.6E1,9E0,7.1E1,1.3E1],"tree_param":{"num_deleted":"0","num_feature":"8","num_nodes":"43","size_leaf_vector":"1"}},{"base_weights":[2.2792044E-1,5.534763E0,-2.011181E1,7.3312182E0,-1.4136727E0,-1.105719E0,-1.6670593E1,1.1286239E1,5.9627748E0,1.0429787E1,-1.2755199E1,-9.15387E-1,-7.041054E-1,5.6963193E-1,3.46182E-1,4.0654902E0,8.729399E0,2.3573577E-1,1.0984798E1,-6.947848E-1,-5.4987335E-1,3.3866959E0,6.435185E0,-6.266209E-2,8.967848E0,5.9596103E-1,8.14794E0,1.886935E-1,1.0626121E-1,2.3127948E-1,4.7879085E-1,3.8172802E-1,5.0406235E-1,3.0904582E-1,5.136841E-1],"categories":[],"categories_nodes":[],"categories_segments":[],"categories_sizes":[],"default_left":[0,0,0,0,0,0,0,0,0,0,0,0,0,0,0,0,0,0,0,0,0,0,0,0,0,0,0,0,0,0,0,0,0,0,0],"id":1,"left_children":[1,3,5,7,9,-1,11,13,15,17,19,-1,-1,-1,-1,21,23,-1,25,-1,-1,27,29,-1,31,-1,33,-1,-1,-1,-1,-1,-1,-1,-1],"loss_changes":[1.2467233E5,1.1444979E4,1.2744766E3,3.8710742E3,2.5520297E4,0E0,1.2882031E2,5.626953E0,2.8134766E3,2.416289E2,3.9149414E1,0E0,0E0,0E0,0E0,4.9838965E2,5.3568555E2,0E0,1.2354492E2,0E0,0E0,1.154458E2,3.5779858E2,0E0,2.4042578E2,0E0,3.520691E1,0E0,0E0,0E0,0E0,0E0,0E0,0E0,0E0],"parents":[2147483647,0,0,1,1,2,2,3,3,4,4,6,6,7,7,8,8,9,9,10,10,15,15,16,16,18,18,21,21,22,22,24,24,26,26],"right_children":[2,4,6,8,10,-1,12,14,16,18,20,-1,-1,-1,-1,22,24,-1,26,-1,-1,28,30,-1,32,-1,34,-1,-1,-1,-1,-1,-1,-1,-1],"split_conditions":[8.660254E-1,5E-1,1.2246469E-16,-4.3388373E-1,-5E-1,-1.105719E0,6.234898E-1,2.3965665E2,-2.5881904E-1,1.5138078E2,6.234898E-1,-9.15387E-1,-7.041054E-1,5.6963193E-1,3.46182E-1,7.0710677E-1,8.205101E1,2.3573577E-1,2.1256747E2,-6.947848E-1,-5.4987335E-1,2.1430733E2,1.7571516E2,-6.266209E-2,-8.660254E-1,5.9596103E-1,1.9007066E2,1.886935E-1,1.0626121E-1,2.3127948E-1,4.7879085E-1,3.8172802E-1,5.0406235E-1,3.0904582E-1,5.136841E-1],"split_indices":[5,5,4,6,4,0,7,2,5,3,7,0,0,0,0,4,3,0,3,0,0,2,3,0,4,0,2,0,0,0,0,0,0,0,0],"split_type":[0,0,0,0,0,0,0,0,0,0,0,0,0,0,0,0,0,0,0,0,0,0,0,0,0,0,0,0,0,0,0,0,0,0,0],"sum_hessian":[1.153E3,9.15E2,2.38E2,7.27E2,1.88E2,1.47E2,9.1E1,1.85E2,5.42E2,9.2E1,9.6E1,5.2E1,3.9E1,1.79E2,6E0,3.23E2,2.19E2,9E0,8.3E1,5.4E1,4.2E1,2.53E2,7E1,5E0,2.14E2,6E1,2.3E1,1.92E2,6.1E1,4.6E1,2.4E1,1.01E2,1.13E2,1.4E1,9E0],"tree_param":{"num_deleted":"0","num_feature":"8","num_nodes":"35","size_leaf_vector":"1"}},{"base_weights":[1.0947796E-1,7.957273E0,-3.2152154E0,5.4518074E-1,6.788976E0,-6.0598264E0,9.076016E0,7.617127E0,5.672339E0,1.483747E0,-8.496899E0,1.0709219E1,6.827088E-1,5.9292855E0,3.9161655E-1,7.138287E0,4.5460935E0,-1.0202569E0,2.3114512E0,-1.3087385E1,-4.554643E0,8.712007E0,1.1516906E1,-3.8555982E0,5.694175E-1,3.8958505E-1,4.030033E0,4.8433337E0,4.044643E-1,5.15678E0,3.016237E0,-8.101536E-1,3.2841494E0,-1.8105104E1,-1.0590487E1,-8.489319E0,-7.846307E-1,4.406839E0,9.955389E0,6.109938E-1,9.472425E0,1.8515078E0,-6.958998E-1,5.7945706E-2,3.3456668E-1,3.4971353E-1,1.19106546E-1,1.0298423E-1,2.7889398E-1,2.95315E-1,8.688492E-2,4.8363423E-1,6.2741645E-2,-6.2476295E-1,-1.0026733E0,1.602369E-1,-5.5821633E-1,-2.9154187E-1,-9.815192E-1,-7.3217265E-3,-6.3919914E-1,5.3166944E-1,-1.2687586E-1,3.3166668E-1,5.849571E-1,2.7413568E-1,5.17325E-1,-4.0373158E-1,4.538587E-1],"categories":[],"categories_nodes":[],"categories_segments":[],"categories_sizes":[],"default_left":[0,0,0,0,0,0,0,0,0,0,0,0,0,0,0,0,0,0,0,0,0,0,0,0,0,0,0,0,0,0,0,0,0,0,0,0,0,0,0,0,0,0,0,0,0,0,0,0,0,0,0,0,0,0,0,0,0,0,0,0,0,0,0,0,0,0,0,0,0],"id":2,"left_children":[1,3,5,-1,7,9,11,13,15,17,19,21,23,25,-1,27,29,-1,31,33,35,37,39,41,-1,-1,43,45,-1,47,49,-1,51,53,55,57,59,61,63,-1,65,67,-1,-1,-1,-1,-1,-1,-1,-1,-1,-1,-1,-1,-1,-1,-1,-1,-1,-1,-1,-1,-1,-1,-1,-1,-1,-1,-1],"loss_changes":[3.0161754E4,1.1083242E3,2.8445277E4,0E0,1.8572559E2,1.2146904E4,2.0888691E3,3.0356445E0,1.4799243E2,2.9803948E3,8.968965E3,1.0412109E2,1.3078848E3,3.816089E1,0E0,5.9922363E1,4.435559E1,0E0,2.8793408E3,2.687E3,3.9975312E3,1.7416382E2,8.552734E0,1.1180922E3,0E0,0E0,8.31512E1,6.710336E1,0E0,4.6435913E1,6.656842E1,0E0,1.9314237E3,5.659219E2,1.2715117E3,3.7926094E3,1.0612887E3,5.0342517E2,1.00140625E2,0E0,3.5847168E1,1.0057937E3,0E0,0E0,0E0,0E0,0E0,0E0,0E0,0E0,0E0,0E0,0E0,0E0,0E0,0E0,0E0,0E0,0E0,0E0,0E0,0E0,0E0,0E0,0E0,0E0,0E0,0E0,0E0],"parents":[2147483647,0,0,1,1,2,2,4,4,5,5,6,6,7,7,8,8,9,9,10,10,11,11,12,12,13,13,15,15,16,16,18,18,19,19,20,20,21,21,22,22,23,23,26,26,27,27,29,29,30,30,32,32,33,33,34,34,35,35,36,36,37,37,38,38,40,40,41,41],"right_children":[2,4,6,-1,8,10,12,14,16,18,20,22,24,26,-1,28,30,-1,32,34,36,38,40,42,-1,-1,44,46,-1,48,50,-1,52,54,56,58,60,62,64,-1,66,68,-1,-1,-1,-1,-1,-1,-1,-1,-1,-1,-1,-1,-1,-1,-1,-1,-1,-1,-1,-1,-1,-1,-1,-1,-1,-1,-1],"split_conditions":[-5E-1,-4.3388373E-1,9.659258E-1,5.4518074E-1,1.9919415E2,1.3073694E2,9.749279E-1,0E0,1.829131E2,7.21089E1,1.6786499E2,-2.2252093E-1,1.455735E2,1.8164723E2,3.9161655E-1,4.3388373E-1,-7.0710677E-1,-1.0202569E0,8.908457E1,1.2246469E-16,1.2246469E-16,8.6308754E1,4.3388373E-1,1.16777824E2,5.694175E-1,3.8958505E-1,1.8215028E2,1.7576155E2,4.044643E-1,1.8783267E2,1.8525172E2,-8.101536E-1,-4.3388373E-1,-2.5881904E-1,2.5881904E-1,0E0,2.2916884E2,7.750666E1,9.2354614E1,6.109938E-1,8.205101E1,8.74472E1,-6.958998E-1,5.7945706E-2,3.3456668E-1,3.4971353E-1,1.19106546E-1,1.0298423E-1,2.7889398E-1,2.95315E-1,8.688492E-2,4.8363423E-1,6.2741645E-2,-6.2476295E-1,-1.0026733E0,1.602369E-1,-5.5821633E-1,-2.9154187E-1,-9.815192E-1,-7.3217265E-3,-6.3919914E-1,5.3166944E-1,-1.2687586E-1,3.3166668E-1,5.849571E-1,2.7413568E-1,5.17325E-1,-4.0373158E-1,4.538587E-1],"split_indices":[4,6,4,0,3,3,6,6,2,3,1,7,1,2,0,6,4,0,1,4,4,1,6,1,0,0,1,1,0,2,1,0,6,4,4,4,2,1,2,0,2,2,0,0,0,0,0,0,0,0,0,0,0,0,0,0,0,0,0,0,0,0,0,0,0,0,0,0,0],"split_type":[0,0,0,0,0,0,0,0,0,0,0,0,0,0,0,0,0,0,0,0,0,0,0,0,0,0,0,0,0,0,0,0,0,0,0,0,0,0,0,0,0,0,0,0,0,0,0,0,0,0,0,0,0,0,0,0,0,0,0,0,0,0,0,0,0,0,0,0,0],"sum_hessian":[1.154E3,3.43E2,8.11E2,9.5E1,2.48E2,6.59E2,1.52E2,1.39E2,1.09E2,1.61E2,4.98E2,1.27E2,2.5E1,1.9E1,1.2E2,4.5E1,6.4E1,5E0,1.56E2,2.29E2,2.69E2,4E1,8.7E1,1.8E1,7E0,8E0,1.1E1,1.5E1,3E1,4.4E1,2E1,7E0,1.49E2,7.4E1,1.55E2,1.31E2,1.38E2,1E1,3E1,6.1E1,2.6E1,1.2E1,6E0,6E0,5E0,7E0,8E0,6E0,3.8E1,5E0,1.5E1,3.5E1,1.14E2,2.1E1,5.3E1,6E0,1.49E2,1.07E2,2.4E1,1.32E2,6E0,5E0,5E0,1.2E1,1.8E1,6E0,2E1,5E0,7E0],"tree_param":{"num_deleted":"0","num_feature":"8","num_nodes":"69","size_leaf_vector":"1"}},{"base_weights":[-2.1149504E-1,4.8438845E0,-1.867418E1,6.566578E0,-1.8896928E0,-1.9604435E1,-1.4059672E1,-6.302785E-1,6.768101E0,9.098626E0,-1.1971989E1,-1.0359554E0,-1.7972683E1,-7.816665E-1,-5.718532E-1,4.883211E0,8.314544E0,9.781697E0,5.279126E0,-1.3112141E1,-5.214718E-1,-9.4436073E-1,-7.295188E-1,2.9627848E0,5.5033402E0,7.394767E0,9.699229E0,5.318902E-1,3.7396953E-1,3.8629088E-1,1.5142646E-1,-5.592224E-1,-1.6530521E1,1.966826E-1,6.0205795E-2,3.1365168E-1,1.4862937E-1,3.1780097E-1,4.261336E-1,9.246972E-3,5.006193E-1,-9.4284934E-1,-5.2494305E-1],"categories":[],"categories_nodes":[],"categories_segments":[],"categories_sizes":[],"default_left":[0,0,0,0,0,0,0,0,0,0,0,0,0,0,0,0,0,0,0,0,0,0,0,0,0,0,0,0,0,0,0,0,0,0,0,0,0,0,0,0,0,0,0],"id":3,"left_children":[1,3,5,7,9,11,13,-1,15,17,19,-1,21,-1,-1,23,25,27,29,31,-1,-1,-1,33,35,37,39,-1,-1,-1,-1,-1,41,-1,-1,-1,-1,-1,-1,-1,-1,-1,-1],"loss_changes":[1.09854836E5,1.0731172E4,8.070469E2,2.9283672E3,2.104805E4,2.078125E0,8.339844E0,0E0,2.0830234E3,1.8427295E2,3.500879E1,0E0,5.658203E0,0E0,0E0,3.7704004E2,4.3473438E2,6.8421875E1,6.363098E1,1.615918E2,0E0,0E0,0E0,1.3646667E2,4.6545654E2,2.3021484E2,4.6192285E2,0E0,0E0,0E0,0E0,0E0,3.763916E1,0E0,0E0,0E0,0E0,0E0,0E0,0E0,0E0,0E0,0E0],"parents":[2147483647,0,0,1,1,2,2,3,3,4,4,5,5,6,6,8,8,9,9,10,10,12,12,15,15,16,16,17,17,18,18,19,19,23,23,24,24,25,25,26,26,32,32],"right_children":[2,4,6,8,10,12,14,-1,16,18,20,-1,22,-1,-1,24,26,28,30,32,-1,-1,-1,34,36,38,40,-1,-1,-1,-1,-1,42,-1,-1,-1,-1,-1,-1,-1,-1,-1,-1],"split_conditions":[8.660254E-1,5E-1,5E-1,7.669798E1,-5E-1,6.234898E-1,6.234898E-1,-6.302785E-1,-5E-1,1E0,6.234898E-1,-1.0359554E0,1.2246469E-16,-7.816665E-1,-5.718532E-1,-2.2252093E-1,6.123234E-17,2.1256747E2,1.747626E2,1.9660413E2,-5.214718E-1,-9.4436073E-1,-7.295188E-1,1.9741801E2,1E0,1.8586513E2,8.280533E1,5.318902E-1,3.7396953E-1,3.8629088E-1,1.5142646E-1,-5.592224E-1,1.6577036E2,1.966826E-1,6.0205795E-2,3.1365168E-1,1.4862937E-1,3.1780097E-1,4.261336E-1,9.246972E-3,5.006193E-1,-9.4284934E-1,-5.2494305E-1],"split_indices":[5,5,4,3,4,7,7,0,5,7,7,0,4,0,0,7,5,3,0,3,0,0,0,2,7,0,0,0,0,0,0,0,0,0,0,0,0,0,0,0,0,0,0],"split_type":[0,0,0,0,0,0,0,0,0,0,0,0,0,0,0,0,0,0,0,0,0,0,0,0,0,0,0,0,0,0,0,0,0,0,0,0,0,0,0,0,0,0,0],"sum_hessian":[1.175E3,9.23E2,2.52E2,7.35E2,1.88E2,2.07E2,4.5E1,7E0,7.28E2,9E1,9.8E1,1.16E2,9.1E1,2.5E1,2E1,3.3E2,3.98E2,7.5E1,1.5E1,5.2E1,4.6E1,6.8E1,2.3E1,8.2E1,2.48E2,2.43E2,1.55E2,5.2E1,2.3E1,6E0,9E0,3.6E1,1.6E1,5.2E1,3E1,1.89E2,5.9E1,1.3E2,1.13E2,5E0,1.5E2,1E1,6E0],"tree_param":{"num_deleted":"0","num_feature":"8","num_nodes":"43","size_leaf_vector":"1"}},{"base_weights":[-6.9123484E-2,4.3400745E0,-1.7630678E1,6.1667647E0,-2.1271272E0,-1.9119844E1,-1.5289793E1,-4.8393956E-1,6.356672E0,8.667857E0,-1.16279125E1,-1.6262154E1,-1.0135587E0,-8.0748904E-1,-5.168757E-1,4.7289505E0,7.7800045E0,1.9167307E-1,9.117586E0,-6.5006113E-1,-4.8911473E-1,-1.5484248E-1,-9.102807E-1,2.8050342E0,5.384232E0,6.106182E0,8.312433E0,5.115063E-1,7.3048916E0,2.1276371E-1,9.278517E-2,3.0601236E-1,1.2919758E-1,5.289435E-1,2.700865E-1,3.7003312E-1,4.5890638E-1,4.1588327E-1,2.0729111E-1],"categories":[],"categories_nodes":[],"categories_segments":[],"categories_sizes":[],"default_left":[0,0,0,0,0,0,0,0,0,0,0,0,0,0,0,0,0,0,0,0,0,0,0,0,0,0,0,0,0,0,0,0,0,0,0,0,0,0,0],"id":4,"left_children":[1,3,5,7,9,11,13,-1,15,17,19,21,-1,-1,-1,23,25,-1,27,-1,-1,-1,-1,29,31,33,35,-1,37,-1,-1,-1,-1,-1,-1,-1,-1,-1,-1],"loss_changes":[9.0286555E4,1.102377E4,5.199453E2,2.248871E3,2.1228617E4,1.2402344E2,2.3925781E2,0E0,1.6277285E3,1.7464697E2,1.4934766E2,1.0928711E3,0E0,0E0,0E0,4.1019678E2,2.8823633E2,0E0,1.0098584E2,0E0,0E0,0E0,0E0,1.12647095E2,5.0063818E2,2.4373389E2,1.5695117E2,0E0,8.264868E1,0E0,0E0,0E0,0E0,0E0,0E0,0E0,0E0,0E0,0E0],"parents":[2147483647,0,0,1,1,2,2,3,3,4,4,5,5,6,6,8,8,9,9,10,10,11,11,15,15,16,16,18,18,23,23,24,24,25,25,26,26,28,28],"right_children":[2,4,6,8,10,12,14,-1,16,18,20,22,-1,-1,-1,24,26,-1,28,-1,-1,-1,-1,30,32,34,36,-1,38,-1,-1,-1,-1,-1,-1,-1,-1,-1,-1],"split_conditions":[8.660254E-1,5E-1,1.2246469E-16,7.669798E1,-5E-1,-2.5881904E-1,1E0,-4.8393956E-1,-5E-1,1.5138078E2,6.234898E-1,1.498309E2,-1.0135587E0,-8.0748904E-1,-5.168757E-1,-2.2252093E-1,-2.2252093E-1,1.9167307E-1,1.9919415E2,-6.5006113E-1,-4.8911473E-1,-1.5484248E-1,-9.102807E-1,1.7197107E2,1E0,7.906417E1,-7.0710677E-1,5.115063E-1,2.22238E2,2.1276371E-1,9.278517E-2,3.0601236E-1,1.2919758E-1,5.289435E-1,2.700865E-1,3.7003312E-1,4.5890638E-1,4.1588327E-1,2.0729111E-1],"split_indices":[5,5,4,3,4,4,7,0,5,3,7,2,0,0,0,7,7,0,3,0,0,0,0,2,7,2,4,0,1,0,0,0,0,0,0,0,0,0,0],"split_type":[0,0,0,0,0,0,0,0,0,0,0,0,0,0,0,0,0,0,0,0,0,0,0,0,0,0,0,0,0,0,0,0,0,0,0,0,0,0,0],"sum_hessian":[1.164E3,9.31E2,2.33E2,7.26E2,2.05E2,1.38E2,9.5E1,8E0,7.18E2,9.6E1,1.09E2,4.4E1,9.4E1,7.9E1,1.6E1,3.37E2,3.81E2,9E0,8.7E1,5.9E1,5E1,6E0,3.8E1,8.7E1,2.5E2,9.5E1,2.86E2,5.1E1,3.6E1,3.3E1,5.4E1,1.97E2,5.3E1,1.1E1,8.4E1,1.44E2,1.42E2,2.6E1,1E1],"tree_param":{"num_deleted":"0","num_feature":"8","num_nodes":"39","size_leaf_vector":"1"}},{"base_weights":[1.0944634E-1,6.478509E0,-2.4695866E0,4.6796295E-1,5.455298E0,-4.933932E0,8.3016405E0,4.508793E0,6.0385556E0,-1.2135414E1,-1.5208713E0,-2.5002873E-1,8.856633E0,5.1490316E0,2.716156E0,6.259528E0,3.9911258E0,-1.6125114E1,-1.0045058E1,-5.5950236E0,8.764358E-1,9.491426E0,5.5390244E0,5.679415E0,1.23157196E-1,1.2684206E0,3.172705E-1,6.988876E0,5.7969174E0,5.4800167E0,4.2714737E-2,-1.0683453E1,-1.7907839E1,-1.1115365E1,-2.987217E0,-4.43855E0,-8.038225E-1,-6.3068265E-1,1.2924163E0,5.753883E0,1.005493E1,5.8244365E-1,5.046409E-1,3.3576596E-1,2.2638245E-1,2.1606274E-1,-3.887871E-2,3.7049592E-1,2.2979096E-1,1.368564E-1,2.9897624E-1,1.627169E-1,3.2952985E-1,-1.272559E-1,-6.530681E-1,-9.4793266E-1,-4.6759877E-1,-6.90864E-1,-4.5240065E-1,-2.7439153E-1,2.0811446E-1,-6.473312E-1,-1.7635523E-1,2.0549242E-1,9.0175085E-3,4.7975874E-1,-2.0757225E-1,3.5618365E-1,5.1715446E-1,4.5316505E-1,-6.109625E-1],"categories":[],"categories_nodes":[],"categories_segments":[],"categories_sizes":[],"default_left":[0,0,0,0,0,0,0,0,0,0,0,0,0,0,0,0,0,0,0,0,0,0,0,0,0,0,0,0,0,0,0,0,0,0,0,0,0,0,0,0,0,0,0,0,0,0,0,0,0,0,0,0,0,0,0,0,0,0,0,0,0,0,0,0,0,0,0,0,0,0,0],"id":5,"left_children":[1,3,5,-1,7,9,11,13,15,17,19,-1,21,23,25,27,29,31,33,35,37,39,41,43,-1,45,-1,47,49,51,-1,53,55,57,59,61,-1,-1,63,65,67,69,-1,-1,-1,-1,-1,-1,-1,-1,-1,-1,-1,-1,-1,-1,-1,-1,-1,-1,-1,-1,-1,-1,-1,-1,-1,-1,-1,-1,-1],"loss_changes":[1.9661922E4,9.6438965E2,2.2656127E4,0E0,1.1359668E2,1.7038068E4,1.2185117E3,1.0229492E2,4.45708E1,1.6951992E3,4.615397E3,0E0,2.681416E2,9.06134E1,1.4356172E2,5.1069336E0,7.875223E1,5.3339844E2,1.0909404E3,2.047853E3,1.6874313E3,2.0804102E2,6.0247754E2,4.125122E1,0E0,1.4112827E2,0E0,1.4116455E1,3.360669E1,7.229004E0,0E0,3.7159326E2,3.1435352E2,5.932656E2,3.984157E2,1.1856775E3,0E0,0E0,9.0744934E2,7.633141E2,1.6640625E1,1.630402E3,0E0,0E0,0E0,0E0,0E0,0E0,0E0,0E0,0E0,0E0,0E0,0E0,0E0,0E0,0E0,0E0,0E0,0E0,0E0,0E0,0E0,0E0,0E0,0E0,0E0,0E0,0E0,0E0,0E0],"parents":[2147483647,0,0,1,1,2,2,4,4,5,5,6,6,7,7,8,8,9,9,10,10,12,12,13,13,14,14,15,15,16,16,17,17,18,18,19,19,20,20,21,21,22,22,23,23,25,25,27,27,28,28,29,29,31,31,32,32,33,33,34,34,35,35,38,38,39,39,40,40,41,41],"right_children":[2,4,6,-1,8,10,12,14,16,18,20,-1,22,24,26,28,30,32,34,36,38,40,42,44,-1,46,-1,48,50,52,-1,54,56,58,60,62,-1,-1,64,66,68,70,-1,-1,-1,-1,-1,-1,-1,-1,-1,-1,-1,-1,-1,-1,-1,-1,-1,-1,-1,-1,-1,-1,-1,-1,-1,-1,-1,-1,-1],"split_conditions":[-5E-1,-4.3388373E-1,9.659258E-1,4.6796295E-1,4.3388373E-1,1.4753156E2,7.669798E1,-7.0710677E-1,2.2550868E2,1.2246469E-16,1.2246469E-16,-2.5002873E-1,9.749279E-1,2.2388339E2,2.0260628E2,1.7487067E2,-7.0710677E-1,-2.5881904E-1,1.7080338E2,0E0,1.0034511E2,8.6308754E1,1.455735E2,1.8567491E2,1.23157196E-1,1.6822324E2,3.172705E-1,2.0705063E2,1.7715715E2,1.8510988E2,4.2714737E-2,1.5406726E2,2.264937E2,7.0710677E-1,1.3484393E2,1.5721037E2,-8.038225E-1,-6.3068265E-1,-4.3388373E-1,8.346428E1,8.280533E1,1.1502028E2,5.046409E-1,3.3576596E-1,2.2638245E-1,2.1606274E-1,-3.887871E-2,3.7049592E-1,2.2979096E-1,1.368564E-1,2.9897624E-1,1.627169E-1,3.2952985E-1,-1.272559E-1,-6.530681E-1,-9.4793266E-1,-4.6759877E-1,-6.90864E-1,-4.5240065E-1,-2.7439153E-1,2.0811446E-1,-6.473312E-1,-1.7635523E-1,2.0549242E-1,9.0175085E-3,4.7975874E-1,-2.0757225E-1,3.5618365E-1,5.1715446E-1,4.5316505E-1,-6.109625E-1],"split_indices":[4,6,4,0,6,0,2,4,1,4,4,0,6,0,0,2,4,4,1,4,1,1,0,2,0,0,0,1,2,2,0,2,2,4,0,0,0,0,6,1,2,1,0,0,0,0,0,0,0,0,0,0,0,0,0,0,0,0,0,0,0,0,0,0,0,0,0,0,0,0,0],"split_type":[0,0,0,0,0,0,0,0,0,0,0,0,0,0,0,0,0,0,0,0,0,0,0,0,0,0,0,0,0,0,0,0,0,0,0,0,0,0,0,0,0,0,0,0,0,0,0,0,0,0,0,0,0,0,0,0,0,0,0,0,0,0,0,0,0,0,0,0,0,0,0],"sum_hessian":[1.195E3,3.44E2,8.51E2,8.8E1,2.56E2,6.93E2,1.58E2,1.01E2,1.55E2,2.22E2,4.71E2,6E0,1.52E2,7.3E1,2.8E1,1.38E2,1.7E1,7.4E1,1.48E2,1.74E2,2.97E2,1.26E2,2.6E1,6E1,1.3E1,2.1E1,7E0,4.8E1,9E1,1.1E1,6E0,2E1,5.4E1,1.28E2,2E1,1.58E2,1.6E1,8E0,2.89E2,1.8E1,1.08E2,1.3E1,1.3E1,2.9E1,3.1E1,8E0,1.3E1,3.9E1,9E0,6E0,8.4E1,5E0,6E0,5E0,1.5E1,4.7E1,7E0,5.3E1,7.5E1,1.5E1,5E0,1.4E1,1.44E2,8.1E1,2.08E2,1.3E1,5E0,1.2E1,9.6E1,8E0,5E0],"tree_param":{"num_deleted":"0","num_feature":"8","num_nodes":"71","size_leaf_vector":"1"}},{"base_weights":[-1.16584994E-1,6.346549E0,-2.8023386E0,8.794564E0,5.450233E0,-5.135423E0,7.6140065E0,9.346778E0,7.23442E0,4.2599363E0,6.251783E0,-5.386555E-1,-7.665351E0,8.787318E0,1.6312652E0,4.8721084E-1,3.2865247E-1,2.267411E-1,7.9135804E0,2.586086E-2,4.480533E0,3.2939756E-1,4.7564354E0,6.4367695E0,-2.2712033E0,-1.1906777E1,-4.6693325E0,7.960044E0,5.124981E-1,-2.586137E0,4.9479648E-1,2.3730986E-1,4.30025E-1,5.5195484E0,3.5823689E0,5.9432836E0,5.918879E-2,-2.9655486E-1,4.3477282E-1,-8.675055E0,-6.960909E-1,-1.4925761E1,-1.021878E1,-2.5760036E0,-9.880336E0,8.4727125E0,9.7701214E-2,4.2068815E0,-6.938075E-1,3.275881E-1,1.7444353E-1,1.2423225E-1,2.332839E-1,1.6805811E-1,3.8316438E-1,-7.8013843E-1,-2.2222662E-1,-5.170726E-1,4.8195224E-2,-4.9903765E-1,-8.2849294E-1,-6.233646E-1,-4.1903242E-1,-2.4698697E-1,-2.5607895E-3,-6.395975E-1,2.2872282E-2,4.448703E-1,9.384095E-2,-6.637251E-2,4.1819483E-1],"categories":[],"categories_nodes":[],"categories_segments":[],"categories_sizes":[],"default_left":[0,0,0,0,0,0,0,0,0,0,0,0,0,0,0,0,0,0,0,0,0,0,0,0,0,0,0,0,0,0,0,0,0,0,0,0,0,0,0,0,0,0,0,0,0,0,0,0,0,0,0,0,0,0,0,0,0,0,0,0,0,0,0,0,0,0,0,0,0,0,0],"id":6,"left_children":[1,3,5,7,9,11,13,15,17,19,21,23,25,27,29,-1,-1,-1,31,-1,33,-1,35,37,39,41,43,45,-1,47,-1,-1,-1,49,51,53,-1,-1,-1,55,57,59,61,63,65,67,-1,69,-1,-1,-1,-1,-1,-1,-1,-1,-1,-1,-1,-1,-1,-1,-1,-1,-1,-1,-1,-1,-1,-1,-1],"loss_changes":[2.0222592E4,7.010576E2,2.0039574E4,8.261719E0,2.136997E2,7.821701E3,1.0445859E3,3.7700195E0,1.42052E1,8.3874146E1,4.2430664E1,2.9146643E3,5.457752E3,6.9049805E1,9.3256396E2,0E0,0E0,0E0,3.536255E0,0E0,7.170447E1,0E0,1.2369818E2,1.3927367E3,1.9397739E3,7.5715234E2,2.7658384E3,2.44125E2,0E0,1.4398209E3,0E0,0E0,0E0,6.836572E1,5.4286194E1,7.528888E1,0E0,0E0,0E0,1.0423464E3,2.5086616E3,3.3603027E2,3.811338E2,1.0973469E3,2.204358E3,2.0072021E2,0E0,2.8788193E2,0E0,0E0,0E0,0E0,0E0,0E0,0E0,0E0,0E0,0E0,0E0,0E0,0E0,0E0,0E0,0E0,0E0,0E0,0E0,0E0,0E0,0E0,0E0],"parents":[2147483647,0,0,1,1,2,2,3,3,4,4,5,5,6,6,7,7,8,8,9,9,10,10,11,11,12,12,13,13,14,14,18,18,20,20,22,22,23,23,24,24,25,25,26,26,27,27,29,29,33,33,34,34,35,35,39,39,40,40,41,41,42,42,43,43,44,44,45,45,47,47],"right_children":[2,4,6,8,10,12,14,16,18,20,22,24,26,28,30,-1,-1,-1,32,-1,34,-1,36,38,40,42,44,46,-1,48,-1,-1,-1,50,52,54,-1,-1,-1,56,58,60,62,64,66,68,-1,70,-1,-1,-1,-1,-1,-1,-1,-1,-1,-1,-1,-1,-1,-1,-1,-1,-1,-1,-1,-1,-1,-1,-1],"split_conditions":[-5E-1,-4.3388373E-1,9.659258E-1,2.1828777E2,4.3388373E-1,1.4797418E2,9.749279E-1,2.2711105E2,2.2309259E2,1.5138078E2,2.1783635E2,-4.3388373E-1,1.6650906E2,1.755176E2,1.455735E2,4.8721084E-1,3.2865247E-1,2.267411E-1,1.6099493E2,2.586086E-2,1.8567491E2,3.2939756E-1,2.1430733E2,1.2561738E2,1.2246469E-16,1.2246469E-16,2.1403468E2,1.6650906E2,5.124981E-1,1.1502028E2,4.9479648E-1,2.3730986E-1,4.30025E-1,2.1091434E2,2.1572575E2,1.8446399E2,5.918879E-2,-2.9655486E-1,4.3477282E-1,1.7706165E2,1.0694558E2,-2.5881904E-1,1.1015209E2,1.2246469E-16,7.0710677E-1,1.454045E2,9.7701214E-2,1.0694558E2,-6.938075E-1,3.275881E-1,1.7444353E-1,1.2423225E-1,2.332839E-1,1.6805811E-1,3.8316438E-1,-7.8013843E-1,-2.2222662E-1,-5.170726E-1,4.8195224E-2,-4.9903765E-1,-8.2849294E-1,-6.233646E-1,-4.1903242E-1,-2.4698697E-1,-2.5607895E-3,-6.395975E-1,2.2872282E-2,4.448703E-1,9.384095E-2,-6.637251E-2,4.1819483E-1],"split_indices":[4,6,4,2,6,3,6,3,2,3,1,6,1,2,1,0,0,0,3,0,2,0,3,1,4,4,3,1,0,1,0,0,0,3,2,2,0,0,0,1,1,4,1,4,4,2,0,3,0,0,0,0,0,0,0,0,0,0,0,0,0,0,0,0,0,0,0,0,0,0,0],"split_type":[0,0,0,0,0,0,0,0,0,0,0,0,0,0,0,0,0,0,0,0,0,0,0,0,0,0,0,0,0,0,0,0,0,0,0,0,0,0,0,0,0,0,0,0,0,0,0,0,0,0,0,0,0,0,0,0,0,0,0,0,0,0,0,0,0,0,0,0,0,0,0],"sum_hessian":[1.163E3,3.41E2,8.22E2,8.9E1,2.52E2,6.72E2,1.5E2,6.2E1,2.7E1,1.04E2,1.48E2,2.39E2,4.33E2,1.25E2,2.5E1,5.2E1,1E1,7E0,2E1,6E0,9.8E1,1.18E2,3E1,4.7E1,1.92E2,1.78E2,2.55E2,8.4E1,4.1E1,1.7E1,8E0,5E0,1.5E1,4.3E1,5.5E1,2.2E1,8E0,7E0,4E1,3.7E1,1.55E2,6.1E1,1.17E2,1.83E2,7.2E1,7.7E1,7E0,1.1E1,6E0,2.7E1,1.6E1,2.9E1,2.6E1,1E1,1.2E1,1.3E1,2.4E1,2.2E1,1.33E2,1.7E1,4.4E1,5E1,6.7E1,9.4E1,8.9E1,5.6E1,1.6E1,7.2E1,5E0,5E0,6E0],"tree_param":{"num_deleted":"0","num_feature":"8","num_nodes":"71","size_leaf_vector":"1"}},{"base_weights":[-2.7624825E-1,3.970053E0,-1.581162E1,5.5789557E0,-1.7917736E0,-8.402875E-1,-1.2030275E1,8.86274E0,4.2658906E0,7.87155E0,-1.0618666E1,-6.8031067E-1,-4.914982E-1,3.847944E-1,9.462367E0,3.198489E0,6.2802205E0,6.5073214E0,4.510889E-1,-1.1971395E1,-8.798729E0,4.9094224E-1,6.83898E0,5.4310784E0,2.310215E0,-4.481105E0,7.0164824E0,2.2823406E-2,7.3584795E0,-5.1954687E-1,-7.040369E-1,-3.5568413E-1,-4.856041E-1,1.6776308E-1,4.0905306E-1,2.9130638E-1,1.3469627E-1,2.0692335E-1,9.664038E-2,3.760132E-1,-8.876259E-1,2.9868454E-1,4.6029273E-1,4.1532388E-1,1.74212E-1],"categories":[],"categories_nodes":[],"categories_segments":[],"categories_sizes":[],"default_left":[0,0,0,0,0,0,0,0,0,0,0,0,0,0,0,0,0,0,0,0,0,0,0,0,0,0,0,0,0,0,0,0,0,0,0,0,0,0,0,0,0,0,0,0,0],"id":7,"left_children":[1,3,5,7,9,-1,11,13,15,17,19,-1,-1,-1,21,23,25,27,-1,29,31,-1,33,35,37,39,41,-1,43,-1,-1,-1,-1,-1,-1,-1,-1,-1,-1,-1,-1,-1,-1,-1,-1],"loss_changes":[7.7444266E4,8.557517E3,7.422461E2,3.0697031E3,1.7313877E4,0E0,5.809131E1,6.8896484E1,1.0905664E3,9.194922E1,1.535498E2,0E0,0E0,0E0,5.3691406E1,6.609502E2,1.4420166E3,2.4307092E2,0E0,4.4597656E1,4.6418457E0,0E0,6.022998E1,8.725879E1,1.60443E2,2.0458281E3,3.2475977E2,0E0,1.24135254E2,0E0,0E0,0E0,0E0,0E0,0E0,0E0,0E0,0E0,0E0,0E0,0E0,0E0,0E0,0E0,0E0],"parents":[2147483647,0,0,1,1,2,2,3,3,4,4,6,6,7,7,8,8,9,9,10,10,14,14,15,15,16,16,17,17,19,19,20,20,22,22,23,23,24,24,25,25,26,26,28,28],"right_children":[2,4,6,8,10,-1,12,14,16,18,20,-1,-1,-1,22,24,26,28,-1,30,32,-1,34,36,38,40,42,-1,44,-1,-1,-1,-1,-1,-1,-1,-1,-1,-1,-1,-1,-1,-1,-1,-1],"split_conditions":[8.660254E-1,5E-1,5E-1,-4.3388373E-1,-5E-1,-8.402875E-1,6.234898E-1,-5E-1,7.0710677E-1,1.8345706E2,6.234898E-1,-6.8031067E-1,-4.914982E-1,3.847944E-1,2.2824094E2,-8.660254E-1,7.791743E1,1.5138078E2,4.510889E-1,1.9660413E2,1.0490862E2,4.9094224E-1,2.339686E2,2.2191101E2,1.5969417E2,-2.2252093E-1,1.7571516E2,2.2823406E-2,2.1195326E2,-5.1954687E-1,-7.040369E-1,-3.5568413E-1,-4.856041E-1,1.6776308E-1,4.0905306E-1,2.9130638E-1,1.3469627E-1,2.0692335E-1,9.664038E-2,3.760132E-1,-8.876259E-1,2.9868454E-1,4.6029273E-1,4.1532388E-1,1.74212E-1],"split_indices":[5,5,4,6,4,0,7,4,4,0,7,0,0,0,0,4,3,3,0,3,0,0,0,0,0,7,3,0,3,0,0,0,0,0,0,0,0,0,0,0,0,0,0,0,0],"split_type":[0,0,0,0,0,0,0,0,0,0,0,0,0,0,0,0,0,0,0,0,0,0,0,0,0,0,0,0,0,0,0,0,0,0,0,0,0,0,0,0,0,0,0,0,0],"sum_hessian":[1.172E3,9.21E2,2.51E2,7.2E2,2.01E2,1.96E2,5.5E1,2.04E2,5.16E2,9.6E1,1.05E2,2.9E1,2.6E1,7.4E1,1.3E2,3.39E2,1.77E2,4.7E1,4.9E1,5.7E1,4.8E1,1.12E2,1.8E1,9.5E1,2.44E2,1.1E1,1.66E2,6E0,4.1E1,3.6E1,2.1E1,2E1,2.8E1,6E0,1.2E1,8.2E1,1.3E1,4E1,2.04E2,6E0,5E0,1.15E2,5.1E1,3.2E1,9E0],"tree_param":{"num_deleted":"0","num_feature":"8","num_nodes":"45","size_leaf_vector":"1"}},{"base_weights":[1.7184742E-1,5.586105E0,-2.1618578E0,7.843198E0,4.7718353E0,-4.138344E0,6.6085443E0,4.1075286E-1,5.7135196E0,3.907231E0,5.3336353E0,-9.351602E0,-9.044492E-1,7.956718E0,6.590994E-1,1.4870986E-1,3.9034477E-1,3.2943661E0,4.8887815E0,5.7404165E0,3.6404674E0,1.3018695E0,-1.0825644E1,-5.0840073E0,1.4397559E0,1.04890995E-1,8.186351E0,-8.002969E0,4.641947E-1,4.8612533E0,1.4346937E0,7.254611E0,3.696684E0,5.3265414E0,3.5131592E-1,4.599498E0,4.823743E-2,-3.8221574E-1,3.2453969E0,-1.2197521E1,-7.334339E0,-3.9056618E0,-7.671757E-1,-4.9315476E-1,1.7389106E0,6.7129383E0,4.2845234E-1,-6.252773E-2,-8.953249E-1,2.742934E-1,3.515487E-2,-1.864948E-1,1.3621143E-1,1.8834084E-1,4.596745E-1,2.2483711E-1,1.3484254E-1,3.7677845E-1,2.5363544E-1,8.9237705E-2,2.823821E-1,-2.0066951E-1,2.995821E-1,-6.695031E-1,-4.1413236E-1,-4.0414506E-1,-4.4220332E-2,2.6834313E-2,-2.794686E-1,1.798063E-1,-2.4551755E-2,4.0245375E-1,1.1645003E-2],"categories":[],"categories_nodes":[],"categories_segments":[],"categories_sizes":[],"default_left":[0,0,0,0,0,0,0,0,0,0,0,0,0,0,0,0,0,0,0,0,0,0,0,0,0,0,0,0,0,0,0,0,0,0,0,0,0,0,0,0,0,0,0,0,0,0,0,0,0,0,0,0,0,0,0,0,0,0,0,0,0,0,0,0,0,0,0,0,0,0,0,0,0],"id":8,"left_children":[1,3,5,7,9,11,13,-1,15,17,19,21,23,25,27,-1,-1,29,31,33,35,37,39,41,43,-1,45,47,-1,49,51,53,55,57,-1,59,-1,-1,61,63,65,67,-1,-1,69,71,-1,-1,-1,-1,-1,-1,-1,-1,-1,-1,-1,-1,-1,-1,-1,-1,-1,-1,-1,-1,-1,-1,-1,-1,-1,-1,-1],"loss_changes":[1.4808333E4,6.1008496E2,1.4224117E4,2.4529297E1,1.05498535E2,1.1269271E4,1.2050479E3,0E0,7.318805E1,4.7442993E1,8.560889E1,4.0351836E3,4.0639485E3,1.4728223E2,2.2409749E3,0E0,0E0,1.9345483E2,8.207849E1,2.7332031E1,7.968738E1,5.807579E2,9.8625586E2,1.7394456E3,9.157644E2,0E0,7.4848633E0,9.7878217E2,0E0,9.162207E1,2.2983777E2,4.5222717E1,9.551483E0,1.5464355E1,0E0,5.9983246E1,0E0,0E0,5.6247363E2,6.3391016E2,3.1061377E2,1.0132544E3,0E0,0E0,1.0788638E3,2.483855E2,0E0,0E0,0E0,0E0,0E0,0E0,0E0,0E0,0E0,0E0,0E0,0E0,0E0,0E0,0E0,0E0,0E0,0E0,0E0,0E0,0E0,0E0,0E0,0E0,0E0,0E0,0E0],"parents":[2147483647,0,0,1,1,2,2,3,3,4,4,5,5,6,6,8,8,9,9,10,10,11,11,12,12,13,13,14,14,17,17,18,18,19,19,20,20,21,21,22,22,23,23,24,24,26,26,27,27,29,29,30,30,31,31,32,32,33,33,35,35,38,38,39,39,40,40,41,41,44,44,45,45],"right_children":[2,4,6,8,10,12,14,-1,16,18,20,22,24,26,28,-1,-1,30,32,34,36,38,40,42,44,-1,46,48,-1,50,52,54,56,58,-1,60,-1,-1,62,64,66,68,-1,-1,70,72,-1,-1,-1,-1,-1,-1,-1,-1,-1,-1,-1,-1,-1,-1,-1,-1,-1,-1,-1,-1,-1,-1,-1,-1,-1,-1,-1],"split_conditions":[-5E-1,-4.3388373E-1,9.659258E-1,2.2823643E2,4.3388373E-1,1.5969417E2,9.749279E-1,4.1075286E-1,2.0680573E2,2.0260628E2,2.1572575E2,1.18575775E2,1.2246469E-16,8.6308754E1,1.455735E2,1.4870986E-1,3.9034477E-1,1.747626E2,1.7845372E2,1.963366E2,2.1430733E2,1.0216997E2,7.0710677E-1,0E0,1.0216997E2,1.04890995E-1,1.1015209E2,1.16777824E2,4.641947E-1,1.9502339E2,1.7763705E2,2.0662683E2,2.213226E2,1.1502028E2,3.5131592E-1,1.6146869E2,4.823743E-2,-3.8221574E-1,5E-1,1.7639287E2,1.7882939E2,-4.3388373E-1,-7.671757E-1,-4.9315476E-1,1.9864803E2,1.0216997E2,4.2845234E-1,-6.252773E-2,-8.953249E-1,2.742934E-1,3.515487E-2,-1.864948E-1,1.3621143E-1,1.8834084E-1,4.596745E-1,2.2483711E-1,1.3484254E-1,3.7677845E-1,2.5363544E-1,8.9237705E-2,2.823821E-1,-2.0066951E-1,2.995821E-1,-6.695031E-1,-4.1413236E-1,-4.0414506E-1,-4.4220332E-2,2.6834313E-2,-2.794686E-1,1.798063E-1,-2.4551755E-2,4.0245375E-1,1.1645003E-2],"split_indices":[4,6,4,3,6,0,6,0,0,0,1,3,4,0,0,0,0,0,3,1,3,0,4,4,1,0,3,1,0,1,0,1,0,1,0,3,0,0,4,1,1,6,0,0,1,3,0,0,0,0,0,0,0,0,0,0,0,0,0,0,0,0,0,0,0,0,0,0,0,0,0,0,0],"split_type":[0,0,0,0,0,0,0,0,0,0,0,0,0,0,0,0,0,0,0,0,0,0,0,0,0,0,0,0,0,0,0,0,0,0,0,0,0,0,0,0,0,0,0,0,0,0,0,0,0,0,0,0,0,0,0,0,0,0,0,0,0,0,0,0,0,0,0,0,0,0,0,0,0],"sum_hessian":[1.17E3,3.52E2,8.18E2,9.1E1,2.61E2,6.68E2,1.5E2,7.5E1,1.6E1,1.06E2,1.55E2,2.55E2,4.13E2,1.22E2,2.8E1,8E0,8E0,6.8E1,3.8E1,1.23E2,3.2E1,3.1E1,2.24E2,1.48E2,2.65E2,5E0,1.17E2,1.4E1,1.4E1,3.6E1,3.2E1,1.1E1,2.7E1,9.7E1,2.6E1,2.3E1,9E0,5E0,2.6E1,1.59E2,6.5E1,1.34E2,1.4E1,6E0,2.59E2,2.8E1,8.9E1,9E0,5E0,3.1E1,5E0,6E0,2.6E1,5E0,6E0,1.3E1,1.4E1,7E0,9E1,7E0,1.6E1,7E0,1.9E1,1.2E2,3.9E1,5.8E1,7E0,3.7E1,9.7E1,1.41E2,1.18E2,2.3E1,5E0],"tree_param":{"num_deleted":"0","num_feature":"8","num_nodes":"73","size_leaf_vector":"1"}},{"base_weights":[3.1533083E-1,3.99913E0,-1.4279101E1,5.3612256E0,-1.2083287E0,-1.2122895E1,-7.845249E-1,8.371465E0,4.2661095E0,-7.78339E0,2.68112E0,-8.78269E0,-1.3557194E1,3.7889394E-1,4.5317242E-1,2.6965384E0,5.546173E0,-9.258386E0,1.2287098E0,-3.0528572E0,3.5763698E0,-5.7491046E-1,-5.3422832E0,-1.1160545E1,-7.416751E-1,-1.732991E-1,2.9196024E0,-2.4670799E-1,5.779562E0,-1.0601823E1,-3.8878987E0,-1.4049947E-1,2.5396454E-1,-4.8373213E-1,1.2699284E-1,4.7775183E0,5.6116253E-2,-4.9696216E-1,9.868498E-2,-5.9507436E-1,-3.2835028E-1,2.2103348E-1,1.13809206E-1,2.3603772E-1,3.7265587E-1,-7.8498065E-1,-4.8317233E-1,-2.9604447E-1,-8.688151E-3,2.0906904E-1,4.2313647E-1,-9.431882E-2,3.7548262E-1],"categories":[],"categories_nodes":[],"categories_segments":[],"categories_sizes":[],"default_left":[0,0,0,0,0,0,0,0,0,0,0,0,0,0,0,0,0,0,0,0,0,0,0,0,0,0,0,0,0,0,0,0,0,0,0,0,0,0,0,0,0,0,0,0,0,0,0,0,0,0,0,0,0],"id":9,"left_children":[1,3,5,7,9,11,-1,13,15,17,19,21,23,-1,-1,25,27,29,31,33,35,-1,37,39,-1,-1,41,-1,43,45,47,-1,-1,-1,-1,49,51,-1,-1,-1,-1,-1,-1,-1,-1,-1,-1,-1,-1,-1,-1,-1,-1],"loss_changes":[6.24211E4,6.582157E3,5.191289E2,2.385996E3,4.957037E3,3.4341113E2,0E0,3.673828E1,1.0711709E3,9.692612E2,6.3723834E2,2.3584888E2,3.3734375E1,0E0,0E0,3.468506E2,7.550615E2,4.0465625E2,1.8556439E2,6.5485944E2,4.4745325E2,0E0,5.5851416E2,1.1891846E1,0E0,0E0,2.181659E2,0E0,4.7924316E2,8.015039E1,1.0407291E2,0E0,0E0,0E0,0E0,1.3690417E2,4.2012466E2,0E0,0E0,0E0,0E0,0E0,0E0,0E0,0E0,0E0,0E0,0E0,0E0,0E0,0E0,0E0,0E0],"parents":[2147483647,0,0,1,1,2,2,3,3,4,4,5,5,7,7,8,8,9,9,10,10,11,11,12,12,15,15,16,16,17,17,18,18,19,19,20,20,22,22,23,23,26,26,28,28,29,29,30,30,35,35,36,36],"right_children":[2,4,6,8,10,12,-1,14,16,18,20,22,24,-1,-1,26,28,30,32,34,36,-1,38,40,-1,-1,42,-1,44,46,48,-1,-1,-1,-1,50,52,-1,-1,-1,-1,-1,-1,-1,-1,-1,-1,-1,-1,-1,-1,-1,-1],"split_conditions":[8.660254E-1,5E-1,9.659258E-1,-4.3388373E-1,1.3943732E2,1.498309E2,-7.845249E-1,-7.818315E-1,-5E-1,1.6517659E2,1.454045E2,6.234898E-1,1.488647E2,3.7889394E-1,4.5317242E-1,1.0374009E2,7.669798E1,1E0,7.818315E-1,1.4482347E2,2.22238E2,-5.7491046E-1,1.3073694E2,1.7189572E2,-7.416751E-1,-1.732991E-1,1.7427165E2,-2.4670799E-1,6.123234E-17,7.669798E1,1.3073694E2,-1.4049947E-1,2.5396454E-1,-4.8373213E-1,1.2699284E-1,2.1430733E2,2.3973232E2,-4.9696216E-1,9.868498E-2,-5.9507436E-1,-3.2835028E-1,2.2103348E-1,1.13809206E-1,2.3603772E-1,3.7265587E-1,-7.8498065E-1,-4.8317233E-1,-2.9604447E-1,-8.688151E-3,2.0906904E-1,4.2313647E-1,-9.431882E-2,3.7548262E-1],"split_indices":[5,5,5,6,0,2,0,6,5,2,1,7,0,0,0,2,2,7,6,2,1,0,1,1,0,0,0,0,5,1,2,0,0,0,0,1,1,0,0,0,0,0,0,0,0,0,0,0,0,0,0,0,0],"split_type":[0,0,0,0,0,0,0,0,0,0,0,0,0,0,0,0,0,0,0,0,0,0,0,0,0,0,0,0,0,0,0,0,0,0,0,0,0,0,0,0,0,0,0,0,0,0,0,0,0,0,0,0,0],"sum_hessian":[1.159E3,9.26E2,2.33E2,7.34E2,1.92E2,9.6E1,1.37E2,1.94E2,5.4E2,7.1E1,1.21E2,3.1E1,6.5E1,9.6E1,9.8E1,2.44E2,2.96E2,6.1E1,1E1,1.6E1,1.05E2,1.6E1,1.5E1,2.6E1,3.9E1,8E0,2.36E2,6E0,2.9E2,4.8E1,1.3E1,5E0,5E0,7E0,9E0,7.8E1,2.7E1,9E0,6E0,2.1E1,5E0,6.9E1,1.67E2,1.8E2,1.1E2,5E0,4.3E1,8E0,5E0,6.9E1,9E0,2.2E1,5E0],"tree_param":{"num_deleted":"0","num_feature":"8","num_nodes":"53","size_leaf_vector":"1"}},{"base_weights":[6.607795E-2,3.6915483E0,-1.3731544E1,5.041228E0,-1.0465572E0,-1.4455252E1,-1.0419235E1,7.7912993E0,3.9768627E0,7.0886354E0,-9.016203E0,-7.823701E-1,-1.2876193E1,-1.1483525E1,-4.201634E-1,7.0039463E0,4.24987E-1,2.9735477E0,5.9315295E0,7.555981E0,4.482356E0,-3.7190092E-1,-1.0337892E1,-1.0018218E1,-1.3652035E1,-4.8212576E-1,-7.143801E-1,3.070044E-1,4.2149836E-1,2.3691652E0,5.3552933E0,7.373023E0,-2.6034093E-1,3.3067095E-1,4.272557E-1,8.362827E-2,3.5475978E-1,-5.8068675E-1,-4.127507E-1,-2.1052289E-1,-1.1814459E1,-8.2796663E-1,-1.1687614E1,1.7499208E-1,9.249281E-2,2.8900817E-1,1.2902544E-1,3.9360926E-1,2.9504278E-1,-2.4887136E-1,3.867377E-1,-2.761201E-1,-7.367682E-1,-4.8962417E-1,-6.830276E-1],"categories":[],"categories_nodes":[],"categories_segments":[],"categories_sizes":[],"default_left":[0,0,0,0,0,0,0,0,0,0,0,0,0,0,0,0,0,0,0,0,0,0,0,0,0,0,0,0,0,0,0,0,0,0,0,0,0,0,0,0,0,0,0,0,0,0,0,0,0,0,0,0,0,0,0],"id":10,"left_children":[1,3,5,7,9,11,13,15,17,19,21,-1,23,25,-1,27,-1,29,31,33,35,-1,37,39,41,-1,-1,-1,-1,43,45,47,49,-1,-1,-1,-1,-1,-1,-1,51,-1,53,-1,-1,-1,-1,-1,-1,-1,-1,-1,-1,-1,-1],"loss_changes":[5.8176254E4,5.8954014E3,4.2701562E2,2.0665547E3,1.3355198E4,1.6463281E2,2.3544922E0,4.991797E1,9.993076E2,8.916699E1,1.3825879E2,0E0,6.0424805E1,4.383789E0,0E0,6.9970215E1,0E0,4.8316235E2,1.5645996E3,2.121875E1,1.19403625E2,0E0,4.5643066E1,1.8859253E2,1.9199414E2,0E0,0E0,0E0,0E0,1.5563696E2,6.559363E1,5.6519043E1,1.3204843E3,0E0,0E0,0E0,0E0,0E0,0E0,0E0,2.2903394E2,0E0,2.8399414E1,0E0,0E0,0E0,0E0,0E0,0E0,0E0,0E0,0E0,0E0,0E0,0E0],"parents":[2147483647,0,0,1,1,2,2,3,3,4,4,5,5,6,6,7,7,8,8,9,9,10,10,12,12,13,13,15,15,17,17,18,18,19,19,20,20,22,22,23,23,24,24,29,29,30,30,31,31,32,32,40,40,42,42],"right_children":[2,4,6,8,10,12,14,16,18,20,22,-1,24,26,-1,28,-1,30,32,34,36,-1,38,40,42,-1,-1,-1,-1,44,46,48,50,-1,-1,-1,-1,-1,-1,-1,52,-1,54,-1,-1,-1,-1,-1,-1,-1,-1,-1,-1,-1,-1],"split_conditions":[8.660254E-1,5E-1,5E-1,-4.3388373E-1,-5E-1,6.234898E-1,6.234898E-1,-7.818315E-1,7.0710677E-1,1E0,1.297733E2,-7.823701E-1,-2.5881904E-1,1.5455255E2,-4.201634E-1,7.0710677E-1,4.24987E-1,-1.8369701E-16,9.749279E-1,1.890625E2,2.0260628E2,-3.7190092E-1,6.234898E-1,1.3943732E2,0E0,-4.8212576E-1,-7.143801E-1,3.070044E-1,4.2149836E-1,1.7484778E2,2.2456648E2,7.818315E-1,1.6822324E2,3.3067095E-1,4.272557E-1,8.362827E-2,3.5475978E-1,-5.8068675E-1,-4.127507E-1,-2.1052289E-1,1.488647E2,-8.2796663E-1,4.3388373E-1,1.7499208E-1,9.249281E-2,2.8900817E-1,1.2902544E-1,3.9360926E-1,2.9504278E-1,-2.4887136E-1,3.867377E-1,-2.761201E-1,-7.367682E-1,-4.8962417E-1,-6.830276E-1],"split_indices":[5,5,4,6,4,7,7,6,4,7,1,0,4,1,0,4,0,5,6,0,0,0,7,1,4,0,0,0,0,1,0,6,1,0,0,0,0,0,0,0,0,0,6,0,0,0,0,0,0,0,0,0,0,0,0],"split_type":[0,0,0,0,0,0,0,0,0,0,0,0,0,0,0,0,0,0,0,0,0,0,0,0,0,0,0,0,0,0,0,0,0,0,0,0,0,0,0,0,0,0,0,0,0,0,0,0,0,0,0,0,0,0,0],"sum_hessian":[1.161E3,9.2E2,2.41E2,7.16E2,2.04E2,1.95E2,4.6E1,1.98E2,5.18E2,1.01E2,1.03E2,1.06E2,8.9E1,2.7E1,1.9E1,9.9E1,9.9E1,3.44E2,1.74E2,8.4E1,1.7E1,5E1,5.3E1,2.2E1,6.7E1,1.9E1,8E0,6.5E1,3.4E1,2.76E2,6.8E1,1.41E2,3.3E1,4.7E1,3.7E1,9E0,8E0,3E1,2.3E1,6E0,1.6E1,2.4E1,4.3E1,8.5E1,1.91E2,5.8E1,1E1,1.02E2,3.9E1,2.1E1,1.2E1,6E0,1E1,2.5E1,1.8E1],"tree_param":{"num_deleted":"0","num_feature":"8","num_nodes":"55","size_leaf_vector":"1"}},{"base_weights":[-1.2978746E-1,3.2972445E0,-1.2998521E1,4.5868387E0,-1.458408E0,-1.185833E1,-7.1123E-1,7.538201E0,3.529931E0,-5.966147E0,1.3012571E0,-9.4495325E0,-6.511091E-1,6.852613E0,8.164412E0,-4.482922E0,3.817773E0,-7.4338694E0,1.5979047E0,2.8109882E0,-9.5717E-1,-2.4768917E-1,-1.0381321E1,7.330675E0,2.6689908E-1,8.3824215E0,2.3802507E-1,6.096337E0,-1.1751993E0,3.0442355E0,5.919414E0,-6.478296E-2,-7.9389625E0,2.5699317E-1,-6.2290132E-2,4.474731E0,-2.6081402E0,-3.756913E0,4.6927376E0,-5.694933E-1,-3.619325E-1,3.8239634E-1,2.3103245E-1,4.3391466E-1,2.613191E-1,9.4693966E-2,4.2368189E-1,1.8508191E-1,7.481467E-2,1.713749E-1,3.2197532E-1,-3.1947285E-1,-4.5844266E-1,1.2840576E-2,3.0560228E-1,-3.8347057E-1,2.766398E-2,-7.969198E-2,-4.3894526E-1,3.0335602E-1,1.556979E-1],"categories":[],"categories_nodes":[],"categories_segments":[],"categories_sizes":[],"default_left":[0,0,0,0,0,0,0,0,0,0,0,0,0,0,0,0,0,0,0,0,0,0,0,0,0,0,0,0,0,0,0,0,0,0,0,0,0,0,0,0,0,0,0,0,0,0,0,0,0,0,0,0,0,0,0,0,0,0,0,0,0],"id":11,"left_children":[1,3,5,7,9,11,-1,13,15,17,19,21,-1,23,25,27,29,31,33,35,37,-1,39,41,-1,43,-1,45,-1,47,49,-1,51,-1,-1,53,55,57,59,-1,-1,-1,-1,-1,-1,-1,-1,-1,-1,-1,-1,-1,-1,-1,-1,-1,-1,-1,-1,-1,-1],"loss_changes":[5.1378043E4,5.6492354E3,1.7121484E2,2.23067E3,2.4588801E3,2.475625E2,0E0,2.412207E1,1.2509912E3,8.4510693E2,4.2225897E2,1.4392676E2,0E0,2.9838379E1,2.8537598E1,3.9683752E3,8.215698E2,1.8411353E2,1.3773251E2,6.79044E2,8.0845105E2,0E0,3.613208E1,2.4478027E1,0E0,3.4492188E1,0E0,1.1279178E2,0E0,3.806377E2,1.5579346E2,0E0,5.0392334E1,0E0,0E0,3.9143884E2,2.929694E2,3.5431042E2,1.7076538E1,0E0,0E0,0E0,0E0,0E0,0E0,0E0,0E0,0E0,0E0,0E0,0E0,0E0,0E0,0E0,0E0,0E0,0E0,0E0,0E0,0E0,0E0],"parents":[2147483647,0,0,1,1,2,2,3,3,4,4,5,5,7,7,8,8,9,9,10,10,11,11,13,13,14,14,15,15,16,16,17,17,18,18,19,19,20,20,22,22,23,23,25,25,27,27,29,29,30,30,32,32,35,35,36,36,37,37,38,38],"right_children":[2,4,6,8,10,12,-1,14,16,18,20,22,-1,24,26,28,30,32,34,36,38,-1,40,42,-1,44,-1,46,-1,48,50,-1,52,-1,-1,54,56,58,60,-1,-1,-1,-1,-1,-1,-1,-1,-1,-1,-1,-1,-1,-1,-1,-1,-1,-1,-1,-1,-1,-1],"split_conditions":[8.660254E-1,5E-1,1.625117E2,-4.3388373E-1,1.454045E2,9.659258E-1,-7.1123E-1,-7.818315E-1,7.791743E1,1.6809763E2,1.9919415E2,1.5243459E2,-6.511091E-1,2.0789467E2,2.2943391E2,9.749279E-1,-1.8369701E-16,7.750666E1,1.953991E2,2.213226E2,2.0882526E2,-2.4768917E-1,2.0801028E2,2.1932384E2,2.6689908E-1,2.2916884E2,2.3802507E-1,-7.0710677E-1,-1.1751993E0,2.0662683E2,0E0,-6.478296E-2,4.3388373E-1,2.5699317E-1,-6.2290132E-2,1.5617744E2,1.6577036E2,1.9146759E2,-4.3388373E-1,-5.694933E-1,-3.619325E-1,3.8239634E-1,2.3103245E-1,4.3391466E-1,2.613191E-1,9.4693966E-2,4.2368189E-1,1.8508191E-1,7.481467E-2,1.713749E-1,3.2197532E-1,-3.1947285E-1,-4.5844266E-1,1.2840576E-2,3.0560228E-1,-3.8347057E-1,2.766398E-2,-7.969198E-2,-4.3894526E-1,3.0335602E-1,1.556979E-1],"split_indices":[5,5,1,6,1,5,0,6,3,2,3,3,0,2,1,6,5,1,2,1,1,0,3,3,0,2,0,5,0,1,6,0,6,0,0,3,3,1,6,0,0,0,0,0,0,0,0,0,0,0,0,0,0,0,0,0,0,0,0,0,0],"split_type":[0,0,0,0,0,0,0,0,0,0,0,0,0,0,0,0,0,0,0,0,0,0,0,0,0,0,0,0,0,0,0,0,0,0,0,0,0,0,0,0,0,0,0,0,0,0,0,0,0,0,0,0,0,0,0,0,0,0,0,0,0],"sum_hessian":[1.163E3,9.19E2,2.44E2,7.23E2,1.96E2,1.32E2,1.12E2,1.89E2,5.34E2,7.4E1,1.22E2,4.6E1,8.6E1,9.6E1,9.3E1,1.8E1,5.16E2,6.2E1,1.2E1,7.3E1,4.9E1,9E0,3.7E1,7E1,2.6E1,8.6E1,7E0,1.2E1,6E0,3.79E2,1.37E2,5E0,5.7E1,5E0,7E0,5.6E1,1.7E1,3.3E1,1.6E1,2.6E1,1.1E1,6.1E1,9E0,7.7E1,9E0,5E0,7E0,2.65E2,1.14E2,2.5E1,1.12E2,2.8E1,2.9E1,1.6E1,4E1,6E0,1.1E1,2.4E1,9E0,7E0,9E0],"tree_param":{"num_deleted":"0","num_feature":"8","num_nodes":"61","size_leaf_vector":"1"}},{"base_weights":[3.0533964E-2,3.3668542E0,-1.2576097E1,4.5010037E0,-8.02466E-1,-1.3655124E1,-1.0884746E1,7.2060914E0,3.4919508E0,6.7274675E0,-8.87414E0,-1.2145145E1,-7.260514E-1,-8.821091E-1,-5.171166E-1,3.126833E-1,7.6515093E0,-3.274484E0,3.7091444E0,5.899096E0,4.0512592E-1,-8.112043E0,-1.1720334E1,-9.34023E0,-7.360628E-1,4.012309E-1,5.860939E0,2.693598E-1,-1.0034381E0,2.7320507E0,5.6355047E0,6.254886E0,5.8172625E-2,-3.2287455E-1,-9.34475E0,-6.9031304E-1,-3.22792E-1,-4.731492E0,-6.200173E-1,1.527248E-1,3.2725736E-1,1.0960754E-1,2.3840575E-1,2.2891298E-1,3.8432345E-1,6.901959E-2,3.3247885E-1,-4.167277E-1,-6.1119384E-1,-5.7970136E-1,1.7907038E-2],"categories":[],"categories_nodes":[],"categories_segments":[],"categories_sizes":[],"default_left":[0,0,0,0,0,0,0,0,0,0,0,0,0,0,0,0,0,0,0,0,0,0,0,0,0,0,0,0,0,0,0,0,0,0,0,0,0,0,0,0,0,0,0,0,0,0,0,0,0,0,0],"id":12,"left_children":[1,3,5,7,9,11,13,15,17,19,21,23,-1,-1,-1,-1,25,27,29,31,-1,33,35,37,-1,-1,39,-1,-1,41,43,45,-1,-1,47,-1,-1,49,-1,-1,-1,-1,-1,-1,-1,-1,-1,-1,-1,-1,-1],"loss_changes":[4.904104E4,4.3637812E3,2.9421875E2,1.95271E3,1.2094191E4,1.0558594E1,1.8127441E2,3.3908203E1,7.9109033E2,6.812451E1,1.1117236E2,2.8641504E2,0E0,0E0,0E0,0E0,3.776123E1,2.5825159E3,9.5123584E2,1.0655371E2,0E0,9.920264E1,1.06507324E2,3.7681616E2,0E0,0E0,2.897284E1,0E0,0E0,3.6590137E2,3.3654297E2,1.1122485E2,0E0,0E0,2.1128418E1,0E0,0E0,4.9426474E2,0E0,0E0,0E0,0E0,0E0,0E0,0E0,0E0,0E0,0E0,0E0,0E0,0E0],"parents":[2147483647,0,0,1,1,2,2,3,3,4,4,5,5,6,6,7,7,8,8,9,9,10,10,11,11,16,16,17,17,18,18,19,19,21,21,22,22,23,23,26,26,29,29,30,30,31,31,34,34,37,37],"right_children":[2,4,6,8,10,12,14,16,18,20,22,24,-1,-1,-1,-1,26,28,30,32,-1,34,36,38,-1,-1,40,-1,-1,42,44,46,-1,-1,48,-1,-1,50,-1,-1,-1,-1,-1,-1,-1,-1,-1,-1,-1,-1,-1],"split_conditions":[8.660254E-1,5E-1,1.2246469E-16,-4.3388373E-1,-5E-1,1.7616122E2,1.220696E2,-5E-1,7.791743E1,2.0467178E2,9.749279E-1,1.6146869E2,-7.260514E-1,-8.821091E-1,-5.171166E-1,3.126833E-1,2.213226E2,9.749279E-1,7.0710677E-1,2.213226E2,4.0512592E-1,1.2491576E2,1.454045E2,-2.5881904E-1,-7.360628E-1,4.012309E-1,9.359877E1,2.693598E-1,-1.0034381E0,-1.8369701E-16,1.7080338E2,1.4747223E2,5.8172625E-2,-3.2287455E-1,2.20492E2,-6.9031304E-1,-3.22792E-1,1.3484393E2,-6.200173E-1,1.527248E-1,3.2725736E-1,1.0960754E-1,2.3840575E-1,2.2891298E-1,3.8432345E-1,6.901959E-2,3.3247885E-1,-4.167277E-1,-6.1119384E-1,-5.7970136E-1,1.7907038E-2],"split_indices":[5,5,4,6,4,3,3,4,3,0,6,0,0,0,0,0,0,6,4,1,0,1,1,4,0,0,3,0,0,5,3,3,0,0,3,0,0,3,0,0,0,0,0,0,0,0,0,0,0,0,0],"split_type":[0,0,0,0,0,0,0,0,0,0,0,0,0,0,0,0,0,0,0,0,0,0,0,0,0,0,0,0,0,0,0,0,0,0,0,0,0,0,0,0,0,0,0,0,0,0,0,0,0,0,0],"sum_hessian":[1.164E3,9.21E2,2.43E2,7.24E2,1.97E2,1.44E2,9.9E1,1.95E2,5.29E2,1.02E2,9.5E1,5.8E1,8.6E1,5E0,9.4E1,6.7E1,1.28E2,1.6E1,5.13E2,6.7E1,3.5E1,7.8E1,1.7E1,3E1,2.8E1,1.03E2,2.5E1,1.1E1,5E0,3.42E2,1.71E2,6.2E1,5E0,3.6E1,4.2E1,1.1E1,6E0,1.3E1,1.7E1,6E0,1.9E1,2.72E2,7E1,1.15E2,5.6E1,5E0,5.7E1,3.4E1,8E0,5E0,8E0],"tree_param":{"num_deleted":"0","num_feature":"8","num_nodes":"51","size_leaf_vector":"1"}},{"base_weights":[1.5450473E-1,3.2654452E0,-1.2055189E1,4.280117E0,-6.729521E-1,-1.2873963E1,-9.009869E0,6.803331E0,3.3808296E0,6.688569E0,-8.498262E0,-1.3871355E1,-1.1726343E1,-5.078869E-1,-7.26803E0,5.7420206E0,7.2890472E0,-2.4296065E-1,3.4957645E0,3.8039222E-1,5.177714E0,-7.6761074E0,-6.51138E-1,-3.8987228E-1,-7.0619255E-1,-1.3066815E1,-1.0070494E1,-2.9178214E-1,-4.411524E-1,3.3413604E-1,5.002991E0,6.34986E0,4.0129334E-1,2.7288985E0,5.087496E0,2.8288633E-1,7.090091E-2,-3.5010996E-1,-1.0442074E1,-3.8376606E-1,-6.975366E-1,-4.2251608E-1,-5.961414E-1,1.8092878E-1,2.914339E-1,3.269255E-1,1.7413564E-1,1.1173531E-1,2.3370588E-1,2.0517631E-1,3.645868E-1,-6.459951E-1,-3.4781075E-1],"categories":[],"categories_nodes":[],"categories_segments":[],"categories_sizes":[],"default_left":[0,0,0,0,0,0,0,0,0,0,0,0,0,0,0,0,0,0,0,0,0,0,0,0,0,0,0,0,0,0,0,0,0,0,0,0,0,0,0,0,0,0,0,0,0,0,0,0,0,0,0,0,0],"id":13,"left_children":[1,3,5,7,9,11,13,15,17,19,21,23,25,-1,27,29,31,-1,33,-1,35,37,-1,-1,-1,39,41,-1,-1,-1,43,45,-1,47,49,-1,-1,-1,51,-1,-1,-1,-1,-1,-1,-1,-1,-1,-1,-1,-1,-1,-1],"loss_changes":[4.4707234E4,3.7516582E3,4.7775E2,1.6687266E3,1.1175017E4,4.768164E1,3.2398438E1,5.7364258E1,5.3963184E2,9.821924E1,2.4763086E2,3.1839844E1,7.252246E1,0E0,2.730713E0,1.1281494E1,3.7560547E1,0E0,6.5058594E2,0E0,6.526245E1,7.798633E1,0E0,0E0,0E0,1.1951074E2,3.526172E1,0E0,0E0,0E0,2.4830688E1,9.760986E0,0E0,3.4454932E2,3.506665E2,0E0,0E0,0E0,2.906189E1,0E0,0E0,0E0,0E0,0E0,0E0,0E0,0E0,0E0,0E0,0E0,0E0,0E0,0E0],"parents":[2147483647,0,0,1,1,2,2,3,3,4,4,5,5,6,6,7,7,8,8,9,9,10,10,11,11,12,12,14,14,15,15,16,16,18,18,20,20,21,21,25,25,26,26,30,30,31,31,33,33,34,34,38,38],"right_children":[2,4,6,8,10,12,14,16,18,20,22,24,26,-1,28,30,32,-1,34,-1,36,38,-1,-1,-1,40,42,-1,-1,-1,44,46,-1,48,50,-1,-1,-1,52,-1,-1,-1,-1,-1,-1,-1,-1,-1,-1,-1,-1,-1,-1],"split_conditions":[8.660254E-1,5E-1,5E-1,-4.3388373E-1,-5E-1,6.234898E-1,6.234898E-1,-5E-1,7.669798E1,1.9871286E2,9.749279E-1,1.2366752E2,0E0,-5.078869E-1,4.3388373E-1,1.9029677E2,1.4953279E2,-2.4296065E-1,7.0710677E-1,3.8039222E-1,1E0,2.2550868E2,-6.51138E-1,-3.8987228E-1,-7.0619255E-1,1.498309E2,4.3388373E-1,-2.9178214E-1,-4.411524E-1,3.3413604E-1,-7.818315E-1,2.2191101E2,4.0129334E-1,-1.8369701E-16,1.7571516E2,2.8288633E-1,7.090091E-2,-3.5010996E-1,6.234898E-1,-3.8376606E-1,-6.975366E-1,-4.2251608E-1,-5.961414E-1,1.8092878E-1,2.914339E-1,3.269255E-1,1.7413564E-1,1.1173531E-1,2.3370588E-1,2.0517631E-1,3.645868E-1,-6.459951E-1,-3.4781075E-1],"split_indices":[5,5,4,6,4,7,7,4,3,3,6,2,4,0,6,3,3,0,4,0,7,3,0,0,0,2,6,0,0,0,6,2,0,5,3,0,0,0,7,0,0,0,0,0,0,0,0,0,0,0,0,0,0],"split_type":[0,0,0,0,0,0,0,0,0,0,0,0,0,0,0,0,0,0,0,0,0,0,0,0,0,0,0,0,0,0,0,0,0,0,0,0,0,0,0,0,0,0,0,0,0,0,0,0,0,0,0,0,0],"sum_hessian":[1.175E3,9.37E2,2.38E2,7.45E2,1.92E2,1.85E2,5.3E1,1.94E2,5.51E2,9.9E1,9.3E1,9.3E1,9.2E1,2.9E1,2.4E1,6.5E1,1.29E2,7E0,5.44E2,5.9E1,4E1,8.1E1,1.2E1,5E0,8.8E1,4.7E1,4.5E1,1.5E1,9E0,2.5E1,4E1,6.1E1,6.8E1,3.69E2,1.75E2,3.5E1,5E0,6.8E1,1.3E1,8E0,3.9E1,2.7E1,1.8E1,1.7E1,2.3E1,5.6E1,5E0,2.96E2,7.3E1,1.23E2,5.2E1,6E0,7E0],"tree_param":{"num_deleted":"0","num_feature":"8","num_nodes":"53","size_leaf_vector":"1"}},{"base_weights":[1.6502616E-1,3.1448295E0,-1.1136241E1,4.2764144E0,-7.6458067E-1,-1.2399847E1,-8.953881E0,6.499828E0,3.529847E0,5.974234E0,-7.562369E0,-8.388843E0,-6.328097E-1,-6.5691787E-1,-8.397759E0,5.8800454E0,7.019841E0,2.5900989E0,5.1848674E0,5.348346E0,3.5262308E-1,-2.6821402E-1,-8.058657E0,-5.093028E-1,-2.4386437E-1,-8.688761E0,-2.6827386E-1,4.9041333E0,3.4032598E-1,7.2467837E0,2.3507304E-1,-3.1442973E-1,2.7407875E0,-2.3611708E-1,5.5303817E0,5.6770587E0,4.3961767E-2,-6.5960774E0,-9.229459E0,-8.049328E0,-1.0703203E1,2.0998512E-1,3.8563594E-1,3.694734E-1,2.1074955E-1,1.1610859E-1,2.1375039E-1,2.3853922E-1,3.7773746E-1,3.0033824E-1,7.085773E-2,-3.8293788E-1,-2.50659E-1,-5.7558095E-1,-3.7960866E-1,-4.2503533E-1,-2.9598248E-1,-6.3661206E-1,-3.6618826E-1],"categories":[],"categories_nodes":[],"categories_segments":[],"categories_sizes":[],"default_left":[0,0,0,0,0,0,0,0,0,0,0,0,0,0,0,0,0,0,0,0,0,0,0,0,0,0,0,0,0,0,0,0,0,0,0,0,0,0,0,0,0,0,0,0,0,0,0,0,0,0,0,0,0,0,0,0,0,0,0],"id":14,"left_children":[1,3,5,7,9,11,13,15,17,19,21,23,-1,-1,25,27,29,31,33,35,-1,-1,37,-1,-1,39,-1,41,-1,43,-1,-1,45,-1,47,49,-1,51,53,55,57,-1,-1,-1,-1,-1,-1,-1,-1,-1,-1,-1,-1,-1,-1,-1,-1,-1,-1],"loss_changes":[3.8895816E4,4.047001E3,5.5142773E2,1.1529434E3,9.482E3,4.595703E1,1.01604004E2,1.4479004E1,8.1476904E2,3.1225098E1,6.779004E1,2.4545532E1,0E0,0E0,2.609668E1,4.4110596E1,1.2613281E1,4.7444897E2,6.834282E2,9.718677E1,0E0,0E0,7.795557E1,0E0,0E0,8.578613E0,0E0,5.7426514E1,0E0,2.7324219E0,0E0,0E0,2.0585083E2,0E0,2.4873828E2,8.203882E1,0E0,2.7622437E1,7.136279E1,6.875244E0,7.6015625E0,0E0,0E0,0E0,0E0,0E0,0E0,0E0,0E0,0E0,0E0,0E0,0E0,0E0,0E0,0E0,0E0,0E0,0E0],"parents":[2147483647,0,0,1,1,2,2,3,3,4,4,5,5,6,6,7,7,8,8,9,9,10,10,11,11,14,14,15,15,16,16,17,17,18,18,19,19,22,22,25,25,27,27,29,29,32,32,34,34,35,35,37,37,38,38,39,39,40,40],"right_children":[2,4,6,8,10,12,14,16,18,20,22,24,-1,-1,26,28,30,32,34,36,-1,-1,38,-1,-1,40,-1,42,-1,44,-1,-1,46,-1,48,50,-1,52,54,56,58,-1,-1,-1,-1,-1,-1,-1,-1,-1,-1,-1,-1,-1,-1,-1,-1,-1,-1],"split_conditions":[8.660254E-1,5E-1,1.2246469E-16,-4.3388373E-1,-5E-1,1.3254945E2,8.045831E1,-7.818315E-1,7.0710677E-1,2.0467178E2,8.346428E1,1.5816048E2,-6.328097E-1,-6.5691787E-1,2.2356128E2,2.5881904E-1,2.2856247E2,1.0490862E2,7.669798E1,2.2456648E2,3.5262308E-1,-2.6821402E-1,1.4196288E2,-5.093028E-1,-2.4386437E-1,2.0131184E2,-2.6827386E-1,2.312484E2,3.4032598E-1,2.2803503E2,2.3507304E-1,-3.1442973E-1,-1.8369701E-16,-2.3611708E-1,1.8374803E2,1.978397E2,4.3961767E-2,1.1015209E2,1.6577036E2,1.5903564E2,2.094372E2,2.0998512E-1,3.8563594E-1,3.694734E-1,2.1074955E-1,1.1610859E-1,2.1375039E-1,2.3853922E-1,3.7773746E-1,3.0033824E-1,7.085773E-2,-3.8293788E-1,-2.50659E-1,-5.7558095E-1,-3.7960866E-1,-4.2503533E-1,-2.9598248E-1,-6.3661206E-1,-3.6618826E-1],"split_indices":[5,5,4,6,4,2,0,6,4,0,0,0,0,0,2,4,2,2,2,1,0,0,2,0,0,1,0,0,0,1,0,0,5,0,2,0,0,2,0,0,1,0,0,0,0,0,0,0,0,0,0,0,0,0,0,0,0,0,0],"split_type":[0,0,0,0,0,0,0,0,0,0,0,0,0,0,0,0,0,0,0,0,0,0,0,0,0,0,0,0,0,0,0,0,0,0,0,0,0,0,0,0,0,0,0,0,0,0,0,0,0,0,0,0,0,0,0,0,0,0,0],"sum_hessian":[1.153E3,9.13E2,2.4E2,7.08E2,2.05E2,1.49E2,9.1E1,1.76E2,5.32E2,1.03E2,1.02E2,1.1E1,1.38E2,8E0,8.3E1,8.6E1,9E1,3.41E2,1.91E2,6.9E1,3.4E1,2.1E1,8.1E1,6E0,5E0,7.4E1,9E0,4.5E1,4.1E1,8E1,1E1,5E0,3.36E2,6E0,1.85E2,6.4E1,5E0,3.9E1,4.2E1,6E1,1.4E1,3.8E1,7E0,7.5E1,5E0,2.66E2,7E1,1.37E2,4.8E1,5.9E1,5E0,2.1E1,1.8E1,1.5E1,2.7E1,4.7E1,1.3E1,7E0,7E0],"tree_param":{"num_deleted":"0","num_feature":"8","num_nodes":"59","size_leaf_vector":"1"}},{"base_weights":[-1.4010112E-1,2.8200135E0,-1.0586064E1,3.8997998E0,-1.0291778E0,-1.1538745E1,-8.980498E0,6.0472407E0,3.0811133E0,6.09779E0,-7.604289E0,-1.0554759E1,-6.3494307E-1,-1.0382181E1,-7.0766997E0,2.5735927E-1,3.263769E-1,2.314045E0,4.8669124E0,3.5339233E-1,5.600261E0,-6.1120886E-1,-7.14854E0,-7.50352E0,-5.789898E-1,-9.144546E0,-6.1528796E-1,-2.8371596E-1,-4.4686922E-1,3.975743E0,1.8181616E0,6.190253E0,6.2688434E-1,5.911911E0,3.946502E0,-2.7891037E-1,-8.322919E0,-5.300281E-1,-5.234465E0,-6.107726E-1,-7.607956E0,1.3913721E-1,2.1666639E-1,1.7584762E-1,6.475249E-2,3.3665466E-1,2.4804433E-1,-2.1066824E-1,3.775906E-1,2.6399133E-1,3.711946E-1,1.3274622E-1,2.6047257E-1,-5.175924E-1,-3.596792E-1,-2.861586E-2,-3.5605E-1,-3.0651098E-1,-4.6626732E-1],"categories":[],"categories_nodes":[],"categories_segments":[],"categories_sizes":[],"default_left":[0,0,0,0,0,0,0,0,0,0,0,0,0,0,0,0,0,0,0,0,0,0,0,0,0,0,0,0,0,0,0,0,0,0,0,0,0,0,0,0,0,0,0,0,0,0,0,0,0,0,0,0,0,0,0,0,0,0,0],"id":15,"left_children":[1,3,5,7,9,11,13,15,17,19,21,23,-1,25,27,-1,-1,29,31,-1,33,-1,35,37,-1,39,-1,-1,-1,41,43,45,47,49,51,-1,53,-1,55,-1,57,-1,-1,-1,-1,-1,-1,-1,-1,-1,-1,-1,-1,-1,-1,-1,-1,-1,-1],"loss_changes":[3.6270332E4,3.8031626E3,2.9048828E2,1.2357236E3,9.465502E3,4.5146484E1,1.9430371E2,4.9963867E1,6.9896094E2,5.966797E0,1.3175586E2,1.9894434E2,0E0,1.8643066E1,6.785693E1,0E0,0E0,2.9295508E2,8.651428E2,0E0,1.1244629E1,0E0,1.3291162E2,1.2563953E2,0E0,8.439453E1,0E0,0E0,0E0,2.2637451E1,2.4645422E2,4.417578E1,1.3058506E3,1.3052124E1,8.21962E0,0E0,4.7510742E1,0E0,1.4467538E2,0E0,1.2347778E1,0E0,0E0,0E0,0E0,0E0,0E0,0E0,0E0,0E0,0E0,0E0,0E0,0E0,0E0,0E0,0E0,0E0,0E0],"parents":[2147483647,0,0,1,1,2,2,3,3,4,4,5,5,6,6,7,7,8,8,9,9,10,10,11,11,13,13,14,14,17,17,18,18,20,20,22,22,23,23,25,25,29,29,30,30,31,31,32,32,33,33,34,34,36,36,38,38,40,40],"right_children":[2,4,6,8,10,12,14,16,18,20,22,24,-1,26,28,-1,-1,30,32,-1,34,-1,36,38,-1,40,-1,-1,-1,42,44,46,48,50,52,-1,54,-1,56,-1,58,-1,-1,-1,-1,-1,-1,-1,-1,-1,-1,-1,-1,-1,-1,-1,-1,-1,-1],"split_conditions":[8.660254E-1,5E-1,1.2246469E-16,-4.3388373E-1,-5E-1,1.625117E2,6.234898E-1,-5E-1,8.660254E-1,-4.3388373E-1,7.791743E1,-2.5881904E-1,-6.3494307E-1,1.5581403E2,4.3388373E-1,2.5735927E-1,3.263769E-1,1.5969417E2,9.749279E-1,3.5339233E-1,2.1678293E2,-6.1120886E-1,1.2491576E2,6.234898E-1,-5.789898E-1,9.47289E1,-6.1528796E-1,-2.8371596E-1,-4.4686922E-1,4.3388373E-1,-8.660254E-1,1.5969417E2,1.455735E2,2.0467178E2,2.2388339E2,-2.7891037E-1,1.454045E2,-5.300281E-1,1.3943732E2,-6.107726E-1,7.818315E-1,1.3913721E-1,2.1666639E-1,1.7584762E-1,6.475249E-2,3.3665466E-1,2.4804433E-1,-2.1066824E-1,3.775906E-1,2.6399133E-1,3.711946E-1,1.3274622E-1,2.6047257E-1,-5.175924E-1,-3.596792E-1,-2.861586E-2,-3.5605E-1,-3.0651098E-1,-4.6626732E-1],"split_indices":[5,5,4,6,4,0,7,4,4,6,1,4,0,1,6,0,0,1,6,0,1,0,1,7,0,1,0,0,0,6,4,1,1,0,0,0,1,0,1,0,6,0,0,0,0,0,0,0,0,0,0,0,0,0,0,0,0,0,0],"split_type":[0,0,0,0,0,0,0,0,0,0,0,0,0,0,0,0,0,0,0,0,0,0,0,0,0,0,0,0,0,0,0,0,0,0,0,0,0,0,0,0,0,0,0,0,0,0,0,0,0,0,0,0,0,0,0,0,0,0,0],"sum_hessian":[1.171E3,9.13E2,2.58E2,7.13E2,2E2,1.58E2,1E2,1.95E2,5.18E2,9.6E1,1.04E2,9.1E1,6.7E1,5.5E1,4.5E1,7.2E1,1.23E2,3.64E2,1.54E2,2.8E1,6.8E1,7E0,9.7E1,2.5E1,6.6E1,3.7E1,1.8E1,2.8E1,1.7E1,8.2E1,2.82E2,1.17E2,3.7E1,5.5E1,1.3E1,4.4E1,5.3E1,9E0,1.6E1,1E1,2.7E1,2.1E1,6.1E1,6.5E1,2.17E2,7.8E1,3.9E1,2.2E1,1.5E1,4.2E1,1.3E1,8E0,5E0,1.6E1,3.7E1,5E0,1.1E1,1.7E1,1E1],"tree_param":{"num_deleted":"0","num_feature":"8","num_nodes":"59","size_leaf_vector":"1"}},{"base_weights":[-4.5471232E-2,2.7572773E0,-1.0341271E1,3.7315958E0,-8.388439E-1,-9.0621036E-1,-1.0072999E1,5.716177E0,3.0153055E0,-5.096542E0,1.5854394E0,-6.780345E0,-1.0488993E1,5.9866285E0,4.3976855E0,1.9499116E0,3.948287E0,-3.5620925E0,-1.1660849E1,6.4079285E-1,3.6495116E0,-3.5529282E0,-4.5167455E-1,-9.408948E0,-5.725495E-1,6.090554E0,1.1956828E-1,9.453516E-2,5.1596165E0,-2.9348943E-1,2.1346178E0,-6.2019635E-2,4.124899E0,-4.8397393E0,1.3234069E0,-7.316836E-1,-3.9805627E-1,2.7944121E0,-1.0843488E0,2.219528E0,5.3636355E0,-3.4986874E-1,-4.121091E-3,-4.976782E-1,-6.56442E0,3.1646085E-1,2.4147888E-1,1.66579E-1,3.5793486E-1,1.3673387E-1,3.981876E-2,3.5734484E-1,1.874206E-1,-2.213321E-2,-2.67514E-1,2.689695E-1,-2.1442354E-1,-9.127692E-2,2.3390809E-1,-2.215703E-1,9.0165265E-2,3.132772E-1,3.709967E-2,3.580307E-1,1.4797935E-1,-1.5064482E-1,-4.1186628E-1],"categories":[],"categories_nodes":[],"categories_segments":[],"categories_sizes":[],"default_left":[0,0,0,0,0,0,0,0,0,0,0,0,0,0,0,0,0,0,0,0,0,0,0,0,0,0,0,0,0,0,0,0,0,0,0,0,0,0,0,0,0,0,0,0,0,0,0,0,0,0,0,0,0,0,0,0,0,0,0,0,0,0,0,0,0,0,0],"id":16,"left_children":[1,3,5,7,9,-1,11,13,15,17,19,21,23,25,27,29,31,33,35,37,39,41,-1,43,-1,45,-1,-1,47,-1,49,-1,51,53,55,-1,-1,57,59,61,63,-1,-1,-1,65,-1,-1,-1,-1,-1,-1,-1,-1,-1,-1,-1,-1,-1,-1,-1,-1,-1,-1,-1,-1,-1,-1],"loss_changes":[3.344514E4,3.1953516E3,3.3242578E2,1.0011328E3,2.0211954E3,0E0,2.58625E2,4.0029297E1,5.175337E2,6.7209485E2,2.4095972E2,1.8480127E2,1.1148047E2,4.212793E1,5.8304993E1,3.7179852E2,2.629087E2,3.750312E2,2.422229E1,3.2643207E2,8.2932556E1,1.6607089E2,0E0,9.72207E1,0E0,1.3158203E1,0E0,0E0,7.376984E1,0E0,1.9340723E2,0E0,2.815869E2,1.0256201E2,3.1908026E2,0E0,0E0,3.482358E2,4.8184595E2,1.3214722E2,5.123587E1,0E0,0E0,0E0,9.288403E1,0E0,0E0,0E0,0E0,0E0,0E0,0E0,0E0,0E0,0E0,0E0,0E0,0E0,0E0,0E0,0E0,0E0,0E0,0E0,0E0,0E0,0E0],"parents":[2147483647,0,0,1,1,2,2,3,3,4,4,6,6,7,7,8,8,9,9,10,10,11,11,12,12,13,13,14,14,15,15,16,16,17,17,18,18,19,19,20,20,21,21,23,23,25,25,28,28,30,30,32,32,33,33,34,34,37,37,38,38,39,39,40,40,44,44],"right_children":[2,4,6,8,10,-1,12,14,16,18,20,22,24,26,28,30,32,34,36,38,40,42,-1,44,-1,46,-1,-1,48,-1,50,-1,52,54,56,-1,-1,58,60,62,64,-1,-1,-1,66,-1,-1,-1,-1,-1,-1,-1,-1,-1,-1,-1,-1,-1,-1,-1,-1,-1,-1,-1,-1,-1,-1],"split_conditions":[8.660254E-1,5E-1,7.791743E1,-4.3388373E-1,1.454045E2,-9.0621036E-1,1.3319423E2,2.1932384E2,-5E-1,9.749279E-1,2.1135324E2,9.659258E-1,1.625117E2,2.4049435E2,2.2596709E2,9.817119E1,8.6308754E1,1.6759921E2,9.6839874E1,1.8735205E2,0E0,6.234898E-1,-4.5167455E-1,1E0,-5.725495E-1,2.2356128E2,1.1956828E-1,9.453516E-2,1.9915201E2,-2.9348943E-1,2.1456844E2,-6.2019635E-2,1.0216997E2,7.750666E1,2.0446774E2,-7.316836E-1,-3.9805627E-1,1.386774E2,2.1116077E2,-7.818315E-1,2.2456648E2,-3.4986874E-1,-4.121091E-3,-4.976782E-1,1.498309E2,3.1646085E-1,2.4147888E-1,1.66579E-1,3.5793486E-1,1.3673387E-1,3.981876E-2,3.5734484E-1,1.874206E-1,-2.213321E-2,-2.67514E-1,2.689695E-1,-2.1442354E-1,-9.127692E-2,2.3390809E-1,-2.215703E-1,9.0165265E-2,3.132772E-1,3.709967E-2,3.580307E-1,1.4797935E-1,-1.5064482E-1,-4.1186628E-1],"split_indices":[5,5,0,6,1,0,2,2,5,6,2,5,1,1,2,2,0,2,0,1,6,7,0,7,0,0,0,0,0,0,0,0,1,0,2,0,0,0,1,6,2,0,0,0,2,0,0,0,0,0,0,0,0,0,0,0,0,0,0,0,0,0,0,0,0,0,0],"split_type":[0,0,0,0,0,0,0,0,0,0,0,0,0,0,0,0,0,0,0,0,0,0,0,0,0,0,0,0,0,0,0,0,0,0,0,0,0,0,0,0,0,0,0,0,0,0,0,0,0,0,0,0,0,0,0,0,0,0,0,0,0,0,0,0,0,0,0],"sum_hessian":[1.157E3,9.1E2,2.47E2,7.16E2,1.94E2,6E0,2.41E2,1.88E2,5.28E2,7E1,1.24E2,2.9E1,2.12E2,1.53E2,3.5E1,2.48E2,2.8E2,5.8E1,1.2E1,8.6E1,3.8E1,1.3E1,1.6E1,1.05E2,1.07E2,1.48E2,5E0,9E0,2.6E1,5E0,2.43E2,9E0,2.71E2,4.6E1,1.2E1,5E0,7E0,3.8E1,4.8E1,2.2E1,1.6E1,6E0,7E0,8.6E1,1.9E1,1.21E2,2.7E1,1.5E1,1.1E1,1.67E2,7.6E1,2.8E1,2.43E2,5E0,4.1E1,7E0,5E0,1.1E1,2.7E1,2.2E1,2.6E1,5E0,1.7E1,8E0,8E0,7E0,1.2E1],"tree_param":{"num_deleted":"0","num_feature":"8","num_nodes":"67","size_leaf_vector":"1"}},{"base_weights":[-1.0807149E-1,2.6405087E0,-1.0015965E1,3.688434E0,-1.2563915E0,-1.0959578E1,-8.768406E0,-4.6080546E0,3.859865E0,-5.4157495E0,1.5862436E0,-9.842495E0,-5.9107685E-1,-5.4682314E-1,-8.301821E0,2.0646198E-1,-7.5988555E-1,3.0862284E0,4.988781E0,-6.9917893E0,-1.0100199E0,2.2084787E0,-1.505909E0,-1.0211559E1,-2.1858744E-1,-1.2864524E-1,-4.356567E-1,1.7040608E0,3.575314E0,5.5049996E0,3.4128444E0,-8.0145035E0,-1.8843284E0,-3.1318977E-1,2.4324086E0,1.2558273E0,5.5916066E0,-5.487552E0,1.9795804E-1,-5.287885E-1,-2.5164795E-1,1.8726847E-1,5.2110374E-2,1.9820683E-1,9.77237E-2,3.9028755E-1,2.6260403E-1,7.221128E-2,2.115887E-1,-3.277094E-1,-6.1607736E-1,-1.26579E-2,-1.5923886E-1,2.9360846E-1,-1.5579833E-1,1.0413521E-1,-1.3033703E-1,8.8804685E-2,3.3333492E-1,-5.1445503E-2,-4.2555118E-1],"categories":[],"categories_nodes":[],"categories_segments":[],"categories_sizes":[],"default_left":[0,0,0,0,0,0,0,0,0,0,0,0,0,0,0,0,0,0,0,0,0,0,0,0,0,0,0,0,0,0,0,0,0,0,0,0,0,0,0,0,0,0,0,0,0,0,0,0,0,0,0,0,0,0,0,0,0,0,0,0,0],"id":17,"left_children":[1,3,5,7,9,11,13,15,17,19,21,23,-1,-1,25,-1,-1,27,29,31,33,35,37,39,-1,-1,-1,41,43,45,47,49,51,-1,53,55,57,59,-1,-1,-1,-1,-1,-1,-1,-1,-1,-1,-1,-1,-1,-1,-1,-1,-1,-1,-1,-1,-1,-1,-1],"loss_changes":[3.1725977E4,3.7291753E3,1.9976562E2,1.0403281E3,2.3027397E3,1.6283203E1,2.2604492E1,1.4517361E3,5.995215E2,5.406826E2,2.2658536E2,8.917627E1,0E0,0E0,2.0737842E2,0E0,0E0,2.7797437E2,2.1217627E2,2.8686963E2,4.135057E2,3.0491852E2,4.5707806E2,6.2149414E1,0E0,0E0,0E0,1.4693503E2,1.8702832E2,8.164258E1,1.1100836E2,2.1925757E2,2.2183746E1,0E0,2.8576422E2,2.513045E2,7.345764E1,1.5205588E2,0E0,0E0,0E0,0E0,0E0,0E0,0E0,0E0,0E0,0E0,0E0,0E0,0E0,0E0,0E0,0E0,0E0,0E0,0E0,0E0,0E0,0E0,0E0],"parents":[2147483647,0,0,1,1,2,2,3,3,4,4,5,5,6,6,7,7,8,8,9,9,10,10,11,11,14,14,17,17,18,18,19,19,20,20,21,21,22,22,23,23,27,27,28,28,29,29,30,30,31,31,32,32,34,34,35,35,36,36,37,37],"right_children":[2,4,6,8,10,12,14,16,18,20,22,24,-1,-1,26,-1,-1,28,30,32,34,36,38,40,-1,-1,-1,42,44,46,48,50,52,-1,54,56,58,60,-1,-1,-1,-1,-1,-1,-1,-1,-1,-1,-1,-1,-1,-1,-1,-1,-1,-1,-1,-1,-1,-1,-1],"split_conditions":[8.660254E-1,5E-1,6.234898E-1,7.791743E1,1.454045E2,1.5581403E2,1.5077667E2,-2.2252093E-1,-2.5881904E-1,1.454045E2,2.2596709E2,1.5247276E2,-5.9107685E-1,-5.4682314E-1,1.5617744E2,2.0646198E-1,-7.5988555E-1,-2.2252093E-1,2.1116077E2,1E0,1.297733E2,2.1630998E2,2.0910204E2,2.2309259E2,-2.1858744E-1,-1.2864524E-1,-4.356567E-1,1.6577036E2,1E0,7.906417E1,-1.8369701E-16,1.2491576E2,1.0216997E2,-3.1318977E-1,1.7576155E2,2.213226E2,1.6650906E2,1.5987115E2,1.9795804E-1,-5.287885E-1,-2.5164795E-1,1.8726847E-1,5.2110374E-2,1.9820683E-1,9.77237E-2,3.9028755E-1,2.6260403E-1,7.221128E-2,2.115887E-1,-3.277094E-1,-6.1607736E-1,-1.26579E-2,-1.5923886E-1,2.9360846E-1,-1.5579833E-1,1.0413521E-1,-1.3033703E-1,8.8804685E-2,3.3333492E-1,-5.1445503E-2,-4.2555118E-1],"split_indices":[5,5,7,3,0,1,3,7,5,1,3,1,0,0,3,0,0,7,3,7,2,2,1,2,0,0,0,1,7,2,5,1,1,0,1,1,0,2,0,0,0,0,0,0,0,0,0,0,0,0,0,0,0,0,0,0,0,0,0,0,0],"split_type":[0,0,0,0,0,0,0,0,0,0,0,0,0,0,0,0,0,0,0,0,0,0,0,0,0,0,0,0,0,0,0,0,0,0,0,0,0,0,0,0,0,0,0,0,0,0,0,0,0,0,0,0,0,0,0,0,0,0,0,0,0],"sum_hessian":[1.163E3,9.11E2,2.52E2,7.18E2,1.93E2,1.39E2,1.13E2,1.4E1,7.04E2,7.8E1,1.15E2,6.6E1,7.3E1,1.6E1,9.7E1,8E0,6E0,4.2E2,2.84E2,5.7E1,2.1E1,9.6E1,1.9E1,6.1E1,5E0,7E0,9E1,1.11E2,3.09E2,2.12E2,7.2E1,4.7E1,1E1,8E0,1.3E1,7.6E1,2E1,1.1E1,8E0,5.6E1,5E0,2.6E1,8.5E1,2.48E2,6.1E1,1.8E1,1.94E2,2.2E1,5E1,3.7E1,1E1,5E0,5E0,8E0,5E0,6.3E1,1.3E1,5E0,1.5E1,5E0,6E0],"tree_param":{"num_deleted":"0","num_feature":"8","num_nodes":"61","size_leaf_vector":"1"}},{"base_weights":[8.768521E-2,3.3747745E0,-1.2905012E0,4.8518577E0,2.8005657E0,-2.5998552E0,4.6138115E0,5.3345237E0,3.8964558E0,1.1320355E0,3.1459403E0,-6.0268087E0,-5.032739E-1,5.3337994E0,1.4507252E-1,3.1147194E-1,4.1287746E0,2.8884447E0,2.8317204E-1,2.5480604E0,4.7402352E-1,3.3724144E0,1.9992929E0,6.326883E-1,-6.939483E0,-3.388148E0,1.1436664E0,2.906854E0,5.7737904E0,-7.289092E0,3.4779835E-1,2.485121E0,2.5684676E-1,3.8257332E0,3.929809E-2,2.0826614E-1,-1.4292165E-2,-5.633856E-2,9.7131693E-1,4.3208833E0,2.880661E0,3.6959496E0,5.2584267E-1,-3.8519248E-1,2.465523E0,-8.463457E0,-5.557674E0,-2.6873858E0,-4.2639706E-1,2.4736657E0,-3.2845432E-1,3.3451718E-1,-3.0710506E-1,4.9677653E0,3.0926248E-1,-4.9725264E-2,-6.176082E-1,1.8755302E-1,4.2493947E-2,2.5616482E-1,6.12943E-2,7.8563206E-2,-2.4373928E-2,2.4991755E-1,5.1217556E-2,3.9483532E-2,1.6136163E-1,1.1981863E-1,2.8312224E-1,7.958098E-2,-5.304643E-2,-9.142068E-2,1.8920957E-1,-5.934968E-1,-3.603364E-1,-3.3321986E-1,-1.791061E-1,2.2772586E-2,-1.7868732E-1,-3.2998937E-1,1.4968847E-1,7.520913E-2,-1.198846E-1,2.696226E-1,1.4001542E-1],"categories":[],"categories_nodes":[],"categories_segments":[],"categories_sizes":[],"default_left":[0,0,0,0,0,0,0,0,0,0,0,0,0,0,0,0,0,0,0,0,0,0,0,0,0,0,0,0,0,0,0,0,0,0,0,0,0,0,0,0,0,0,0,0,0,0,0,0,0,0,0,0,0,0,0,0,0,0,0,0,0,0,0,0,0,0,0,0,0,0,0,0,0,0,0,0,0,0,0,0,0,0,0,0,0],"id":18,"left_children":[1,3,5,7,9,11,13,15,17,19,21,23,25,27,29,-1,31,33,-1,35,37,39,41,43,45,47,49,51,53,55,-1,57,-1,59,-1,-1,-1,-1,61,63,65,67,69,-1,71,73,75,77,-1,79,81,-1,-1,83,-1,-1,-1,-1,-1,-1,-1,-1,-1,-1,-1,-1,-1,-1,-1,-1,-1,-1,-1,-1,-1,-1,-1,-1,-1,-1,-1,-1,-1,-1,-1],"loss_changes":[5.3366343E3,2.808042E2,6.428387E3,2.2560547E1,1.4180676E2,4.882037E3,4.8451172E2,3.9065918E1,4.690735E1,4.0419212E1,4.699463E1,1.5731328E3,2.0138635E3,1.2116675E2,1.1646022E3,0E0,3.4526825E1,4.5797775E1,0E0,6.57429E1,2.6552979E1,6.752234E1,9.013208E1,5.074141E2,4.295869E2,5.306334E2,5.296653E2,7.9435333E2,4.307373E0,3.3695038E2,0E0,2.3263481E1,0E0,5.043341E1,0E0,0E0,0E0,0E0,2.2754333E1,1.2157544E2,8.183716E1,2.9070175E1,3.7255688E1,0E0,1.5999615E2,3.663374E2,2.4184253E2,3.835786E2,0E0,6.895146E2,4.9288477E2,0E0,0E0,2.2740723E1,0E0,0E0,0E0,0E0,0E0,0E0,0E0,0E0,0E0,0E0,0E0,0E0,0E0,0E0,0E0,0E0,0E0,0E0,0E0,0E0,0E0,0E0,0E0,0E0,0E0,0E0,0E0,0E0,0E0,0E0,0E0],"parents":[2147483647,0,0,1,1,2,2,3,3,4,4,5,5,6,6,7,7,8,8,9,9,10,10,11,11,12,12,13,13,14,14,16,16,17,17,19,19,20,20,21,21,22,22,23,23,24,24,25,25,26,26,27,27,28,28,29,29,31,31,33,33,38,38,39,39,40,40,41,41,42,42,44,44,45,45,46,46,47,47,49,49,50,50,53,53],"right_children":[2,4,6,8,10,12,14,16,18,20,22,24,26,28,30,-1,32,34,-1,36,38,40,42,44,46,48,50,52,54,56,-1,58,-1,60,-1,-1,-1,-1,62,64,66,68,70,-1,72,74,76,78,-1,80,82,-1,-1,84,-1,-1,-1,-1,-1,-1,-1,-1,-1,-1,-1,-1,-1,-1,-1,-1,-1,-1,-1,-1,-1,-1,-1,-1,-1,-1,-1,-1,-1,-1,-1],"split_conditions":[-5E-1,-4.3388373E-1,9.659258E-1,2.1534921E2,0E0,1.5969417E2,9.749279E-1,2.0068433E2,2.3244083E2,1.7226176E2,2.2309259E2,1.18575775E2,1.2246469E-16,8.6308754E1,1.455735E2,3.1147194E-1,-7.818315E-1,1.9276543E2,2.8317204E-1,1.9654663E2,1.8749683E2,1.6721863E2,1.829131E2,8.4613754E1,1.1355169E2,0E0,1.7678746E2,1.156367E2,1.0694558E2,1.3390157E2,3.4779835E-1,2.0201453E2,2.5684676E-1,2.1828777E2,3.929809E-2,2.0826614E-1,-1.4292165E-2,-5.633856E-2,-7.0710677E-1,2.2191101E2,1.7897707E2,1.6341287E2,1.8525172E2,-3.8519248E-1,2.5881904E-1,1.2246469E-16,1.6786499E2,-4.3388373E-1,-4.2639706E-1,1.0216997E2,2.0662683E2,3.3451718E-1,-3.0710506E-1,7.818315E-1,3.0926248E-1,-4.9725264E-2,-6.176082E-1,1.8755302E-1,4.2493947E-2,2.5616482E-1,6.12943E-2,7.8563206E-2,-2.4373928E-2,2.4991755E-1,5.1217556E-2,3.9483532E-2,1.6136163E-1,1.1981863E-1,2.8312224E-1,7.958098E-2,-5.304643E-2,-9.142068E-2,1.8920957E-1,-5.934968E-1,-3.603364E-1,-3.3321986E-1,-1.791061E-1,2.2772586E-2,-1.7868732E-1,-3.2998937E-1,1.4968847E-1,7.520913E-2,-1.198846E-1,2.696226E-1,1.4001542E-1],"split_indices":[4,6,4,2,6,0,6,3,2,1,3,3,4,1,0,0,6,0,0,2,2,0,2,1,0,4,2,2,2,3,0,1,0,3,0,0,0,0,4,2,0,2,1,0,4,4,1,6,0,1,1,0,0,6,0,0,0,0,0,0,0,0,0,0,0,0,0,0,0,0,0,0,0,0,0,0,0,0,0,0,0,0,0,0,0],"split_type":[0,0,0,0,0,0,0,0,0,0,0,0,0,0,0,0,0,0,0,0,0,0,0,0,0,0,0,0,0,0,0,0,0,0,0,0,0,0,0,0,0,0,0,0,0,0,0,0,0,0,0,0,0,0,0,0,0,0,0,0,0,0,0,0,0,0,0,0,0,0,0,0,0,0,0,0,0,0,0,0,0,0,0,0,0],"sum_hessian":[1.176E3,3.47E2,8.29E2,9.5E1,2.52E2,6.79E2,1.5E2,6E1,3.5E1,4.4E1,2.08E2,2.57E2,4.22E2,1.29E2,2.1E1,3.2E1,2.8E1,2.4E1,1.1E1,1.3E1,3.1E1,1.72E2,3.6E1,3.1E1,2.26E2,1.53E2,2.69E2,2.1E1,1.08E2,1E1,1.1E1,1.2E1,1.6E1,1.6E1,8E0,8E0,5E0,7E0,2.4E1,5.6E1,1.16E2,1.6E1,2E1,5E0,2.6E1,1.05E2,1.21E2,1.36E2,1.7E1,1.41E2,1.28E2,1.5E1,6E0,4.1E1,6.7E1,5E0,5E0,6E0,6E0,1E1,6E0,1.7E1,7E0,4.6E1,1E1,1.7E1,9.9E1,1.1E1,5E0,1.2E1,8E0,6E0,2E1,2.6E1,7.9E1,7.6E1,4.5E1,3E1,1.06E2,7E0,1.34E2,6.8E1,6E1,3.3E1,8E0],"tree_param":{"num_deleted":"0","num_feature":"8","num_nodes":"85","size_leaf_vector":"1"}},{"base_weights":[-1.1587879E-1,2.2662115E0,-9.034362E0,-9.8689365E-1,2.4056942E0,-1.0072786E1,-7.401707E0,3.184749E0,-6.089211E-1,-2.0867233E-1,-1.0419032E1,-8.62804E0,-5.6816463E0,2.6576211E0,4.341607E0,4.751208E0,-6.367028E0,-5.501891E-1,-8.828119E0,-5.955109E-1,-7.762419E0,-6.274028E0,-1.7607142E-1,-1.3858818E-1,2.7387273E0,3.6629198E0,3.1224364E-1,5.1679354E0,2.2341418E0,-7.376771E0,-5.1727967E0,-4.8728117E-1,-6.4590716E0,-5.3388953E0,-9.299262E0,-1.7838931E-1,-6.6141458E0,8.65727E-2,1.5456118E-1,2.3888484E-1,9.640707E-2,2.817016E-1,1.7372017E-1,-2.862653E-2,2.2459173E-1,-3.1238183E-1,-4.8327756E-1,-1.8015024E-1,-3.0701584E-1,-3.8202754E-1,-1.6983804E-1,-1.7731471E-1,-3.1897444E-1,-2.507366E-1,-5.117641E-1,-3.856104E-1,-2.4398182E-1],"categories":[],"categories_nodes":[],"categories_segments":[],"categories_sizes":[],"default_left":[0,0,0,0,0,0,0,0,0,0,0,0,0,0,0,0,0,0,0,0,0,0,0,0,0,0,0,0,0,0,0,0,0,0,0,0,0,0,0,0,0,0,0,0,0,0,0,0,0,0,0,0,0,0,0,0,0],"id":19,"left_children":[1,3,5,-1,7,9,11,13,15,-1,17,19,21,23,25,27,29,-1,31,-1,33,35,-1,-1,37,39,-1,41,43,45,47,-1,49,51,53,-1,55,-1,-1,-1,-1,-1,-1,-1,-1,-1,-1,-1,-1,-1,-1,-1,-1,-1,-1,-1,-1],"loss_changes":[2.519604E4,2.9185093E3,3.4754492E2,0E0,2.1886973E3,2.6144922E2,1.6259375E2,4.3902295E2,5.9563384E3,0E0,3.204492E1,6.7524414E1,3.4512207E1,2.3260962E2,2.7323047E2,9.260718E1,7.273193E1,0E0,2.8897217E1,0E0,1.2766797E2,6.679077E0,0E0,0E0,1.7311572E2,3.2274658E2,0E0,4.6608643E1,1.04349304E2,6.2070312E1,4.676709E1,0E0,2.721399E1,1.555658E1,5.943921E1,0E0,1.634143E1,0E0,0E0,0E0,0E0,0E0,0E0,0E0,0E0,0E0,0E0,0E0,0E0,0E0,0E0,0E0,0E0,0E0,0E0,0E0,0E0],"parents":[2147483647,0,0,1,1,2,2,4,4,5,5,6,6,7,7,8,8,10,10,11,11,12,12,13,13,14,14,15,15,16,16,18,18,20,20,21,21,24,24,25,25,27,27,28,28,29,29,30,30,32,32,33,33,34,34,36,36],"right_children":[2,4,6,-1,8,10,12,14,16,-1,18,20,22,24,26,28,30,-1,32,-1,34,36,-1,-1,38,40,-1,42,44,46,48,-1,50,52,54,-1,56,-1,-1,-1,-1,-1,-1,-1,-1,-1,-1,-1,-1,-1,-1,-1,-1,-1,-1,-1,-1],"split_conditions":[8.660254E-1,7.21089E1,1.2246469E-16,-9.8689365E-1,5E-1,1.3254945E2,6.234898E-1,7.0710677E-1,-5E-1,-2.0867233E-1,2.1430733E2,1.2561738E2,2.213226E2,1.0374009E2,1.8374803E2,1E0,6.234898E-1,-5.501891E-1,0E0,-5.955109E-1,1.3842268E2,1.3683742E2,-1.7607142E-1,-1.3858818E-1,-2.2252093E-1,1.4196288E2,3.1224364E-1,2.1894089E2,1.810296E2,1.9660413E2,1.0490862E2,-4.8728117E-1,6.234898E-1,1.798968E2,1.6577036E2,-1.7838931E-1,1.6471301E2,8.65727E-2,1.5456118E-1,2.3888484E-1,9.640707E-2,2.817016E-1,1.7372017E-1,-2.862653E-2,2.2459173E-1,-3.1238183E-1,-4.8327756E-1,-1.8015024E-1,-3.0701584E-1,-3.8202754E-1,-1.6983804E-1,-1.7731471E-1,-3.1897444E-1,-2.507366E-1,-5.117641E-1,-3.856104E-1,-2.4398182E-1],"split_indices":[5,3,4,0,5,2,7,4,4,0,2,2,3,2,2,7,7,0,4,0,0,2,0,0,7,3,0,3,0,3,0,0,7,3,3,0,2,0,0,0,0,0,0,0,0,0,0,0,0,0,0,0,0,0,0,0,0],"split_type":[0,0,0,0,0,0,0,0,0,0,0,0,0,0,0,0,0,0,0,0,0,0,0,0,0,0,0,0,0,0,0,0,0,0,0,0,0,0,0,0,0,0,0,0,0,0,0,0,0,0,0,0,0,0,0,0,0],"sum_hessian":[1.184E3,9.35E2,2.49E2,5E0,9.3E2,1.49E2,1E2,7.39E2,1.91E2,9E0,1.4E2,5.6E1,4.4E1,5.1E2,2.29E2,9.9E1,9.2E1,9.8E1,4.2E1,9E0,4.7E1,3.3E1,1.1E1,7E0,5.03E2,1.71E2,5.8E1,8.4E1,1.5E1,4.7E1,4.5E1,2.8E1,1.4E1,2E1,2.7E1,5E0,2.8E1,1.32E2,3.71E2,1.03E2,6.8E1,6.4E1,2E1,7E0,8E0,3.4E1,1.3E1,1.9E1,2.6E1,9E0,5E0,9E0,1.1E1,6E0,2.1E1,1.5E1,1.3E1],"tree_param":{"num_deleted":"0","num_feature":"8","num_nodes":"57","size_leaf_vector":"1"}},{"base_weights":[8.326609E-2,2.332166E0,-8.453491E0,3.0931318E0,-6.066115E-1,-9.498599E0,-7.2030435E0,-2.745257E-1,3.1810517E0,5.2048316E0,-5.7985115E0,-9.950208E0,-7.3533883E0,-3.153906E0,-7.806301E0,2.559135E0,4.363481E0,5.7108884E0,3.0671792E0,-5.0279956E0,-6.9512177E0,-2.891907E-1,-5.0483793E-1,-5.091719E-1,-6.242767E0,9.550521E-3,-3.07975E-1,-9.317492E0,-6.3967967E0,-2.0307486E-1,2.6356537E0,3.5617E0,2.926272E-1,3.1526184E-1,4.62567E0,4.769057E-2,3.701381E0,-6.223356E0,-3.6410182E0,-4.4940186E-1,-4.964219E0,-1.729828E-1,-3.6521205E-1,-5.8304753E0,-5.308561E-1,-7.801983E0,-5.1779704E0,7.746007E-2,1.4951651E-1,2.314701E-1,4.252011E-2,1.3518709E-1,2.657921E-1,5.691896E-2,2.4295221E-1,-3.5345563E-1,-1.7383151E-1,-1.1327209E-1,-1.9932924E-1,-1.5753326E-1,-2.9848525E-1,-1.1582696E-1,-4.7505912E-1,-4.6641278E-1,-2.5705457E-1,-2.9494274E-1,-2.0185514E-1],"categories":[],"categories_nodes":[],"categories_segments":[],"categories_sizes":[],"default_left":[0,0,0,0,0,0,0,0,0,0,0,0,0,0,0,0,0,0,0,0,0,0,0,0,0,0,0,0,0,0,0,0,0,0,0,0,0,0,0,0,0,0,0,0,0,0,0,0,0,0,0,0,0,0,0,0,0,0,0,0,0,0,0,0,0,0,0],"id":20,"left_children":[1,3,5,7,9,11,13,-1,15,17,19,21,23,25,27,29,31,33,35,37,39,-1,-1,-1,41,-1,-1,43,45,-1,47,49,-1,-1,51,-1,53,55,57,-1,59,-1,-1,61,-1,63,65,-1,-1,-1,-1,-1,-1,-1,-1,-1,-1,-1,-1,-1,-1,-1,-1,-1,-1,-1,-1],"loss_changes":[2.3018682E4,2.1243828E3,2.56625E2,5.862573E2,5.944036E3,5.395117E1,2.6251953E2,0E0,5.3746387E2,8.221094E1,5.6222168E1,5.3466797E0,1.9648682E1,1.726822E2,1.5608887E2,2.598108E2,2.8385254E2,1.7470947E1,2.2810104E1,8.5777954E1,1.11825195E2,0E0,0E0,0E0,3.8645935E1,0E0,0E0,1.4944849E2,5.4213623E1,0E0,1.8257324E2,4.8474634E2,0E0,0E0,2.4619263E1,0E0,3.8375214E1,5.3352905E1,6.03006E0,0E0,2.0396545E1,0E0,0E0,1.7028787E2,0E0,4.8065674E1,2.3323975E0,0E0,0E0,0E0,0E0,0E0,0E0,0E0,0E0,0E0,0E0,0E0,0E0,0E0,0E0,0E0,0E0,0E0,0E0,0E0,0E0],"parents":[2147483647,0,0,1,1,2,2,3,3,4,4,5,5,6,6,8,8,9,9,10,10,11,11,12,12,13,13,14,14,15,15,16,16,17,17,18,18,19,19,20,20,24,24,27,27,28,28,30,30,31,31,34,34,36,36,37,37,38,38,40,40,43,43,45,45,46,46],"right_children":[2,4,6,8,10,12,14,-1,16,18,20,22,24,26,28,30,32,34,36,38,40,-1,-1,-1,42,-1,-1,44,46,-1,48,50,-1,-1,52,-1,54,56,58,-1,60,-1,-1,62,-1,64,66,-1,-1,-1,-1,-1,-1,-1,-1,-1,-1,-1,-1,-1,-1,-1,-1,-1,-1,-1,-1],"split_conditions":[8.660254E-1,5E-1,6.234898E-1,7.669798E1,-5E-1,5E-1,1.3319423E2,-2.745257E-1,7.0710677E-1,2.172639E2,1.549867E2,1.2366752E2,1.297733E2,9.659258E-1,0E0,9.817119E1,1.7080338E2,2.0467178E2,1.5253647E2,8.660254E-1,6.234898E-1,-2.891907E-1,-5.0483793E-1,-5.091719E-1,1.5128615E2,9.550521E-3,-3.07975E-1,1.6911551E2,1.6471301E2,-2.0307486E-1,-2.2252093E-1,1.4196288E2,2.926272E-1,3.1526184E-1,2.1430733E2,4.769057E-2,2.2097229E2,2.1091434E2,1.3683742E2,-4.4940186E-1,1.7634935E2,-1.729828E-1,-3.6521205E-1,1.7616122E2,-5.308561E-1,1E0,1.2246469E-16,7.746007E-2,1.4951651E-1,2.314701E-1,4.252011E-2,1.3518709E-1,2.657921E-1,5.691896E-2,2.4295221E-1,-3.5345563E-1,-1.7383151E-1,-1.1327209E-1,-1.9932924E-1,-1.5753326E-1,-2.9848525E-1,-1.1582696E-1,-4.7505912E-1,-4.6641278E-1,-2.5705457E-1,-2.9494274E-1,-2.0185514E-1],"split_indices":[5,5,7,3,4,4,2,0,4,3,2,2,2,5,4,2,3,2,2,4,7,0,0,0,2,0,0,2,2,0,7,3,0,0,2,0,3,3,3,0,0,0,0,3,0,7,4,0,0,0,0,0,0,0,0,0,0,0,0,0,0,0,0,0,0,0,0],"split_type":[0,0,0,0,0,0,0,0,0,0,0,0,0,0,0,0,0,0,0,0,0,0,0,0,0,0,0,0,0,0,0,0,0,0,0,0,0,0,0,0,0,0,0,0,0,0,0,0,0,0,0,0,0,0,0,0,0,0,0,0,0,0,0,0,0,0,0],"sum_hessian":[1.197E3,9.48E2,2.49E2,7.53E2,1.95E2,1.32E2,1.17E2,7E0,7.46E2,9.2E1,1.03E2,1.06E2,2.6E1,1.6E1,1.01E2,4.91E2,2.55E2,7.3E1,1.9E1,6.5E1,3.8E1,5E0,1.01E2,5E0,2.1E1,8E0,8E0,4.6E1,5.5E1,5E0,4.86E2,1.68E2,8.7E1,4.4E1,2.9E1,5E0,1.4E1,3.3E1,3.2E1,1.7E1,2.1E1,7E0,1.4E1,1.4E1,3.2E1,2.3E1,3.2E1,1.21E2,3.65E2,1.2E2,4.8E1,9E0,2E1,5E0,9E0,2.4E1,9E0,8E0,2.4E1,9E0,1.2E1,8E0,6E0,1.3E1,1E1,1.7E1,1.5E1],"tree_param":{"num_deleted":"0","num_feature":"8","num_nodes":"67","size_leaf_vector":"1"}},{"base_weights":[-7.277207E-2,2.0389218E0,-8.31813E0,2.8241594E0,-9.214601E-1,-8.990043E0,-7.3917146E0,4.742358E0,2.1292517E0,-4.262736E0,1.1497468E0,-8.075322E0,-9.935193E0,-3.2178829E0,-7.9843574E0,4.8172836E0,1.0030999E-1,1.7173427E0,3.6643755E0,-5.237531E0,1.3642986E0,1.6921184E0,-1.7230732E0,-5.635094E-1,-6.92299E0,-8.482493E0,-5.514448E-1,2.854195E-2,-3.3084345E-1,-4.894456E-1,-7.285919E0,4.932944E0,2.9955142E0,-2.4003245E-1,1.9060303E0,-7.643447E-1,4.0943904E0,-4.423583E0,-5.235731E-1,-1.18634485E-1,2.1934085E-1,-6.468984E-1,2.1903648E0,-3.2076352E0,1.129422E-1,-7.2430615E0,-1.48927E-1,-2.5047123E-1,-4.476938E-1,-3.7370715E-1,-2.2414975E-1,2.5816926E-1,2.0172782E-1,4.9578875E-2,1.9937629E-1,1.23059325E-1,-4.1648427E-1,1.7578197E-1,7.8657605E-2,-5.893709E-2,-1.0294504E-2,2.7431163E-1,1.643626E-1,-2.6131096E-1,-6.1775953E-2,-2.5739464E-1,1.1996698E-1,1.8472971E-1,4.602313E-2,3.5282027E-3,-2.7060264E-1,-2.1164894E-1,-3.8459364E-1],"categories":[],"categories_nodes":[],"categories_segments":[],"categories_sizes":[],"default_left":[0,0,0,0,0,0,0,0,0,0,0,0,0,0,0,0,0,0,0,0,0,0,0,0,0,0,0,0,0,0,0,0,0,0,0,0,0,0,0,0,0,0,0,0,0,0,0,0,0,0,0,0,0,0,0,0,0,0,0,0,0,0,0,0,0,0,0,0,0,0,0,0,0],"id":21,"left_children":[1,3,5,7,9,11,13,15,17,19,21,23,25,27,29,31,-1,33,35,37,39,41,43,-1,45,47,-1,-1,-1,-1,49,51,53,55,57,59,61,63,-1,-1,-1,65,67,69,-1,71,-1,-1,-1,-1,-1,-1,-1,-1,-1,-1,-1,-1,-1,-1,-1,-1,-1,-1,-1,-1,-1,-1,-1,-1,-1,-1,-1],"loss_changes":[2.0580771E4,2.1902441E3,8.192578E1,9.809453E2,1.3754662E3,3.4682617E1,2.3786084E2,3.003955E1,3.3968628E2,4.2440845E2,1.945633E2,1.925918E2,3.0029297E0,1.9754898E2,4.4186035E1,2.4675781E1,0E0,1.609143E2,2.2247021E2,2.2909863E2,1.4615137E2,1.2277362E2,1.2556848E2,0E0,4.9366943E1,4.501465E0,0E0,0E0,0E0,0E0,2.7556152E0,1.5098633E1,2.3379143E1,8.7331274E2,2.061388E2,2.164487E0,9.904602E1,1.413103E2,0E0,0E0,0E0,2.7313727E2,1.6041705E2,1.0931386E2,0E0,3.6497803E1,0E0,0E0,0E0,0E0,0E0,0E0,0E0,0E0,0E0,0E0,0E0,0E0,0E0,0E0,0E0,0E0,0E0,0E0,0E0,0E0,0E0,0E0,0E0,0E0,0E0,0E0,0E0],"parents":[2147483647,0,0,1,1,2,2,3,3,4,4,5,5,6,6,7,7,8,8,9,9,10,10,11,11,12,12,13,13,14,14,15,15,17,17,18,18,19,19,20,20,21,21,22,22,24,24,25,25,30,30,31,31,32,32,33,33,34,34,35,35,36,36,37,37,41,41,42,42,43,43,45,45],"right_children":[2,4,6,8,10,12,14,16,18,20,22,24,26,28,30,32,-1,34,36,38,40,42,44,-1,46,48,-1,-1,-1,-1,50,52,54,56,58,60,62,64,-1,-1,-1,66,68,70,-1,72,-1,-1,-1,-1,-1,-1,-1,-1,-1,-1,-1,-1,-1,-1,-1,-1,-1,-1,-1,-1,-1,-1,-1,-1,-1,-1,-1],"split_conditions":[8.660254E-1,5E-1,6.234898E-1,-4.3388373E-1,1.3943732E2,1.5662347E2,1.3319423E2,2.438999E2,6.123234E-17,1.6517659E2,2.2596709E2,9.47289E1,9.659258E-1,9.659258E-1,1.6037766E2,2.3187416E2,1.0030999E-1,9.817119E1,8.6308754E1,9.749279E-1,1.7080338E2,1.5851445E2,2.113858E2,-5.635094E-1,1.515281E2,1.4452594E2,-5.514448E-1,2.854195E-2,-3.3084345E-1,-4.894456E-1,2.1630998E2,2.1932384E2,2.3736893E2,9.749279E-1,1.4395773E2,1.3842268E2,1.4354639E2,1E0,-5.235731E-1,-1.18634485E-1,2.1934085E-1,4.3388373E-1,1.8579378E2,1.4045306E2,1.129422E-1,-7.818315E-1,-1.48927E-1,-2.5047123E-1,-4.476938E-1,-3.7370715E-1,-2.2414975E-1,2.5816926E-1,2.0172782E-1,4.9578875E-2,1.9937629E-1,1.23059325E-1,-4.1648427E-1,1.7578197E-1,7.8657605E-2,-5.893709E-2,-1.0294504E-2,2.7431163E-1,1.643626E-1,-2.6131096E-1,-6.1775953E-2,-2.5739464E-1,1.1996698E-1,1.8472971E-1,4.602313E-2,3.5282027E-3,-2.7060264E-1,-2.1164894E-1,-3.8459364E-1],"split_indices":[5,5,7,6,0,0,2,0,5,2,3,0,5,5,3,3,0,2,0,6,3,3,0,0,0,2,0,0,0,0,0,0,3,6,2,3,0,7,0,0,0,6,3,2,0,6,0,0,0,0,0,0,0,0,0,0,0,0,0,0,0,0,0,0,0,0,0,0,0,0,0,0,0],"split_type":[0,0,0,0,0,0,0,0,0,0,0,0,0,0,0,0,0,0,0,0,0,0,0,0,0,0,0,0,0,0,0,0,0,0,0,0,0,0,0,0,0,0,0,0,0,0,0,0,0,0,0,0,0,0,0,0,0,0,0,0,0,0,0,0,0,0,0,0,0,0,0,0,0],"sum_hessian":[1.18E3,9.4E2,2.4E2,7.43E2,1.97E2,1.34E2,1.06E2,1.96E2,5.47E2,7.5E1,1.22E2,7.3E1,6.1E1,1.4E1,9.2E1,1.9E2,6E0,4.33E2,1.14E2,6.4E1,1.1E1,1.03E2,1.9E1,1.7E1,5.6E1,3E1,3.1E1,7E0,7E0,2.2E1,7E1,1.77E2,1.3E1,3.8E1,3.95E2,1E1,1.04E2,5.7E1,7E0,5E0,6E0,1.8E1,8.5E1,1.4E1,5E0,5.1E1,5E0,5E0,2.5E1,6.4E1,6E0,1.37E2,4E1,5E0,8E0,2.9E1,9E0,6.6E1,3.29E2,5E0,5E0,3.6E1,6.8E1,4.5E1,1.2E1,7E0,1.1E1,3.8E1,4.7E1,6E0,8E0,8E0,4.3E1],"tree_param":{"num_deleted":"0","num_feature":"8","num_nodes":"73","size_leaf_vector":"1"}},{"base_weights":[1.1730159E-2,1.9960228E0,-7.789964E0,2.643254E0,-4.366683E-1,-8.766251E0,-6.203954E0,-4.3590484E0,2.8064137E0,4.4769425E0,-5.551506E0,-7.1319544E-1,-8.462974E0,-6.736851E-1,-5.636654E0,2.2748895E-1,-6.397324E-1,2.2871332E0,3.9243736E0,4.9639897E0,2.1340594E0,-4.4514513E0,-3.3740646E-1,-9.247997E0,-7.2866435E0,-6.041058E0,-1.7165089E-1,3.1300324E-1,2.4761143E0,3.035797E0,5.495721E0,5.2339134E0,3.2719364E0,1.9357958E-1,-1.0779881E-2,-3.2858336E0,-5.1694436E0,-2.663658E-1,-4.7197834E-1,-4.9193206E-1,-6.441589E0,-1.4440477E-1,-6.228951E0,9.0191856E-2,-9.675405E-2,7.251282E-2,1.3991816E-1,2.2416592E-1,-3.264528E-2,1.8107954E-1,2.8858602E-1,2.2061205E-1,3.0477843E-1,1.00293696E-1,2.1185799E-1,-1.0045017E-1,-1.856317E-1,-4.5656058E-1,-1.9246854E-1,3.715843E-2,-3.6483175E-1,-2.8106067E-1,-3.7007314E-1],"categories":[],"categories_nodes":[],"categories_segments":[],"categories_sizes":[],"default_left":[0,0,0,0,0,0,0,0,0,0,0,0,0,0,0,0,0,0,0,0,0,0,0,0,0,0,0,0,0,0,0,0,0,0,0,0,0,0,0,0,0,0,0,0,0,0,0,0,0,0,0,0,0,0,0,0,0,0,0,0,0,0,0],"id":22,"left_children":[1,3,5,7,9,11,13,15,17,19,21,-1,23,-1,25,-1,-1,27,29,31,33,35,-1,37,39,41,-1,43,45,47,49,51,53,-1,-1,55,57,-1,-1,-1,59,-1,61,-1,-1,-1,-1,-1,-1,-1,-1,-1,-1,-1,-1,-1,-1,-1,-1,-1,-1,-1,-1],"loss_changes":[1.7941787E4,1.4562253E3,3.079912E2,8.4609717E2,4.925764E3,1.1543848E2,3.0568652E2,1.3366095E3,4.0490527E2,1.0280615E2,9.521069E1,0E0,5.8395508E1,0E0,5.673584E1,0E0,0E0,1.817522E2,2.9662207E2,1.9475952E1,7.876979E1,2.6524536E1,0E0,7.570801E0,6.439014E1,2.4345215E1,0E0,1.5094434E2,1.4328662E2,7.828738E2,1.953833E1,2.0906006E1,7.9849396E0,0E0,0E0,4.5030365E0,1.2567694E2,0E0,0E0,0E0,3.0095605E2,0E0,5.5478516E0,0E0,0E0,0E0,0E0,0E0,0E0,0E0,0E0,0E0,0E0,0E0,0E0,0E0,0E0,0E0,0E0,0E0,0E0,0E0,0E0],"parents":[2147483647,0,0,1,1,2,2,3,3,4,4,5,5,6,6,7,7,8,8,9,9,10,10,12,12,14,14,17,17,18,18,19,19,20,20,21,21,23,23,24,24,25,25,27,27,28,28,29,29,30,30,31,31,32,32,35,35,36,36,40,40,42,42],"right_children":[2,4,6,8,10,12,14,16,18,20,22,-1,24,-1,26,-1,-1,28,30,32,34,36,-1,38,40,42,-1,44,46,48,50,52,54,-1,-1,56,58,-1,-1,-1,60,-1,62,-1,-1,-1,-1,-1,-1,-1,-1,-1,-1,-1,-1,-1,-1,-1,-1,-1,-1,-1,-1],"split_conditions":[8.660254E-1,5E-1,1.2246469E-16,7.791743E1,-5E-1,8.6308754E1,1.220696E2,-2.2252093E-1,7.0710677E-1,1E0,1.3683742E2,-7.1319544E-1,6.234898E-1,-6.736851E-1,1E0,2.2748895E-1,-6.397324E-1,9.9564156E1,1.7571516E2,2.2711105E2,-7.0710677E-1,8.74472E1,-3.3740646E-1,1.18575775E2,1.5077667E2,1.4482347E2,-1.7165089E-1,8.908457E1,-2.2252093E-1,1.4196288E2,1.210034E2,1.8525172E2,1.7705028E2,1.9357958E-1,-1.0779881E-2,1.4294484E2,9.8944954E1,-2.663658E-1,-4.7197834E-1,-4.9193206E-1,1.5617744E2,-1.4440477E-1,2.1678293E2,9.0191856E-2,-9.675405E-2,7.251282E-2,1.3991816E-1,2.2416592E-1,-3.264528E-2,1.8107954E-1,2.8858602E-1,2.2061205E-1,3.0477843E-1,1.00293696E-1,2.1185799E-1,-1.0045017E-1,-1.856317E-1,-4.5656058E-1,-1.9246854E-1,3.715843E-2,-3.6483175E-1,-2.8106067E-1,-3.7007314E-1],"split_indices":[5,5,4,3,4,0,3,7,4,7,1,0,7,0,7,0,0,3,3,3,4,0,0,3,3,3,0,3,7,3,1,1,0,0,0,3,0,0,0,0,3,0,3,0,0,0,0,0,0,0,0,0,0,0,0,0,0,0,0,0,0,0,0],"split_type":[0,0,0,0,0,0,0,0,0,0,0,0,0,0,0,0,0,0,0,0,0,0,0,0,0,0,0,0,0,0,0,0,0,0,0,0,0,0,0,0,0,0,0,0,0,0,0,0,0,0,0,0,0,0,0,0,0,0,0,0,0,0,0],"sum_hessian":[1.157E3,9.23E2,2.34E2,7.29E2,1.94E2,1.42E2,9.2E1,1.6E1,7.13E2,9.9E1,9.5E1,5E0,1.37E2,5E0,8.7E1,8E0,8E0,4.89E2,2.24E2,8.1E1,1.8E1,5.2E1,4.3E1,7.8E1,5.9E1,7.2E1,1.5E1,4.3E1,4.46E2,1.45E2,7.9E1,6.8E1,1.3E1,1E1,8E0,2.2E1,3E1,5E0,7.3E1,1.2E1,4.7E1,5E0,6.7E1,2.6E1,1.7E1,1.08E2,3.38E2,1.04E2,4.1E1,1.2E1,6.7E1,3.8E1,3E1,7E0,6E0,7E0,1.5E1,6E0,2.4E1,5E0,4.2E1,4.8E1,1.9E1],"tree_param":{"num_deleted":"0","num_feature":"8","num_nodes":"63","size_leaf_vector":"1"}},{"base_weights":[-1.660528E-1,1.838829E0,-7.78434E0,-9.119341E-1,1.9644653E0,-6.192793E-1,-7.4584794E0,2.6283634E0,-5.530107E-1,-8.022992E0,-5.078241E0,2.0481157E0,3.7825623E0,4.221744E0,-5.5692167E0,-8.867612E0,-7.181606E0,-5.440746E0,-1.0817317E-1,-3.0158353E-1,2.158663E0,3.0275154E0,2.5642076E-1,1.3079795E0,4.558485E0,-4.538347E0,-8.070052E0,-7.0068502E0,-4.817865E-1,-7.666767E0,-1.8232793E-1,-6.062073E0,-3.3739207E0,1.2001582E-1,4.7469884E-2,1.9936126E-1,4.775597E-3,-9.202812E-2,2.3899741E-1,2.483267E-1,1.4785294E-1,-1.2785444E-1,-2.489178E-1,-4.5495102E-1,-2.4950014E-1,-1.365758E-1,-4.5014712E-1,-4.0688515E-1,-2.9990882E-1,-2.459166E-1,-3.8426957E-1,-3.3642482E-3,-2.8559527E-1],"categories":[],"categories_nodes":[],"categories_segments":[],"categories_sizes":[],"default_left":[0,0,0,0,0,0,0,0,0,0,0,0,0,0,0,0,0,0,0,0,0,0,0,0,0,0,0,0,0,0,0,0,0,0,0,0,0,0,0,0,0,0,0,0,0,0,0,0,0,0,0,0,0],"id":23,"left_children":[1,3,5,-1,7,-1,9,11,13,15,17,19,21,23,25,27,29,31,-1,-1,33,35,-1,37,39,41,43,45,-1,47,-1,49,51,-1,-1,-1,-1,-1,-1,-1,-1,-1,-1,-1,-1,-1,-1,-1,-1,-1,-1,-1,-1],"loss_changes":[1.8328154E4,2.430542E3,2.8047852E2,0E0,1.5810847E3,0E0,2.7505566E2,4.926211E2,4.7659746E3,6.902344E1,3.8186523E1,4.5923242E2,2.366875E2,9.3531494E1,2.1218408E2,5.9456055E1,1.4241846E2,3.253882E1,0E0,0E0,1.4174438E2,4.5505835E2,0E0,1.402714E2,4.3986206E1,4.841223E1,3.8757202E1,2.3025354E2,0E0,1.8139648E1,0E0,1.8496582E1,9.1808136E1,0E0,0E0,0E0,0E0,0E0,0E0,0E0,0E0,0E0,0E0,0E0,0E0,0E0,0E0,0E0,0E0,0E0,0E0,0E0,0E0],"parents":[2147483647,0,0,1,1,2,2,4,4,6,6,7,7,8,8,9,9,10,10,11,11,12,12,13,13,14,14,15,15,16,16,17,17,20,20,21,21,23,23,24,24,25,25,26,26,27,27,29,29,31,31,32,32],"right_children":[2,4,6,-1,8,-1,10,12,14,16,18,20,22,24,26,28,30,32,-1,-1,34,36,-1,38,40,42,44,46,-1,48,-1,50,52,-1,-1,-1,-1,-1,-1,-1,-1,-1,-1,-1,-1,-1,-1,-1,-1,-1,-1,-1,-1],"split_conditions":[8.660254E-1,7.21089E1,1.3073694E2,-9.119341E-1,5E-1,-6.192793E-1,5E-1,7.0710677E-1,-5E-1,0E0,1E0,1.0374009E2,1.6037766E2,1.5138078E2,1.9595288E2,1.7616122E2,1E0,1.9595288E2,-1.0817317E-1,-3.0158353E-1,1E0,1.4196288E2,2.5642076E-1,1.8209152E2,2.1828777E2,1.3683742E2,6.234898E-1,1.488647E2,-4.817865E-1,2.0680573E2,-1.8232793E-1,1.8209152E2,1.4511217E2,1.2001582E-1,4.7469884E-2,1.9936126E-1,4.775597E-3,-9.202812E-2,2.3899741E-1,2.483267E-1,1.4785294E-1,-1.2785444E-1,-2.489178E-1,-4.5495102E-1,-2.4950014E-1,-1.365758E-1,-4.5014712E-1,-4.0688515E-1,-2.9990882E-1,-2.459166E-1,-3.8426957E-1,-3.3642482E-3,-2.8559527E-1],"split_indices":[5,3,3,0,5,0,4,4,4,4,7,2,3,3,3,3,7,3,0,0,7,3,0,0,3,3,7,0,0,2,0,3,0,0,0,0,0,0,0,0,0,0,0,0,0,0,0,0,0,0,0,0,0],"split_type":[0,0,0,0,0,0,0,0,0,0,0,0,0,0,0,0,0,0,0,0,0,0,0,0,0,0,0,0,0,0,0,0,0,0,0,0,0,0,0,0,0,0,0,0,0,0,0,0,0,0,0,0,0],"sum_hessian":[1.198E3,9.49E2,2.49E2,5E0,9.44E2,1.4E1,2.35E2,7.47E2,1.97E2,1.88E2,4.7E1,4.99E2,2.48E2,1.01E2,9.6E1,8.9E1,9.9E1,4.1E1,6E0,6E0,4.93E2,1.61E2,8.7E1,1.1E1,9E1,7E1,2.6E1,2.9E1,6E1,8.6E1,1.3E1,3E1,1.1E1,4.1E2,8.3E1,1.21E2,4E1,6E0,5E0,7E1,2E1,1.4E1,5.6E1,1.8E1,8E0,1E1,1.9E1,6.4E1,2.2E1,2E1,1E1,5E0,6E0],"tree_param":{"num_deleted":"0","num_feature":"8","num_nodes":"53","size_leaf_vector":"1"}},{"base_weights":[-7.6323343E-3,1.792248E0,-7.0282955E0,-8.7393683E-1,1.9141022E0,-8.414824E0,-6.0515957E0,2.5034528E0,-5.0440705E-1,-5.780939E0,-4.5326135E-1,-5.9347486E-1,-5.6697493E0,4.266206E0,1.8698877E0,4.118912E0,-5.2756996E0,-4.1609627E-1,1.1826717E-1,-6.3300314E0,-4.1130095E0,3.424708E0,4.650963E0,1.3074692E0,3.0242357E0,1.6357745E0,4.4270897E0,-4.4382186E0,-7.0927567E0,-5.4631915E0,-3.6041707E-1,-2.539202E0,-5.203535E0,2.4501696E-1,1.4262496E-1,1.8965463E-1,2.5768158E-1,-4.1886773E-2,7.796286E-2,-3.2109853E-2,1.7044093E-1,-1.4494653E-1,2.6516342E-1,2.4596749E-1,1.4170177E-1,-1.5591441E-1,-2.7060497E-1,-2.6708335E-1,-4.5725498E-1,-2.3891807E-1,-3.6697146E-1,-1.423038E-1,-6.660754E-2,-1.3408269E-1,-2.9267582E-1],"categories":[],"categories_nodes":[],"categories_segments":[],"categories_sizes":[],"default_left":[0,0,0,0,0,0,0,0,0,0,0,0,0,0,0,0,0,0,0,0,0,0,0,0,0,0,0,0,0,0,0,0,0,0,0,0,0,0,0,0,0,0,0,0,0,0,0,0,0,0,0,0,0,0,0],"id":24,"left_children":[1,3,5,-1,7,9,11,13,15,17,-1,-1,19,21,23,25,27,-1,-1,29,31,33,35,37,39,41,43,45,47,49,-1,51,53,-1,-1,-1,-1,-1,-1,-1,-1,-1,-1,-1,-1,-1,-1,-1,-1,-1,-1,-1,-1,-1,-1],"loss_changes":[1.4924019E4,2.2392546E3,2.7399707E2,0E0,1.3341648E3,1.122793E2,2.5307275E2,8.3125684E2,4.0807402E3,4.7567072E2,0E0,0E0,1.1476904E2,4.7371094E1,3.5593335E2,6.408533E1,1.05846924E2,0E0,0E0,3.1680908E1,6.1529053E1,4.0974915E1,3.6909912E1,2.0392963E2,2.576842E2,2.1518626E2,5.0371216E1,6.582495E1,4.6734863E1,3.0532715E1,0E0,3.1990204E0,2.4428772E1,0E0,0E0,0E0,0E0,0E0,0E0,0E0,0E0,0E0,0E0,0E0,0E0,0E0,0E0,0E0,0E0,0E0,0E0,0E0,0E0,0E0,0E0],"parents":[2147483647,0,0,1,1,2,2,4,4,5,5,6,6,7,7,8,8,9,9,12,12,13,13,14,14,15,15,16,16,19,19,20,20,21,21,22,22,23,23,24,24,25,25,26,26,27,27,28,28,29,29,31,31,32,32],"right_children":[2,4,6,-1,8,10,12,14,16,18,-1,-1,20,22,24,26,28,-1,-1,30,32,34,36,38,40,42,44,46,48,50,-1,52,54,-1,-1,-1,-1,-1,-1,-1,-1,-1,-1,-1,-1,-1,-1,-1,-1,-1,-1,-1,-1,-1,-1],"split_conditions":[8.660254E-1,7.21089E1,0E0,-8.7393683E-1,5E-1,1.5243459E2,1.318302E2,-4.3388373E-1,-5E-1,1.4045306E2,-4.5326135E-1,-5.9347486E-1,5E-1,-5E-1,7.0710677E-1,1.5138078E2,1.9660413E2,-4.1609627E-1,1.1826717E-1,4.3388373E-1,1.3390157E2,1.7432173E2,1.2561738E2,9.9564156E1,9.817119E1,1.8956049E2,2.1256747E2,9.757088E1,4.3388373E-1,2.0355902E2,-3.6041707E-1,2.0572476E2,1.2366752E2,2.4501696E-1,1.4262496E-1,1.8965463E-1,2.5768158E-1,-4.1886773E-2,7.796286E-2,-3.2109853E-2,1.7044093E-1,-1.4494653E-1,2.6516342E-1,2.4596749E-1,1.4170177E-1,-1.5591441E-1,-2.7060497E-1,-2.6708335E-1,-4.5725498E-1,-2.3891807E-1,-3.6697146E-1,-1.423038E-1,-6.660754E-2,-1.3408269E-1,-2.9267582E-1],"split_indices":[5,3,4,0,5,3,3,6,4,3,0,0,4,4,4,3,3,0,0,6,0,1,3,3,0,1,3,0,6,0,0,3,1,0,0,0,0,0,0,0,0,0,0,0,0,0,0,0,0,0,0,0,0,0,0],"split_type":[0,0,0,0,0,0,0,0,0,0,0,0,0,0,0,0,0,0,0,0,0,0,0,0,0,0,0,0,0,0,0,0,0,0,0,0,0,0,0,0,0,0,0,0,0,0,0,0,0,0,0,0,0,0,0],"sum_hessian":[1.179E3,9.39E2,2.4E2,5E0,9.34E2,9.6E1,1.44E2,7.51E2,1.83E2,2.1E1,7.5E1,7E0,1.37E2,1.97E2,5.54E2,9.3E1,9E1,1.6E1,5E0,9.4E1,4.3E1,6.5E1,1.32E2,3.74E2,1.8E2,1.1E1,8.2E1,6.4E1,2.6E1,5.1E1,4.3E1,1.9E1,2.4E1,1.6E1,4.9E1,5.2E1,8E1,3.9E1,3.35E2,1.7E1,1.63E2,5E0,6E0,6.1E1,2.1E1,2.9E1,3.5E1,1.6E1,1E1,4E1,1.1E1,1.4E1,5E0,6E0,1.8E1],"tree_param":{"num_deleted":"0","num_feature":"8","num_nodes":"55","size_leaf_vector":"1"}},{"base_weights":[-5.7864666E-2,1.704476E0,-6.770374E0,2.3058553E0,-5.371221E-1,-7.6465745E0,-5.6668105E0,4.1252193E0,1.6278949E0,-2.976106E0,8.253431E-1,-6.3654585E0,-4.3249416E-1,-3.902325E-1,-5.1886067E0,3.5095313E0,4.639076E0,1.2941211E0,2.9533505E0,-3.7595968E0,9.215137E-1,1.3913118E0,-1.5099657E0,-5.527273E-1,-5.5939116E0,-3.244384E0,-5.681821E0,3.2904625E0,4.914028E0,5.650875E0,4.1172066E0,1.6338732E0,-5.1730074E-2,-6.046551E-1,3.4795666E0,-3.1230135E0,-4.528888E-1,1.5905778E-1,-7.277436E-2,2.101248E0,-2.4431336E0,-3.2346787E0,2.380762E-1,-7.1511183E0,-4.9182835E0,4.9827695E-2,-2.8730512E-1,-6.2223516E0,-2.033842E-1,1.9805962E-1,1.2713383E-1,1.3674043E-1,3.1287882E-1,2.2004452E-1,3.467065E-1,2.1327797E-1,1.0262064E-1,-1.23145364E-1,8.560484E-2,2.8967923E-2,-1.4008304E-1,2.8786775E-1,-2.748406E-1,3.015257E-1,1.3638E-1,-1.7942749E-1,3.170533E-2,6.714825E-2,2.0075326E-1,-1.8410458E-1,2.126524E-2,-2.6918525E-1,1.0888388E-2,-1.6443756E-1,-4.371713E-1,-1.087293E-1,-2.6097193E-1,-3.2485408E-1,-1.4396067E-1],"categories":[],"categories_nodes":[],"categories_segments":[],"categories_sizes":[],"default_left":[0,0,0,0,0,0,0,0,0,0,0,0,0,0,0,0,0,0,0,0,0,0,0,0,0,0,0,0,0,0,0,0,0,0,0,0,0,0,0,0,0,0,0,0,0,0,0,0,0,0,0,0,0,0,0,0,0,0,0,0,0,0,0,0,0,0,0,0,0,0,0,0,0,0,0,0,0,0,0],"id":25,"left_children":[1,3,5,7,9,11,13,15,17,19,21,23,-1,-1,25,27,29,31,33,35,37,39,41,-1,43,45,47,49,51,53,55,57,59,61,63,65,-1,-1,-1,67,69,71,-1,73,75,-1,-1,77,-1,-1,-1,-1,-1,-1,-1,-1,-1,-1,-1,-1,-1,-1,-1,-1,-1,-1,-1,-1,-1,-1,-1,-1,-1,-1,-1,-1,-1,-1,-1],"loss_changes":[1.4278699E4,1.2901519E3,1.9803906E2,9.227356E2,6.772465E2,1.1953223E2,7.577295E1,4.744507E1,2.3951697E2,2.26672E2,1.7523318E2,1.680393E2,0E0,0E0,7.368848E1,1.2855103E1,3.278418E1,2.023498E2,2.0834216E2,1.7623108E2,7.4627914E1,2.9365387E2,2.9647882E2,0E0,2.3591187E1,2.3961319E2,3.9969482E1,3.2913513E1,1.4194214E1,2.2887817E1,1.3587402E1,1.1726581E2,1.5803587E2,4.984803E2,1.668252E2,1.00519226E2,0E0,0E0,0E0,1.2468146E2,6.230757E1,1.5749634E2,0E0,6.229303E1,2.344043E1,0E0,0E0,3.0871338E1,0E0,0E0,0E0,0E0,0E0,0E0,0E0,0E0,0E0,0E0,0E0,0E0,0E0,0E0,0E0,0E0,0E0,0E0,0E0,0E0,0E0,0E0,0E0,0E0,0E0,0E0,0E0,0E0,0E0,0E0,0E0],"parents":[2147483647,0,0,1,1,2,2,3,3,4,4,5,5,6,6,7,7,8,8,9,9,10,10,11,11,14,14,15,15,16,16,17,17,18,18,19,19,20,20,21,21,22,22,24,24,25,25,26,26,27,27,28,28,29,29,30,30,31,31,32,32,33,33,34,34,35,35,39,39,40,40,41,41,43,43,44,44,47,47],"right_children":[2,4,6,8,10,12,14,16,18,20,22,24,-1,-1,26,28,30,32,34,36,38,40,42,-1,44,46,48,50,52,54,56,58,60,62,64,66,-1,-1,-1,68,70,72,-1,74,76,-1,-1,78,-1,-1,-1,-1,-1,-1,-1,-1,-1,-1,-1,-1,-1,-1,-1,-1,-1,-1,-1,-1,-1,-1,-1,-1,-1,-1,-1,-1,-1,-1,-1],"split_conditions":[8.660254E-1,5E-1,6.234898E-1,-4.3388373E-1,1.454045E2,1.5618042E2,1.5077667E2,-7.818315E-1,6.123234E-17,1.454045E2,2.22238E2,8.535304E1,-4.3249416E-1,-3.902325E-1,1.7705028E2,2.339686E2,-7.0710677E-1,2.1430733E2,1.1015209E2,1.3484393E2,7.0710677E-1,2.2654243E2,2.1630998E2,-5.527273E-1,9.757088E1,9.659258E-1,2.2596709E2,1.9479189E2,-8.660254E-1,1.7113867E2,2.3187416E2,1.0490862E2,9.749279E-1,1.156367E2,1.4045306E2,1.16777824E2,-4.528888E-1,1.5905778E-1,-7.277436E-2,2.0557422E2,1.9561423E2,4.3388373E-1,2.380762E-1,-2.2252093E-1,1.0034511E2,4.9827695E-2,-2.8730512E-1,2.1256747E2,-2.033842E-1,1.9805962E-1,1.2713383E-1,1.3674043E-1,3.1287882E-1,2.2004452E-1,3.467065E-1,2.1327797E-1,1.0262064E-1,-1.23145364E-1,8.560484E-2,2.8967923E-2,-1.4008304E-1,2.8786775E-1,-2.748406E-1,3.015257E-1,1.3638E-1,-1.7942749E-1,3.170533E-2,6.714825E-2,2.0075326E-1,-1.8410458E-1,2.126524E-2,-2.6918525E-1,1.0888388E-2,-1.6443756E-1,-4.371713E-1,-1.087293E-1,-2.6097193E-1,-3.2485408E-1,-1.4396067E-1],"split_indices":[5,5,7,6,1,1,3,6,5,0,3,1,0,0,3,1,5,1,3,0,5,1,0,0,0,5,3,0,5,3,3,0,6,0,3,0,0,0,0,1,3,6,0,7,0,0,0,0,0,0,0,0,0,0,0,0,0,0,0,0,0,0,0,0,0,0,0,0,0,0,0,0,0,0,0,0,0,0,0],"split_type":[0,0,0,0,0,0,0,0,0,0,0,0,0,0,0,0,0,0,0,0,0,0,0,0,0,0,0,0,0,0,0,0,0,0,0,0,0,0,0,0,0,0,0,0,0,0,0,0,0,0,0,0,0,0,0,0,0,0,0,0,0,0,0,0,0,0,0,0,0,0,0,0,0,0,0,0,0,0,0],"sum_hessian":[1.205E3,9.55E2,2.5E2,7.53E2,2.02E2,1.36E2,1.14E2,2.03E2,5.5E2,7.2E1,1.3E2,6.3E1,7.3E1,1.8E1,9.6E1,9.6E1,1.07E2,4.41E2,1.09E2,6E1,1.2E1,1.05E2,2.5E1,7E0,5.6E1,2.1E1,7.5E1,8.6E1,1E1,3.3E1,7.4E1,3.52E2,8.9E1,1.4E1,9.5E1,5.5E1,5E0,6E0,6E0,8.9E1,1.6E1,2E1,5E0,1.4E1,4.2E1,8E0,1.3E1,5.4E1,2.1E1,4.3E1,4.3E1,5E0,5E0,1.9E1,1.4E1,6.8E1,6E0,6E0,3.46E2,7.3E1,1.6E1,6E0,8E0,2E1,7.5E1,4.9E1,6E0,6.5E1,2.4E1,1.1E1,5E0,1.2E1,8E0,5E0,9E0,5E0,3.7E1,4.9E1,5E0],"tree_param":{"num_deleted":"0","num_feature":"8","num_nodes":"79","size_leaf_vector":"1"}},{"base_weights":[-1.8413772E-1,1.4390537E0,-6.3680153E0,2.168976E0,-1.2928563E0,-7.293738E0,-5.024928E0,-5.140072E-1,2.2868083E0,3.2643907E0,-4.995124E0,-4.0341806E-1,-6.670858E0,-4.43782E0,-6.1150074E0,3.8080103E0,1.7005228E0,2.532501E0,2.4102099E-1,-3.8460262E0,-5.8486347E0,-5.1567354E0,-7.4146905E0,-3.858747E0,-6.471344E0,-3.7141323E-1,-4.249155E0,2.9099243E0,4.2580714E0,7.7055055E-1,2.5360231E0,-9.250834E-2,3.0368967E0,-4.833691E0,-1.8709536E0,-8.7075256E-2,-6.4450874E0,-6.525494E-2,-3.3342683E-1,-7.7872515E0,-1.5598293E-1,-4.1970086E0,-1.0267814E-1,-4.1140398E-1,-1.3705081E-1,-2.7229387E-1,-1.3510811E-1,1.7417014E-1,8.671635E-2,1.6823743E-1,2.4294832E-1,-2.5118884E-1,4.6735294E-2,2.0826197E-1,9.518704E-2,1.7100437E-1,-5.986748E-3,-3.2836375E-1,-1.4559329E-1,-2.1151673E-2,-1.4884932E-1,-5.1261544E-1,-2.9099008E-1,-4.143935E-1,-2.4980257E-1,-2.4772032E-1,-1.6302842E-1],"categories":[],"categories_nodes":[],"categories_segments":[],"categories_sizes":[],"default_left":[0,0,0,0,0,0,0,0,0,0,0,0,0,0,0,0,0,0,0,0,0,0,0,0,0,0,0,0,0,0,0,0,0,0,0,0,0,0,0,0,0,0,0,0,0,0,0,0,0,0,0,0,0,0,0,0,0,0,0,0,0,0,0,0,0,0,0],"id":26,"left_children":[1,3,5,7,9,11,13,-1,15,17,19,-1,21,23,25,27,29,31,-1,33,35,37,39,41,43,-1,45,47,49,51,53,-1,55,57,59,-1,61,-1,-1,63,-1,65,-1,-1,-1,-1,-1,-1,-1,-1,-1,-1,-1,-1,-1,-1,-1,-1,-1,-1,-1,-1,-1,-1,-1,-1,-1],"loss_changes":[1.1683406E4,1.8414355E3,2.6300195E2,1.0906179E3,3.3065479E3,1.2735352E1,3.708667E1,0E0,6.368955E2,8.7275024E1,8.245947E1,0E0,5.511255E1,5.6424683E1,4.812976E1,6.77312E1,4.0408203E2,1.4279462E2,0E0,8.587073E1,1.349397E2,1.7100977E2,6.1024414E1,2.5561707E1,6.8094666E1,0E0,1.4090698E1,4.0629456E1,5.3148438E1,2.4112807E2,2.747478E2,0E0,6.847662E1,8.654169E1,2.7226685E1,0E0,6.251758E1,0E0,0E0,2.5733887E1,0E0,1.6359436E1,0E0,0E0,0E0,0E0,0E0,0E0,0E0,0E0,0E0,0E0,0E0,0E0,0E0,0E0,0E0,0E0,0E0,0E0,0E0,0E0,0E0,0E0,0E0,0E0,0E0],"parents":[2147483647,0,0,1,1,2,2,3,3,4,4,5,5,6,6,8,8,9,9,10,10,12,12,13,13,14,14,15,15,16,16,17,17,19,19,20,20,21,21,22,22,23,23,24,24,26,26,27,27,28,28,29,29,30,30,32,32,33,33,34,34,36,36,39,39,41,41],"right_children":[2,4,6,8,10,12,14,-1,16,18,20,-1,22,24,26,28,30,32,-1,34,36,38,40,42,44,-1,46,48,50,52,54,-1,56,58,60,-1,62,-1,-1,64,-1,66,-1,-1,-1,-1,-1,-1,-1,-1,-1,-1,-1,-1,-1,-1,-1,-1,-1,-1,-1,-1,-1,-1,-1,-1,-1],"split_conditions":[8.660254E-1,5E-1,1.2246469E-16,7.669798E1,-5E-1,0E0,7.818315E-1,-5.140072E-1,-4.3388373E-1,2.0467178E2,1.4196288E2,-4.0341806E-1,1.7136804E2,2.0131184E2,5E-1,-5E-1,-5E-1,1.5138078E2,2.4102099E-1,1.1172368E2,8.2644005E1,-2.5881904E-1,2.2760132E2,1.963366E2,2.2356128E2,-3.7141323E-1,1.4511217E2,2.1243907E2,1.2561738E2,9.817119E1,1.2646701E2,-9.250834E-2,1.9684329E2,8.660254E-1,1.2561738E2,-8.7075256E-2,9.042507E1,-6.525494E-2,-3.3342683E-1,2.1783635E2,-1.5598293E-1,0E0,-1.0267814E-1,-4.1140398E-1,-1.3705081E-1,-2.7229387E-1,-1.3510811E-1,1.7417014E-1,8.671635E-2,1.6823743E-1,2.4294832E-1,-2.5118884E-1,4.6735294E-2,2.0826197E-1,9.518704E-2,1.7100437E-1,-5.986748E-3,-3.2836375E-1,-1.4559329E-1,-2.1151673E-2,-1.4884932E-1,-5.1261544E-1,-2.9099008E-1,-4.143935E-1,-2.4980257E-1,-2.4772032E-1,-1.6302842E-1],"split_indices":[5,5,4,2,4,6,6,0,6,0,2,0,2,0,4,4,5,3,0,2,0,4,2,2,0,0,0,2,3,2,2,0,0,4,2,0,0,0,0,3,0,6,0,0,0,0,0,0,0,0,0,0,0,0,0,0,0,0,0,0,0,0,0,0,0,0,0],"split_type":[0,0,0,0,0,0,0,0,0,0,0,0,0,0,0,0,0,0,0,0,0,0,0,0,0,0,0,0,0,0,0,0,0,0,0,0,0,0,0,0,0,0,0,0,0,0,0,0,0,0,0,0,0,0,0,0,0,0,0,0,0,0,0,0,0,0,0],"sum_hessian":[1.162E3,9.21E2,2.41E2,7.27E2,1.94E2,1.4E2,1.01E2,6E0,7.21E2,8.7E1,1.07E2,5.7E1,8.3E1,6.9E1,3.2E1,1.99E2,5.22E2,6.1E1,2.6E1,4.8E1,5.9E1,3E1,5.3E1,5.6E1,1.3E1,1.7E1,1.5E1,6.9E1,1.3E2,2.48E2,2.74E2,6E0,5.5E1,3.1E1,1.7E1,8E0,5.1E1,9E0,2.1E1,4.8E1,5E0,4.6E1,1E1,8E0,5E0,7E0,8E0,4.5E1,2.4E1,5.5E1,7.5E1,6E0,2.42E2,7.5E1,1.99E2,4.9E1,6E0,1.5E1,1.6E1,8E0,9E0,5E0,4.6E1,3.9E1,9E0,2.3E1,2.3E1],"tree_param":{"num_deleted":"0","num_feature":"8","num_nodes":"67","size_leaf_vector":"1"}},{"base_weights":[-1.786285E-1,-1.0834711E0,-7.03105E-2,-3.603838E0,3.2813045E-1,-2.4734616E0,-7.4439096E0,1.6624845E0,-1.5414973E-1,-1.388721E0,-6.4668026E0,-4.5690212E-1,-1.5145974E-1,-8.397814E-1,2.4970672E0,5.768854E0,-2.7651912E-1,2.5478643E-1,-4.218833E0,-2.3574674E0,-5.608136E-1,3.1027932E0,-2.5259943E0,5.091069E0,2.1264791E0,3.2871094E-1,1.6571054E-1,-1.6157279E0,-8.509135E-3,1.2259426E-1,-6.075528E-2,7.393391E-2,-2.7630302E-1,8.5988395E-2,-3.3689985E-1,2.1047811E-1,1.002532E-1,-7.1695E-2,-2.3099768E-1,3.44802E-1,1.9500956E-1,-3.92094E-2,1.1821926E-1,-1.8507169E-1,-3.5149988E-2,-7.308531E-2,2.4035249E-2],"categories":[],"categories_nodes":[],"categories_segments":[],"categories_sizes":[],"default_left":[0,0,0,0,0,0,0,0,0,0,0,0,0,0,0,0,0,0,0,0,0,0,0,0,0,0,0,0,0,0,0,0,0,0,0,0,0,0,0,0,0,0,0,0,0,0,0],"id":27,"left_children":[1,-1,3,5,7,9,11,13,15,17,19,-1,-1,21,23,25,27,29,31,33,-1,35,37,39,41,-1,-1,43,45,-1,-1,-1,-1,-1,-1,-1,-1,-1,-1,-1,-1,-1,-1,-1,-1,-1,-1],"loss_changes":[2.7850542E3,0E0,1.6811371E3,5.0582397E2,6.909175E2,4.0174908E2,1.730387E2,5.974418E2,5.7290875E2,3.5497086E2,3.625437E2,0E0,0E0,4.8643747E2,1.9417175E2,8.852966E0,2.7762894E2,1.6134837E2,2.171185E2,2.2641501E2,0E0,1.766661E1,1.0939691E2,2.791156E1,1.3288788E2,0E0,0E0,2.425325E2,4.6005795E2,0E0,0E0,0E0,0E0,0E0,0E0,0E0,0E0,0E0,0E0,0E0,0E0,0E0,0E0,0E0,0E0,0E0,0E0],"parents":[2147483647,0,0,2,2,3,3,4,4,5,5,6,6,7,7,8,8,9,9,10,10,13,13,14,14,15,15,16,16,17,17,18,18,19,19,21,21,22,22,23,23,24,24,27,27,28,28],"right_children":[2,-1,4,6,8,10,12,14,16,18,20,-1,-1,22,24,26,28,30,32,34,-1,36,38,40,42,-1,-1,44,46,-1,-1,-1,-1,-1,-1,-1,-1,-1,-1,-1,-1,-1,-1,-1,-1,-1,-1],"split_conditions":[7.21089E1,-1.0834711E0,9.8944954E1,2.0034341E2,-4.3388373E-1,9.749279E-1,2.2456648E2,1.6045303E2,8.045831E1,1.5626833E2,1.0216997E2,-4.5690212E-1,-1.5145974E-1,1.5721037E2,1.747626E2,6.234898E-1,0E0,1.5361363E2,1.1958808E2,8.6308754E1,-5.608136E-1,9.757088E1,2.1430733E2,1.5860748E2,1.4045306E2,3.2871094E-1,1.6571054E-1,1.7571516E2,1.4688484E2,1.2259426E-1,-6.075528E-2,7.393391E-2,-2.7630302E-1,8.5988395E-2,-3.3689985E-1,2.1047811E-1,1.002532E-1,-7.1695E-2,-2.3099768E-1,3.44802E-1,1.9500956E-1,-3.92094E-2,1.1821926E-1,-1.8507169E-1,-3.5149988E-2,-7.308531E-2,2.4035249E-2],"split_indices":[2,0,0,3,6,6,3,0,2,2,1,0,0,3,0,7,6,3,3,0,0,3,3,1,1,0,0,0,0,0,0,0,0,0,0,0,0,0,0,0,0,0,0,0,0,0,0],"split_type":[0,0,0,0,0,0,0,0,0,0,0,0,0,0,0,0,0,0,0,0,0,0,0,0,0,0,0,0,0,0,0,0,0,0,0,0,0,0,0,0,0,0,0,0,0,0,0],"sum_hessian":[1.197E3,5E0,1.192E3,1.2E2,1.072E3,9.4E1,2.6E1,2.84E2,7.88E2,7.5E1,1.9E1,1.8E1,8E0,7.1E1,2.13E2,1.5E1,7.73E2,4.8E1,2.7E1,1.1E1,8E0,2.1E1,5E1,2.5E1,1.88E2,1E1,5E0,1.28E2,6.45E2,1.9E1,2.9E1,5E0,2.2E1,6E0,5E0,9E0,1.2E1,3.4E1,1.6E1,8E0,1.7E1,1.4E1,1.74E2,3.8E1,9E1,1.62E2,4.83E2],"tree_param":{"num_deleted":"0","num_feature":"8","num_nodes":"47","size_leaf_vector":"1"}},{"base_weights":[-5.5257455E-2,2.1939437E0,-9.6150345E-1,3.3655813E0,1.7137296E0,-1.7542807E0,2.6090744E0,3.5109055E0,2.919501E-2,8.033109E-1,2.3510735E0,-3.944357E0,-7.717906E-1,-4.2322856E-1,3.0469701E0,3.9820333E0,2.4673667E0,1.8502989E0,2.819298E-1,2.4880288E0,1.1279184E0,2.5779963E0,-4.4239025E0,-5.9507614E-1,-6.2630635E-1,2.3083568E0,2.1487935E-1,2.2562058E-1,2.8321626E0,5.250962E-1,3.661164E0,3.6973348E0,6.1402434E-1,-2.6110062E-1,9.004082E-1,3.3854597E0,2.0559845E0,-2.9348567E-1,1.781253E-1,5.582992E-2,2.0371829E-1,-8.848049E0,-4.0607224E0,-2.1150274E0,2.3843129E-1,3.239985E0,-5.9394276E-1,1.8061842E-1,1.0032268E-1,8.614787E-2,-3.6674652E-2,1.0235848E-1,2.4495211E-1,2.2484486E-1,1.1776479E-1,6.324993E-2,-6.037889E-2,1.10305406E-1,6.231025E-3,2.2343838E-1,1.0639395E-1,4.9644943E-2,1.4484866E-1,-3.3690598E-2,5.954412E-3,-2.1142355E-1,-6.424637E-1,-1.8334544E-1,-3.8423076E-1,9.715381E-3,-1.5224798E-1,2.0071266E-2,-2.4873245E-1,2.009515E-1,-6.0670126E-2],"categories":[],"categories_nodes":[],"categories_segments":[],"categories_sizes":[],"default_left":[0,0,0,0,0,0,0,0,0,0,0,0,0,0,0,0,0,0,0,0,0,0,0,0,0,0,0,0,0,0,0,0,0,0,0,0,0,0,0,0,0,0,0,0,0,0,0,0,0,0,0,0,0,0,0,0,0,0,0,0,0,0,0,0,0,0,0,0,0,0,0,0,0,0,0],"id":28,"left_children":[1,3,5,7,9,11,13,15,-1,17,19,21,23,-1,25,27,29,31,33,35,37,39,41,-1,43,45,-1,-1,47,49,51,53,55,-1,57,59,61,63,-1,-1,-1,65,67,69,71,73,-1,-1,-1,-1,-1,-1,-1,-1,-1,-1,-1,-1,-1,-1,-1,-1,-1,-1,-1,-1,-1,-1,-1,-1,-1,-1,